################################################################################
# Neural network connection values (weights and biases).
################################################################################
# Col  Name       Description
################################################################################
# 1    connection Neural network connection value.
# 2    t          Connection type (a = weight, b = bias).
# 3    index      Index enumerating weights.
# 4    l_s        Starting point layer (end point layer for biases).
# 5    n_s        Starting point neuron in starting layer (end point neuron for biases).
# 6    l_e        End point layer.
# 7    n_e        End point neuron in end layer.
################################################################################
#                      1 2         3     4     5     6     7
#             connection t     index   l_s   n_s   l_e   n_e
############################################################
  1.2539155865352127E+00 a         1     0     1     1     1
  2.2490365890661286E+00 a         2     0     1     1     2
  4.9361851928374572E+00 a         3     0     1     1     3
 -2.3971991574908125E+00 a         4     0     1     1     4
 -1.8596992303156465E+00 a         5     0     1     1     5
  3.8287764168815897E+00 a         6     0     1     1     6
  7.4523181738636106E+00 a         7     0     1     1     7
  6.0971861116881998E+00 a         8     0     1     1     8
 -8.7239359226117639E+00 a         9     0     1     1     9
 -1.8255232070184267E+01 a        10     0     1     1    10
 -7.8065643887610179E+00 a        11     0     1     1    11
  1.4247237398130265E+01 a        12     0     1     1    12
 -3.2217879518334338E+00 a        13     0     1     1    13
 -5.7395252086520712E+00 a        14     0     1     1    14
  2.0353040522911576E+00 a        15     0     1     1    15
  7.7520578160630560E+00 a        16     0     1     1    16
  2.9357257867412252E+00 a        17     0     1     1    17
 -2.9719860930100790E+00 a        18     0     1     1    18
  8.9245382590288980E+00 a        19     0     1     1    19
  6.6848134049442169E+00 a        20     0     1     1    20
 -2.2992719903495891E+00 a        21     0     1     1    21
 -1.4401533482181721E+01 a        22     0     1     1    22
 -2.0574070545285186E+00 a        23     0     1     1    23
 -6.3544667277888678E+00 a        24     0     1     1    24
  3.9668360525851707E+00 a        25     0     1     1    25
  1.0930597297534963E+01 a        26     0     2     1     1
  3.0058866618169424E+00 a        27     0     2     1     2
 -4.9950943102999927E+00 a        28     0     2     1     3
 -1.9930957240687266E+00 a        29     0     2     1     4
  1.6790893133342006E+00 a        30     0     2     1     5
 -4.5254006136507128E+00 a        31     0     2     1     6
 -9.6165021729265252E+00 a        32     0     2     1     7
 -8.7465722730176285E+00 a        33     0     2     1     8
  1.5506950040431201E+01 a        34     0     2     1     9
  2.1903342918227118E+01 a        35     0     2     1    10
 -1.0685216745153280E+01 a        36     0     2     1    11
 -2.5859690636594280E+01 a        37     0     2     1    12
 -3.2423603491405122E+00 a        38     0     2     1    13
  5.3753900550878555E+00 a        39     0     2     1    14
 -3.0291935617567991E+00 a        40     0     2     1    15
 -1.3534893178408465E+01 a        41     0     2     1    16
 -5.7625138055631471E+00 a        42     0     2     1    17
  1.0216765318459601E+01 a        43     0     2     1    18
 -1.4416012930050949E+01 a        44     0     2     1    19
 -4.7226757471872144E-01 a        45     0     2     1    20
  7.8981385188798026E+00 a        46     0     2     1    21
  1.2202710023744410E+00 a        47     0     2     1    22
  8.0560891210932120E+00 a        48     0     2     1    23
  4.5972445013263297E-01 a        49     0     2     1    24
  1.3374237019728858E+01 a        50     0     2     1    25
 -1.0644910441621166E+01 a        51     0     3     1     1
 -5.6098794516515920E+00 a        52     0     3     1     2
 -1.0236653403367724E+01 a        53     0     3     1     3
  1.3552139405799508E+00 a        54     0     3     1     4
  1.3201025058567883E+00 a        55     0     3     1     5
  1.6531266759009673E+00 a        56     0     3     1     6
 -1.0303768926395865E+01 a        57     0     3     1     7
  1.9927521303470008E-01 a        58     0     3     1     8
  8.1216226663758366E+00 a        59     0     3     1     9
  2.1349555016157687E+01 a        60     0     3     1    10
  1.0105416692705148E+01 a        61     0     3     1    11
 -1.1444993918278378E+01 a        62     0     3     1    12
  2.9861675555209538E-01 a        63     0     3     1    13
  9.3552992513120543E+00 a        64     0     3     1    14
 -2.2844869025933630E+00 a        65     0     3     1    15
 -3.8047300595857316E+00 a        66     0     3     1    16
 -3.0512161452147448E+00 a        67     0     3     1    17
  2.7887340590896472E+00 a        68     0     3     1    18
 -1.5988439945122812E+01 a        69     0     3     1    19
 -1.6917164763280326E+01 a        70     0     3     1    20
  3.2170907488709326E+00 a        71     0     3     1    21
  2.1641888770160929E+01 a        72     0     3     1    22
  3.2604671723420497E+00 a        73     0     3     1    23
  1.5230689068493776E+01 a        74     0     3     1    24
 -1.4713830039823366E+01 a        75     0     3     1    25
 -2.3544214523969775E+00 a        76     0     4     1     1
 -5.8299691629399382E+00 a        77     0     4     1     2
  1.7168784391956539E+01 a        78     0     4     1     3
  1.0050003860864617E+01 a        79     0     4     1     4
  3.5168903759752812E+00 a        80     0     4     1     5
 -4.4828111046589010E+00 a        81     0     4     1     6
  1.8299193380051442E+01 a        82     0     4     1     7
  6.9717289110204188E+00 a        83     0     4     1     8
 -2.0364082994445859E+01 a        84     0     4     1     9
 -3.5062338388300589E+01 a        85     0     4     1    10
  1.8010375764887119E+01 a        86     0     4     1    11
  4.2133659287179640E+01 a        87     0     4     1    12
  1.1988736553417061E+01 a        88     0     4     1    13
 -1.2351529706885179E+01 a        89     0     4     1    14
  5.4139212296285057E+00 a        90     0     4     1    15
  1.6705967069968899E+01 a        91     0     4     1    16
  8.3219076874511639E+00 a        92     0     4     1    17
 -1.8555777504879448E+01 a        93     0     4     1    18
  3.1433889377775369E+01 a        94     0     4     1    19
  6.7043459658252780E-01 a        95     0     4     1    20
 -1.3837570456349678E+01 a        96     0     4     1    21
  5.0298368971353791E-01 a        97     0     4     1    22
 -2.2656240789613065E+01 a        98     0     4     1    23
 -2.4243684644962626E+00 a        99     0     4     1    24
 -2.8280330035212309E+01 a       100     0     4     1    25
  4.2306100814115322E+00 a       101     0     5     1     1
  9.9770374716830084E+00 a       102     0     5     1     2
  2.0487048112933808E+00 a       103     0     5     1     3
 -1.3702212470739978E+00 a       104     0     5     1     4
  2.8131124422603837E+00 a       105     0     5     1     5
  3.2845640151619522E-03 a       106     0     5     1     6
  2.4065616021196026E+00 a       107     0     5     1     7
 -1.0461000723401572E+01 a       108     0     5     1     8
 -1.0180720750329515E+01 a       109     0     5     1     9
 -8.8668996772076660E+00 a       110     0     5     1    10
  6.5256092481271502E+00 a       111     0     5     1    11
 -6.9831054240027211E+00 a       112     0     5     1    12
  4.0892074148312876E+00 a       113     0     5     1    13
 -5.1951354450201128E+00 a       114     0     5     1    14
  1.6657989141753051E+00 a       115     0     5     1    15
 -7.3542511663155619E+00 a       116     0     5     1    16
  5.1573102842565115E+00 a       117     0     5     1    17
  3.4929930175122172E+00 a       118     0     5     1    18
  2.5382184218789963E+00 a       119     0     5     1    19
  2.0045179007481050E+01 a       120     0     5     1    20
 -1.6165269676512768E+00 a       121     0     5     1    21
  2.4869117790922393E+00 a       122     0     5     1    22
  6.0131560843540068E+00 a       123     0     5     1    23
 -1.2231651850388728E+01 a       124     0     5     1    24
  3.5372450187997345E+01 a       125     0     5     1    25
 -1.0433252604911765E+01 a       126     0     6     1     1
 -2.3715834640656657E+00 a       127     0     6     1     2
 -1.8239608965373137E+01 a       128     0     6     1     3
 -3.6510816169583777E+00 a       129     0     6     1     4
 -1.7632327653119535E+01 a       130     0     6     1     5
  1.0040509177650593E+01 a       131     0     6     1     6
 -1.5407385349225459E+01 a       132     0     6     1     7
 -7.0553605774310779E-01 a       133     0     6     1     8
  1.3204892207903583E+01 a       134     0     6     1     9
  2.9596389655595953E+01 a       135     0     6     1    10
 -2.0620173259628203E+01 a       136     0     6     1    11
 -3.0803380363815094E+01 a       137     0     6     1    12
 -1.4917676387082279E+01 a       138     0     6     1    13
  9.6935054799166185E+00 a       139     0     6     1    14
  4.6937319413252743E+00 a       140     0     6     1    15
 -5.0263591258131060E+00 a       141     0     6     1    16
 -9.7243575590712439E+00 a       142     0     6     1    17
  1.5625340951727363E+01 a       143     0     6     1    18
 -2.8266776356585389E+01 a       144     0     6     1    19
  2.5386057418612946E+00 a       145     0     6     1    20
  1.6302330128073283E+01 a       146     0     6     1    21
 -8.5166226512297030E+00 a       147     0     6     1    22
  2.5040570504752605E+01 a       148     0     6     1    23
 -8.5008658358878897E-01 a       149     0     6     1    24
  2.0458930574550632E+01 a       150     0     6     1    25
  7.8529627796707677E+00 a       151     0     7     1     1
 -4.5279242985866821E+00 a       152     0     7     1     2
  4.7942839133231594E+00 a       153     0     7     1     3
 -6.2431002330064649E+00 a       154     0     7     1     4
  4.3358077462982054E+00 a       155     0     7     1     5
 -6.8037589596444281E+00 a       156     0     7     1     6
  1.8980667946224101E+00 a       157     0     7     1     7
  1.9802532239433695E+01 a       158     0     7     1     8
  8.4826746941006572E+00 a       159     0     7     1     9
  4.3614399548619884E+00 a       160     0     7     1    10
 -1.6073795583709572E+01 a       161     0     7     1    11
  1.6345358363876109E+01 a       162     0     7     1    12
 -8.4662611499242502E+00 a       163     0     7     1    13
  8.0952183951712298E-01 a       164     0     7     1    14
 -1.1658877435292819E+01 a       165     0     7     1    15
  1.3236001648494756E+01 a       166     0     7     1    16
 -1.2875720369407999E+01 a       167     0     7     1    17
 -2.0324369268053388E+00 a       168     0     7     1    18
  1.0874203669721311E+01 a       169     0     7     1    19
 -1.7284078771261807E+01 a       170     0     7     1    20
 -2.9714643625232693E+00 a       171     0     7     1    21
 -1.9329510057793893E+01 a       172     0     7     1    22
 -1.0307360045133033E+01 a       173     0     7     1    23
  4.2080100442235366E+00 a       174     0     7     1    24
 -3.8428801618815640E+01 a       175     0     7     1    25
 -5.7115809702208011E+00 a       176     0     8     1     1
  3.7056719936859976E+00 a       177     0     8     1     2
  1.3966886453850773E+01 a       178     0     8     1     3
  1.4914576601367306E+00 a       179     0     8     1     4
  2.3064842131482180E+01 a       180     0     8     1     5
 -7.9541458640647837E+00 a       181     0     8     1     6
  1.1404558568383607E+01 a       182     0     8     1     7
 -3.6573585449246653E+00 a       183     0     8     1     8
 -4.9561031023561952E+00 a       184     0     8     1     9
 -1.2066502127308031E+01 a       185     0     8     1    10
  1.1843534640137769E+01 a       186     0     8     1    11
  1.9616511468009570E+01 a       187     0     8     1    12
  1.3417323502712899E+01 a       188     0     8     1    13
 -4.0678344152400447E-01 a       189     0     8     1    14
 -1.9507569881192218E+01 a       190     0     8     1    15
 -6.5169441798944456E+00 a       191     0     8     1    16
  5.2178654198561141E+00 a       192     0     8     1    17
 -1.4240290695317738E+01 a       193     0     8     1    18
  2.1343226894748700E+01 a       194     0     8     1    19
 -2.7623196634808984E+00 a       195     0     8     1    20
 -9.2884558848667620E+00 a       196     0     8     1    21
  6.0789935054152480E+00 a       197     0     8     1    22
 -1.6374423786268370E+01 a       198     0     8     1    23
  2.1963692862828306E+00 a       199     0     8     1    24
 -1.6477619048440658E+01 a       200     0     8     1    25
 -5.4652541826246170E-01 a       201     0     9     1     1
  2.9686567892883864E+00 a       202     0     9     1     2
 -6.5132434460788122E+00 a       203     0     9     1     3
 -4.8064981499516870E+00 a       204     0     9     1     4
 -6.9010601385214585E+00 a       205     0     9     1     5
  6.0243408819244291E+00 a       206     0     9     1     6
 -4.7253212010125401E+00 a       207     0     9     1     7
  4.4892697548578031E+00 a       208     0     9     1     8
  2.8691390395969503E+00 a       209     0     9     1     9
  4.8905119819707235E+00 a       210     0     9     1    10
  8.0125760629983089E-01 a       211     0     9     1    11
 -7.1577963461867160E+00 a       212     0     9     1    12
 -7.1141706979801747E+00 a       213     0     9     1    13
 -9.2736585757849166E-01 a       214     0     9     1    14
  1.4028916807873271E+01 a       215     0     9     1    15
 -3.6974926166345901E-01 a       216     0     9     1    16
  1.1388278367792175E+00 a       217     0     9     1    17
 -6.0994976654902651E+00 a       218     0     9     1    18
 -8.0444468725663523E+00 a       219     0     9     1    19
  1.0211480086068931E+00 a       220     0     9     1    20
  8.7528435866785532E+00 a       221     0     9     1    21
 -5.2843722120300427E+00 a       222     0     9     1    22
  8.0008339624272278E+00 a       223     0     9     1    23
 -1.5207898046701156E+00 a       224     0     9     1    24
  2.7661111317119200E+00 a       225     0     9     1    25
 -7.8044247731064234E+00 a       226     0    10     1     1
  1.3132447209010347E+00 a       227     0    10     1     2
 -4.7278121268044551E+00 a       228     0    10     1     3
  3.6601689040473118E+00 a       229     0    10     1     4
 -9.6267150529386480E+00 a       230     0    10     1     5
  2.6091275381190444E+00 a       231     0    10     1     6
 -3.1848404329162414E+00 a       232     0    10     1     7
 -9.5389607349646521E+00 a       233     0    10     1     8
 -2.6987985247358575E+00 a       234     0    10     1     9
 -6.2833399930784530E+00 a       235     0    10     1    10
  1.6489253885816758E+01 a       236     0    10     1    11
 -1.7107772306689530E+01 a       237     0    10     1    12
  3.4088466354687279E+00 a       238     0    10     1    13
 -1.2348801832413381E+00 a       239     0    10     1    14
  1.0154267479292665E+01 a       240     0    10     1    15
 -6.0502934471257728E+00 a       241     0    10     1    16
  1.0160696494987546E+01 a       242     0    10     1    17
  2.4492206768318772E+00 a       243     0    10     1    18
 -7.3188978315096689E+00 a       244     0    10     1    19
  8.8753153140216963E+00 a       245     0    10     1    20
 -3.1414578717572117E+00 a       246     0    10     1    21
  1.1781935452921802E+01 a       247     0    10     1    22
  4.2162781958159847E+00 a       248     0    10     1    23
  6.3461905733038693E+00 a       249     0    10     1    24
  1.8925601045188980E+01 a       250     0    10     1    25
  4.6477877749677310E+00 a       251     0    11     1     1
 -1.6344868480777182E+00 a       252     0    11     1     2
  3.2048890105307217E+00 a       253     0    11     1     3
  3.0235679638931630E+00 a       254     0    11     1     4
  4.2225303889491732E+00 a       255     0    11     1     5
 -3.7068606308347563E+00 a       256     0    11     1     6
  1.9942469773127267E+00 a       257     0    11     1     7
 -7.5618287055529032E-02 a       258     0    11     1     8
 -4.3483903145704721E+00 a       259     0    11     1     9
 -6.4188170693407043E-01 a       260     0    11     1    10
 -1.7151247607053004E+00 a       261     0    11     1    11
  1.1831911154836730E+00 a       262     0    11     1    12
  8.5390777529689998E+00 a       263     0    11     1    13
 -1.2567544621838858E+00 a       264     0    11     1    14
 -6.5836237830818582E+00 a       265     0    11     1    15
  1.0147377375097664E+00 a       266     0    11     1    16
 -4.1323735892759546E+00 a       267     0    11     1    17
 -2.6316384615004618E-01 a       268     0    11     1    18
  2.4143335868624547E+00 a       269     0    11     1    19
  2.6061142983025900E+00 a       270     0    11     1    20
 -4.4998702636369865E+00 a       271     0    11     1    21
  1.3890302621242303E-02 a       272     0    11     1    22
 -7.8084731995076311E+00 a       273     0    11     1    23
 -1.2474549203322676E+00 a       274     0    11     1    24
  4.4163797527377591E-02 a       275     0    11     1    25
  2.8407201242614737E+00 a       276     0    12     1     1
  1.3632905709235899E-01 a       277     0    12     1     2
  1.2685237989280235E-01 a       278     0    12     1     3
  2.2654235227594675E+00 a       279     0    12     1     4
  2.5395548140674755E+00 a       280     0    12     1     5
 -9.3520481583438890E+00 a       281     0    12     1     6
 -1.9669962665207585E-01 a       282     0    12     1     7
  5.7045527454931977E-01 a       283     0    12     1     8
 -2.9864201174461678E+00 a       284     0    12     1     9
  3.9052149431886622E+00 a       285     0    12     1    10
 -9.0833042649786648E+00 a       286     0    12     1    11
  5.0812751299215018E+00 a       287     0    12     1    12
 -1.6164442006858799E+00 a       288     0    12     1    13
 -5.6075225833495623E-01 a       289     0    12     1    14
 -2.3615673680840406E+00 a       290     0    12     1    15
  3.0947011553478285E+00 a       291     0    12     1    16
 -8.3551823427496270E+00 a       292     0    12     1    17
  5.9941345197218849E+00 a       293     0    12     1    18
 -1.8953925485822552E-02 a       294     0    12     1    19
 -2.7547195481515581E+00 a       295     0    12     1    20
 -1.9804726751840331E+00 a       296     0    12     1    21
 -3.8317244940395995E-01 a       297     0    12     1    22
  4.8745188041841092E-01 a       298     0    12     1    23
 -8.4590760980141351E+00 a       299     0    12     1    24
  1.0766033918315021E+00 a       300     0    12     1    25
 -2.2091804164374422E+00 a       301     0    13     1     1
 -5.5101800091867448E-01 a       302     0    13     1     2
 -1.0329728270730296E+00 a       303     0    13     1     3
  3.9513433270607795E-01 a       304     0    13     1     4
  8.1753415524151574E-01 a       305     0    13     1     5
  1.0617142014915946E+00 a       306     0    13     1     6
  7.6430260193959443E-01 a       307     0    13     1     7
 -1.1879548313844361E+00 a       308     0    13     1     8
  3.8965303928245874E+00 a       309     0    13     1     9
 -1.9243989741788450E-01 a       310     0    13     1    10
  6.6899630526626697E-01 a       311     0    13     1    11
 -3.0409636682424569E-02 a       312     0    13     1    12
 -3.6696456050264934E+00 a       313     0    13     1    13
  6.4476959289475333E-01 a       314     0    13     1    14
  1.0941826410717908E+00 a       315     0    13     1    15
  9.1233922902211828E-01 a       316     0    13     1    16
  2.3380607653989314E+00 a       317     0    13     1    17
  1.4900790223732949E+00 a       318     0    13     1    18
  1.0175935823188792E-01 a       319     0    13     1    19
 -3.2833166264125635E-01 a       320     0    13     1    20
  2.2404532929727599E+00 a       321     0    13     1    21
  2.3015461275183751E+00 a       322     0    13     1    22
  2.9701302578874191E+00 a       323     0    13     1    23
  1.4884592608001286E+00 a       324     0    13     1    24
  6.5739654827696281E-01 a       325     0    13     1    25
 -4.0844724724706225E-02 a       326     0    14     1     1
  2.1132913535189823E+00 a       327     0    14     1     2
  1.6984674033189348E-01 a       328     0    14     1     3
  2.3602668915812313E+00 a       329     0    14     1     4
 -5.4150131953500802E-01 a       330     0    14     1     5
  7.1929135468647432E-01 a       331     0    14     1     6
 -8.6276394520437083E-01 a       332     0    14     1     7
 -3.0269268442401148E-01 a       333     0    14     1     8
  7.2004767041031992E-01 a       334     0    14     1     9
 -8.3403359555685590E+00 a       335     0    14     1    10
  2.5733568297832323E+00 a       336     0    14     1    11
 -6.6315509197147655E+00 a       337     0    14     1    12
 -5.5978389284457852E-01 a       338     0    14     1    13
 -1.6614855167111382E+00 a       339     0    14     1    14
  2.4806900600279209E+00 a       340     0    14     1    15
 -2.7654255445642080E+00 a       341     0    14     1    16
  5.9807541004471867E+00 a       342     0    14     1    17
 -1.4129213744863609E+00 a       343     0    14     1    18
 -1.2144347425099116E+00 a       344     0    14     1    19
  1.2585251121614049E+00 a       345     0    14     1    20
 -2.7494266150484548E-02 a       346     0    14     1    21
  1.6454999809576432E+00 a       347     0    14     1    22
 -2.8137449649914903E-01 a       348     0    14     1    23
  9.9245394839698200E+00 a       349     0    14     1    24
  2.5577330219319609E+00 a       350     0    14     1    25
  1.2522691243854331E+00 a       351     0    15     1     1
  7.8313784660978394E-02 a       352     0    15     1     2
  3.1763922073800611E-02 a       353     0    15     1     3
  3.4188945294744338E-02 a       354     0    15     1     4
 -8.6622970928039988E-01 a       355     0    15     1     5
  3.6860164239730122E+00 a       356     0    15     1     6
 -3.3949083435068763E+00 a       357     0    15     1     7
  6.0646320100112794E-01 a       358     0    15     1     8
 -1.7673251834962784E+00 a       359     0    15     1     9
 -5.3925118752606260E-01 a       360     0    15     1    10
 -1.0331348489132786E+00 a       361     0    15     1    11
 -2.0698850918329875E-01 a       362     0    15     1    12
 -1.2621725468122078E+00 a       363     0    15     1    13
 -2.0464390969411825E+00 a       364     0    15     1    14
  3.5254308731162348E-01 a       365     0    15     1    15
  3.9124440442557923E-01 a       366     0    15     1    16
 -7.7012371240908117E-01 a       367     0    15     1    17
  1.3359296738897253E-01 a       368     0    15     1    18
 -5.3020609669352542E-02 a       369     0    15     1    19
  1.7815933485647952E+00 a       370     0    15     1    20
 -1.8140219360009939E+00 a       371     0    15     1    21
 -2.4031367892025959E-01 a       372     0    15     1    22
 -1.0331886247762312E+00 a       373     0    15     1    23
 -4.0371034107321985E-01 a       374     0    15     1    24
  4.6695095033369494E-01 a       375     0    15     1    25
 -4.0996434431182510E-01 a       376     0    16     1     1
 -6.3274791882318870E-01 a       377     0    16     1     2
 -5.2519480263023562E-02 a       378     0    16     1     3
  2.7887880136245935E-01 a       379     0    16     1     4
  4.9317366216865666E-01 a       380     0    16     1     5
  5.9424828755867471E+00 a       381     0    16     1     6
 -2.2488215509134257E-01 a       382     0    16     1     7
  7.0605801275715885E-01 a       383     0    16     1     8
 -8.2163540811135860E-02 a       384     0    16     1     9
  2.0787775446114583E+00 a       385     0    16     1    10
 -2.1721897437058210E-01 a       386     0    16     1    11
  7.4402228127749348E-01 a       387     0    16     1    12
 -1.9304485045119268E-01 a       388     0    16     1    13
 -1.2399500754393407E-01 a       389     0    16     1    14
 -4.3737873376184684E-02 a       390     0    16     1    15
  4.6291172363105998E-01 a       391     0    16     1    16
 -4.2151918315290882E-01 a       392     0    16     1    17
  8.8573061946292186E-01 a       393     0    16     1    18
 -4.9018291809706446E-03 a       394     0    16     1    19
  2.1600118766284740E-01 a       395     0    16     1    20
 -6.0921360921956091E-01 a       396     0    16     1    21
  3.7680398153138250E-01 a       397     0    16     1    22
  3.9538220416849512E-01 a       398     0    16     1    23
  7.1514131111918777E+00 a       399     0    16     1    24
  1.8273026350401467E+00 a       400     0    16     1    25
  3.7215329658563528E-01 a       401     0    17     1     1
 -4.6179059447012316E-01 a       402     0    17     1     2
  1.5899087171699287E+00 a       403     0    17     1     3
  1.7518250015346359E+00 a       404     0    17     1     4
 -3.3536813319312186E-01 a       405     0    17     1     5
 -4.2278010405207027E+00 a       406     0    17     1     6
 -8.5243820518804692E-01 a       407     0    17     1     7
  9.0881598247646100E-01 a       408     0    17     1     8
  3.8965208905715447E+00 a       409     0    17     1     9
  5.6011288360587919E-01 a       410     0    17     1    10
 -5.2836813948608186E-01 a       411     0    17     1    11
 -3.0140016204698079E+00 a       412     0    17     1    12
 -1.9797293270131460E+00 a       413     0    17     1    13
  6.0697489937941917E-01 a       414     0    17     1    14
 -2.1005255233620201E+00 a       415     0    17     1    15
  2.9763262730586608E+00 a       416     0    17     1    16
  4.9371027939296888E-02 a       417     0    17     1    17
  7.7947575427479343E-01 a       418     0    17     1    18
 -1.6149233512425079E+00 a       419     0    17     1    19
 -7.3629998317838286E-01 a       420     0    17     1    20
  5.8782288151755957E-01 a       421     0    17     1    21
  2.9962120057051194E+00 a       422     0    17     1    22
 -6.0090267757936966E-01 a       423     0    17     1    23
  1.7409609229829246E+00 a       424     0    17     1    24
  3.3020654831076395E+00 a       425     0    17     1    25
 -1.2816721217899969E+01 a       426     0    18     1     1
  1.0436514261209778E+01 a       427     0    18     1     2
 -1.0151319671000456E+01 a       428     0    18     1     3
 -3.6976525545097716E+00 a       429     0    18     1     4
  2.7730233584286434E+00 a       430     0    18     1     5
  1.2077948655368917E+01 a       431     0    18     1     6
  2.9310682735219878E-01 a       432     0    18     1     7
  9.1301886461102555E+00 a       433     0    18     1     8
 -6.9113821449959776E+00 a       434     0    18     1     9
  5.1395229852384059E+00 a       435     0    18     1    10
  1.9015703072700905E+01 a       436     0    18     1    11
  6.2782884794967897E-01 a       437     0    18     1    12
 -1.1199030114408972E+00 a       438     0    18     1    13
  8.4078245944942065E+00 a       439     0    18     1    14
 -2.1970214523819944E+01 a       440     0    18     1    15
 -2.9639951656713857E+00 a       441     0    18     1    16
 -2.1307855911438480E+00 a       442     0    18     1    17
 -3.4033873099977683E+00 a       443     0    18     1    18
  7.7473570074768299E+00 a       444     0    18     1    19
  4.2436938561983428E+00 a       445     0    18     1    20
 -2.2299485919721440E+00 a       446     0    18     1    21
 -5.4685838991617004E+00 a       447     0    18     1    22
  4.1596479567520044E+00 a       448     0    18     1    23
  5.7827395639070400E-01 a       449     0    18     1    24
 -1.3238378482288077E+01 a       450     0    18     1    25
 -1.5376889656330761E+00 a       451     0    19     1     1
 -5.1783057661781051E-01 a       452     0    19     1     2
 -9.6241029842402326E-01 a       453     0    19     1     3
 -3.0836536522411823E-01 a       454     0    19     1     4
  4.4745903320325719E-01 a       455     0    19     1     5
  5.3498170837630878E+00 a       456     0    19     1     6
  1.8463477451296126E+00 a       457     0    19     1     7
 -3.0028303108002357E+00 a       458     0    19     1     8
 -7.6522954243804211E+00 a       459     0    19     1     9
  4.3455658713814698E+00 a       460     0    19     1    10
 -3.2051687848902133E+00 a       461     0    19     1    11
  5.9031887582745117E+00 a       462     0    19     1    12
  1.7182826335134822E+00 a       463     0    19     1    13
 -1.1087850989792540E+00 a       464     0    19     1    14
  6.5459467139243510E-01 a       465     0    19     1    15
 -8.6846968032549032E-01 a       466     0    19     1    16
  7.7880149625881245E-01 a       467     0    19     1    17
  3.7923435729638755E-01 a       468     0    19     1    18
 -4.1156418175788360E-03 a       469     0    19     1    19
  1.5121918856212993E-01 a       470     0    19     1    20
  5.3975394808394794E-01 a       471     0    19     1    21
 -1.0682250482164672E+00 a       472     0    19     1    22
 -1.3751142356632712E-02 a       473     0    19     1    23
 -4.4286268574519063E+00 a       474     0    19     1    24
 -3.8680702159397593E+00 a       475     0    19     1    25
  1.2333171905058354E+01 a       476     0    20     1     1
 -1.2248288905309629E+01 a       477     0    20     1     2
  1.1695817130234104E+01 a       478     0    20     1     3
 -7.8785015084941037E+00 a       479     0    20     1     4
 -1.4385700790662661E+01 a       480     0    20     1     5
 -6.3617417012959558E+00 a       481     0    20     1     6
 -1.1937360895545199E+00 a       482     0    20     1     7
 -9.1684602521855272E+00 a       483     0    20     1     8
  1.9669228421457884E+01 a       484     0    20     1     9
 -1.5792577099561850E+01 a       485     0    20     1    10
 -7.6432398066341323E+00 a       486     0    20     1    11
 -1.0108096567461985E+01 a       487     0    20     1    12
  8.8060728526554204E+00 a       488     0    20     1    13
 -1.0427209148169657E+01 a       489     0    20     1    14
  3.1308828557374330E+01 a       490     0    20     1    15
  6.1661737865740118E-01 a       491     0    20     1    16
  1.2939893767446456E+01 a       492     0    20     1    17
 -1.5461694126933636E+00 a       493     0    20     1    18
 -1.2038322196001923E+01 a       494     0    20     1    19
 -1.1053447086628237E+01 a       495     0    20     1    20
 -3.6646931967187752E+00 a       496     0    20     1    21
  4.3536703302367634E+00 a       497     0    20     1    22
 -9.5740042206319895E+00 a       498     0    20     1    23
  6.5506713146493221E+00 a       499     0    20     1    24
  1.7996563040005302E+01 a       500     0    20     1    25
 -6.2233520157604687E+00 a       501     0    21     1     1
  1.2582110687675435E+01 a       502     0    21     1     2
  9.2384881293313938E+00 a       503     0    21     1     3
  1.7728059851918401E+00 a       504     0    21     1     4
  3.6362985878777967E+00 a       505     0    21     1     5
  3.2556969315744624E+01 a       506     0    21     1     6
 -3.1199993872880469E+00 a       507     0    21     1     7
 -9.8648099790168031E-01 a       508     0    21     1     8
  3.0415184443561860E+00 a       509     0    21     1     9
  9.0132436362301132E+00 a       510     0    21     1    10
  1.2467154046410556E+01 a       511     0    21     1    11
 -1.0022834816628277E+01 a       512     0    21     1    12
  1.2841138513527113E+01 a       513     0    21     1    13
 -1.7792021756823460E+00 a       514     0    21     1    14
  7.3091411430574293E-01 a       515     0    21     1    15
 -1.0724499121880873E+01 a       516     0    21     1    16
  1.6112171497612238E+01 a       517     0    21     1    17
 -1.7406158632935846E+01 a       518     0    21     1    18
  5.3916736388765214E+00 a       519     0    21     1    19
 -7.7225460422381653E+00 a       520     0    21     1    20
  2.3021534467146760E+00 a       521     0    21     1    21
  1.3406099145213464E+01 a       522     0    21     1    22
 -1.2054205801151265E+00 a       523     0    21     1    23
  9.7306420210947220E+00 a       524     0    21     1    24
 -4.6445749018946547E-01 a       525     0    21     1    25
  8.7918872659331615E-01 a       526     0    22     1     1
 -7.6117540134922406E+00 a       527     0    22     1     2
 -4.8478661221876749E+00 a       528     0    22     1     3
  1.4617626439797988E+00 a       529     0    22     1     4
 -1.5455882316982803E+01 a       530     0    22     1     5
 -4.6137715289223786E+00 a       531     0    22     1     6
  2.3546419033386115E-01 a       532     0    22     1     7
  2.1761110510614574E+00 a       533     0    22     1     8
 -5.1677977620532154E+00 a       534     0    22     1     9
 -1.4882285697135211E+01 a       535     0    22     1    10
  1.0301372492313179E-01 a       536     0    22     1    11
  4.7250270523796614E+00 a       537     0    22     1    12
 -3.9540977630973981E+00 a       538     0    22     1    13
  3.7572869870669962E-02 a       539     0    22     1    14
  5.7824523539218378E+00 a       540     0    22     1    15
  1.5920937063840029E+01 a       541     0    22     1    16
 -6.4457401331127953E+00 a       542     0    22     1    17
  1.4760098673939730E+01 a       543     0    22     1    18
 -3.1851966722140621E+00 a       544     0    22     1    19
 -6.5612349589638175E-01 a       545     0    22     1    20
 -6.0605595342603724E+00 a       546     0    22     1    21
  2.4885037228656932E+00 a       547     0    22     1    22
  7.1329940025026239E+00 a       548     0    22     1    23
  4.1374739319645739E+00 a       549     0    22     1    24
  3.6029016264835967E+00 a       550     0    22     1    25
  1.2363607231182684E+01 a       551     0    23     1     1
 -7.3434070317286881E+00 a       552     0    23     1     2
 -2.5771398444943060E+01 a       553     0    23     1     3
  7.9447100884094723E+00 a       554     0    23     1     4
  1.1236370652932257E+01 a       555     0    23     1     5
 -3.2693616781814541E+00 a       556     0    23     1     6
  5.1726287293391264E+00 a       557     0    23     1     7
 -4.3839166070810434E+00 a       558     0    23     1     8
 -1.2567878212324985E+01 a       559     0    23     1     9
  7.6963978006043920E-01 a       560     0    23     1    10
 -9.6823335725588286E+00 a       561     0    23     1    11
  2.6373675368069843E+01 a       562     0    23     1    12
 -1.9268994406736752E+01 a       563     0    23     1    13
  9.9570415954549052E+00 a       564     0    23     1    14
 -8.3061207224239642E-01 a       565     0    23     1    15
  2.2416229924934652E+00 a       566     0    23     1    16
 -1.8618841390677670E+01 a       567     0    23     1    17
  1.1285982635789344E+01 a       568     0    23     1    18
 -9.1025674570559403E+00 a       569     0    23     1    19
  1.0247105434841757E+01 a       570     0    23     1    20
  1.1883653296768234E+01 a       571     0    23     1    21
 -9.7582716153093809E+00 a       572     0    23     1    22
  1.5602371016441694E+00 a       573     0    23     1    23
 -2.9851501138691745E+01 a       574     0    23     1    24
 -1.8903447907877968E+01 a       575     0    23     1    25
  4.7794864082498059E+00 a       576     0    24     1     1
  7.9854265208273789E+00 a       577     0    24     1     2
  9.9574318123278225E+00 a       578     0    24     1     3
  5.6224088183628771E+00 a       579     0    24     1     4
  6.8665727047098404E+00 a       580     0    24     1     5
 -1.8965069809691805E+01 a       581     0    24     1     6
 -2.6421877330866237E+00 a       582     0    24     1     7
  2.4625070145486490E-02 a       583     0    24     1     8
 -2.6693235701328684E+00 a       584     0    24     1     9
  5.4728246982445574E+00 a       585     0    24     1    10
 -1.2171367932487710E+01 a       586     0    24     1    11
 -6.8682042213632037E+00 a       587     0    24     1    12
  2.6512863194146683E+00 a       588     0    24     1    13
 -3.9973556043849836E+00 a       589     0    24     1    14
 -9.3205728660463871E-01 a       590     0    24     1    15
  3.2324916643329225E+00 a       591     0    24     1    16
 -6.8039737193603345E-01 a       592     0    24     1    17
 -4.6642556009879454E+00 a       593     0    24     1    18
  5.4630234415035872E+00 a       594     0    24     1    19
 -7.7295749341472297E-01 a       595     0    24     1    20
 -1.8620645226195232E+00 a       596     0    24     1    21
  3.0871020003395331E+00 a       597     0    24     1    22
 -2.9531926287649015E+00 a       598     0    24     1    23
  3.3257855485405221E+00 a       599     0    24     1    24
  1.2804435513171249E+01 a       600     0    24     1    25
  2.3360099536244165E+00 a       601     0    25     1     1
 -6.9215341802863772E+00 a       602     0    25     1     2
 -5.9116329105078513E+00 a       603     0    25     1     3
 -9.3715628057287557E+00 a       604     0    25     1     4
  7.8009930032983343E-02 a       605     0    25     1     5
 -1.3948874121311254E+01 a       606     0    25     1     6
  3.6551397861519712E+00 a       607     0    25     1     7
 -2.7007034003519794E+00 a       608     0    25     1     8
  7.1402704530469387E+00 a       609     0    25     1     9
  5.4591337137198448E-01 a       610     0    25     1    10
  2.5018603182300429E-02 a       611     0    25     1    11
  1.1202938490196342E+01 a       612     0    25     1    12
 -1.2762286571383612E+00 a       613     0    25     1    13
  5.4150263035162389E+00 a       614     0    25     1    14
 -2.3878760919535877E+00 a       615     0    25     1    15
 -2.3641671060547437E-01 a       616     0    25     1    16
 -3.5238751019043510E+00 a       617     0    25     1    17
 -2.5320654329006342E+00 a       618     0    25     1    18
 -3.6122736073834485E+00 a       619     0    25     1    19
  2.0131984362076700E+00 a       620     0    25     1    20
  3.4236490202245986E+00 a       621     0    25     1    21
 -7.6747580583977593E+00 a       622     0    25     1    22
 -1.0435428931415499E+01 a       623     0    25     1    23
 -1.0695841064866968E+01 a       624     0    25     1    24
  3.3551318979354909E+00 a       625     0    25     1    25
 -1.0344973684340230E+01 a       626     0    26     1     1
 -7.4350553321899893E-01 a       627     0    26     1     2
  1.7667157429228766E+01 a       628     0    26     1     3
 -4.6108734048138764E+00 a       629     0    26     1     4
  6.3937736609746221E-02 a       630     0    26     1     5
  1.5342947379458792E+01 a       631     0    26     1     6
 -6.4528006594361675E-01 a       632     0    26     1     7
  6.9773139084411318E+00 a       633     0    26     1     8
 -7.3289379808937494E-01 a       634     0    26     1     9
  5.7548454383600136E+00 a       635     0    26     1    10
  5.9179774109252632E+00 a       636     0    26     1    11
 -1.3770375900939747E+01 a       637     0    26     1    12
  2.0873585599320990E+00 a       638     0    26     1    13
 -6.0076166857094950E+00 a       639     0    26     1    14
 -8.2130419178172858E+00 a       640     0    26     1    15
 -4.0870535570606474E+00 a       641     0    26     1    16
  1.1579926878779212E+01 a       642     0    26     1    17
 -4.0595881715985254E+00 a       643     0    26     1    18
  5.8540332988673871E+00 a       644     0    26     1    19
  1.0918878759932484E+00 a       645     0    26     1    20
 -3.3956586079707054E+00 a       646     0    26     1    21
 -1.1479956194037473E+00 a       647     0    26     1    22
  7.6447151060018284E+00 a       648     0    26     1    23
  2.0459888519812747E+01 a       649     0    26     1    24
 -2.9646390066955242E+00 a       650     0    26     1    25
  1.0557201353673278E+00 a       651     0    27     1     1
 -2.2274450808972343E-01 a       652     0    27     1     2
 -9.3455755804614160E+00 a       653     0    27     1     3
 -1.6792256036928275E+00 a       654     0    27     1     4
 -4.1816350915661706E+00 a       655     0    27     1     5
 -5.2575727529046663E+00 a       656     0    27     1     6
 -5.2935609414405560E-02 a       657     0    27     1     7
  1.8810690832899990E-02 a       658     0    27     1     8
  4.9348443482277904E-01 a       659     0    27     1     9
 -5.5944159034279317E-01 a       660     0    27     1    10
 -1.7015569047901284E+00 a       661     0    27     1    11
  1.6778904609860019E+00 a       662     0    27     1    12
  1.4268720505875450E+00 a       663     0    27     1    13
  2.1077918072718194E+00 a       664     0    27     1    14
  7.5801210894464177E-01 a       665     0    27     1    15
  5.2788372995446597E-01 a       666     0    27     1    16
 -1.3410214813750436E+00 a       667     0    27     1    17
  2.6525490052949818E-01 a       668     0    27     1    18
 -2.8085051830257679E-01 a       669     0    27     1    19
 -1.4748033138608601E+00 a       670     0    27     1    20
  3.0529767339710134E-01 a       671     0    27     1    21
  3.6363122015631755E-01 a       672     0    27     1    22
 -7.7594432932094759E-01 a       673     0    27     1    23
 -6.6321818395459555E+00 a       674     0    27     1    24
 -1.5617564927377026E+00 a       675     0    27     1    25
  1.2543603121613276E+00 b       676     1     1
 -2.2927495150883226E-01 b       677     1     2
 -2.3252649348551384E+00 b       678     1     3
 -2.6486346266611743E-01 b       679     1     4
 -1.6538110208437689E+00 b       680     1     5
  2.9346000949301749E+00 b       681     1     6
  1.7805506387833985E+00 b       682     1     7
 -5.6690103732543140E-01 b       683     1     8
 -6.2486173701798398E-01 b       684     1     9
 -3.7240900824290957E-01 b       685     1    10
 -6.3073178569822352E-01 b       686     1    11
 -8.0598419230069648E-02 b       687     1    12
 -1.1892095206974624E+00 b       688     1    13
  1.3725453632853692E+00 b       689     1    14
  4.4831989249466692E-01 b       690     1    15
  1.1778820954688429E+00 b       691     1    16
  1.2073919524857220E+00 b       692     1    17
  5.6253191592422314E-01 b       693     1    18
  6.4941608158776098E-01 b       694     1    19
  1.2347905502178109E+00 b       695     1    20
  5.9346048557423536E-01 b       696     1    21
  6.4646182813960484E-01 b       697     1    22
 -7.6370495763210078E-01 b       698     1    23
  1.9686378017108441E+00 b       699     1    24
  1.0680673044425653E+00 b       700     1    25
  1.4594180881055727E+00 a       701     1     1     2     1
  1.5365534415590593E-01 a       702     1     1     2     2
  1.2716222275391131E+00 a       703     1     1     2     3
  7.7880702831611026E-02 a       704     1     1     2     4
 -1.3595126555752171E+00 a       705     1     1     2     5
  1.8577989345148338E+00 a       706     1     1     2     6
 -2.4288315949473169E+00 a       707     1     1     2     7
  8.9220943694387922E-01 a       708     1     1     2     8
 -1.2790242633099080E+00 a       709     1     1     2     9
  8.9816215033932290E-01 a       710     1     1     2    10
  1.0437682789133405E+00 a       711     1     1     2    11
 -2.1841360825100695E-01 a       712     1     1     2    12
 -1.0322042495993708E+00 a       713     1     1     2    13
 -5.5696429548906812E-01 a       714     1     1     2    14
 -1.5593064259737546E+00 a       715     1     1     2    15
 -3.1077239299477250E-01 a       716     1     1     2    16
 -5.1662487915245203E-01 a       717     1     1     2    17
 -4.4080355765868079E-01 a       718     1     1     2    18
  2.8554382665336435E+00 a       719     1     1     2    19
  1.2965885840799994E-02 a       720     1     1     2    20
 -8.2522237906046214E-01 a       721     1     1     2    21
  3.5901971403443272E-01 a       722     1     1     2    22
  2.6936242508953034E+00 a       723     1     1     2    23
 -1.2849019754079158E+00 a       724     1     1     2    24
  8.2861779580995576E-01 a       725     1     1     2    25
  1.0719197982105746E+00 a       726     1     2     2     1
  6.4368553162443476E-01 a       727     1     2     2     2
 -1.0015886909820451E+00 a       728     1     2     2     3
 -6.8191613195651618E-02 a       729     1     2     2     4
  7.2674228322735146E-01 a       730     1     2     2     5
 -1.7573496877427459E+00 a       731     1     2     2     6
  2.6450957568279948E-01 a       732     1     2     2     7
 -6.0959728011597525E-01 a       733     1     2     2     8
 -3.1772594457996151E-01 a       734     1     2     2     9
 -1.2773013338753241E+00 a       735     1     2     2    10
  6.8736118082422348E-01 a       736     1     2     2    11
  4.4110197874618340E-01 a       737     1     2     2    12
  1.0323670003842877E+00 a       738     1     2     2    13
 -1.0286975902661349E-01 a       739     1     2     2    14
 -2.6792225965340805E-01 a       740     1     2     2    15
 -7.3839775332694924E-01 a       741     1     2     2    16
  1.6185767840077056E-01 a       742     1     2     2    17
 -5.0013229655885350E-01 a       743     1     2     2    18
 -5.6099349730305503E-01 a       744     1     2     2    19
  1.9552145303074811E-01 a       745     1     2     2    20
  1.7846161993800158E+00 a       746     1     2     2    21
 -4.8130848458800529E-01 a       747     1     2     2    22
 -1.8375371441275692E+00 a       748     1     2     2    23
  2.2280937013746720E+00 a       749     1     2     2    24
 -6.4075230693965046E-01 a       750     1     2     2    25
  1.0241851444185640E+01 a       751     1     3     2     1
  1.7030840528329511E-01 a       752     1     3     2     2
  8.7386754821063384E-01 a       753     1     3     2     3
  1.2474534163745070E+00 a       754     1     3     2     4
  8.8318954368994584E-01 a       755     1     3     2     5
 -1.4672120275811322E+00 a       756     1     3     2     6
  1.3096477208958901E+00 a       757     1     3     2     7
  3.0312337023215772E+00 a       758     1     3     2     8
  1.3470610254760440E+00 a       759     1     3     2     9
 -3.3809547115308263E+00 a       760     1     3     2    10
 -3.6964777922845643E-01 a       761     1     3     2    11
 -5.1137005263470792E-01 a       762     1     3     2    12
 -8.6703927818536952E-01 a       763     1     3     2    13
 -1.4428190046837878E-03 a       764     1     3     2    14
 -1.9661789504315588E+00 a       765     1     3     2    15
  1.0507109233530159E+00 a       766     1     3     2    16
 -1.3276179729772277E+00 a       767     1     3     2    17
  4.4516146444556357E+00 a       768     1     3     2    18
  1.1536944375048062E+00 a       769     1     3     2    19
 -2.2217977618823750E+00 a       770     1     3     2    20
  9.4271790445219139E-01 a       771     1     3     2    21
  2.5744616980454099E-01 a       772     1     3     2    22
 -9.9691709890058755E-01 a       773     1     3     2    23
 -1.3771566894481431E+00 a       774     1     3     2    24
 -2.2445703137500894E+00 a       775     1     3     2    25
  1.5699777139804288E-01 a       776     1     4     2     1
 -2.4739909713406422E-01 a       777     1     4     2     2
  6.0945334029172793E-01 a       778     1     4     2     3
  1.1991732305097107E+00 a       779     1     4     2     4
  7.6752737798279991E-01 a       780     1     4     2     5
 -1.2176036327912749E+00 a       781     1     4     2     6
  9.0286393495899153E-01 a       782     1     4     2     7
 -5.6395546613738842E-02 a       783     1     4     2     8
  5.0557753137815109E-01 a       784     1     4     2     9
 -4.4495088550260570E-01 a       785     1     4     2    10
  6.2104957984648756E-01 a       786     1     4     2    11
  3.3501389647440200E-01 a       787     1     4     2    12
 -2.7325439440571269E+00 a       788     1     4     2    13
  5.2584673556777350E-01 a       789     1     4     2    14
  1.3429005280378536E+00 a       790     1     4     2    15
 -4.5937498220629874E-01 a       791     1     4     2    16
  1.7266119501505457E+00 a       792     1     4     2    17
  1.4851537385892768E+00 a       793     1     4     2    18
  4.9230003793123539E-01 a       794     1     4     2    19
  8.1632865980176739E-01 a       795     1     4     2    20
 -1.9154967284098789E-01 a       796     1     4     2    21
 -3.6956160611354422E-01 a       797     1     4     2    22
 -3.6482742790056100E-01 a       798     1     4     2    23
  1.0484022012860530E+00 a       799     1     4     2    24
 -1.7235438271765644E+00 a       800     1     4     2    25
 -3.2907844786243623E+00 a       801     1     5     2     1
  4.4558341037111998E-01 a       802     1     5     2     2
 -8.8865795206574982E-01 a       803     1     5     2     3
 -3.4703449096997305E+00 a       804     1     5     2     4
  1.9569540374092412E-01 a       805     1     5     2     5
  2.2160747636990812E+00 a       806     1     5     2     6
  3.4472185629168250E-01 a       807     1     5     2     7
 -1.1074312927207139E+00 a       808     1     5     2     8
  5.1827475014688007E-01 a       809     1     5     2     9
 -3.1128520969656615E-01 a       810     1     5     2    10
  6.5563850101225896E-01 a       811     1     5     2    11
  3.3247399064015698E-01 a       812     1     5     2    12
 -4.8120090829752646E+00 a       813     1     5     2    13
  9.1367243408463188E-03 a       814     1     5     2    14
 -1.8390860323325349E+00 a       815     1     5     2    15
 -9.6722898424964884E-02 a       816     1     5     2    16
  2.1623044756649634E-01 a       817     1     5     2    17
  1.8139812909720721E+00 a       818     1     5     2    18
  1.0079084840050438E+00 a       819     1     5     2    19
 -1.3705717763671377E+00 a       820     1     5     2    20
  1.1484147924904438E+00 a       821     1     5     2    21
 -1.9124900049764464E+00 a       822     1     5     2    22
  1.7189138910264795E-01 a       823     1     5     2    23
 -7.9392910771154301E-01 a       824     1     5     2    24
 -2.6489999419262034E-01 a       825     1     5     2    25
  2.5624626562468347E+00 a       826     1     6     2     1
  5.9614548067315298E-01 a       827     1     6     2     2
 -3.8659659575111305E+00 a       828     1     6     2     3
  3.8531737061864785E-01 a       829     1     6     2     4
 -8.9178684714629375E-01 a       830     1     6     2     5
 -1.6785558855996455E-01 a       831     1     6     2     6
  6.6144468012911251E+00 a       832     1     6     2     7
  4.4105923912480209E+00 a       833     1     6     2     8
  2.8949831912596469E-01 a       834     1     6     2     9
 -3.4638367622465811E+00 a       835     1     6     2    10
  6.6971866926592594E-01 a       836     1     6     2    11
 -7.2609240976252198E-01 a       837     1     6     2    12
 -1.2843323189569352E+01 a       838     1     6     2    13
  6.5115740114962435E+00 a       839     1     6     2    14
 -3.2365006495624264E+00 a       840     1     6     2    15
  2.8998337472602964E+00 a       841     1     6     2    16
 -9.5426565968503108E-01 a       842     1     6     2    17
  1.0389933132676583E+00 a       843     1     6     2    18
 -2.1163523577693755E+00 a       844     1     6     2    19
 -5.8155364801805209E+00 a       845     1     6     2    20
 -5.3697305253077579E+00 a       846     1     6     2    21
 -5.1144158102132380E+00 a       847     1     6     2    22
  1.2829874426509228E+01 a       848     1     6     2    23
 -4.0867590632246316E+00 a       849     1     6     2    24
  1.0933434381899787E+00 a       850     1     6     2    25
  2.3849997033672132E-01 a       851     1     7     2     1
 -1.8082506184158031E+00 a       852     1     7     2     2
  2.4732602405911406E+00 a       853     1     7     2     3
 -6.0103114538066793E-01 a       854     1     7     2     4
 -5.9954681389645592E-01 a       855     1     7     2     5
  9.9404987635228947E-01 a       856     1     7     2     6
 -6.2460704842682724E-01 a       857     1     7     2     7
  1.6778574135726465E-01 a       858     1     7     2     8
 -1.4512109685582537E+00 a       859     1     7     2     9
  7.7781274745649254E-01 a       860     1     7     2    10
 -2.5497093273765997E-01 a       861     1     7     2    11
 -1.2727575841297214E+00 a       862     1     7     2    12
  1.3737145640255147E+01 a       863     1     7     2    13
 -1.5987658112798067E+00 a       864     1     7     2    14
  2.2042361569677089E+00 a       865     1     7     2    15
  1.6482308479126571E+00 a       866     1     7     2    16
  8.7348319506398864E-01 a       867     1     7     2    17
  1.9155767755628972E+00 a       868     1     7     2    18
 -3.0984705789198412E+00 a       869     1     7     2    19
 -3.6288105134109871E+00 a       870     1     7     2    20
  5.4544741067093439E-01 a       871     1     7     2    21
  1.2017875224188410E+00 a       872     1     7     2    22
 -3.6732061900246443E-02 a       873     1     7     2    23
 -2.2864417011641551E+00 a       874     1     7     2    24
  2.0751547378295272E+00 a       875     1     7     2    25
 -3.6897542583690122E+00 a       876     1     8     2     1
  1.6464794875188755E+00 a       877     1     8     2     2
 -1.6903294317427878E-02 a       878     1     8     2     3
  8.5805116085044186E-01 a       879     1     8     2     4
 -8.9161757768590463E-02 a       880     1     8     2     5
 -9.9903928778618412E-01 a       881     1     8     2     6
 -9.2064685980338812E-01 a       882     1     8     2     7
 -1.4158341774041960E+00 a       883     1     8     2     8
  3.2248026254955575E-01 a       884     1     8     2     9
 -4.1800568471559668E-01 a       885     1     8     2    10
 -4.8805338095729628E-01 a       886     1     8     2    11
  1.1345294762503340E+00 a       887     1     8     2    12
 -1.1250934435189197E+00 a       888     1     8     2    13
  3.8511063123301570E-01 a       889     1     8     2    14
 -1.7044641353433568E-01 a       890     1     8     2    15
 -4.2752195209991600E-01 a       891     1     8     2    16
  1.3488187511243652E+00 a       892     1     8     2    17
  2.4403269163386748E-01 a       893     1     8     2    18
  2.0216642016194366E+00 a       894     1     8     2    19
  1.7161607920915306E-01 a       895     1     8     2    20
  3.6198240781392976E-01 a       896     1     8     2    21
  1.4857296400216574E-01 a       897     1     8     2    22
  1.3968573132893052E+00 a       898     1     8     2    23
 -1.9910303315289435E-01 a       899     1     8     2    24
 -9.7784609888672214E-01 a       900     1     8     2    25
 -1.2223242756379911E+00 a       901     1     9     2     1
 -4.3744831594928774E-01 a       902     1     9     2     2
  1.2923487913089118E-01 a       903     1     9     2     3
  2.9999366538684252E-01 a       904     1     9     2     4
 -4.9043153145672658E-01 a       905     1     9     2     5
  5.1991585092732140E-01 a       906     1     9     2     6
 -1.1717880708144914E+00 a       907     1     9     2     7
 -2.2108376178152582E+00 a       908     1     9     2     8
  5.4803528300841009E-01 a       909     1     9     2     9
  1.0290876298048343E-01 a       910     1     9     2    10
 -1.0050755109926608E-01 a       911     1     9     2    11
 -3.9677228369118622E-01 a       912     1     9     2    12
  9.1792155137618836E-01 a       913     1     9     2    13
  5.5399142138025503E-01 a       914     1     9     2    14
  9.3235909340364431E-01 a       915     1     9     2    15
 -1.6998626249329271E-01 a       916     1     9     2    16
  4.9047739617055502E-01 a       917     1     9     2    17
  1.5834153544337162E+00 a       918     1     9     2    18
 -1.4504208512124137E+00 a       919     1     9     2    19
 -1.1259681872097431E+00 a       920     1     9     2    20
  5.4971916278346833E-01 a       921     1     9     2    21
 -1.1681625755494254E+00 a       922     1     9     2    22
 -1.1666857377466462E+00 a       923     1     9     2    23
  9.4391324801943433E-01 a       924     1     9     2    24
  1.6460412821505890E+00 a       925     1     9     2    25
 -4.8241268097711805E+00 a       926     1    10     2     1
  7.7608088169675027E-01 a       927     1    10     2     2
  3.0725533373558985E-02 a       928     1    10     2     3
  1.7273040602998582E-01 a       929     1    10     2     4
 -8.3453052201133593E-01 a       930     1    10     2     5
  5.1887336147197549E-01 a       931     1    10     2     6
 -2.5442355116425284E+00 a       932     1    10     2     7
  1.6465683049142426E+00 a       933     1    10     2     8
  4.9557149622005192E-01 a       934     1    10     2     9
 -3.7235188885947218E-01 a       935     1    10     2    10
  5.4373948650342019E-01 a       936     1    10     2    11
 -7.0523807658120752E-01 a       937     1    10     2    12
  3.0421859521740662E+00 a       938     1    10     2    13
  3.1072482452082176E-02 a       939     1    10     2    14
 -1.7388083760523441E+00 a       940     1    10     2    15
 -5.0488919326784720E-01 a       941     1    10     2    16
 -4.1556771389004238E-01 a       942     1    10     2    17
  1.9599004921872892E-01 a       943     1    10     2    18
  4.0621964972672647E-01 a       944     1    10     2    19
  5.9422166296562096E-01 a       945     1    10     2    20
 -7.3709462934982051E-01 a       946     1    10     2    21
  6.7060322689935292E-01 a       947     1    10     2    22
 -1.2368437174276945E+00 a       948     1    10     2    23
  4.1715534262026482E-01 a       949     1    10     2    24
  7.6425832217227860E-02 a       950     1    10     2    25
  7.6204316569401270E-02 a       951     1    11     2     1
  5.1923891653008980E-01 a       952     1    11     2     2
 -2.3323035736153178E-01 a       953     1    11     2     3
  8.0786247674397216E-01 a       954     1    11     2     4
  5.4915827837479130E-03 a       955     1    11     2     5
  1.8949430899753919E-01 a       956     1    11     2     6
  9.8280844566622061E-01 a       957     1    11     2     7
 -6.4980124973270256E-02 a       958     1    11     2     8
  5.5829152803291393E-01 a       959     1    11     2     9
 -1.1213619664096590E+00 a       960     1    11     2    10
  7.0457921824782610E-01 a       961     1    11     2    11
  1.0235201243188761E+00 a       962     1    11     2    12
 -4.9329358100127163E-01 a       963     1    11     2    13
 -4.0014319272414542E-02 a       964     1    11     2    14
  3.7179242325207895E-01 a       965     1    11     2    15
  7.8373685085132305E-01 a       966     1    11     2    16
  9.2903895087770283E-01 a       967     1    11     2    17
  7.8090953411929565E-01 a       968     1    11     2    18
  1.2145534685538030E-01 a       969     1    11     2    19
  7.4100895285851753E-01 a       970     1    11     2    20
 -7.9996191597108024E-01 a       971     1    11     2    21
 -1.0336034984202382E+00 a       972     1    11     2    22
  3.7785839967778578E-01 a       973     1    11     2    23
 -1.5501982605341513E+00 a       974     1    11     2    24
 -1.5638876377168576E-01 a       975     1    11     2    25
 -4.0862357357947632E+00 a       976     1    12     2     1
 -4.5447860937015583E-01 a       977     1    12     2     2
  6.0978896114190961E-01 a       978     1    12     2     3
 -3.1234430855068102E-01 a       979     1    12     2     4
  7.1238475556186009E-01 a       980     1    12     2     5
 -5.0806809158602861E-01 a       981     1    12     2     6
  1.6975884201542528E+00 a       982     1    12     2     7
  5.9503629303958183E-01 a       983     1    12     2     8
 -1.1318629144078489E+00 a       984     1    12     2     9
 -9.5319931360502086E-01 a       985     1    12     2    10
 -4.1720127614679248E-01 a       986     1    12     2    11
 -1.9870221259422775E-02 a       987     1    12     2    12
 -1.1554153636616458E+00 a       988     1    12     2    13
  2.9172179472727477E-01 a       989     1    12     2    14
  1.2962080417528923E+00 a       990     1    12     2    15
  6.3120710248883072E-01 a       991     1    12     2    16
  4.6124525587351189E-01 a       992     1    12     2    17
 -3.2638990170430632E-01 a       993     1    12     2    18
 -8.5578386009581864E-01 a       994     1    12     2    19
  4.5034494849101464E-01 a       995     1    12     2    20
 -5.7009794317633844E-01 a       996     1    12     2    21
 -3.6296376055770369E-01 a       997     1    12     2    22
 -7.7180235088913951E-01 a       998     1    12     2    23
  2.9906825459554837E-01 a       999     1    12     2    24
  5.1547081854237442E-01 a      1000     1    12     2    25
 -7.1147171866038650E-01 a      1001     1    13     2     1
  2.5533616472015780E-01 a      1002     1    13     2     2
 -1.6805084143769664E+00 a      1003     1    13     2     3
 -1.4360279577151556E+00 a      1004     1    13     2     4
  1.6236981624756913E-01 a      1005     1    13     2     5
 -2.9986730480763552E-01 a      1006     1    13     2     6
  8.9644368547201847E-01 a      1007     1    13     2     7
 -3.1600174326085384E-01 a      1008     1    13     2     8
  6.6229418070725221E-01 a      1009     1    13     2     9
  8.8828349481781288E-01 a      1010     1    13     2    10
  1.4958089634861331E+00 a      1011     1    13     2    11
  4.2909779495412720E-01 a      1012     1    13     2    12
  3.2104451593420507E+00 a      1013     1    13     2    13
 -3.6430395248485636E-01 a      1014     1    13     2    14
 -1.5397347367606027E+00 a      1015     1    13     2    15
 -2.8540653890450796E-01 a      1016     1    13     2    16
 -9.4744403066936911E-01 a      1017     1    13     2    17
 -9.3063775358513945E-01 a      1018     1    13     2    18
 -1.1740757703838556E+00 a      1019     1    13     2    19
  3.0877516607240953E+00 a      1020     1    13     2    20
  4.1925229503721850E-01 a      1021     1    13     2    21
  8.6435718774619341E-01 a      1022     1    13     2    22
  6.1556706608264777E+00 a      1023     1    13     2    23
  9.3836879003947971E-01 a      1024     1    13     2    24
 -9.8383407514817875E-02 a      1025     1    13     2    25
 -1.6301594805577007E+00 a      1026     1    14     2     1
 -1.5668841832682863E+00 a      1027     1    14     2     2
  1.0864774409649187E+00 a      1028     1    14     2     3
  5.4679221520765209E-01 a      1029     1    14     2     4
 -2.5595346119405066E-01 a      1030     1    14     2     5
  2.5753638271899253E+00 a      1031     1    14     2     6
 -1.2060987925979026E-01 a      1032     1    14     2     7
  2.1872813485361081E-01 a      1033     1    14     2     8
  3.2146195516530540E-01 a      1034     1    14     2     9
  1.1328609031214638E+00 a      1035     1    14     2    10
  6.1533394331348246E-01 a      1036     1    14     2    11
 -5.4737671046525105E-01 a      1037     1    14     2    12
  1.1053993063535703E+00 a      1038     1    14     2    13
 -8.5533217578150822E-01 a      1039     1    14     2    14
  1.0442995577946410E+00 a      1040     1    14     2    15
  3.4775232765691383E-01 a      1041     1    14     2    16
  1.4598545739773818E+00 a      1042     1    14     2    17
 -6.1993931948399261E-01 a      1043     1    14     2    18
  7.3852685191309575E-01 a      1044     1    14     2    19
  4.5902009626552193E-01 a      1045     1    14     2    20
  1.2464402173099479E-01 a      1046     1    14     2    21
 -6.7358191994639882E-01 a      1047     1    14     2    22
  2.1039506751744477E+00 a      1048     1    14     2    23
  5.4851288860040280E-02 a      1049     1    14     2    24
  9.7489591141143539E-01 a      1050     1    14     2    25
 -2.1631968448494212E+00 a      1051     1    15     2     1
 -1.2727129430492068E-01 a      1052     1    15     2     2
  5.1091627066580747E-01 a      1053     1    15     2     3
  5.7534648199758043E-01 a      1054     1    15     2     4
 -1.2037493386091171E-01 a      1055     1    15     2     5
  7.5399155374626403E-01 a      1056     1    15     2     6
 -7.7261380985978678E-02 a      1057     1    15     2     7
 -6.7025079504583596E-01 a      1058     1    15     2     8
 -7.8883860754795421E-01 a      1059     1    15     2     9
  3.3888713523272701E-01 a      1060     1    15     2    10
  2.6385317181624623E-01 a      1061     1    15     2    11
 -1.2070172511181789E+00 a      1062     1    15     2    12
 -2.4873336888385603E-01 a      1063     1    15     2    13
 -3.8721462941389916E-02 a      1064     1    15     2    14
  3.0335144276674625E-01 a      1065     1    15     2    15
 -7.7679943247249666E-02 a      1066     1    15     2    16
  1.9243207289568867E+00 a      1067     1    15     2    17
  8.5144075649928463E-01 a      1068     1    15     2    18
  1.1835117649913056E+00 a      1069     1    15     2    19
  1.0314075791319242E+00 a      1070     1    15     2    20
  4.7979249547225589E-01 a      1071     1    15     2    21
 -5.4753258863123311E-01 a      1072     1    15     2    22
  4.2043672983497160E-01 a      1073     1    15     2    23
 -2.2100361146596743E+00 a      1074     1    15     2    24
  4.8022559923156283E-01 a      1075     1    15     2    25
  6.1043577181395725E-01 a      1076     1    16     2     1
 -2.2995879551535903E+00 a      1077     1    16     2     2
 -2.4125695056542629E+00 a      1078     1    16     2     3
  1.6401971344031188E+00 a      1079     1    16     2     4
  2.7596304155826910E+00 a      1080     1    16     2     5
 -1.7012960702445470E+00 a      1081     1    16     2     6
  5.8020616848999120E+00 a      1082     1    16     2     7
 -1.5987839635103624E+00 a      1083     1    16     2     8
  1.9202596834934125E+00 a      1084     1    16     2     9
  1.3609406382198073E+00 a      1085     1    16     2    10
  3.4521770240453185E+00 a      1086     1    16     2    11
  9.7625903603901429E-02 a      1087     1    16     2    12
 -3.0007838094883166E+00 a      1088     1    16     2    13
  5.8195191348921516E-01 a      1089     1    16     2    14
  1.8956029574690589E+00 a      1090     1    16     2    15
  2.3234817041452124E-01 a      1091     1    16     2    16
  1.1632750419735625E+00 a      1092     1    16     2    17
  3.4156738519131671E+00 a      1093     1    16     2    18
 -3.2336496919934206E+00 a      1094     1    16     2    19
 -7.3798227198293331E-01 a      1095     1    16     2    20
  3.3624363552486471E+00 a      1096     1    16     2    21
 -1.0132468162040502E+00 a      1097     1    16     2    22
  3.7056369669165354E-02 a      1098     1    16     2    23
 -1.8312393074518960E+00 a      1099     1    16     2    24
  4.5500578248263041E-01 a      1100     1    16     2    25
  2.2302269048313073E+00 a      1101     1    17     2     1
  1.6214906410771059E+00 a      1102     1    17     2     2
  1.6349509659918811E+00 a      1103     1    17     2     3
  5.4145408574619934E-02 a      1104     1    17     2     4
  4.3252906684142584E-01 a      1105     1    17     2     5
 -1.3736969218541635E+00 a      1106     1    17     2     6
  2.8184234047867172E+00 a      1107     1    17     2     7
  2.8896867628176515E+00 a      1108     1    17     2     8
  1.4299248969157874E-01 a      1109     1    17     2     9
  1.9927781151509179E+00 a      1110     1    17     2    10
  2.3711262701763500E+00 a      1111     1    17     2    11
  1.3223116695652687E-01 a      1112     1    17     2    12
 -3.4794814095323376E+00 a      1113     1    17     2    13
  1.1510988640273812E+00 a      1114     1    17     2    14
 -3.3985921784982023E+00 a      1115     1    17     2    15
  1.0076465563953010E+00 a      1116     1    17     2    16
 -8.3104650289513449E-01 a      1117     1    17     2    17
  1.3398030994767187E+00 a      1118     1    17     2    18
  3.8575481988101741E+00 a      1119     1    17     2    19
 -8.6313597613197934E-01 a      1120     1    17     2    20
  1.0420089629653122E+00 a      1121     1    17     2    21
 -8.3635927268506283E-01 a      1122     1    17     2    22
  2.9149953695805464E+00 a      1123     1    17     2    23
  2.4188178674036467E-01 a      1124     1    17     2    24
 -1.0422371721462642E+00 a      1125     1    17     2    25
 -9.8074696676452633E-01 a      1126     1    18     2     1
 -7.0261356217276538E-01 a      1127     1    18     2     2
 -1.5539162592863331E+00 a      1128     1    18     2     3
  2.5663709887311525E-01 a      1129     1    18     2     4
  1.1790597159349452E+00 a      1130     1    18     2     5
 -5.1283413704919667E-01 a      1131     1    18     2     6
  2.8209081194780357E+00 a      1132     1    18     2     7
 -2.9530441812628777E-01 a      1133     1    18     2     8
  1.1911675111813969E+00 a      1134     1    18     2     9
 -7.1781562917361630E-01 a      1135     1    18     2    10
  7.5615420324814075E-01 a      1136     1    18     2    11
  1.0383917710970614E+00 a      1137     1    18     2    12
 -7.4096563311439467E-01 a      1138     1    18     2    13
 -2.7861243720701795E-01 a      1139     1    18     2    14
  6.9344913926308305E-01 a      1140     1    18     2    15
  7.2770779951192111E-01 a      1141     1    18     2    16
  1.7348650121938709E+00 a      1142     1    18     2    17
  7.2380729647406006E-01 a      1143     1    18     2    18
 -2.1671682060080908E+00 a      1144     1    18     2    19
 -1.8448084445689281E-01 a      1145     1    18     2    20
  1.3024719111160912E+00 a      1146     1    18     2    21
 -1.2909789979215052E+00 a      1147     1    18     2    22
 -2.0330008356136617E+00 a      1148     1    18     2    23
 -3.5287322032224533E-01 a      1149     1    18     2    24
 -4.4414575257293076E-01 a      1150     1    18     2    25
 -2.7258373164925753E-02 a      1151     1    19     2     1
  1.7786409180863971E+00 a      1152     1    19     2     2
 -6.2433485311638581E-01 a      1153     1    19     2     3
 -7.0729056795105427E-01 a      1154     1    19     2     4
  5.1264534381277294E-01 a      1155     1    19     2     5
 -8.6616294143739847E-01 a      1156     1    19     2     6
  8.0698814912956451E-01 a      1157     1    19     2     7
 -1.8175081356783283E+00 a      1158     1    19     2     8
 -3.2026939775244762E-01 a      1159     1    19     2     9
 -6.7288331966478787E-01 a      1160     1    19     2    10
  1.7148578091095124E-01 a      1161     1    19     2    11
  3.2140265958315151E-01 a      1162     1    19     2    12
 -8.1210044120660096E-01 a      1163     1    19     2    13
 -7.6231158138043847E-02 a      1164     1    19     2    14
 -1.5851767882039058E+00 a      1165     1    19     2    15
  1.2557130027742122E-01 a      1166     1    19     2    16
  4.8654065981248962E-01 a      1167     1    19     2    17
  9.1550158332637088E-01 a      1168     1    19     2    18
  1.7945138007319117E+00 a      1169     1    19     2    19
 -6.2793744117252037E-01 a      1170     1    19     2    20
  4.9770901971481168E-01 a      1171     1    19     2    21
  7.9199978603495880E-01 a      1172     1    19     2    22
  1.3566279316779111E+00 a      1173     1    19     2    23
 -6.4989908124401896E-01 a      1174     1    19     2    24
 -1.2130061691278531E+00 a      1175     1    19     2    25
  2.1718589739533791E+00 a      1176     1    20     2     1
  2.9938291414473661E-01 a      1177     1    20     2     2
  9.2914772861453521E-01 a      1178     1    20     2     3
  1.7565171250248528E+00 a      1179     1    20     2     4
 -1.7171376009305626E+00 a      1180     1    20     2     5
  2.8704512164424800E+00 a      1181     1    20     2     6
 -4.0609063853165461E-01 a      1182     1    20     2     7
 -8.8956304852711987E-01 a      1183     1    20     2     8
  1.5588822278177381E+00 a      1184     1    20     2     9
 -5.3859945323628011E-01 a      1185     1    20     2    10
 -8.9087250387841876E-01 a      1186     1    20     2    11
 -8.9835382331213787E-01 a      1187     1    20     2    12
 -1.1369908152037626E-01 a      1188     1    20     2    13
 -5.7966570046060373E-01 a      1189     1    20     2    14
  1.1066980646243854E+00 a      1190     1    20     2    15
  3.1244375834572546E-01 a      1191     1    20     2    16
  2.1974097139332476E+00 a      1192     1    20     2    17
 -7.6349397720541767E-01 a      1193     1    20     2    18
 -3.6503418073743810E-01 a      1194     1    20     2    19
 -6.0642338824938813E-01 a      1195     1    20     2    20
  2.2802643907348267E-02 a      1196     1    20     2    21
  8.3743733952396715E-01 a      1197     1    20     2    22
 -3.9872923910188316E+00 a      1198     1    20     2    23
 -3.3066587159099775E-01 a      1199     1    20     2    24
 -3.3827603813335005E-01 a      1200     1    20     2    25
  2.0707890624068246E+00 a      1201     1    21     2     1
  8.1792094222389677E-01 a      1202     1    21     2     2
  1.0420587694448914E-01 a      1203     1    21     2     3
  3.8654442605274053E-01 a      1204     1    21     2     4
 -1.0273245523110555E+00 a      1205     1    21     2     5
  4.8026156110006928E-02 a      1206     1    21     2     6
 -1.2317220364565722E+00 a      1207     1    21     2     7
 -9.2171220979112878E-01 a      1208     1    21     2     8
 -8.3293051813215280E-01 a      1209     1    21     2     9
  3.7826002267822101E-01 a      1210     1    21     2    10
 -1.2566916573054130E+00 a      1211     1    21     2    11
 -1.4542331491456711E-01 a      1212     1    21     2    12
 -1.0890378021893508E+00 a      1213     1    21     2    13
 -5.8298836953764355E-01 a      1214     1    21     2    14
 -1.9020824106971643E+00 a      1215     1    21     2    15
  4.4353810152599149E-01 a      1216     1    21     2    16
 -2.9928311527046703E-01 a      1217     1    21     2    17
 -7.7527928990984052E-01 a      1218     1    21     2    18
  2.6159175407438195E-01 a      1219     1    21     2    19
 -2.6604337400489050E-02 a      1220     1    21     2    20
 -4.6552795168897604E-01 a      1221     1    21     2    21
  1.1611386377657384E+00 a      1222     1    21     2    22
 -1.2972265245341139E+00 a      1223     1    21     2    23
  1.8117173751313085E+00 a      1224     1    21     2    24
  1.0433495561237927E+00 a      1225     1    21     2    25
  1.5410314634266913E+00 a      1226     1    22     2     1
  6.6201420998527072E-01 a      1227     1    22     2     2
  1.1189293597068475E+00 a      1228     1    22     2     3
 -1.1536147566508355E+00 a      1229     1    22     2     4
 -8.4859080711662893E-01 a      1230     1    22     2     5
  3.7903158089014494E-01 a      1231     1    22     2     6
 -2.6461659405296234E+00 a      1232     1    22     2     7
  2.2472472042954434E+00 a      1233     1    22     2     8
 -9.2281733258289744E-01 a      1234     1    22     2     9
  8.7312141982063785E-01 a      1235     1    22     2    10
 -4.3593190134289528E-01 a      1236     1    22     2    11
  5.1912574126564559E-01 a      1237     1    22     2    12
 -5.9029854481930821E-01 a      1238     1    22     2    13
 -7.2255183403800793E-01 a      1239     1    22     2    14
  4.1024670935059383E-02 a      1240     1    22     2    15
  2.0425371936604741E-01 a      1241     1    22     2    16
 -1.0394832812330597E+00 a      1242     1    22     2    17
  4.7202219372950349E-01 a      1243     1    22     2    18
 -1.9958648332222221E-03 a      1244     1    22     2    19
 -1.4664186611455649E-02 a      1245     1    22     2    20
  1.0689476163444707E+00 a      1246     1    22     2    21
  8.4484833020425232E-01 a      1247     1    22     2    22
 -1.4147373614558330E+00 a      1248     1    22     2    23
  1.9187324467269602E+00 a      1249     1    22     2    24
  1.5330124676330812E+00 a      1250     1    22     2    25
  2.3019050197742894E+00 a      1251     1    23     2     1
 -1.3828322911066271E-01 a      1252     1    23     2     2
 -2.3555430378419923E-01 a      1253     1    23     2     3
 -1.3434989779696097E-01 a      1254     1    23     2     4
  3.7852663531566189E-01 a      1255     1    23     2     5
  9.8266847359694973E-02 a      1256     1    23     2     6
  3.2721968443206462E-01 a      1257     1    23     2     7
 -3.7061171550241617E-01 a      1258     1    23     2     8
  2.2862436245090851E+00 a      1259     1    23     2     9
  1.7674065728047832E+00 a      1260     1    23     2    10
 -5.2627257197444939E-02 a      1261     1    23     2    11
  9.4094481148145870E-01 a      1262     1    23     2    12
  1.0616552648143298E+00 a      1263     1    23     2    13
 -1.6065739188681796E-01 a      1264     1    23     2    14
  1.6833160475834315E+00 a      1265     1    23     2    15
 -5.5679530352182072E-01 a      1266     1    23     2    16
  4.2170082515325280E-01 a      1267     1    23     2    17
  1.8142946234467967E+00 a      1268     1    23     2    18
 -6.0004075552166369E-01 a      1269     1    23     2    19
  8.6767695096505049E-01 a      1270     1    23     2    20
  1.7471709925670367E-01 a      1271     1    23     2    21
  6.3494817986861019E-01 a      1272     1    23     2    22
  7.9839233743975266E-02 a      1273     1    23     2    23
 -8.7497499907984810E-01 a      1274     1    23     2    24
 -2.1279336414401262E-01 a      1275     1    23     2    25
 -1.0628518357816100E+01 a      1276     1    24     2     1
 -3.4149879843865938E-01 a      1277     1    24     2     2
 -4.0534872173827868E-01 a      1278     1    24     2     3
  1.0980204380257913E-01 a      1279     1    24     2     4
  1.8376924276804879E-01 a      1280     1    24     2     5
  8.5047887536146360E-01 a      1281     1    24     2     6
  4.3913590571042438E-01 a      1282     1    24     2     7
  2.7167430357232609E+00 a      1283     1    24     2     8
  2.9682659556600960E-01 a      1284     1    24     2     9
 -1.6032245851281013E+00 a      1285     1    24     2    10
 -6.7567048640865046E-01 a      1286     1    24     2    11
 -1.5253382251900995E+00 a      1287     1    24     2    12
 -6.7540631566041298E-01 a      1288     1    24     2    13
 -1.4565321192168545E+00 a      1289     1    24     2    14
 -1.3315414628143039E+00 a      1290     1    24     2    15
  1.2552098425264056E+00 a      1291     1    24     2    16
 -1.1701558601459501E+00 a      1292     1    24     2    17
  2.1967564647703792E+00 a      1293     1    24     2    18
  3.6767594091430167E-01 a      1294     1    24     2    19
  1.4791781996464841E+00 a      1295     1    24     2    20
 -2.4597335939693896E+00 a      1296     1    24     2    21
  1.8222789722776007E+00 a      1297     1    24     2    22
 -2.4818384588216302E+00 a      1298     1    24     2    23
 -1.3359962912345340E+00 a      1299     1    24     2    24
 -1.6060924344568878E-02 a      1300     1    24     2    25
 -1.1558703878945702E+00 a      1301     1    25     2     1
  5.5859771317693908E-02 a      1302     1    25     2     2
 -1.9275021348316721E+00 a      1303     1    25     2     3
  4.2881321046205173E-01 a      1304     1    25     2     4
  6.6308764508018558E-01 a      1305     1    25     2     5
 -2.5357661809360188E-01 a      1306     1    25     2     6
  7.7965409617466697E-01 a      1307     1    25     2     7
 -1.9470416731652336E+00 a      1308     1    25     2     8
  2.0923659915641873E-01 a      1309     1    25     2     9
  8.9211452410465542E-01 a      1310     1    25     2    10
 -1.9807939822570442E-01 a      1311     1    25     2    11
 -5.0922943173038127E-01 a      1312     1    25     2    12
  1.3378430979044107E+00 a      1313     1    25     2    13
 -6.8964614083753073E-01 a      1314     1    25     2    14
  7.6939619343191556E-01 a      1315     1    25     2    15
 -1.5783243312480257E+00 a      1316     1    25     2    16
  2.3586020281744577E+00 a      1317     1    25     2    17
 -5.1641666185758928E-01 a      1318     1    25     2    18
  1.0291540870545792E+00 a      1319     1    25     2    19
  1.5269830348487650E+00 a      1320     1    25     2    20
 -2.8987700591417855E+00 a      1321     1    25     2    21
  9.0207337792476916E-01 a      1322     1    25     2    22
  1.9890049402284911E+00 a      1323     1    25     2    23
  3.9387622927433424E-01 a      1324     1    25     2    24
  9.9397126232482103E-01 a      1325     1    25     2    25
  2.5306467041996967E+00 b      1326     2     1
  3.1633393474977245E+00 b      1327     2     2
 -1.1644295509710691E+00 b      1328     2     3
 -5.7686722641223600E+00 b      1329     2     4
  2.0065022303893989E+00 b      1330     2     5
 -5.9106057000795840E+00 b      1331     2     6
 -1.1326093285804056E+01 b      1332     2     7
 -3.9025063397327071E+00 b      1333     2     8
  4.4520505166676267E+00 b      1334     2     9
 -1.7352681951318241E+00 b      1335     2    10
 -2.1518912430432668E+00 b      1336     2    11
  5.0463376560082969E+00 b      1337     2    12
 -2.2614514173852837E-01 b      1338     2    13
 -4.1454590614747211E+00 b      1339     2    14
  1.6688417293495756E+00 b      1340     2    15
 -5.8649976938793378E+00 b      1341     2    16
 -3.8350084459541849E+00 b      1342     2    17
  1.3730477223722950E+00 b      1343     2    18
  1.8506935712854127E+00 b      1344     2    19
  5.7362757779153428E+00 b      1345     2    20
  7.2901484895568780E+00 b      1346     2    21
  3.9773783666446022E-01 b      1347     2    22
 -6.1298011242151409E+00 b      1348     2    23
  9.9698755072742991E+00 b      1349     2    24
  1.1801564149295556E+00 b      1350     2    25
  1.2704098997067026E+01 a      1351     2     1     3     1
  1.5947733940307620E+00 a      1352     2     2     3     1
 -1.6022927057878529E+00 a      1353     2     3     3     1
 -1.5507258540777733E+00 a      1354     2     4     3     1
  1.8696884022727636E+00 a      1355     2     5     3     1
 -8.2051908880071633E-01 a      1356     2     6     3     1
  9.4325719092522542E-01 a      1357     2     7     3     1
  2.4098435369626174E+00 a      1358     2     8     3     1
  1.4100759633042474E+00 a      1359     2     9     3     1
 -1.4613034838529613E+00 a      1360     2    10     3     1
  1.0296574685193380E+00 a      1361     2    11     3     1
  1.2413851904356363E+00 a      1362     2    12     3     1
 -6.3168181712211169E-01 a      1363     2    13     3     1
  7.6424175125347729E+00 a      1364     2    14     3     1
 -1.3477038299214714E+00 a      1365     2    15     3     1
 -1.6064659765754943E+00 a      1366     2    16     3     1
 -8.9624380518145874E-01 a      1367     2    17     3     1
 -1.0509865792522375E+00 a      1368     2    18     3     1
  8.1847872933853638E-01 a      1369     2    19     3     1
  1.2845504810303034E+00 a      1370     2    20     3     1
 -5.1879822944368881E-01 a      1371     2    21     3     1
 -7.2018714033119180E-01 a      1372     2    22     3     1
  5.9870832883780798E+00 a      1373     2    23     3     1
 -6.0589155387470683E-01 a      1374     2    24     3     1
  5.0177609140285355E+00 a      1375     2    25     3     1
  9.7386086372975722E+00 b      1376     3     1
