################################################################################
# Neural network connection values (weights and biases).
################################################################################
# Col  Name       Description
################################################################################
# 1    connection Neural network connection value.
# 2    t          Connection type (a = weight, b = bias).
# 3    index      Index enumerating weights.
# 4    l_s        Starting point layer (end point layer for biases).
# 5    n_s        Starting point neuron in starting layer (end point neuron for biases).
# 6    l_e        End point layer.
# 7    n_e        End point neuron in end layer.
################################################################################
#                      1 2         3     4     5     6     7
#             connection t     index   l_s   n_s   l_e   n_e
############################################################
 -4.2252995889643252E-01 a         1     0     1     1     1
 -6.0555645962054347E+00 a         2     0     1     1     2
  1.4040722027928377E+01 a         3     0     1     1     3
 -2.7041370011942618E+00 a         4     0     1     1     4
 -3.8202743208058858E+00 a         5     0     1     1     5
 -3.3612643261393358E+00 a         6     0     1     1     6
 -2.0418101025905258E+00 a         7     0     1     1     7
  7.5707237340996727E+00 a         8     0     1     1     8
 -5.8098755815926548E+00 a         9     0     1     1     9
 -6.0966886893925210E-01 a        10     0     1     1    10
  5.8061564015115206E+00 a        11     0     1     1    11
 -1.5509339733099867E+00 a        12     0     1     1    12
  1.9747395485200818E+00 a        13     0     1     1    13
  4.5260782279680539E-01 a        14     0     1     1    14
  9.9210415760283279E+00 a        15     0     1     1    15
 -6.5078831481547121E+00 a        16     0     1     1    16
 -3.4768832871318085E+00 a        17     0     1     1    17
 -1.9463994340943838E+00 a        18     0     1     1    18
 -3.4186058699290269E+00 a        19     0     1     1    19
  1.2263643166698479E+00 a        20     0     1     1    20
 -5.9171161834436594E+00 a        21     0     1     1    21
  1.8436267358458363E+00 a        22     0     1     1    22
 -2.3139530616378448E+00 a        23     0     1     1    23
 -1.7228542411478951E+01 a        24     0     1     1    24
  2.2888610253215895E+00 a        25     0     1     1    25
  8.0819405565169262E+00 a        26     0     2     1     1
  8.0066409422078735E+00 a        27     0     2     1     2
 -2.8439251469462398E+01 a        28     0     2     1     3
 -1.1146087290797917E+01 a        29     0     2     1     4
 -7.5292172093563314E+00 a        30     0     2     1     5
 -4.0783685663337641E+00 a        31     0     2     1     6
 -4.4130406528599337E+00 a        32     0     2     1     7
  1.0563249167508673E+01 a        33     0     2     1     8
  1.0933105521974941E+01 a        34     0     2     1     9
 -1.1646509907117448E+01 a        35     0     2     1    10
 -7.5007478428041727E+00 a        36     0     2     1    11
  7.7790182254249176E+00 a        37     0     2     1    12
  1.1567034492555623E+01 a        38     0     2     1    13
 -4.2051741520233508E+00 a        39     0     2     1    14
  3.1165306119132130E+00 a        40     0     2     1    15
  1.6385645103485370E+01 a        41     0     2     1    16
  2.6440539124381655E+00 a        42     0     2     1    17
 -3.9524518111687827E+00 a        43     0     2     1    18
 -8.7912410635652076E+00 a        44     0     2     1    19
  4.3903318583813933E+00 a        45     0     2     1    20
  3.3748047065442632E-01 a        46     0     2     1    21
 -6.6858946327311741E-01 a        47     0     2     1    22
  5.4447187026310928E+00 a        48     0     2     1    23
  1.9966018946508100E+01 a        49     0     2     1    24
 -1.7414420670154115E+01 a        50     0     2     1    25
 -3.9418657694849879E-01 a        51     0     3     1     1
  9.1804829174186846E+00 a        52     0     3     1     2
 -1.0485089041850278E+01 a        53     0     3     1     3
  8.9380499555048889E+00 a        54     0     3     1     4
  1.0758607876097068E+01 a        55     0     3     1     5
  7.2881492125393788E+00 a        56     0     3     1     6
  8.2627077997774609E+00 a        57     0     3     1     7
 -1.2523613158520124E+01 a        58     0     3     1     8
  4.5963999046141870E+00 a        59     0     3     1     9
  8.2776469521184293E+00 a        60     0     3     1    10
 -2.1354371687617113E+00 a        61     0     3     1    11
 -9.0381751821938234E+00 a        62     0     3     1    12
 -1.2209592338152297E+00 a        63     0     3     1    13
  4.7653671372245672E+00 a        64     0     3     1    14
 -1.7909124818088952E+01 a        65     0     3     1    15
  3.2182917515973237E+00 a        66     0     3     1    16
 -2.3712750109800793E+00 a        67     0     3     1    17
  4.6394007836500366E+00 a        68     0     3     1    18
  2.3761984937954490E+00 a        69     0     3     1    19
 -1.0484832585147684E+01 a        70     0     3     1    20
  1.2317970755621140E+01 a        71     0     3     1    21
 -1.5014054499447769E+00 a        72     0     3     1    22
 -1.1215435083480425E+00 a        73     0     3     1    23
  8.9428653321614355E+00 a        74     0     3     1    24
  1.2636165742848842E+00 a        75     0     3     1    25
 -1.3406492086741725E+01 a        76     0     4     1     1
 -1.0241053204283523E+01 a        77     0     4     1     2
  4.3016369326050899E+01 a        78     0     4     1     3
  2.0170433813810671E+01 a        79     0     4     1     4
  1.3209328101408278E+01 a        80     0     4     1     5
  1.2456789467161695E+01 a        81     0     4     1     6
  4.3498515722861573E+00 a        82     0     4     1     7
 -2.1948185511490657E+01 a        83     0     4     1     8
 -1.5329558038416376E+01 a        84     0     4     1     9
  1.4173337432869845E+01 a        85     0     4     1    10
  5.6040631650516088E+00 a        86     0     4     1    11
 -9.7646834958548663E+00 a        87     0     4     1    12
 -1.3810669587629080E+01 a        88     0     4     1    13
 -1.5274915717855073E+00 a        89     0     4     1    14
 -1.3662043326477198E+01 a        90     0     4     1    15
 -2.5095635769057225E+01 a        91     0     4     1    16
  5.4033548590960638E+00 a        92     0     4     1    17
  1.1047593171711565E+01 a        93     0     4     1    18
  1.9404912122904062E+01 a        94     0     4     1    19
  2.4043652449872512E+00 a        95     0     4     1    20
 -3.3818087825635010E+00 a        96     0     4     1    21
 -4.9505657938825802E+00 a        97     0     4     1    22
  6.2159614529590854E+00 a        98     0     4     1    23
 -1.9315299866781363E+01 a        99     0     4     1    24
  2.4149549923763363E+01 a       100     0     4     1    25
  2.2633190213689671E+00 a       101     0     5     1     1
 -1.1275056403465689E+01 a       102     0     5     1     2
  1.2588751117785917E+00 a       103     0     5     1     3
 -1.7399288116611554E+01 a       104     0     5     1     4
 -1.8915392010979964E+01 a       105     0     5     1     5
 -6.5088880348621911E+00 a       106     0     5     1     6
 -8.7022768117985532E+00 a       107     0     5     1     7
  9.5716939158219958E+00 a       108     0     5     1     8
  6.7173652175539926E+00 a       109     0     5     1     9
 -1.0675975211687946E+01 a       110     0     5     1    10
 -9.8676303718126039E+00 a       111     0     5     1    11
  2.2213929552875065E+01 a       112     0     5     1    12
 -3.9036053816020080E+00 a       113     0     5     1    13
 -1.0319098765495239E+01 a       114     0     5     1    14
  2.0443220229254024E+01 a       115     0     5     1    15
 -1.4108663925115768E+00 a       116     0     5     1    16
  8.2741724462704607E+00 a       117     0     5     1    17
 -5.3497533478370061E+00 a       118     0     5     1    18
  1.0188467515179238E+00 a       119     0     5     1    19
  3.3447636806848529E+00 a       120     0     5     1    20
 -6.3209134939668381E+00 a       121     0     5     1    21
  7.0841649292282804E+00 a       122     0     5     1    22
 -1.3545092924552248E+01 a       123     0     5     1    23
 -1.0559922896741500E+00 a       124     0     5     1    24
 -1.6720809451360648E+00 a       125     0     5     1    25
  2.8772403595811382E+00 a       126     0     6     1     1
  6.6056181351338488E+00 a       127     0     6     1     2
 -2.1395393088585266E+01 a       128     0     6     1     3
 -1.6735909985964671E+01 a       129     0     6     1     4
 -4.4466039540570526E+00 a       130     0     6     1     5
 -1.9134274750411421E+01 a       131     0     6     1     6
  7.4840405517853625E+00 a       132     0     6     1     7
  1.5375004378912831E+01 a       133     0     6     1     8
 -3.2781218210557539E-01 a       134     0     6     1     9
  5.1424696656729978E+00 a       135     0     6     1    10
  2.4028588442306344E+00 a       136     0     6     1    11
  1.6576032835324068E+00 a       137     0     6     1    12
 -1.8331489599850683E+00 a       138     0     6     1    13
  1.5714883034771246E+01 a       139     0     6     1    14
  1.3932522318533026E+01 a       140     0     6     1    15
  3.0252340531342401E+01 a       141     0     6     1    16
 -2.0172838001093005E+01 a       142     0     6     1    17
 -1.3208548828817202E+01 a       143     0     6     1    18
 -1.1333313633908213E+01 a       144     0     6     1    19
 -2.2075367220543007E-01 a       145     0     6     1    20
  5.4183716265511874E+00 a       146     0     6     1    21
  4.4469214579975294E+00 a       147     0     6     1    22
 -1.7974421141420628E+01 a       148     0     6     1    23
  1.3331466657294333E+01 a       149     0     6     1    24
 -1.0273470133062483E+01 a       150     0     6     1    25
 -1.3893961251032516E+00 a       151     0     7     1     1
  4.8442398001659086E+00 a       152     0     7     1     2
 -1.4036072623897150E+01 a       153     0     7     1     3
  1.9115742411572878E+01 a       154     0     7     1     4
  1.7609386484170951E+01 a       155     0     7     1     5
  7.6541742060341660E+00 a       156     0     7     1     6
  2.6652782695389745E+00 a       157     0     7     1     7
 -4.1794554937287582E+00 a       158     0     7     1     8
 -1.1905203283691870E+01 a       159     0     7     1     9
  9.5475237719776391E+00 a       160     0     7     1    10
  7.7121176720610016E+00 a       161     0     7     1    11
 -1.6773486202682584E+01 a       162     0     7     1    12
  8.6676731368122528E+00 a       163     0     7     1    13
 -1.2293039810028539E+00 a       164     0     7     1    14
 -2.2811823974655120E+01 a       165     0     7     1    15
 -7.1906975038556888E+00 a       166     0     7     1    16
 -1.1100936660627136E+01 a       167     0     7     1    17
  2.5096456515549410E+00 a       168     0     7     1    18
 -8.2830054125661903E+00 a       169     0     7     1    19
  1.4308990630020320E+01 a       170     0     7     1    20
 -1.4211125648871650E+00 a       171     0     7     1    21
 -7.1030788471181472E-01 a       172     0     7     1    22
  1.9855633135275369E+01 a       173     0     7     1    23
 -5.0222825995011018E+00 a       174     0     7     1    24
  2.8336876309217565E+00 a       175     0     7     1    25
  1.2989870863882689E+00 a       176     0     8     1     1
  1.6317155326554985E+01 a       177     0     8     1     2
  1.1299807220875589E+01 a       178     0     8     1     3
  1.6662446968000719E+01 a       179     0     8     1     4
 -2.1148958055015852E+00 a       180     0     8     1     5
  8.0807820713485157E+00 a       181     0     8     1     6
  1.4756928529491644E+00 a       182     0     8     1     7
 -1.8576498548437503E+00 a       183     0     8     1     8
 -6.5803763266761752E+00 a       184     0     8     1     9
 -1.4617321665219620E+01 a       185     0     8     1    10
  2.5420127922121498E+00 a       186     0     8     1    11
 -1.1459546725077542E+01 a       187     0     8     1    12
 -5.7279252792377344E-01 a       188     0     8     1    13
  6.6995479956870465E+00 a       189     0     8     1    14
  6.5026121098595775E+00 a       190     0     8     1    15
 -2.4146992911321604E+01 a       191     0     8     1    16
  1.7592777430005096E+01 a       192     0     8     1    17
 -4.4088079834404530E+00 a       193     0     8     1    18
  2.6619475322128787E+00 a       194     0     8     1    19
 -2.7620162813322896E+01 a       195     0     8     1    20
  1.1312775745303194E+01 a       196     0     8     1    21
  7.8960900397005016E+00 a       197     0     8     1    22
 -9.2584890220611644E+00 a       198     0     8     1    23
 -7.5829075251590856E+00 a       199     0     8     1    24
 -1.5702889381396949E+01 a       200     0     8     1    25
 -6.0639703911359019E-02 a       201     0     9     1     1
 -4.9247565651287832E+00 a       202     0     9     1     2
  1.2106355466042226E+01 a       203     0     9     1     3
 -8.5040672154593562E+00 a       204     0     9     1     4
 -1.9730634072023652E+00 a       205     0     9     1     5
  1.3338172438762994E+00 a       206     0     9     1     6
  1.0403848598882854E+00 a       207     0     9     1     7
  3.1716127040577504E+00 a       208     0     9     1     8
  4.8548323846115409E+00 a       209     0     9     1     9
  2.8285159512886676E-01 a       210     0     9     1    10
 -7.2538963241095287E+00 a       211     0     9     1    11
  5.6605292741969135E+00 a       212     0     9     1    12
 -7.3281447205805028E+00 a       213     0     9     1    13
 -7.2323271523996810E+00 a       214     0     9     1    14
  2.7162165549305191E+00 a       215     0     9     1    15
  4.7371512123906303E+00 a       216     0     9     1    16
 -1.2795462595586067E+00 a       217     0     9     1    17
 -1.2479842668197239E+00 a       218     0     9     1    18
  8.2517482868477465E+00 a       219     0     9     1    19
  1.5771106219004059E+00 a       220     0     9     1    20
  1.1199186705905022E+00 a       221     0     9     1    21
 -2.3206003597031788E-01 a       222     0     9     1    22
 -1.8081347949376255E+01 a       223     0     9     1    23
  6.4100804204621458E+00 a       224     0     9     1    24
  2.0638413110708587E-01 a       225     0     9     1    25
  5.4946010011519562E+00 a       226     0    10     1     1
 -1.0007883449351111E+01 a       227     0    10     1     2
 -4.2092466490417992E+00 a       228     0    10     1     3
 -5.1484334386740827E+00 a       229     0    10     1     4
  3.8492140234244099E+00 a       230     0    10     1     5
  3.7806988156875683E+00 a       231     0    10     1     6
 -3.3355303672289521E-01 a       232     0    10     1     7
  8.5957281207011293E-01 a       233     0    10     1     8
  2.6318043159412694E+00 a       234     0    10     1     9
 -2.0370256057905092E+00 a       235     0    10     1    10
 -6.0705410865883813E+00 a       236     0    10     1    11
  7.7663948435164212E+00 a       237     0    10     1    12
  5.2575997574986886E+00 a       238     0    10     1    13
 -1.0970226410597640E+01 a       239     0    10     1    14
 -8.2022944757991745E+00 a       240     0    10     1    15
  1.4611135167439018E+00 a       241     0    10     1    16
 -9.6067700839357795E-01 a       242     0    10     1    17
  2.8969685517227264E+00 a       243     0    10     1    18
  5.1871728208292078E-01 a       244     0    10     1    19
  5.9723981759776086E+00 a       245     0    10     1    20
 -5.6526426853755227E+00 a       246     0    10     1    21
 -5.7012415503934060E+00 a       247     0    10     1    22
  1.3226673860538469E+01 a       248     0    10     1    23
 -1.1596542017869393E+00 a       249     0    10     1    24
  4.5181717464756330E+00 a       250     0    10     1    25
  2.9081108390343352E-01 a       251     0    11     1     1
  7.0173519357555021E+00 a       252     0    11     1     2
 -2.7343225639603612E+00 a       253     0    11     1     3
  6.7125648985634467E-01 a       254     0    11     1     4
 -1.4389607300831309E+00 a       255     0    11     1     5
  2.0863810552553317E+00 a       256     0    11     1     6
 -2.8278441217480297E+00 a       257     0    11     1     7
 -1.8684390261232542E+00 a       258     0    11     1     8
  1.5173228455949850E+00 a       259     0    11     1     9
 -1.7720802500487582E+00 a       260     0    11     1    10
  2.9615007040584400E+00 a       261     0    11     1    11
  5.5888676956090788E-01 a       262     0    11     1    12
 -4.1893717343842518E-01 a       263     0    11     1    13
 -4.5555017384864960E-01 a       264     0    11     1    14
 -1.2004787116771394E+00 a       265     0    11     1    15
 -4.3671713173561306E+00 a       266     0    11     1    16
  2.6268170207311425E+00 a       267     0    11     1    17
  2.0861374981960101E+00 a       268     0    11     1    18
 -3.9467976641769651E+00 a       269     0    11     1    19
 -2.8568852978075676E+00 a       270     0    11     1    20
 -3.6298673422613743E+00 a       271     0    11     1    21
 -2.3751659557584084E+00 a       272     0    11     1    22
  9.6961030126275300E+00 a       273     0    11     1    23
 -3.8360345397984514E+00 a       274     0    11     1    24
  7.4917832681719021E-01 a       275     0    11     1    25
 -3.8601565331430994E+00 a       276     0    12     1     1
  1.2334085724542578E+00 a       277     0    12     1     2
  1.3883137264471166E+00 a       278     0    12     1     3
  3.5605774607307024E+00 a       279     0    12     1     4
 -5.7819414222489574E+00 a       280     0    12     1     5
 -1.2501210997170223E-01 a       281     0    12     1     6
 -4.2808961405835779E+00 a       282     0    12     1     7
 -7.3252216114344915E+00 a       283     0    12     1     8
  6.0219945070033543E-01 a       284     0    12     1     9
  3.1395849109967169E+00 a       285     0    12     1    10
  3.0305896266861554E+00 a       286     0    12     1    11
 -1.4143455695905820E+00 a       287     0    12     1    12
 -5.4638828890258671E+00 a       288     0    12     1    13
  6.4792557797350705E+00 a       289     0    12     1    14
  4.5371436871747193E+00 a       290     0    12     1    15
 -1.1533461552353546E+00 a       291     0    12     1    16
 -2.3558298927391648E+00 a       292     0    12     1    17
  1.7399171589274749E+00 a       293     0    12     1    18
 -4.8487063398429440E+00 a       294     0    12     1    19
 -5.7033421532043960E-01 a       295     0    12     1    20
 -1.4257707367342978E+00 a       296     0    12     1    21
 -2.6397293314995309E+00 a       297     0    12     1    22
 -2.2627535308920042E+00 a       298     0    12     1    23
 -2.7717009651755204E+00 a       299     0    12     1    24
  2.7387478336632087E+00 a       300     0    12     1    25
  2.4186741478605520E+00 a       301     0    13     1     1
 -3.4944840306430418E+00 a       302     0    13     1     2
  2.1030004854108602E+00 a       303     0    13     1     3
  1.4374186253345995E+00 a       304     0    13     1     4
  1.1617439780972767E+00 a       305     0    13     1     5
 -2.6439447388124258E+00 a       306     0    13     1     6
  2.4329755420814574E+00 a       307     0    13     1     7
 -8.5717844737500770E-01 a       308     0    13     1     8
 -2.3888368245484140E+00 a       309     0    13     1     9
  7.8077425868699946E-01 a       310     0    13     1    10
 -1.6080862934589075E+00 a       311     0    13     1    11
  1.2697401381575075E+00 a       312     0    13     1    12
  1.3337003897559968E-01 a       313     0    13     1    13
 -1.0390225034430518E+00 a       314     0    13     1    14
  1.1220960772378719E+00 a       315     0    13     1    15
  2.1672672073943278E+00 a       316     0    13     1    16
 -7.6556432522471796E-02 a       317     0    13     1    17
 -1.4492561882008852E+00 a       318     0    13     1    18
  3.3180900339831249E-01 a       319     0    13     1    19
  3.1763960484138609E+00 a       320     0    13     1    20
  5.8361392577657190E-01 a       321     0    13     1    21
  9.6511368793992280E-01 a       322     0    13     1    22
 -4.3642051047376942E+00 a       323     0    13     1    23
  2.4130612852273967E+00 a       324     0    13     1    24
  1.0958958229814106E+00 a       325     0    13     1    25
  2.1192597160887914E+00 a       326     0    14     1     1
 -5.0692375773713882E+00 a       327     0    14     1     2
 -2.4507817466810016E+00 a       328     0    14     1     3
  5.8024848653758093E-02 a       329     0    14     1     4
  4.8594499142475156E+00 a       330     0    14     1     5
  3.4489650784571051E+00 a       331     0    14     1     6
  8.5777967991056789E-02 a       332     0    14     1     7
  1.1531915319250103E+00 a       333     0    14     1     8
 -7.9405775334483342E-01 a       334     0    14     1     9
  1.8147497054993594E-01 a       335     0    14     1    10
  2.3750920638956341E-01 a       336     0    14     1    11
  2.6614731814111616E+00 a       337     0    14     1    12
  4.0677517220565420E+00 a       338     0    14     1    13
 -3.9421246902004270E-01 a       339     0    14     1    14
 -2.6358211134625926E+00 a       340     0    14     1    15
  1.1720175187126387E+00 a       341     0    14     1    16
  5.0750718124526617E-01 a       342     0    14     1    17
 -1.3756710203592946E+00 a       343     0    14     1    18
  4.9977012202457938E-01 a       344     0    14     1    19
  1.2218668685289211E+00 a       345     0    14     1    20
  3.1076725758015700E-01 a       346     0    14     1    21
 -1.0132494852704739E+00 a       347     0    14     1    22
  2.4214858213320172E+00 a       348     0    14     1    23
  2.9887204648229995E+00 a       349     0    14     1    24
  3.7431348583028434E-01 a       350     0    14     1    25
 -1.0977916798947627E+00 a       351     0    15     1     1
  1.0701397562333292E+00 a       352     0    15     1     2
 -5.9035817224644660E-01 a       353     0    15     1     3
 -9.0748114915258671E-01 a       354     0    15     1     4
 -1.3253508128910669E+00 a       355     0    15     1     5
  7.8765245831574060E-01 a       356     0    15     1     6
  2.7327135863692200E-02 a       357     0    15     1     7
  4.6463720795787411E-01 a       358     0    15     1     8
  4.9974432422740439E-01 a       359     0    15     1     9
  4.2798717717048357E-01 a       360     0    15     1    10
  6.8710860008055796E-01 a       361     0    15     1    11
  1.7139879331687053E+00 a       362     0    15     1    12
  5.6268488724491939E-01 a       363     0    15     1    13
  6.6750989111862047E-01 a       364     0    15     1    14
  1.4397221680585286E+00 a       365     0    15     1    15
  4.5279750008423403E-01 a       366     0    15     1    16
  5.0866419627153892E-01 a       367     0    15     1    17
  7.3963180657667227E-01 a       368     0    15     1    18
  1.1521887951551322E+00 a       369     0    15     1    19
 -1.4866183272524940E+00 a       370     0    15     1    20
 -1.3616398521253987E+00 a       371     0    15     1    21
  2.6202790834594486E-01 a       372     0    15     1    22
  1.5074957279738481E+00 a       373     0    15     1    23
 -1.6205035893428665E+00 a       374     0    15     1    24
 -1.2998391238039100E+00 a       375     0    15     1    25
 -9.3641853880742010E-01 a       376     0    16     1     1
 -2.7376928409123931E+00 a       377     0    16     1     2
  7.9332155487453226E-01 a       378     0    16     1     3
 -2.8525664756125607E-01 a       379     0    16     1     4
  7.4751196527836983E-01 a       380     0    16     1     5
  1.0249289098173713E+00 a       381     0    16     1     6
 -1.8546442663400537E+00 a       382     0    16     1     7
 -1.0549897952608451E+00 a       383     0    16     1     8
 -6.3630120361611320E-01 a       384     0    16     1     9
  6.6237612981615623E-01 a       385     0    16     1    10
 -5.5448950463878743E-01 a       386     0    16     1    11
  1.2050106911060470E+00 a       387     0    16     1    12
  3.9737497458180110E-01 a       388     0    16     1    13
  5.0109748335825777E-01 a       389     0    16     1    14
  4.0327652547372667E-01 a       390     0    16     1    15
  8.8643064796620796E-01 a       391     0    16     1    16
  4.6304323223345301E-01 a       392     0    16     1    17
 -2.4505895284404668E+00 a       393     0    16     1    18
 -8.4133364692195267E-01 a       394     0    16     1    19
 -1.5110010117067827E+00 a       395     0    16     1    20
  3.4085891522501455E-01 a       396     0    16     1    21
  3.1268038879440385E-01 a       397     0    16     1    22
  7.4003041706355299E-01 a       398     0    16     1    23
  1.2178938914740584E-01 a       399     0    16     1    24
  4.7293074933049455E-02 a       400     0    16     1    25
  3.1553509583631771E+00 a       401     0    17     1     1
 -5.5802418178018307E+00 a       402     0    17     1     2
 -2.6820887513703795E+00 a       403     0    17     1     3
  1.3611233633822425E-02 a       404     0    17     1     4
  4.4816951705937047E+00 a       405     0    17     1     5
 -5.3273421864243655E+00 a       406     0    17     1     6
 -2.8604686865391171E+00 a       407     0    17     1     7
 -6.2409056428356209E+00 a       408     0    17     1     8
 -2.7294113313893482E+00 a       409     0    17     1     9
  8.0447889701632587E+00 a       410     0    17     1    10
  3.7968250901451115E+00 a       411     0    17     1    11
  6.1053141270653644E+00 a       412     0    17     1    12
  7.9575953043010985E+00 a       413     0    17     1    13
 -8.3646321867855189E-01 a       414     0    17     1    14
 -9.8343457754445236E+00 a       415     0    17     1    15
  4.9972748246782395E+00 a       416     0    17     1    16
 -1.4965816328493091E+00 a       417     0    17     1    17
 -1.0029228324415648E+01 a       418     0    17     1    18
  5.2568130437764782E-01 a       419     0    17     1    19
  3.2629819296919251E+00 a       420     0    17     1    20
 -9.4864262172354721E+00 a       421     0    17     1    21
  2.0133320481661512E+00 a       422     0    17     1    22
 -2.5824165220386761E+00 a       423     0    17     1    23
 -3.0623541276912514E+00 a       424     0    17     1    24
  3.6881204417292737E+00 a       425     0    17     1    25
 -3.3612109899887197E+00 a       426     0    18     1     1
  5.3333455077526706E+00 a       427     0    18     1     2
  7.0017063538187496E-01 a       428     0    18     1     3
 -4.6596829239008164E+00 a       429     0    18     1     4
  6.8209756898225093E-01 a       430     0    18     1     5
 -6.5260543610279917E+00 a       431     0    18     1     6
  1.3123829389003430E+00 a       432     0    18     1     7
  2.7715931711063098E+00 a       433     0    18     1     8
  3.5186591355105641E+00 a       434     0    18     1     9
 -4.2634531039835357E+00 a       435     0    18     1    10
 -9.5854201044583798E-01 a       436     0    18     1    11
 -2.0978686052914943E+00 a       437     0    18     1    12
 -8.9772662763029789E+00 a       438     0    18     1    13
  1.9768645811850407E+00 a       439     0    18     1    14
  7.3670408489508361E+00 a       440     0    18     1    15
 -4.5370304619720505E+00 a       441     0    18     1    16
  1.0315059285612109E+00 a       442     0    18     1    17
  3.1023107845720395E+00 a       443     0    18     1    18
  2.7011350909821794E+00 a       444     0    18     1    19
  2.0894755387847144E+00 a       445     0    18     1    20
  6.4298219839784458E+00 a       446     0    18     1    21
 -3.6389216657484109E+00 a       447     0    18     1    22
 -1.9585064481704217E+00 a       448     0    18     1    23
  4.3796564928038269E+00 a       449     0    18     1    24
 -1.5242269046632566E+00 a       450     0    18     1    25
 -1.1444499511491067E+01 a       451     0    19     1     1
 -1.2789689392745718E+01 a       452     0    19     1     2
  3.4789124800619677E+00 a       453     0    19     1     3
  2.2398697525721655E+01 a       454     0    19     1     4
 -2.9517807553388176E+00 a       455     0    19     1     5
  1.0456899770851461E+01 a       456     0    19     1     6
 -2.1774384553060873E+01 a       457     0    19     1     7
 -1.4740422142098448E+00 a       458     0    19     1     8
  2.6104661970128717E+01 a       459     0    19     1     9
 -2.4081133455512077E+01 a       460     0    19     1    10
  1.3007894745410247E+00 a       461     0    19     1    11
 -5.1546596841336223E+00 a       462     0    19     1    12
 -7.0571054726823768E+00 a       463     0    19     1    13
  1.3042438116729291E+00 a       464     0    19     1    14
  1.6928559591291155E+01 a       465     0    19     1    15
 -6.7364772527228753E+00 a       466     0    19     1    16
  2.9369764139126438E+01 a       467     0    19     1    17
 -5.6164540957105666E+00 a       468     0    19     1    18
  2.6381479720783041E-01 a       469     0    19     1    19
  1.1648801072168056E+00 a       470     0    19     1    20
 -9.7621028440308972E+00 a       471     0    19     1    21
 -2.4495819053323867E+01 a       472     0    19     1    22
  2.0487735845785913E+01 a       473     0    19     1    23
  1.5613183880507096E+01 a       474     0    19     1    24
  2.2952898686623944E+00 a       475     0    19     1    25
  6.7784245511731287E+00 a       476     0    20     1     1
  3.7512926040238188E+00 a       477     0    20     1     2
 -1.4090584942884933E+01 a       478     0    20     1     3
 -1.7276730895098403E+01 a       479     0    20     1     4
 -1.2210325416588912E+00 a       480     0    20     1     5
 -1.0767095565801567E+01 a       481     0    20     1     6
  6.5252375427728433E+00 a       482     0    20     1     7
  2.8116557648596285E+00 a       483     0    20     1     8
 -1.0983036930646623E+01 a       484     0    20     1     9
  1.0172907238701352E+01 a       485     0    20     1    10
  8.0436693936395942E-01 a       486     0    20     1    11
  2.6160210876528285E+00 a       487     0    20     1    12
  8.0905039578636317E-01 a       488     0    20     1    13
  3.5280353020086892E+00 a       489     0    20     1    14
 -4.3134519502596707E+00 a       490     0    20     1    15
 -2.7849447275673991E+00 a       491     0    20     1    16
 -7.6081258895571393E+00 a       492     0    20     1    17
  6.8533490599734781E-01 a       493     0    20     1    18
 -8.6739359281855699E-01 a       494     0    20     1    19
 -1.1561786164848851E+01 a       495     0    20     1    20
  4.0807329692500307E+00 a       496     0    20     1    21
  1.5887197851126649E+01 a       497     0    20     1    22
 -1.5862637598212434E+01 a       498     0    20     1    23
 -1.3227492727080636E+01 a       499     0    20     1    24
 -9.6316212012535274E-01 a       500     0    20     1    25
 -2.3311076886477737E+00 a       501     0    21     1     1
  1.6187410207560906E+00 a       502     0    21     1     2
  1.5355275536101967E+00 a       503     0    21     1     3
 -3.2576721366136963E+00 a       504     0    21     1     4
 -3.4761287579904248E+00 a       505     0    21     1     5
  1.1110427672521253E+00 a       506     0    21     1     6
  1.0503832339541006E+00 a       507     0    21     1     7
  2.0002973548997698E+00 a       508     0    21     1     8
  3.2182923729080808E+00 a       509     0    21     1     9
 -2.2459858393943724E+00 a       510     0    21     1    10
  1.2810707973140767E-02 a       511     0    21     1    11
 -8.1563534776190103E+00 a       512     0    21     1    12
 -2.6664870484279217E+00 a       513     0    21     1    13
 -5.2008558789696768E-01 a       514     0    21     1    14
  5.9263359598324783E+00 a       515     0    21     1    15
 -1.4747654590104164E+00 a       516     0    21     1    16
  2.3730444562368276E+00 a       517     0    21     1    17
  5.4231657477361450E+00 a       518     0    21     1    18
 -1.0028220015349436E+00 a       519     0    21     1    19
  3.0119511489549000E-01 a       520     0    21     1    20
  3.2360403670895908E+00 a       521     0    21     1    21
 -3.2353491692288996E+00 a       522     0    21     1    22
 -8.0879941504115449E-01 a       523     0    21     1    23
  9.9370207571285840E-01 a       524     0    21     1    24
 -7.2681059092628819E-01 a       525     0    21     1    25
  8.3413635618117183E+00 a       526     0    22     1     1
  7.3895796140513355E+00 a       527     0    22     1     2
  2.1756697250124180E-01 a       528     0    22     1     3
  2.6543860348781723E-01 a       529     0    22     1     4
 -1.8498516872975808E+00 a       530     0    22     1     5
  1.0502428199989866E+00 a       531     0    22     1     6
  3.7175285159663547E+00 a       532     0    22     1     7
  2.1251281160031460E-01 a       533     0    22     1     8
 -1.2749425329558013E+01 a       534     0    22     1     9
  6.9618741113140565E+00 a       535     0    22     1    10
 -2.9375551290531909E+00 a       536     0    22     1    11
  9.8578039422085730E+00 a       537     0    22     1    12
  6.8815773902668811E+00 a       538     0    22     1    13
  9.2998663834751194E-01 a       539     0    22     1    14
 -1.0389879627527502E+01 a       540     0    22     1    15
  4.6364264921059863E+00 a       541     0    22     1    16
 -7.6740409341129512E+00 a       542     0    22     1    17
 -4.6479447064519261E+00 a       543     0    22     1    18
 -2.5620100958898320E+00 a       544     0    22     1    19
  1.5457991948477597E+01 a       545     0    22     1    20
  7.9493145992034386E-01 a       546     0    22     1    21
  4.7958967347059449E+00 a       547     0    22     1    22
  2.1504739859079320E+00 a       548     0    22     1    23
 -5.9214542019936145E+00 a       549     0    22     1    24
 -9.1462629199010259E-01 a       550     0    22     1    25
  3.0540319266805307E+00 a       551     0    23     1     1
  4.3754634467797500E+00 a       552     0    23     1     2
  4.5096649173446322E+00 a       553     0    23     1     3
 -2.2503614840266177E+00 a       554     0    23     1     4
 -1.1334803434549245E+01 a       555     0    23     1     5
 -8.8364348468747647E+00 a       556     0    23     1     6
  2.9144444511093819E+00 a       557     0    23     1     7
 -1.0877090021950451E+01 a       558     0    23     1     8
 -1.4517389759591161E+01 a       559     0    23     1     9
 -7.2829358977248519E+00 a       560     0    23     1    10
  2.4988119761586502E+00 a       561     0    23     1    11
  8.7981693718640113E+00 a       562     0    23     1    12
  2.4786452563791270E+00 a       563     0    23     1    13
  1.8364237892475522E+01 a       564     0    23     1    14
  7.4574092693097054E+00 a       565     0    23     1    15
 -9.7034978508326741E-01 a       566     0    23     1    16
  7.1658789330581296E+00 a       567     0    23     1    17
 -4.4872661883061777E+00 a       568     0    23     1    18
  2.8476771569427584E-01 a       569     0    23     1    19
 -9.1645272571282668E+00 a       570     0    23     1    20
  3.8750578448497071E+00 a       571     0    23     1    21
  4.1609715214369847E-01 a       572     0    23     1    22
  1.2357730756189335E+01 a       573     0    23     1    23
 -5.0519285605730913E+00 a       574     0    23     1    24
 -2.7632893038424542E+00 a       575     0    23     1    25
  9.4738463213928661E+00 a       576     0    24     1     1
 -2.5362311432334366E+00 a       577     0    24     1     2
 -1.2268242324939161E+01 a       578     0    24     1     3
  7.9061421619290835E+00 a       579     0    24     1     4
  1.0539726569903403E+01 a       580     0    24     1     5
 -6.3797783653087219E+00 a       581     0    24     1     6
 -1.4177696835725733E+01 a       582     0    24     1     7
 -4.6156928580692194E+00 a       583     0    24     1     8
  6.3132537211598283E+00 a       584     0    24     1     9
  1.8887507892262903E+01 a       585     0    24     1    10
 -1.2069885050832546E+01 a       586     0    24     1    11
  1.1183530607261476E+01 a       587     0    24     1    12
  7.2056821334149852E+00 a       588     0    24     1    13
 -2.3159371120509263E+01 a       589     0    24     1    14
 -1.1985643844839746E+01 a       590     0    24     1    15
  1.4710265220567070E+01 a       591     0    24     1    16
  1.8562745129096871E+01 a       592     0    24     1    17
  1.4826330637921812E+01 a       593     0    24     1    18
 -9.1706291234673415E-02 a       594     0    24     1    19
  9.5599325376791793E+00 a       595     0    24     1    20
 -1.5500522506766247E+01 a       596     0    24     1    21
 -4.0279973687131365E+00 a       597     0    24     1    22
 -1.2843351980761906E+01 a       598     0    24     1    23
  5.2577722042990276E+00 a       599     0    24     1    24
  2.8387805562348317E-01 a       600     0    24     1    25
 -6.9653745866283661E+00 a       601     0    25     1     1
  3.7596708302846271E+00 a       602     0    25     1     2
 -7.1099755958673025E+00 a       603     0    25     1     3
 -9.8020092564683203E+00 a       604     0    25     1     4
 -3.6625395621794459E+00 a       605     0    25     1     5
 -5.6976255658621309E+00 a       606     0    25     1     6
  5.1232693844759114E-01 a       607     0    25     1     7
 -5.3562910792605818E+00 a       608     0    25     1     8
  2.9928736892583383E+00 a       609     0    25     1     9
 -1.1986788486974794E+01 a       610     0    25     1    10
  1.2541751950335534E+01 a       611     0    25     1    11
 -4.8904744399762130E+00 a       612     0    25     1    12
 -1.2517871717311579E+01 a       613     0    25     1    13
  1.7601311789244992E-01 a       614     0    25     1    14
  1.5019784962869869E+00 a       615     0    25     1    15
 -1.5883570419800751E+01 a       616     0    25     1    16
 -1.7079612401530986E+00 a       617     0    25     1    17
 -2.2295323617615281E+01 a       618     0    25     1    18
 -3.4012905404893741E+00 a       619     0    25     1    19
  2.3478187378832476E+00 a       620     0    25     1    20
  2.2370096735428082E+00 a       621     0    25     1    21
  4.0230075176576188E+00 a       622     0    25     1    22
 -1.1800482820069632E+01 a       623     0    25     1    23
 -2.3371127007862893E+00 a       624     0    25     1    24
 -9.9302820949974571E+00 a       625     0    25     1    25
 -6.8423838128641412E-01 a       626     0    26     1     1
  6.6007117238438306E-01 a       627     0    26     1     2
  1.2241360846408888E+01 a       628     0    26     1     3
 -2.6072490206067482E+00 a       629     0    26     1     4
  9.0133570382689001E+00 a       630     0    26     1     5
 -2.3816390555211381E-01 a       631     0    26     1     6
 -2.5608849082596756E+00 a       632     0    26     1     7
 -6.9567191275983573E+00 a       633     0    26     1     8
  1.6298741229214230E+01 a       634     0    26     1     9
  1.1995489889077917E+00 a       635     0    26     1    10
  5.6011858028801900E+00 a       636     0    26     1    11
 -1.5325613074264185E+01 a       637     0    26     1    12
 -6.9730599534962456E+00 a       638     0    26     1    13
  2.5515519038766659E+00 a       639     0    26     1    14
  1.1055188524595701E+01 a       640     0    26     1    15
 -6.1595005277379027E+00 a       641     0    26     1    16
  6.0445381734594816E+00 a       642     0    26     1    17
  3.2669248960650630E+00 a       643     0    26     1    18
 -3.9830019591555021E-01 a       644     0    26     1    19
 -2.1318606744100656E+01 a       645     0    26     1    20
  4.3346628815838901E+00 a       646     0    26     1    21
  6.0196973388144448E-01 a       647     0    26     1    22
 -8.7412565128199127E+00 a       648     0    26     1    23
  1.0633295223681274E+00 a       649     0    26     1    24
 -9.1807249233618418E+00 a       650     0    26     1    25
 -1.0451420579109527E+00 a       651     0    27     1     1
 -4.4007271651498421E+00 a       652     0    27     1     2
 -8.5170686557145081E-01 a       653     0    27     1     3
 -2.9322607483930767E+01 a       654     0    27     1     4
 -1.4846515678259935E+01 a       655     0    27     1     5
 -1.2996972006209198E+01 a       656     0    27     1     6
  2.4054788307415940E+01 a       657     0    27     1     7
  2.2100434386347196E+01 a       658     0    27     1     8
 -1.5431680098175649E+01 a       659     0    27     1     9
 -1.4795094690014339E+00 a       660     0    27     1    10
  4.0590355375820080E+00 a       661     0    27     1    11
  1.4611551096642559E+00 a       662     0    27     1    12
  1.3447290665751375E+01 a       663     0    27     1    13
 -1.5113355237296055E+01 a       664     0    27     1    14
 -8.8923926466996335E+00 a       665     0    27     1    15
  2.8423571082912019E+01 a       666     0    27     1    16
 -3.3655638889384839E+01 a       667     0    27     1    17
  2.0981315151387143E+01 a       668     0    27     1    18
  1.2141485242989217E+01 a       669     0    27     1    19
  3.5623729786245297E+00 a       670     0    27     1    20
  5.1477354131777986E+00 a       671     0    27     1    21
  1.4270823659451633E+01 a       672     0    27     1    22
  1.2787104919911693E+01 a       673     0    27     1    23
 -4.8134459786202699E+00 a       674     0    27     1    24
  1.4748193881878693E+01 a       675     0    27     1    25
 -3.9942795143561942E+00 a       676     0    28     1     1
 -1.4300128651749875E+00 a       677     0    28     1     2
  2.0184937203419938E+01 a       678     0    28     1     3
  3.0638004021493149E+01 a       679     0    28     1     4
  1.0508032441016294E+01 a       680     0    28     1     5
  1.1991074001401975E+01 a       681     0    28     1     6
 -5.9255249272426413E-01 a       682     0    28     1     7
 -3.2121074351766699E-01 a       683     0    28     1     8
  2.7631342550566136E+00 a       684     0    28     1     9
  7.6030801584642091E+00 a       685     0    28     1    10
 -8.4700934597413511E+00 a       686     0    28     1    11
 -1.1517050029424707E+00 a       687     0    28     1    12
  3.1245547505835773E+00 a       688     0    28     1    13
  5.4101925016776331E+00 a       689     0    28     1    14
  3.6300196404522261E-01 a       690     0    28     1    15
 -2.6794776609732893E+00 a       691     0    28     1    16
 -1.9862428783577193E+00 a       692     0    28     1    17
  6.4565675235263340E+00 a       693     0    28     1    18
 -2.6392662819652473E+00 a       694     0    28     1    19
  5.8059745610477496E+00 a       695     0    28     1    20
 -5.7983237104606407E-02 a       696     0    28     1    21
 -9.0319282861973207E+00 a       697     0    28     1    22
  8.0435409634585380E+00 a       698     0    28     1    23
  7.3441688856650078E+00 a       699     0    28     1    24
  3.5511710166611383E+00 a       700     0    28     1    25
 -2.6047061214427081E+00 a       701     0    29     1     1
 -2.4405103638746337E+00 a       702     0    29     1     2
 -3.3878614805280107E+00 a       703     0    29     1     3
  1.0549212555681551E+00 a       704     0    29     1     4
 -1.2161742369441815E-01 a       705     0    29     1     5
  3.4173092472933281E-01 a       706     0    29     1     6
 -1.3463191076558927E+00 a       707     0    29     1     7
  4.4190813185882583E+00 a       708     0    29     1     8
  6.7290373717602980E+00 a       709     0    29     1     9
  4.4708500446680262E+00 a       710     0    29     1    10
 -1.0313889394571119E+00 a       711     0    29     1    11
 -9.9475035905133371E+00 a       712     0    29     1    12
 -6.6192834107379972E-01 a       713     0    29     1    13
 -2.0556548078687700E-01 a       714     0    29     1    14
 -3.9637318313418941E+00 a       715     0    29     1    15
 -1.2289869131131610E+00 a       716     0    29     1    16
 -5.4511723021114493E+00 a       717     0    29     1    17
 -8.0689509567176265E-01 a       718     0    29     1    18
 -3.1158306238821110E-01 a       719     0    29     1    19
  7.2639618766221525E-01 a       720     0    29     1    20
  5.1989489465562333E-01 a       721     0    29     1    21
  6.9303936820388694E+00 a       722     0    29     1    22
 -6.6201324352418949E+00 a       723     0    29     1    23
  4.0689424396497271E+00 a       724     0    29     1    24
 -1.1850066807578159E+00 a       725     0    29     1    25
  8.7614445974677557E-01 a       726     0    30     1     1
 -1.8048466064097568E+00 a       727     0    30     1     2
 -6.2221362133518614E+00 a       728     0    30     1     3
  5.7783559624093062E-01 a       729     0    30     1     4
 -3.4207102956426043E+00 a       730     0    30     1     5
  1.2680110199797543E+00 a       731     0    30     1     6
 -8.3685669057456086E-02 a       732     0    30     1     7
  3.2237039030594392E+00 a       733     0    30     1     8
 -3.7780540307154324E+00 a       734     0    30     1     9
 -7.0185057779406739E+00 a       735     0    30     1    10
  1.4317327703855180E+00 a       736     0    30     1    11
  5.8177953018665303E+00 a       737     0    30     1    12
  2.1837521288246124E+00 a       738     0    30     1    13
  3.5986915962468458E+00 a       739     0    30     1    14
  3.4754000595955024E+00 a       740     0    30     1    15
 -3.0663829893214753E+00 a       741     0    30     1    16
 -1.3822434976633107E+00 a       742     0    30     1    17
  1.5349468899146498E-01 a       743     0    30     1    18
  1.1569157833000427E+00 a       744     0    30     1    19
  1.2017528497041774E+00 a       745     0    30     1    20
 -1.2414711274636983E+00 a       746     0    30     1    21
 -4.5639218383633091E+00 a       747     0    30     1    22
  5.6494694171092759E+00 a       748     0    30     1    23
 -8.3048125390498895E-01 a       749     0    30     1    24
  4.3788743933084788E+00 a       750     0    30     1    25
  3.2976996036876777E-01 b       751     1     1
 -7.6753162149878262E-02 b       752     1     2
  5.2957291514779481E-01 b       753     1     3
  8.9967694000543574E-01 b       754     1     4
 -1.4669108620710516E+00 b       755     1     5
 -6.1441883725006319E-01 b       756     1     6
  5.3729477719502683E-01 b       757     1     7
 -2.2852808313159043E-01 b       758     1     8
  7.5683246092701884E-01 b       759     1     9
  9.2951180705933067E-01 b       760     1    10
 -1.6607837000359041E-01 b       761     1    11
  1.2855421885955671E+00 b       762     1    12
 -6.6351549790167119E-01 b       763     1    13
 -2.4554153398558296E-02 b       764     1    14
 -3.4339980484561178E-01 b       765     1    15
 -9.2553047933610888E-01 b       766     1    16
  9.7450171250037332E-01 b       767     1    17
  1.4835452165946514E-01 b       768     1    18
  9.7192598438043926E-02 b       769     1    19
  1.4752059506491437E+00 b       770     1    20
 -8.7661106403226696E-01 b       771     1    21
  1.0990160690790944E+00 b       772     1    22
  3.3964360560284529E-01 b       773     1    23
 -4.9161612149966977E-01 b       774     1    24
 -2.2839286644766421E-01 b       775     1    25
 -5.8908517584542821E+00 a       776     1     1     2     1
 -2.0913621285206658E+00 a       777     1     1     2     2
  4.5287721099327355E-01 a       778     1     1     2     3
 -9.8235822185197019E-01 a       779     1     1     2     4
  1.8679455781046309E-01 a       780     1     1     2     5
  7.2236409862688788E-01 a       781     1     1     2     6
 -1.0952128305447486E+00 a       782     1     1     2     7
 -1.2715812546640866E+00 a       783     1     1     2     8
  9.0926661808726572E-01 a       784     1     1     2     9
 -1.5287299627512634E+00 a       785     1     1     2    10
  7.9162623494062245E-01 a       786     1     1     2    11
  5.7949940694732494E-01 a       787     1     1     2    12
  1.6580990153167480E-01 a       788     1     1     2    13
  2.8397342861358628E-03 a       789     1     1     2    14
  1.8858318363343674E+00 a       790     1     1     2    15
 -3.7573668924575816E-03 a       791     1     1     2    16
  3.5872324603467060E-01 a       792     1     1     2    17
 -5.8854175207138615E-01 a       793     1     1     2    18
 -8.2185472978130292E-01 a       794     1     1     2    19
 -9.3392308437142760E-02 a       795     1     1     2    20
 -1.7781556156150089E+00 a       796     1     1     2    21
  2.4333445248996122E+00 a       797     1     1     2    22
  2.6159528101662080E+00 a       798     1     1     2    23
  7.7034620197358794E-01 a       799     1     1     2    24
  1.3112817938798338E-01 a       800     1     1     2    25
 -3.0547902668053291E+00 a       801     1     2     2     1
  7.1640054602300507E-01 a       802     1     2     2     2
 -6.8418235379502890E-01 a       803     1     2     2     3
  1.1963916155337171E+00 a       804     1     2     2     4
  8.3175164904418164E-01 a       805     1     2     2     5
 -1.2910667768601369E+00 a       806     1     2     2     6
  1.3940397843320076E-01 a       807     1     2     2     7
  8.9802293884228140E-02 a       808     1     2     2     8
 -5.3283620455482994E-01 a       809     1     2     2     9
 -4.5886266868700822E+00 a       810     1     2     2    10
  3.2591366420787798E-01 a       811     1     2     2    11
 -4.8808011861401129E-01 a       812     1     2     2    12
  6.6408389981572347E-01 a       813     1     2     2    13
 -1.3564016278739624E-01 a       814     1     2     2    14
  2.0093325565763637E-01 a       815     1     2     2    15
 -3.9414016160087695E-01 a       816     1     2     2    16
 -5.3456526125245230E-01 a       817     1     2     2    17
 -5.8961622120501145E-01 a       818     1     2     2    18
  4.2905576802589285E-01 a       819     1     2     2    19
 -7.4948646256489643E-02 a       820     1     2     2    20
  1.0795855120984683E+00 a       821     1     2     2    21
  5.1660712066031622E-01 a       822     1     2     2    22
 -2.1777845392686599E+00 a       823     1     2     2    23
  9.0219112100596155E-01 a       824     1     2     2    24
  1.4498455224726376E+00 a       825     1     2     2    25
  2.3760457370500982E+00 a       826     1     3     2     1
  2.4470575747650514E-01 a       827     1     3     2     2
 -2.3864404106650594E-01 a       828     1     3     2     3
  1.1607228558257655E-01 a       829     1     3     2     4
  9.2638823972992057E-02 a       830     1     3     2     5
 -1.2387124056627918E+00 a       831     1     3     2     6
 -1.1166384060830491E-02 a       832     1     3     2     7
  6.1419808757107369E-02 a       833     1     3     2     8
 -4.3598488389972007E-01 a       834     1     3     2     9
  6.9151515632030325E-01 a       835     1     3     2    10
 -4.1343329719297200E-01 a       836     1     3     2    11
 -6.7619125900519594E-01 a       837     1     3     2    12
  1.5110867240178822E+00 a       838     1     3     2    13
 -2.7782516058360712E-01 a       839     1     3     2    14
 -1.2798402235047135E+00 a       840     1     3     2    15
  5.9712559458208447E-01 a       841     1     3     2    16
  7.5894819511398548E-01 a       842     1     3     2    17
 -1.8361922269708919E+00 a       843     1     3     2    18
  6.4980046402745906E-01 a       844     1     3     2    19
  1.1060205746807641E+00 a       845     1     3     2    20
 -1.5634514153069341E+00 a       846     1     3     2    21
 -1.2680044537576531E+00 a       847     1     3     2    22
  4.1126675848448695E+00 a       848     1     3     2    23
 -8.0565419159902618E-02 a       849     1     3     2    24
  1.0713632203888714E+00 a       850     1     3     2    25
 -1.2782989695001217E+00 a       851     1     4     2     1
 -5.1972465317304858E-02 a       852     1     4     2     2
 -1.0867649641411736E+00 a       853     1     4     2     3
 -1.3135398025848977E+00 a       854     1     4     2     4
 -5.1982871921816276E-02 a       855     1     4     2     5
 -3.5935593906530818E+00 a       856     1     4     2     6
  1.3144262819841284E+00 a       857     1     4     2     7
  7.0754388470252050E-01 a       858     1     4     2     8
  7.2880068937171250E-01 a       859     1     4     2     9
 -3.4140141545172598E+00 a       860     1     4     2    10
 -2.0331589823022944E+00 a       861     1     4     2    11
 -2.1154137563026238E+00 a       862     1     4     2    12
  5.0853142281523345E-01 a       863     1     4     2    13
 -1.3920134415494716E+00 a       864     1     4     2    14
 -3.5999944432031787E+00 a       865     1     4     2    15
 -4.9781147829027450E-01 a       866     1     4     2    16
  8.7792449496928038E-01 a       867     1     4     2    17
 -2.0639856068607902E+00 a       868     1     4     2    18
  1.1797226213420740E+00 a       869     1     4     2    19
  1.0792638675226118E+00 a       870     1     4     2    20
  5.2451968596647465E+00 a       871     1     4     2    21
 -2.8460338700873771E+00 a       872     1     4     2    22
 -1.5909179246912686E+00 a       873     1     4     2    23
  3.0889771958836948E-01 a       874     1     4     2    24
  4.7602587778402219E+00 a       875     1     4     2    25
  7.2668111958270765E-01 a       876     1     5     2     1
  1.1911879823978331E+00 a       877     1     5     2     2
 -1.0408627662174885E+00 a       878     1     5     2     3
  8.5476990321248669E-02 a       879     1     5     2     4
 -3.1987869639473487E-01 a       880     1     5     2     5
 -5.7487550396295206E-01 a       881     1     5     2     6
 -4.4902054021672533E-01 a       882     1     5     2     7
  2.4758588717099797E-01 a       883     1     5     2     8
  5.0875967706178988E+00 a       884     1     5     2     9
 -2.9337180039564692E+00 a       885     1     5     2    10
  4.5817918171118122E-01 a       886     1     5     2    11
  1.6927135293597100E+00 a       887     1     5     2    12
  2.3370693642361644E+00 a       888     1     5     2    13
 -2.0461663341165151E-01 a       889     1     5     2    14
  5.4776988163510315E-02 a       890     1     5     2    15
  6.1130290019012101E-01 a       891     1     5     2    16
  4.7031353324201630E-01 a       892     1     5     2    17
  5.5245719372345892E-01 a       893     1     5     2    18
  8.0378467679470091E+00 a       894     1     5     2    19
  1.9855400588647576E+00 a       895     1     5     2    20
 -8.1174159093989473E-01 a       896     1     5     2    21
 -2.8573856916569711E+00 a       897     1     5     2    22
  5.2670966553870233E+00 a       898     1     5     2    23
  1.5132999882210110E+00 a       899     1     5     2    24
  6.0542148570792911E+00 a       900     1     5     2    25
 -1.4078538701918921E+00 a       901     1     6     2     1
 -5.4799218584955611E-01 a       902     1     6     2     2
  1.5587272154176429E-01 a       903     1     6     2     3
  1.0839285667757406E+00 a       904     1     6     2     4
  2.1666525286428695E-01 a       905     1     6     2     5
  9.3263653513548525E-02 a       906     1     6     2     6
 -3.0612026016294772E-02 a       907     1     6     2     7
 -8.7154566460998506E-01 a       908     1     6     2     8
  1.3934441214317003E-01 a       909     1     6     2     9
  1.2878210442412805E+00 a       910     1     6     2    10
 -2.7822735486696848E-01 a       911     1     6     2    11
 -7.5794386701777761E-01 a       912     1     6     2    12
  4.0882378268145902E-01 a       913     1     6     2    13
 -4.6927306197597152E-01 a       914     1     6     2    14
 -1.2104091784344238E-01 a       915     1     6     2    15
  6.2503336594907910E-01 a       916     1     6     2    16
 -1.0721041807888161E+00 a       917     1     6     2    17
  7.8054931552807061E-01 a       918     1     6     2    18
  1.3613210727055469E+00 a       919     1     6     2    19
 -3.8704580176559972E-01 a       920     1     6     2    20
  4.9902818068767845E+00 a       921     1     6     2    21
 -2.3891867347766267E+00 a       922     1     6     2    22
 -1.8975665325495361E+00 a       923     1     6     2    23
  3.2082333815764796E-01 a       924     1     6     2    24
  1.6689374070079854E+00 a       925     1     6     2    25
  2.5996153141520773E+00 a       926     1     7     2     1
  8.7456136199693657E-01 a       927     1     7     2     2
  1.0858574435313284E+00 a       928     1     7     2     3
  2.3238142594746511E+00 a       929     1     7     2     4
  4.6614993198518140E-02 a       930     1     7     2     5
  4.3578502615682385E-01 a       931     1     7     2     6
 -1.1934807282410993E+00 a       932     1     7     2     7
  1.9347162211198241E+00 a       933     1     7     2     8
 -3.2308052341130344E-01 a       934     1     7     2     9
 -6.8693735717626436E-01 a       935     1     7     2    10
 -7.9325244471182077E-01 a       936     1     7     2    11
 -2.4755980474403381E+00 a       937     1     7     2    12
  1.0374435667251840E+00 a       938     1     7     2    13
 -6.6933035812808361E-01 a       939     1     7     2    14
  7.6783735630117733E-01 a       940     1     7     2    15
 -5.6926278400607662E-02 a       941     1     7     2    16
 -6.0353094278885144E-01 a       942     1     7     2    17
 -2.8544930280127563E+00 a       943     1     7     2    18
 -1.6087185839159248E+00 a       944     1     7     2    19
 -7.2381157085884262E-01 a       945     1     7     2    20
  2.9692034321769820E+00 a       946     1     7     2    21
  5.3839692138927281E-02 a       947     1     7     2    22
  4.8009468375976933E-01 a       948     1     7     2    23
  9.3810228749111518E-02 a       949     1     7     2    24
 -2.0955410160597516E+00 a       950     1     7     2    25
  2.3233186848891507E+00 a       951     1     8     2     1
 -8.2584989282428289E-01 a       952     1     8     2     2
 -8.1754672367345493E-01 a       953     1     8     2     3
 -2.1133392997602232E-01 a       954     1     8     2     4
  1.9541221474908031E-02 a       955     1     8     2     5
  1.1594444917573479E+00 a       956     1     8     2     6
  1.4601096001802396E+00 a       957     1     8     2     7
  9.1372803255810364E-01 a       958     1     8     2     8
  6.9509920756625398E-01 a       959     1     8     2     9
  6.2456655930282923E-01 a       960     1     8     2    10
  6.4855725702015166E-01 a       961     1     8     2    11
 -4.2022514962350010E-01 a       962     1     8     2    12
 -9.0811240657766301E-01 a       963     1     8     2    13
  3.3680368840187608E-01 a       964     1     8     2    14
  1.1169015908325419E+00 a       965     1     8     2    15
 -5.1233337412587643E-01 a       966     1     8     2    16
 -5.5320793121008494E-01 a       967     1     8     2    17
  9.3599914839600240E-01 a       968     1     8     2    18
  6.7433707322522685E-01 a       969     1     8     2    19
 -3.7849030588103488E-01 a       970     1     8     2    20
 -2.2028781865460831E+00 a       971     1     8     2    21
  1.5877219737008674E-01 a       972     1     8     2    22
 -3.7995590172594129E+00 a       973     1     8     2    23
 -8.2371018469596335E-01 a       974     1     8     2    24
 -1.1712057969362175E+00 a       975     1     8     2    25
  8.7628361974167535E-01 a       976     1     9     2     1
 -4.4867754760753260E-03 a       977     1     9     2     2
 -4.3776904492820717E-01 a       978     1     9     2     3
 -1.2037943289398929E+00 a       979     1     9     2     4
 -9.2914350101498666E-01 a       980     1     9     2     5
  6.1632279153346614E-01 a       981     1     9     2     6
 -2.0213177543706768E+00 a       982     1     9     2     7
 -1.0932389301778918E-01 a       983     1     9     2     8
  4.6518784673679747E-01 a       984     1     9     2     9
 -6.7264757872727210E-01 a       985     1     9     2    10
 -5.0875443521893260E-01 a       986     1     9     2    11
  6.5349517467521345E-01 a       987     1     9     2    12
 -8.3081751299065498E-01 a       988     1     9     2    13
  7.0248658360915539E-01 a       989     1     9     2    14
  1.0186346926327829E+00 a       990     1     9     2    15
 -1.0485541318597176E-01 a       991     1     9     2    16
  1.1837504354702677E+00 a       992     1     9     2    17
 -3.5120636878869715E-01 a       993     1     9     2    18
 -1.0967549030845767E+00 a       994     1     9     2    19
 -1.2917485866769735E-01 a       995     1     9     2    20
 -8.4559789268034355E-02 a       996     1     9     2    21
  6.9852268936768247E-01 a       997     1     9     2    22
  7.6071829029337419E+00 a       998     1     9     2    23
 -1.7657150367306729E-01 a       999     1     9     2    24
 -2.0449130003488878E+00 a      1000     1     9     2    25
 -8.0747549884968048E+00 a      1001     1    10     2     1
 -8.8634792958566799E-01 a      1002     1    10     2     2
 -4.6127086081764407E-01 a      1003     1    10     2     3
 -3.7334467540371374E-01 a      1004     1    10     2     4
 -4.3054004910279492E-01 a      1005     1    10     2     5
  2.6993881584011410E+00 a      1006     1    10     2     6
 -9.8429735845119781E-01 a      1007     1    10     2     7
 -1.2241382307669315E+00 a      1008     1    10     2     8
  2.9216483281734784E-01 a      1009     1    10     2     9
 -1.5861713358593083E-01 a      1010     1    10     2    10
  7.3302611207510793E-01 a      1011     1    10     2    11
  1.0063211918156738E+00 a      1012     1    10     2    12
  8.5455170321334495E-01 a      1013     1    10     2    13
  2.7292552730774866E-01 a      1014     1    10     2    14
 -7.8320852806125885E-01 a      1015     1    10     2    15
 -6.2618073244068029E-01 a      1016     1    10     2    16
 -4.9591262807377240E-01 a      1017     1    10     2    17
  2.4541963783544118E+00 a      1018     1    10     2    18
 -6.2156991881826251E-01 a      1019     1    10     2    19
  1.0571473302241088E+00 a      1020     1    10     2    20
 -3.1732621807636856E+00 a      1021     1    10     2    21
  7.7456805368502890E-01 a      1022     1    10     2    22
 -8.3119329317008683E-01 a      1023     1    10     2    23
  1.2193713320805999E+00 a      1024     1    10     2    24
  3.6491994693939334E+00 a      1025     1    10     2    25
 -2.6856055178254272E+00 a      1026     1    11     2     1
 -1.0116949528231027E+00 a      1027     1    11     2     2
 -9.9540352829095990E-01 a      1028     1    11     2     3
  4.3004342763359571E-02 a      1029     1    11     2     4
  2.7933117755600650E-01 a      1030     1    11     2     5
  9.0396270304770243E-01 a      1031     1    11     2     6
  3.9679555730976862E-01 a      1032     1    11     2     7
 -5.5973501509742940E-01 a      1033     1    11     2     8
 -4.1504891491253493E-01 a      1034     1    11     2     9
 -3.5262777924993982E-01 a      1035     1    11     2    10
 -1.0411176788136034E+00 a      1036     1    11     2    11
 -9.0297716220909041E-01 a      1037     1    11     2    12
 -6.2427433518956917E-03 a      1038     1    11     2    13
 -1.6812412098279322E-01 a      1039     1    11     2    14
 -1.8167103149720734E+00 a      1040     1    11     2    15
 -6.6199797506103031E-01 a      1041     1    11     2    16
  4.0884104981586794E-01 a      1042     1    11     2    17
  4.9067363709609785E-01 a      1043     1    11     2    18
  2.5534477378097088E-02 a      1044     1    11     2    19
  8.6068474736695688E-01 a      1045     1    11     2    20
  1.8371584280919242E+00 a      1046     1    11     2    21
 -1.0803190520545298E+00 a      1047     1    11     2    22
 -2.5371231215621144E+00 a      1048     1    11     2    23
 -1.5358385770601988E+00 a      1049     1    11     2    24
 -3.1907792770247383E+00 a      1050     1    11     2    25
  4.6030306883078792E-01 a      1051     1    12     2     1
 -3.0963499876239947E-01 a      1052     1    12     2     2
 -1.0940004983246108E+00 a      1053     1    12     2     3
 -4.1750065497929228E-01 a      1054     1    12     2     4
  2.5736770603218386E+00 a      1055     1    12     2     5
 -9.8062961761113654E-01 a      1056     1    12     2     6
 -1.0532218410010987E+00 a      1057     1    12     2     7
 -3.5725645436127675E+00 a      1058     1    12     2     8
  1.4096393935559531E-01 a      1059     1    12     2     9
  1.9946976601289310E+00 a      1060     1    12     2    10
  1.8435722699276744E+00 a      1061     1    12     2    11
 -2.0438788102041411E-01 a      1062     1    12     2    12
 -2.5425038881685696E-01 a      1063     1    12     2    13
  9.5772099909966525E-03 a      1064     1    12     2    14
  1.2217328473820388E+00 a      1065     1    12     2    15
  2.0820408515687849E+00 a      1066     1    12     2    16
  8.8699528862869104E-01 a      1067     1    12     2    17
  2.4678094032754410E+00 a      1068     1    12     2    18
 -1.4687085911859508E+00 a      1069     1    12     2    19
 -4.2093073660998417E-02 a      1070     1    12     2    20
 -3.2697025479251804E+00 a      1071     1    12     2    21
  4.4495952247262833E+00 a      1072     1    12     2    22
 -2.5500477175213829E+00 a      1073     1    12     2    23
  1.5426557479411622E+00 a      1074     1    12     2    24
 -4.3415918398091247E+00 a      1075     1    12     2    25
 -1.7837709723341921E+00 a      1076     1    13     2     1
  6.1765521974326089E-02 a      1077     1    13     2     2
  1.4270144943346930E-01 a      1078     1    13     2     3
  9.6877797086914308E-01 a      1079     1    13     2     4
 -3.8646359298400235E-01 a      1080     1    13     2     5
 -6.0257789082689994E-01 a      1081     1    13     2     6
 -6.1333483983045078E-01 a      1082     1    13     2     7
 -6.5924706654526399E-01 a      1083     1    13     2     8
  1.3577887408597951E+00 a      1084     1    13     2     9
  5.5233747012811663E-01 a      1085     1    13     2    10
  3.0399128682584076E-01 a      1086     1    13     2    11
  1.2571290273194094E-01 a      1087     1    13     2    12
  3.0141690728843917E-01 a      1088     1    13     2    13
  1.5586546563560341E-01 a      1089     1    13     2    14
  2.0214921383231643E+00 a      1090     1    13     2    15
  3.3127896825896652E-01 a      1091     1    13     2    16
 -4.4476447583914724E-01 a      1092     1    13     2    17
 -6.2761412512460968E-01 a      1093     1    13     2    18
 -4.9427182431196892E-01 a      1094     1    13     2    19
  1.3983388512561243E-01 a      1095     1    13     2    20
  2.3002496577740685E+00 a      1096     1    13     2    21
  1.6701239103859009E+00 a      1097     1    13     2    22
  1.4994823080328907E+00 a      1098     1    13     2    23
  3.9537178110787974E-01 a      1099     1    13     2    24
  5.8398220926075173E-01 a      1100     1    13     2    25
  8.5295201345779237E-01 a      1101     1    14     2     1
 -5.2839167849903323E-01 a      1102     1    14     2     2
  1.2118820764567373E+00 a      1103     1    14     2     3
  1.7954759082816425E+00 a      1104     1    14     2     4
  1.8747124299625395E-01 a      1105     1    14     2     5
  5.6017574192285047E-01 a      1106     1    14     2     6
 -1.7110522199101674E-01 a      1107     1    14     2     7
  8.3896462942648653E-01 a      1108     1    14     2     8
 -1.4616181471345491E+00 a      1109     1    14     2     9
  8.5959907109993361E-01 a      1110     1    14     2    10
 -1.4403152519951887E-01 a      1111     1    14     2    11
 -5.0813687652801176E-01 a      1112     1    14     2    12
 -9.7981782688599128E-01 a      1113     1    14     2    13
  7.7753224886522421E-01 a      1114     1    14     2    14
 -5.9844735095640156E-01 a      1115     1    14     2    15
  3.4650752103169025E-01 a      1116     1    14     2    16
 -5.8711794319937194E-01 a      1117     1    14     2    17
 -1.3706594054270902E+00 a      1118     1    14     2    18
 -1.1422652077233137E+00 a      1119     1    14     2    19
  8.0707171356885204E-04 a      1120     1    14     2    20
  1.4089178119149774E+00 a      1121     1    14     2    21
 -2.0868443512620523E-02 a      1122     1    14     2    22
  2.4765810938521640E-01 a      1123     1    14     2    23
 -4.5822482418987104E-01 a      1124     1    14     2    24
 -6.2760190470460109E-02 a      1125     1    14     2    25
 -6.3051316449413697E-01 a      1126     1    15     2     1
 -8.5568766828554729E-02 a      1127     1    15     2     2
  1.2623012829197652E-01 a      1128     1    15     2     3
 -2.6333284380527960E-01 a      1129     1    15     2     4
 -1.6789499972196012E-01 a      1130     1    15     2     5
 -1.6739915035010851E+00 a      1131     1    15     2     6
  7.5150164741418890E-01 a      1132     1    15     2     7
  1.4850802285946663E+00 a      1133     1    15     2     8
  1.3679527143714523E+00 a      1134     1    15     2     9
  2.2702130106994698E+00 a      1135     1    15     2    10
 -9.0423742617082359E-01 a      1136     1    15     2    11
 -4.0104658105606300E-01 a      1137     1    15     2    12
  3.8900726826654108E-01 a      1138     1    15     2    13
 -5.4951242988164040E-01 a      1139     1    15     2    14
 -1.7241979783027172E-02 a      1140     1    15     2    15
 -2.5629230309678513E-01 a      1141     1    15     2    16
 -1.6129459175130396E+00 a      1142     1    15     2    17
 -1.4034841005534375E+00 a      1143     1    15     2    18
  1.1341665130800804E+00 a      1144     1    15     2    19
  1.1213024535918692E-01 a      1145     1    15     2    20
  3.7656367590986606E+00 a      1146     1    15     2    21
  7.3019329240980635E-01 a      1147     1    15     2    22
 -2.5611761254488857E-01 a      1148     1    15     2    23
 -4.8540953698913802E-01 a      1149     1    15     2    24
  1.3692262226307499E+00 a      1150     1    15     2    25
  1.6494141683657493E+00 a      1151     1    16     2     1
 -9.6390345736239269E-01 a      1152     1    16     2     2
  2.0793522726329236E-01 a      1153     1    16     2     3
 -5.7374450018525558E-01 a      1154     1    16     2     4
 -9.8733160966737721E-01 a      1155     1    16     2     5
  6.5807844696554119E-01 a      1156     1    16     2     6
  3.2247433911740793E-02 a      1157     1    16     2     7
 -2.4521651144191488E+00 a      1158     1    16     2     8
 -3.0303442815675607E+00 a      1159     1    16     2     9
  2.2159579109757380E-01 a      1160     1    16     2    10
 -7.4309660254871501E-01 a      1161     1    16     2    11
 -2.9049753431162834E-01 a      1162     1    16     2    12
  3.1668098555699156E+00 a      1163     1    16     2    13
 -1.2261594986593347E+00 a      1164     1    16     2    14
  1.0349812541428842E+00 a      1165     1    16     2    15
  1.7121815269407428E+00 a      1166     1    16     2    16
  8.0358012812129054E-01 a      1167     1    16     2    17
 -1.3675359756343288E+00 a      1168     1    16     2    18
 -4.6006123916898067E-01 a      1169     1    16     2    19
 -2.5878505755147092E+00 a      1170     1    16     2    20
 -2.9512006713160228E+00 a      1171     1    16     2    21
 -1.1058407528187431E+00 a      1172     1    16     2    22
  8.9298442903850317E-01 a      1173     1    16     2    23
 -9.9725253604444308E-01 a      1174     1    16     2    24
 -1.8425500935308365E+00 a      1175     1    16     2    25
 -1.8570790778452546E+00 a      1176     1    17     2     1
 -6.3973968207352483E-01 a      1177     1    17     2     2
  2.0052987685530210E-01 a      1178     1    17     2     3
  2.2185837483654831E+00 a      1179     1    17     2     4
 -6.0198667595147914E-01 a      1180     1    17     2     5
  2.3405835273964992E-01 a      1181     1    17     2     6
  3.3196570543138565E-01 a      1182     1    17     2     7
  1.2991668836547232E+00 a      1183     1    17     2     8
  1.5143648879673921E+00 a      1184     1    17     2     9
  1.7917556495597248E-01 a      1185     1    17     2    10
  6.5534517793332372E-02 a      1186     1    17     2    11
 -5.9191948460177024E-01 a      1187     1    17     2    12
  1.2750933232410862E+00 a      1188     1    17     2    13
 -1.5608383187707420E+00 a      1189     1    17     2    14
 -4.8452426559440576E-01 a      1190     1    17     2    15
  5.6869904306512328E-02 a      1191     1    17     2    16
 -1.3745314092035921E+00 a      1192     1    17     2    17
 -9.3363971641325649E-01 a      1193     1    17     2    18
  1.2301554196497246E+00 a      1194     1    17     2    19
 -2.4104104828665646E-01 a      1195     1    17     2    20
  6.6198296290777559E-01 a      1196     1    17     2    21
 -1.5152727297809043E+00 a      1197     1    17     2    22
 -5.6537663778771396E-01 a      1198     1    17     2    23
 -4.0752023749644689E-01 a      1199     1    17     2    24
 -9.0608531726854380E-01 a      1200     1    17     2    25
  2.8033128399492440E+00 a      1201     1    18     2     1
 -8.3666510516204506E-01 a      1202     1    18     2     2
  4.7953835552796820E-01 a      1203     1    18     2     3
  2.9366893922704856E-01 a      1204     1    18     2     4
 -1.3407438479056275E+00 a      1205     1    18     2     5
  2.0149219645963756E-01 a      1206     1    18     2     6
 -7.1078447275601489E-02 a      1207     1    18     2     7
  6.8753704488081457E-01 a      1208     1    18     2     8
  1.0614745034105677E+00 a      1209     1    18     2     9
 -5.1972296801419360E-01 a      1210     1    18     2    10
  4.2568809194098922E-01 a      1211     1    18     2    11
  1.1283129901890967E+00 a      1212     1    18     2    12
  3.2368449527546245E-01 a      1213     1    18     2    13
 -4.8104595431142377E-01 a      1214     1    18     2    14
 -4.4478850619894661E-01 a      1215     1    18     2    15
  7.5342013209859982E-01 a      1216     1    18     2    16
 -7.5251058833923024E-01 a      1217     1    18     2    17
 -3.2851254846358019E-01 a      1218     1    18     2    18
 -5.8774560188315617E-01 a      1219     1    18     2    19
 -1.1508334029793323E+00 a      1220     1    18     2    20
 -1.1354296884739232E+00 a      1221     1    18     2    21
 -2.7200286001651858E-01 a      1222     1    18     2    22
 -3.8397527569339713E+00 a      1223     1    18     2    23
  2.2605209148377950E-01 a      1224     1    18     2    24
  1.1365846684759007E+00 a      1225     1    18     2    25
 -5.3912432672650032E+00 a      1226     1    19     2     1
  4.5845696130825303E-01 a      1227     1    19     2     2
  7.0709208368568310E-01 a      1228     1    19     2     3
 -1.3973599899226747E+00 a      1229     1    19     2     4
  3.0071504252034847E-01 a      1230     1    19     2     5
 -5.4197295981474947E-01 a      1231     1    19     2     6
  7.4376471223405460E-01 a      1232     1    19     2     7
 -2.5079217516979186E+00 a      1233     1    19     2     8
  2.0592046605772945E+00 a      1234     1    19     2     9
  6.5654373849726466E-01 a      1235     1    19     2    10
 -9.0407721196091848E-02 a      1236     1    19     2    11
  1.5566506128138184E+00 a      1237     1    19     2    12
 -9.4986537106149321E-02 a      1238     1    19     2    13
 -2.3530503270088396E-01 a      1239     1    19     2    14
  3.6439425212581661E-01 a      1240     1    19     2    15
  1.2871636736138770E+00 a      1241     1    19     2    16
 -8.4712787652121069E-01 a      1242     1    19     2    17
 -1.0234220464653516E+00 a      1243     1    19     2    18
 -1.3802013894870373E+00 a      1244     1    19     2    19
  4.6238544527464259E-01 a      1245     1    19     2    20
 -3.1736140472371468E+00 a      1246     1    19     2    21
  1.7897235482645921E+00 a      1247     1    19     2    22
 -1.2075712900497950E+00 a      1248     1    19     2    23
 -3.1032297572767770E-01 a      1249     1    19     2    24
  2.1706205401676661E+00 a      1250     1    19     2    25
  6.9973782486580109E+00 a      1251     1    20     2     1
  2.9325190821916197E-01 a      1252     1    20     2     2
 -1.2648655109330131E+00 a      1253     1    20     2     3
 -4.3905910522706337E-01 a      1254     1    20     2     4
  4.2887555555714030E-01 a      1255     1    20     2     5
  1.3300944280643934E+00 a      1256     1    20     2     6
  1.0988390404457922E+00 a      1257     1    20     2     7
  2.3801051936039075E+00 a      1258     1    20     2     8
  1.1789379212300943E-01 a      1259     1    20     2     9
  3.9144297908957699E+00 a      1260     1    20     2    10
  5.5000952527940228E-01 a      1261     1    20     2    11
  2.4087943927489916E-01 a      1262     1    20     2    12
 -3.7997171313505251E-01 a      1263     1    20     2    13
 -5.4744714104500347E-01 a      1264     1    20     2    14
  8.9095280999944937E-01 a      1265     1    20     2    15
 -8.7130940035564164E-01 a      1266     1    20     2    16
  3.7900358553306007E-01 a      1267     1    20     2    17
  2.1342515402584987E+00 a      1268     1    20     2    18
  1.2475880574414706E+00 a      1269     1    20     2    19
  7.8956439485340524E-01 a      1270     1    20     2    20
  4.6968348528891219E+00 a      1271     1    20     2    21
  2.4464240930319816E+00 a      1272     1    20     2    22
 -5.7785142905302376E+00 a      1273     1    20     2    23
 -2.3074149497856417E-01 a      1274     1    20     2    24
 -2.6800082940155296E+00 a      1275     1    20     2    25
 -3.2729577955630704E+00 a      1276     1    21     2     1
 -1.2928637501931926E+00 a      1277     1    21     2     2
 -2.2664219916515152E-01 a      1278     1    21     2     3
  6.8197406796553048E-02 a      1279     1    21     2     4
  2.2800043902454539E-01 a      1280     1    21     2     5
 -1.4547709606717896E+00 a      1281     1    21     2     6
 -8.9797316703694119E-02 a      1282     1    21     2     7
 -7.9615421262219899E-01 a      1283     1    21     2     8
 -2.5074736863647562E-01 a      1284     1    21     2     9
 -3.2383137185187805E-01 a      1285     1    21     2    10
 -7.7486670060442631E-01 a      1286     1    21     2    11
 -1.7378145875987788E-01 a      1287     1    21     2    12
  1.7001762592878558E+00 a      1288     1    21     2    13
 -1.7033999809142997E+00 a      1289     1    21     2    14
  3.7961258225336264E-01 a      1290     1    21     2    15
  6.0929689839357426E-01 a      1291     1    21     2    16
 -1.9171250145280534E+00 a      1292     1    21     2    17
 -1.6594854242769004E+00 a      1293     1    21     2    18
 -2.8219229087100910E+00 a      1294     1    21     2    19
 -4.3902463688638738E-01 a      1295     1    21     2    20
 -1.1744026035352828E+00 a      1296     1    21     2    21
  3.9648025457334164E+00 a      1297     1    21     2    22
 -1.3587513635268793E+00 a      1298     1    21     2    23
  3.9463311556495906E-02 a      1299     1    21     2    24
 -4.6280624473662763E-01 a      1300     1    21     2    25
  8.3725910272757709E+00 a      1301     1    22     2     1
  1.2030400911595496E+00 a      1302     1    22     2     2
  5.2723639396495003E-01 a      1303     1    22     2     3
  2.4863416823271995E+00 a      1304     1    22     2     4
  5.0656775645932173E-01 a      1305     1    22     2     5
  7.8889662692367113E-01 a      1306     1    22     2     6
  2.7467021112668549E-01 a      1307     1    22     2     7
  3.5551997281423904E+00 a      1308     1    22     2     8
 -6.9074567194666425E-01 a      1309     1    22     2     9
  9.2831069742658789E-01 a      1310     1    22     2    10
 -2.7305664188353734E-01 a      1311     1    22     2    11
 -1.6732686793215996E+00 a      1312     1    22     2    12
 -1.2508123463191103E+00 a      1313     1    22     2    13
  1.4253551144285490E+00 a      1314     1    22     2    14
 -1.2730453204508483E+00 a      1315     1    22     2    15
 -5.6234386233504563E-01 a      1316     1    22     2    16
  4.7348930208036427E-01 a      1317     1    22     2    17
  1.4228359329011722E+00 a      1318     1    22     2    18
 -3.0896237212805277E-02 a      1319     1    22     2    19
 -7.7625773033108136E-01 a      1320     1    22     2    20
  5.1571228251110171E-02 a      1321     1    22     2    21
 -1.5781774955827834E+00 a      1322     1    22     2    22
 -1.7313703986673430E+00 a      1323     1    22     2    23
 -1.3316987118953665E+00 a      1324     1    22     2    24
 -7.0760527312605037E-01 a      1325     1    22     2    25
 -8.1466385165616928E-01 a      1326     1    23     2     1
  6.8912340727205368E-01 a      1327     1    23     2     2
  8.4582890184800619E-01 a      1328     1    23     2     3
  3.8163700575566650E-01 a      1329     1    23     2     4
 -6.6556600373886232E-01 a      1330     1    23     2     5
 -1.3399458536680564E+00 a      1331     1    23     2     6
 -1.7425009694107033E-01 a      1332     1    23     2     7
 -2.6104662248332646E+00 a      1333     1    23     2     8
 -1.9788280313555501E-01 a      1334     1    23     2     9
 -4.6341960827595043E+00 a      1335     1    23     2    10
 -4.1560774205921192E-01 a      1336     1    23     2    11
 -1.3453315295733928E-01 a      1337     1    23     2    12
  5.9251987079212687E-01 a      1338     1    23     2    13
  1.3014540212114664E-01 a      1339     1    23     2    14
  2.4962768316839337E-01 a      1340     1    23     2    15
  3.3868458734074913E-01 a      1341     1    23     2    16
 -2.1103970517135956E-01 a      1342     1    23     2    17
 -2.7311756320323316E-01 a      1343     1    23     2    18
  7.7825779463422798E-02 a      1344     1    23     2    19
 -1.5510879185574573E+00 a      1345     1    23     2    20
 -3.3731285186903501E+00 a      1346     1    23     2    21
  1.5012690395440691E+00 a      1347     1    23     2    22
 -1.4938786629136067E+00 a      1348     1    23     2    23
  1.5155834326942672E-01 a      1349     1    23     2    24
  2.2135367884980521E+00 a      1350     1    23     2    25
  7.6092107307961931E-01 a      1351     1    24     2     1
  2.5019321183393825E-02 a      1352     1    24     2     2
  2.4714648764760871E-01 a      1353     1    24     2     3
 -4.2700090187223255E-01 a      1354     1    24     2     4
  1.9684439924637190E-01 a      1355     1    24     2     5
 -1.6150658390090172E-01 a      1356     1    24     2     6
 -8.4941771549071021E-01 a      1357     1    24     2     7
  3.2616941337700417E-01 a      1358     1    24     2     8
 -6.0235251095177200E-01 a      1359     1    24     2     9
  2.0073315297316108E+00 a      1360     1    24     2    10
  6.8678637919958119E-01 a      1361     1    24     2    11
 -1.4709309602563259E+00 a      1362     1    24     2    12
 -7.3119546383323997E-01 a      1363     1    24     2    13
  5.9624465461749732E-01 a      1364     1    24     2    14
  1.1965703107989687E+00 a      1365     1    24     2    15
 -4.8078015734066326E-01 a      1366     1    24     2    16
  2.8731897539798784E-01 a      1367     1    24     2    17
  2.8943049077679879E+00 a      1368     1    24     2    18
  4.4309374097560666E-01 a      1369     1    24     2    19
 -5.2571668466848664E-01 a      1370     1    24     2    20
  2.6293009755349539E+00 a      1371     1    24     2    21
  1.1166360248787797E+00 a      1372     1    24     2    22
  1.4367909042068954E+00 a      1373     1    24     2    23
  1.2263949730702137E+00 a      1374     1    24     2    24
 -1.5658327417588482E+00 a      1375     1    24     2    25
 -3.0524380712257440E+00 a      1376     1    25     2     1
 -1.6248402538917406E-01 a      1377     1    25     2     2
  5.3725239557723847E-01 a      1378     1    25     2     3
 -3.1435543583372311E-01 a      1379     1    25     2     4
  8.0294309812719877E-01 a      1380     1    25     2     5
 -3.3745709161028831E-01 a      1381     1    25     2     6
  2.9618139473335392E-01 a      1382     1    25     2     7
 -1.3606606680314999E+00 a      1383     1    25     2     8
  2.9886863438452965E-01 a      1384     1    25     2     9
  3.4365095196288835E+00 a      1385     1    25     2    10
  2.8778063903425566E-01 a      1386     1    25     2    11
 -5.2312889094867954E-01 a      1387     1    25     2    12
  4.5730896273705224E-01 a      1388     1    25     2    13
 -8.8949447500584955E-01 a      1389     1    25     2    14
 -8.1389897744929640E-01 a      1390     1    25     2    15
 -4.0077086298379117E-01 a      1391     1    25     2    16
  7.2544627916775950E-01 a      1392     1    25     2    17
 -9.8029709488119798E-01 a      1393     1    25     2    18
  8.5017837869712165E-01 a      1394     1    25     2    19
 -2.9795775527520296E-01 a      1395     1    25     2    20
  1.1940911570260535E+00 a      1396     1    25     2    21
 -4.1259772504588357E-02 a      1397     1    25     2    22
  1.0619824936744515E+00 a      1398     1    25     2    23
 -6.5325825341918264E-01 a      1399     1    25     2    24
  3.7575240210802421E+00 a      1400     1    25     2    25
 -1.0787018434494783E+01 b      1401     2     1
 -8.4067078142086771E-01 b      1402     2     2
  9.3201271110229211E-01 b      1403     2     3
 -1.8318272256547821E+00 b      1404     2     4
 -2.1732436845179119E+00 b      1405     2     5
 -2.6390929073478930E+00 b      1406     2     6
  3.7489748853957300E-01 b      1407     2     7
 -2.3789675524866163E+00 b      1408     2     8
  2.7252644932624959E+00 b      1409     2     9
  2.5100559841854970E+00 b      1410     2    10
 -2.4897033671113025E-01 b      1411     2    11
  2.6913296692082476E+00 b      1412     2    12
  5.8162695990329221E+00 b      1413     2    13
 -1.5170700889568940E+00 b      1414     2    14
  4.2121259244130220E+00 b      1415     2    15
  2.2987725066596130E+00 b      1416     2    16
 -7.1493650128731911E-01 b      1417     2    17
 -3.9961443472349811E-01 b      1418     2    18
  7.8083705485664430E+00 b      1419     2    19
 -4.0462773256448170E-01 b      1420     2    20
 -1.4333029489891109E+00 b      1421     2    21
 -4.9517224038431467E+00 b      1422     2    22
  1.0702867307710989E+01 b      1423     2    23
 -9.7535853921453985E-01 b      1424     2    24
  5.3161969295054172E+00 b      1425     2    25
 -5.1941647295982207E-01 a      1426     2     1     3     1
 -7.7346657642095373E-01 a      1427     2     2     3     1
  1.4003893583106508E+00 a      1428     2     3     3     1
  8.9188080044914464E-01 a      1429     2     4     3     1
 -2.0147808233792022E+00 a      1430     2     5     3     1
 -1.8131831735812174E+00 a      1431     2     6     3     1
  3.3217884596641700E+00 a      1432     2     7     3     1
 -1.2675289031787327E+00 a      1433     2     8     3     1
 -1.2791140359120716E+00 a      1434     2     9     3     1
  1.9731828075446340E+00 a      1435     2    10     3     1
 -2.3928332883234411E+00 a      1436     2    11     3     1
 -1.1755085043375486E+00 a      1437     2    12     3     1
  2.6525670286472951E+00 a      1438     2    13     3     1
 -2.4861988521743901E+00 a      1439     2    14     3     1
  1.2534500349238071E+00 a      1440     2    15     3     1
  2.8804282010183990E+00 a      1441     2    16     3     1
 -2.0327745898215275E+00 a      1442     2    17     3     1
 -1.1760164122204946E+00 a      1443     2    18     3     1
 -9.9841804355412322E-01 a      1444     2    19     3     1
 -1.8663330516323837E+00 a      1445     2    20     3     1
  6.3266049836286531E-01 a      1446     2    21     3     1
  1.2025500357718348E+00 a      1447     2    22     3     1
  1.1367820678861495E-01 a      1448     2    23     3     1
 -2.6481374255863193E+00 a      1449     2    24     3     1
  5.2166795947347921E-01 a      1450     2    25     3     1
  4.8693043186011655E+00 b      1451     3     1
