nelements=1
elements: Al

lmax=4
embedding-function: FinnisSinclairShiftedScaled
4 FS parameters:  1.000000 1.000000 1.000000 0.500000
core energy-cutoff parameters: 10000.000000000000000000 250.000000000000000000

radbasename=ChebExpCos
nradbase=8
nradmax=4
cutoffmax=8.700000
deltaSplineBins=0.001
core repulsion parameters: 90.978224016403132168 0.512369903010061689
radparameter= 5.000000000000000000
cutoff= 8.699999999999999289
dcut= 0.010000000000000000
crad= 1.000000000000000000 1.000000000000000000 1.000000000000000000 1.000000000000000000 1.000000000000000000
 0.000000000000000000 0.000000000000000000 0.000000000000000000 0.000000000000000000 0.000000000000000000
 0.000000000000000000 0.000000000000000000 0.000000000000000000 0.000000000000000000 0.000000000000000000
 0.000000000000000000 0.000000000000000000 0.000000000000000000 0.000000000000000000 0.000000000000000000
 0.000000000000000000 0.000000000000000000 0.000000000000000000 0.000000000000000000 0.000000000000000000
 1.000000000000000000 1.000000000000000000 1.000000000000000000 1.000000000000000000 1.000000000000000000
 0.000000000000000000 0.000000000000000000 0.000000000000000000 0.000000000000000000 0.000000000000000000
 0.000000000000000000 0.000000000000000000 0.000000000000000000 0.000000000000000000 0.000000000000000000
 0.000000000000000000 0.000000000000000000 0.000000000000000000 0.000000000000000000 0.000000000000000000
 0.000000000000000000 0.000000000000000000 0.000000000000000000 0.000000000000000000 0.000000000000000000
 1.000000000000000000 1.000000000000000000 1.000000000000000000 1.000000000000000000 1.000000000000000000
 0.000000000000000000 0.000000000000000000 0.000000000000000000 0.000000000000000000 0.000000000000000000
 0.000000000000000000 0.000000000000000000 0.000000000000000000 0.000000000000000000 0.000000000000000000
 0.000000000000000000 0.000000000000000000 0.000000000000000000 0.000000000000000000 0.000000000000000000
 0.000000000000000000 0.000000000000000000 0.000000000000000000 0.000000000000000000 0.000000000000000000
 1.000000000000000000 1.000000000000000000 1.000000000000000000 1.000000000000000000 1.000000000000000000
 0.000000000000000000 0.000000000000000000 0.000000000000000000 0.000000000000000000 0.000000000000000000
 0.000000000000000000 0.000000000000000000 0.000000000000000000 0.000000000000000000 0.000000000000000000
 0.000000000000000000 0.000000000000000000 0.000000000000000000 0.000000000000000000 0.000000000000000000
 0.000000000000000000 0.000000000000000000 0.000000000000000000 0.000000000000000000 0.000000000000000000
 0.000000000000000000 0.000000000000000000 0.000000000000000000 0.000000000000000000 0.000000000000000000
 0.000000000000000000 0.000000000000000000 0.000000000000000000 0.000000000000000000 0.000000000000000000
 0.000000000000000000 0.000000000000000000 0.000000000000000000 0.000000000000000000 0.000000000000000000
 0.000000000000000000 0.000000000000000000 0.000000000000000000 0.000000000000000000 0.000000000000000000
 0.000000000000000000 0.000000000000000000 0.000000000000000000 0.000000000000000000 0.000000000000000000
 0.000000000000000000 0.000000000000000000 0.000000000000000000 0.000000000000000000 0.000000000000000000
 0.000000000000000000 0.000000000000000000 0.000000000000000000 0.000000000000000000 0.000000000000000000
 0.000000000000000000 0.000000000000000000 0.000000000000000000 0.000000000000000000 0.000000000000000000
 0.000000000000000000 0.000000000000000000 0.000000000000000000 0.000000000000000000 0.000000000000000000
 0.000000000000000000 0.000000000000000000 0.000000000000000000 0.000000000000000000 0.000000000000000000
 0.000000000000000000 0.000000000000000000 0.000000000000000000 0.000000000000000000 0.000000000000000000
 0.000000000000000000 0.000000000000000000 0.000000000000000000 0.000000000000000000 0.000000000000000000

rankmax=2
ndensitymax=2

num_c_tilde_max=58
num_ms_combinations_max=5
total_basis_size_rank1: 8 
ctilde_basis_func: rank=1 ndens=2 mu0=0 mu=( 0 )
n=( 1 )
l=( 0 )
num_ms=1
< 0 >:  0.022818487151558760  -0.090961327468856615 
ctilde_basis_func: rank=1 ndens=2 mu0=0 mu=( 0 )
n=( 2 )
l=( 0 )
num_ms=1
< 0 >:  -67.763837448363119620  0.000000020913534374 
ctilde_basis_func: rank=1 ndens=2 mu0=0 mu=( 0 )
n=( 3 )
l=( 0 )
num_ms=1
< 0 >:  11.996204439738553660  -0.100281600188162456 
ctilde_basis_func: rank=1 ndens=2 mu0=0 mu=( 0 )
n=( 4 )
l=( 0 )
num_ms=1
< 0 >:  7.481374487084389457  -0.015313776877828183 
ctilde_basis_func: rank=1 ndens=2 mu0=0 mu=( 0 )
n=( 5 )
l=( 0 )
num_ms=1
< 0 >:  -1.800038423521209019  -4.101079162306864312 
ctilde_basis_func: rank=1 ndens=2 mu0=0 mu=( 0 )
n=( 6 )
l=( 0 )
num_ms=1
< 0 >:  0.094926793304420498  1.894909663831157332 
ctilde_basis_func: rank=1 ndens=2 mu0=0 mu=( 0 )
n=( 7 )
l=( 0 )
num_ms=1
< 0 >:  -1.954131353906027435  2.854058326544731461 
ctilde_basis_func: rank=1 ndens=2 mu0=0 mu=( 0 )
n=( 8 )
l=( 0 )
num_ms=1
< 0 >:  0.978507853323852039  -1.829627394234221383 
total_basis_size: 50 
ctilde_basis_func: rank=2 ndens=2 mu0=0 mu=( 0  0 )
n=( 1  1 )
l=( 0  0 )
num_ms=1
< 0  0 >:  0.003046372676972831  0.017730256260575519 
ctilde_basis_func: rank=2 ndens=2 mu0=0 mu=( 0  0 )
n=( 1  1 )
l=( 1  1 )
num_ms=2
< 0  0 >:  0.013299922929890108  -0.051637901004527677 
< 1  -1 >:  -0.026599845859780216  0.103275802009055354 
ctilde_basis_func: rank=2 ndens=2 mu0=0 mu=( 0  0 )
n=( 1  1 )
l=( 2  2 )
num_ms=3
< 0  0 >:  0.003722214100247368  0.030859641849946360 
< 1  -1 >:  -0.007444428200494736  -0.061719283699892720 
< 2  -2 >:  0.007444428200494736  0.061719283699892720 
ctilde_basis_func: rank=2 ndens=2 mu0=0 mu=( 0  0 )
n=( 1  1 )
l=( 3  3 )
num_ms=4
< 0  0 >:  0.008875531163602502  -0.005478777459749474 
< 1  -1 >:  -0.017751062327205004  0.010957554919498947 
< 2  -2 >:  0.017751062327205004  -0.010957554919498947 
< 3  -3 >:  -0.017751062327205004  0.010957554919498949 
ctilde_basis_func: rank=2 ndens=2 mu0=0 mu=( 0  0 )
n=( 1  1 )
l=( 4  4 )
num_ms=5
< 0  0 >:  -0.001884420928648563  -0.001432650620542740 
< 1  -1 >:  0.003768841857297128  0.002865301241085480 
< 2  -2 >:  -0.003768841857297128  -0.002865301241085480 
< 3  -3 >:  0.003768841857297127  0.002865301241085479 
< 4  -4 >:  -0.003768841857297127  -0.002865301241085479 
ctilde_basis_func: rank=2 ndens=2 mu0=0 mu=( 0  0 )
n=( 2  1 )
l=( 0  0 )
num_ms=1
< 0  0 >:  -0.063268801924783680  0.025147393911440177 
ctilde_basis_func: rank=2 ndens=2 mu0=0 mu=( 0  0 )
n=( 2  1 )
l=( 1  1 )
num_ms=2
< 0  0 >:  -0.160248334231702871  0.695794518940036300 
< 1  -1 >:  0.320496668463405743  -1.391589037880072599 
ctilde_basis_func: rank=2 ndens=2 mu0=0 mu=( 0  0 )
n=( 2  1 )
l=( 2  2 )
num_ms=3
< 0  0 >:  -0.056832567348846702  -0.138099509368146356 
< 1  -1 >:  0.113665134697693404  0.276199018736292712 
< 2  -2 >:  -0.113665134697693404  -0.276199018736292712 
ctilde_basis_func: rank=2 ndens=2 mu0=0 mu=( 0  0 )
n=( 2  1 )
l=( 3  3 )
num_ms=4
< 0  0 >:  -0.048616291759493592  -0.005300262617603095 
< 1  -1 >:  0.097232583518987184  0.010600525235206191 
< 2  -2 >:  -0.097232583518987184  -0.010600525235206191 
< 3  -3 >:  0.097232583518987198  0.010600525235206193 
ctilde_basis_func: rank=2 ndens=2 mu0=0 mu=( 0  0 )
n=( 2  1 )
l=( 4  4 )
num_ms=5
< 0  0 >:  -0.003677258015735987  0.079789849744367092 
< 1  -1 >:  0.007354516031471976  -0.159579699488734211 
< 2  -2 >:  -0.007354516031471976  0.159579699488734211 
< 3  -3 >:  0.007354516031471975  -0.159579699488734184 
< 4  -4 >:  -0.007354516031471975  0.159579699488734184 
ctilde_basis_func: rank=2 ndens=2 mu0=0 mu=( 0  0 )
n=( 2  2 )
l=( 0  0 )
num_ms=1
< 0  0 >:  0.298696156451937422  -1.432519837465242807 
ctilde_basis_func: rank=2 ndens=2 mu0=0 mu=( 0  0 )
n=( 2  2 )
l=( 1  1 )
num_ms=2
< 0  0 >:  0.000000000000000000  0.000000000000000000 
< 1  -1 >:  0.000000000000000000  0.000000000000000000 
ctilde_basis_func: rank=2 ndens=2 mu0=0 mu=( 0  0 )
n=( 2  2 )
l=( 2  2 )
num_ms=3
< 0  0 >:  0.000000000000000000  0.000000000000000000 
< 1  -1 >:  0.000000000000000000  0.000000000000000000 
< 2  -2 >:  0.000000000000000000  0.000000000000000000 
ctilde_basis_func: rank=2 ndens=2 mu0=0 mu=( 0  0 )
n=( 2  2 )
l=( 3  3 )
num_ms=4
< 0  0 >:  0.000000000000000000  0.000000000000000000 
< 1  -1 >:  0.000000000000000000  0.000000000000000000 
< 2  -2 >:  0.000000000000000000  0.000000000000000000 
< 3  -3 >:  0.000000000000000000  0.000000000000000000 
ctilde_basis_func: rank=2 ndens=2 mu0=0 mu=( 0  0 )
n=( 2  2 )
l=( 4  4 )
num_ms=5
< 0  0 >:  0.000000000000000000  0.000000000000000000 
< 1  -1 >:  0.000000000000000000  0.000000000000000000 
< 2  -2 >:  0.000000000000000000  0.000000000000000000 
< 3  -3 >:  0.000000000000000000  0.000000000000000000 
< 4  -4 >:  0.000000000000000000  0.000000000000000000 
ctilde_basis_func: rank=2 ndens=2 mu0=0 mu=( 0  0 )
n=( 3  1 )
l=( 0  0 )
num_ms=1
< 0  0 >:  0.000000000000000000  0.000000000000000000 
ctilde_basis_func: rank=2 ndens=2 mu0=0 mu=( 0  0 )
n=( 3  1 )
l=( 1  1 )
num_ms=2
< 0  0 >:  0.000000000000000000  0.000000000000000000 
< 1  -1 >:  0.000000000000000000  0.000000000000000000 
ctilde_basis_func: rank=2 ndens=2 mu0=0 mu=( 0  0 )
n=( 3  1 )
l=( 2  2 )
num_ms=3
< 0  0 >:  0.000000000000000000  0.000000000000000000 
< 1  -1 >:  0.000000000000000000  0.000000000000000000 
< 2  -2 >:  0.000000000000000000  0.000000000000000000 
ctilde_basis_func: rank=2 ndens=2 mu0=0 mu=( 0  0 )
n=( 3  1 )
l=( 3  3 )
num_ms=4
< 0  0 >:  0.000000000000000000  0.000000000000000000 
< 1  -1 >:  0.000000000000000000  0.000000000000000000 
< 2  -2 >:  0.000000000000000000  0.000000000000000000 
< 3  -3 >:  0.000000000000000000  0.000000000000000000 
ctilde_basis_func: rank=2 ndens=2 mu0=0 mu=( 0  0 )
n=( 3  1 )
l=( 4  4 )
num_ms=5
< 0  0 >:  0.000000000000000000  0.000000000000000000 
< 1  -1 >:  0.000000000000000000  0.000000000000000000 
< 2  -2 >:  0.000000000000000000  0.000000000000000000 
< 3  -3 >:  0.000000000000000000  0.000000000000000000 
< 4  -4 >:  0.000000000000000000  0.000000000000000000 
ctilde_basis_func: rank=2 ndens=2 mu0=0 mu=( 0  0 )
n=( 3  2 )
l=( 0  0 )
num_ms=1
< 0  0 >:  0.000000000000000000  0.000000000000000000 
ctilde_basis_func: rank=2 ndens=2 mu0=0 mu=( 0  0 )
n=( 3  2 )
l=( 1  1 )
num_ms=2
< 0  0 >:  0.000000000000000000  0.000000000000000000 
< 1  -1 >:  0.000000000000000000  0.000000000000000000 
ctilde_basis_func: rank=2 ndens=2 mu0=0 mu=( 0  0 )
n=( 3  2 )
l=( 2  2 )
num_ms=3
< 0  0 >:  0.000000000000000000  0.000000000000000000 
< 1  -1 >:  0.000000000000000000  0.000000000000000000 
< 2  -2 >:  0.000000000000000000  0.000000000000000000 
ctilde_basis_func: rank=2 ndens=2 mu0=0 mu=( 0  0 )
n=( 3  2 )
l=( 3  3 )
num_ms=4
< 0  0 >:  0.000000000000000000  0.000000000000000000 
< 1  -1 >:  0.000000000000000000  0.000000000000000000 
< 2  -2 >:  0.000000000000000000  0.000000000000000000 
< 3  -3 >:  0.000000000000000000  0.000000000000000000 
ctilde_basis_func: rank=2 ndens=2 mu0=0 mu=( 0  0 )
n=( 3  2 )
l=( 4  4 )
num_ms=5
< 0  0 >:  0.000000000000000000  0.000000000000000000 
< 1  -1 >:  0.000000000000000000  0.000000000000000000 
< 2  -2 >:  0.000000000000000000  0.000000000000000000 
< 3  -3 >:  0.000000000000000000  0.000000000000000000 
< 4  -4 >:  0.000000000000000000  0.000000000000000000 
ctilde_basis_func: rank=2 ndens=2 mu0=0 mu=( 0  0 )
n=( 3  3 )
l=( 0  0 )
num_ms=1
< 0  0 >:  0.000000000000000000  0.000000000000000000 
ctilde_basis_func: rank=2 ndens=2 mu0=0 mu=( 0  0 )
n=( 3  3 )
l=( 1  1 )
num_ms=2
< 0  0 >:  0.000000000000000000  0.000000000000000000 
< 1  -1 >:  0.000000000000000000  0.000000000000000000 
ctilde_basis_func: rank=2 ndens=2 mu0=0 mu=( 0  0 )
n=( 3  3 )
l=( 2  2 )
num_ms=3
< 0  0 >:  0.000000000000000000  0.000000000000000000 
< 1  -1 >:  0.000000000000000000  0.000000000000000000 
< 2  -2 >:  0.000000000000000000  0.000000000000000000 
ctilde_basis_func: rank=2 ndens=2 mu0=0 mu=( 0  0 )
n=( 3  3 )
l=( 3  3 )
num_ms=4
< 0  0 >:  0.000000000000000000  0.000000000000000000 
< 1  -1 >:  0.000000000000000000  0.000000000000000000 
< 2  -2 >:  0.000000000000000000  0.000000000000000000 
< 3  -3 >:  0.000000000000000000  0.000000000000000000 
ctilde_basis_func: rank=2 ndens=2 mu0=0 mu=( 0  0 )
n=( 3  3 )
l=( 4  4 )
num_ms=5
< 0  0 >:  0.000000000000000000  0.000000000000000000 
< 1  -1 >:  0.000000000000000000  0.000000000000000000 
< 2  -2 >:  0.000000000000000000  0.000000000000000000 
< 3  -3 >:  0.000000000000000000  0.000000000000000000 
< 4  -4 >:  0.000000000000000000  0.000000000000000000 
ctilde_basis_func: rank=2 ndens=2 mu0=0 mu=( 0  0 )
n=( 4  1 )
l=( 0  0 )
num_ms=1
< 0  0 >:  0.000000000000000000  0.000000000000000000 
ctilde_basis_func: rank=2 ndens=2 mu0=0 mu=( 0  0 )
n=( 4  1 )
l=( 1  1 )
num_ms=2
< 0  0 >:  0.000000000000000000  0.000000000000000000 
< 1  -1 >:  0.000000000000000000  0.000000000000000000 
ctilde_basis_func: rank=2 ndens=2 mu0=0 mu=( 0  0 )
n=( 4  1 )
l=( 2  2 )
num_ms=3
< 0  0 >:  0.000000000000000000  0.000000000000000000 
< 1  -1 >:  0.000000000000000000  0.000000000000000000 
< 2  -2 >:  0.000000000000000000  0.000000000000000000 
ctilde_basis_func: rank=2 ndens=2 mu0=0 mu=( 0  0 )
n=( 4  1 )
l=( 3  3 )
num_ms=4
< 0  0 >:  0.000000000000000000  0.000000000000000000 
< 1  -1 >:  0.000000000000000000  0.000000000000000000 
< 2  -2 >:  0.000000000000000000  0.000000000000000000 
< 3  -3 >:  0.000000000000000000  0.000000000000000000 
ctilde_basis_func: rank=2 ndens=2 mu0=0 mu=( 0  0 )
n=( 4  1 )
l=( 4  4 )
num_ms=5
< 0  0 >:  0.000000000000000000  0.000000000000000000 
< 1  -1 >:  0.000000000000000000  0.000000000000000000 
< 2  -2 >:  0.000000000000000000  0.000000000000000000 
< 3  -3 >:  0.000000000000000000  0.000000000000000000 
< 4  -4 >:  0.000000000000000000  0.000000000000000000 
ctilde_basis_func: rank=2 ndens=2 mu0=0 mu=( 0  0 )
n=( 4  2 )
l=( 0  0 )
num_ms=1
< 0  0 >:  0.000000000000000000  0.000000000000000000 
ctilde_basis_func: rank=2 ndens=2 mu0=0 mu=( 0  0 )
n=( 4  2 )
l=( 1  1 )
num_ms=2
< 0  0 >:  0.000000000000000000  0.000000000000000000 
< 1  -1 >:  0.000000000000000000  0.000000000000000000 
ctilde_basis_func: rank=2 ndens=2 mu0=0 mu=( 0  0 )
n=( 4  2 )
l=( 2  2 )
num_ms=3
< 0  0 >:  0.000000000000000000  0.000000000000000000 
< 1  -1 >:  0.000000000000000000  0.000000000000000000 
< 2  -2 >:  0.000000000000000000  0.000000000000000000 
ctilde_basis_func: rank=2 ndens=2 mu0=0 mu=( 0  0 )
n=( 4  2 )
l=( 3  3 )
num_ms=4
< 0  0 >:  0.000000000000000000  0.000000000000000000 
< 1  -1 >:  0.000000000000000000  0.000000000000000000 
< 2  -2 >:  0.000000000000000000  0.000000000000000000 
< 3  -3 >:  0.000000000000000000  0.000000000000000000 
ctilde_basis_func: rank=2 ndens=2 mu0=0 mu=( 0  0 )
n=( 4  2 )
l=( 4  4 )
num_ms=5
< 0  0 >:  0.000000000000000000  0.000000000000000000 
< 1  -1 >:  0.000000000000000000  0.000000000000000000 
< 2  -2 >:  0.000000000000000000  0.000000000000000000 
< 3  -3 >:  0.000000000000000000  0.000000000000000000 
< 4  -4 >:  0.000000000000000000  0.000000000000000000 
ctilde_basis_func: rank=2 ndens=2 mu0=0 mu=( 0  0 )
n=( 4  3 )
l=( 0  0 )
num_ms=1
< 0  0 >:  0.000000000000000000  0.000000000000000000 
ctilde_basis_func: rank=2 ndens=2 mu0=0 mu=( 0  0 )
n=( 4  3 )
l=( 1  1 )
num_ms=2
< 0  0 >:  0.000000000000000000  0.000000000000000000 
< 1  -1 >:  0.000000000000000000  0.000000000000000000 
ctilde_basis_func: rank=2 ndens=2 mu0=0 mu=( 0  0 )
n=( 4  3 )
l=( 2  2 )
num_ms=3
< 0  0 >:  0.000000000000000000  0.000000000000000000 
< 1  -1 >:  0.000000000000000000  0.000000000000000000 
< 2  -2 >:  0.000000000000000000  0.000000000000000000 
ctilde_basis_func: rank=2 ndens=2 mu0=0 mu=( 0  0 )
n=( 4  3 )
l=( 3  3 )
num_ms=4
< 0  0 >:  0.000000000000000000  0.000000000000000000 
< 1  -1 >:  0.000000000000000000  0.000000000000000000 
< 2  -2 >:  0.000000000000000000  0.000000000000000000 
< 3  -3 >:  0.000000000000000000  0.000000000000000000 
ctilde_basis_func: rank=2 ndens=2 mu0=0 mu=( 0  0 )
n=( 4  3 )
l=( 4  4 )
num_ms=5
< 0  0 >:  0.000000000000000000  0.000000000000000000 
< 1  -1 >:  0.000000000000000000  0.000000000000000000 
< 2  -2 >:  0.000000000000000000  0.000000000000000000 
< 3  -3 >:  0.000000000000000000  0.000000000000000000 
< 4  -4 >:  0.000000000000000000  0.000000000000000000 
ctilde_basis_func: rank=2 ndens=2 mu0=0 mu=( 0  0 )
n=( 4  4 )
l=( 0  0 )
num_ms=1
< 0  0 >:  0.000000000000000000  0.000000000000000000 
ctilde_basis_func: rank=2 ndens=2 mu0=0 mu=( 0  0 )
n=( 4  4 )
l=( 1  1 )
num_ms=2
< 0  0 >:  0.000000000000000000  0.000000000000000000 
< 1  -1 >:  0.000000000000000000  0.000000000000000000 
ctilde_basis_func: rank=2 ndens=2 mu0=0 mu=( 0  0 )
n=( 4  4 )
l=( 2  2 )
num_ms=3
< 0  0 >:  0.000000000000000000  0.000000000000000000 
< 1  -1 >:  0.000000000000000000  0.000000000000000000 
< 2  -2 >:  0.000000000000000000  0.000000000000000000 
ctilde_basis_func: rank=2 ndens=2 mu0=0 mu=( 0  0 )
n=( 4  4 )
l=( 3  3 )
num_ms=4
< 0  0 >:  0.000000000000000000  0.000000000000000000 
< 1  -1 >:  0.000000000000000000  0.000000000000000000 
< 2  -2 >:  0.000000000000000000  0.000000000000000000 
< 3  -3 >:  0.000000000000000000  0.000000000000000000 
ctilde_basis_func: rank=2 ndens=2 mu0=0 mu=( 0  0 )
n=( 4  4 )
l=( 4  4 )
num_ms=5
< 0  0 >:  0.000000000000000000  0.000000000000000000 
< 1  -1 >:  0.000000000000000000  0.000000000000000000 
< 2  -2 >:  0.000000000000000000  0.000000000000000000 
< 3  -3 >:  0.000000000000000000  0.000000000000000000 
< 4  -4 >:  0.000000000000000000  0.000000000000000000 
