elements: [Ta] 
E0: [0.000000] 
deltaSplineBins: 0.001000 
embeddings:
  0: {ndensity: 1, FS_parameters: [1.0, 1.0], npoti: FinnisSinclair, rho_core_cutoff: 100000, drho_core_cutoff: 250}
bonds:
  [0, 0]: {nradmax: 22, lmax: 5, nradbasemax: 22, radbasename: ChebExpCos, radparameters: [1.275], radcoefficients: [[[1, 0, 0, 0, 0, 0, 0, 0, 0, 0, 0, 0, 0, 0, 0, 0, 0, 0, 0, 0, 0, 0], [1, 0, 0, 0, 0, 0, 0, 0, 0, 0, 0, 0, 0, 0, 0, 0, 0, 0, 0, 0, 0, 0], [1, 0, 0, 0, 0, 0, 0, 0, 0, 0, 0, 0, 0, 0, 0, 0, 0, 0, 0, 0, 0, 0], [1, 0, 0, 0, 0, 0, 0, 0, 0, 0, 0, 0, 0, 0, 0, 0, 0, 0, 0, 0, 0, 0], [1, 0, 0, 0, 0, 0, 0, 0, 0, 0, 0, 0, 0, 0, 0, 0, 0, 0, 0, 0, 0, 0], [1, 0, 0, 0, 0, 0, 0, 0, 0, 0, 0, 0, 0, 0, 0, 0, 0, 0, 0, 0, 0, 0]], [[0, 1, 0, 0, 0, 0, 0, 0, 0, 0, 0, 0, 0, 0, 0, 0, 0, 0, 0, 0, 0, 0], [0, 1, 0, 0, 0, 0, 0, 0, 0, 0, 0, 0, 0, 0, 0, 0, 0, 0, 0, 0, 0, 0], [0, 1, 0, 0, 0, 0, 0, 0, 0, 0, 0, 0, 0, 0, 0, 0, 0, 0, 0, 0, 0, 0], [0, 1, 0, 0, 0, 0, 0, 0, 0, 0, 0, 0, 0, 0, 0, 0, 0, 0, 0, 0, 0, 0], [0, 1, 0, 0, 0, 0, 0, 0, 0, 0, 0, 0, 0, 0, 0, 0, 0, 0, 0, 0, 0, 0], [0, 1, 0, 0, 0, 0, 0, 0, 0, 0, 0, 0, 0, 0, 0, 0, 0, 0, 0, 0, 0, 0]], [[0, 0, 1, 0, 0, 0, 0, 0, 0, 0, 0, 0, 0, 0, 0, 0, 0, 0, 0, 0, 0, 0], [0, 0, 1, 0, 0, 0, 0, 0, 0, 0, 0, 0, 0, 0, 0, 0, 0, 0, 0, 0, 0, 0], [0, 0, 1, 0, 0, 0, 0, 0, 0, 0, 0, 0, 0, 0, 0, 0, 0, 0, 0, 0, 0, 0], [0, 0, 1, 0, 0, 0, 0, 0, 0, 0, 0, 0, 0, 0, 0, 0, 0, 0, 0, 0, 0, 0], [0, 0, 1, 0, 0, 0, 0, 0, 0, 0, 0, 0, 0, 0, 0, 0, 0, 0, 0, 0, 0, 0], [0, 0, 1, 0, 0, 0, 0, 0, 0, 0, 0, 0, 0, 0, 0, 0, 0, 0, 0, 0, 0, 0]], [[0, 0, 0, 1, 0, 0, 0, 0, 0, 0, 0, 0, 0, 0, 0, 0, 0, 0, 0, 0, 0, 0], [0, 0, 0, 1, 0, 0, 0, 0, 0, 0, 0, 0, 0, 0, 0, 0, 0, 0, 0, 0, 0, 0], [0, 0, 0, 1, 0, 0, 0, 0, 0, 0, 0, 0, 0, 0, 0, 0, 0, 0, 0, 0, 0, 0], [0, 0, 0, 1, 0, 0, 0, 0, 0, 0, 0, 0, 0, 0, 0, 0, 0, 0, 0, 0, 0, 0], [0, 0, 0, 1, 0, 0, 0, 0, 0, 0, 0, 0, 0, 0, 0, 0, 0, 0, 0, 0, 0, 0], [0, 0, 0, 1, 0, 0, 0, 0, 0, 0, 0, 0, 0, 0, 0, 0, 0, 0, 0, 0, 0, 0]], [[0, 0, 0, 0, 1, 0, 0, 0, 0, 0, 0, 0, 0, 0, 0, 0, 0, 0, 0, 0, 0, 0], [0, 0, 0, 0, 1, 0, 0, 0, 0, 0, 0, 0, 0, 0, 0, 0, 0, 0, 0, 0, 0, 0], [0, 0, 0, 0, 1, 0, 0, 0, 0, 0, 0, 0, 0, 0, 0, 0, 0, 0, 0, 0, 0, 0], [0, 0, 0, 0, 1, 0, 0, 0, 0, 0, 0, 0, 0, 0, 0, 0, 0, 0, 0, 0, 0, 0], [0, 0, 0, 0, 1, 0, 0, 0, 0, 0, 0, 0, 0, 0, 0, 0, 0, 0, 0, 0, 0, 0], [0, 0, 0, 0, 1, 0, 0, 0, 0, 0, 0, 0, 0, 0, 0, 0, 0, 0, 0, 0, 0, 0]], [[0, 0, 0, 0, 0, 1, 0, 0, 0, 0, 0, 0, 0, 0, 0, 0, 0, 0, 0, 0, 0, 0], [0, 0, 0, 0, 0, 1, 0, 0, 0, 0, 0, 0, 0, 0, 0, 0, 0, 0, 0, 0, 0, 0], [0, 0, 0, 0, 0, 1, 0, 0, 0, 0, 0, 0, 0, 0, 0, 0, 0, 0, 0, 0, 0, 0], [0, 0, 0, 0, 0, 1, 0, 0, 0, 0, 0, 0, 0, 0, 0, 0, 0, 0, 0, 0, 0, 0], [0, 0, 0, 0, 0, 1, 0, 0, 0, 0, 0, 0, 0, 0, 0, 0, 0, 0, 0, 0, 0, 0], [0, 0, 0, 0, 0, 1, 0, 0, 0, 0, 0, 0, 0, 0, 0, 0, 0, 0, 0, 0, 0, 0]], [[0, 0, 0, 0, 0, 0, 1, 0, 0, 0, 0, 0, 0, 0, 0, 0, 0, 0, 0, 0, 0, 0], [0, 0, 0, 0, 0, 0, 1, 0, 0, 0, 0, 0, 0, 0, 0, 0, 0, 0, 0, 0, 0, 0], [0, 0, 0, 0, 0, 0, 1, 0, 0, 0, 0, 0, 0, 0, 0, 0, 0, 0, 0, 0, 0, 0], [0, 0, 0, 0, 0, 0, 1, 0, 0, 0, 0, 0, 0, 0, 0, 0, 0, 0, 0, 0, 0, 0], [0, 0, 0, 0, 0, 0, 1, 0, 0, 0, 0, 0, 0, 0, 0, 0, 0, 0, 0, 0, 0, 0], [0, 0, 0, 0, 0, 0, 1, 0, 0, 0, 0, 0, 0, 0, 0, 0, 0, 0, 0, 0, 0, 0]], [[0, 0, 0, 0, 0, 0, 0, 1, 0, 0, 0, 0, 0, 0, 0, 0, 0, 0, 0, 0, 0, 0], [0, 0, 0, 0, 0, 0, 0, 1, 0, 0, 0, 0, 0, 0, 0, 0, 0, 0, 0, 0, 0, 0], [0, 0, 0, 0, 0, 0, 0, 1, 0, 0, 0, 0, 0, 0, 0, 0, 0, 0, 0, 0, 0, 0], [0, 0, 0, 0, 0, 0, 0, 1, 0, 0, 0, 0, 0, 0, 0, 0, 0, 0, 0, 0, 0, 0], [0, 0, 0, 0, 0, 0, 0, 1, 0, 0, 0, 0, 0, 0, 0, 0, 0, 0, 0, 0, 0, 0], [0, 0, 0, 0, 0, 0, 0, 1, 0, 0, 0, 0, 0, 0, 0, 0, 0, 0, 0, 0, 0, 0]], [[0, 0, 0, 0, 0, 0, 0, 0, 1, 0, 0, 0, 0, 0, 0, 0, 0, 0, 0, 0, 0, 0], [0, 0, 0, 0, 0, 0, 0, 0, 1, 0, 0, 0, 0, 0, 0, 0, 0, 0, 0, 0, 0, 0], [0, 0, 0, 0, 0, 0, 0, 0, 1, 0, 0, 0, 0, 0, 0, 0, 0, 0, 0, 0, 0, 0], [0, 0, 0, 0, 0, 0, 0, 0, 1, 0, 0, 0, 0, 0, 0, 0, 0, 0, 0, 0, 0, 0], [0, 0, 0, 0, 0, 0, 0, 0, 1, 0, 0, 0, 0, 0, 0, 0, 0, 0, 0, 0, 0, 0], [0, 0, 0, 0, 0, 0, 0, 0, 1, 0, 0, 0, 0, 0, 0, 0, 0, 0, 0, 0, 0, 0]], [[0, 0, 0, 0, 0, 0, 0, 0, 0, 1, 0, 0, 0, 0, 0, 0, 0, 0, 0, 0, 0, 0], [0, 0, 0, 0, 0, 0, 0, 0, 0, 1, 0, 0, 0, 0, 0, 0, 0, 0, 0, 0, 0, 0], [0, 0, 0, 0, 0, 0, 0, 0, 0, 1, 0, 0, 0, 0, 0, 0, 0, 0, 0, 0, 0, 0], [0, 0, 0, 0, 0, 0, 0, 0, 0, 1, 0, 0, 0, 0, 0, 0, 0, 0, 0, 0, 0, 0], [0, 0, 0, 0, 0, 0, 0, 0, 0, 1, 0, 0, 0, 0, 0, 0, 0, 0, 0, 0, 0, 0], [0, 0, 0, 0, 0, 0, 0, 0, 0, 1, 0, 0, 0, 0, 0, 0, 0, 0, 0, 0, 0, 0]], [[0, 0, 0, 0, 0, 0, 0, 0, 0, 0, 1, 0, 0, 0, 0, 0, 0, 0, 0, 0, 0, 0], [0, 0, 0, 0, 0, 0, 0, 0, 0, 0, 1, 0, 0, 0, 0, 0, 0, 0, 0, 0, 0, 0], [0, 0, 0, 0, 0, 0, 0, 0, 0, 0, 1, 0, 0, 0, 0, 0, 0, 0, 0, 0, 0, 0], [0, 0, 0, 0, 0, 0, 0, 0, 0, 0, 1, 0, 0, 0, 0, 0, 0, 0, 0, 0, 0, 0], [0, 0, 0, 0, 0, 0, 0, 0, 0, 0, 1, 0, 0, 0, 0, 0, 0, 0, 0, 0, 0, 0], [0, 0, 0, 0, 0, 0, 0, 0, 0, 0, 1, 0, 0, 0, 0, 0, 0, 0, 0, 0, 0, 0]], [[0, 0, 0, 0, 0, 0, 0, 0, 0, 0, 0, 1, 0, 0, 0, 0, 0, 0, 0, 0, 0, 0], [0, 0, 0, 0, 0, 0, 0, 0, 0, 0, 0, 1, 0, 0, 0, 0, 0, 0, 0, 0, 0, 0], [0, 0, 0, 0, 0, 0, 0, 0, 0, 0, 0, 1, 0, 0, 0, 0, 0, 0, 0, 0, 0, 0], [0, 0, 0, 0, 0, 0, 0, 0, 0, 0, 0, 1, 0, 0, 0, 0, 0, 0, 0, 0, 0, 0], [0, 0, 0, 0, 0, 0, 0, 0, 0, 0, 0, 1, 0, 0, 0, 0, 0, 0, 0, 0, 0, 0], [0, 0, 0, 0, 0, 0, 0, 0, 0, 0, 0, 1, 0, 0, 0, 0, 0, 0, 0, 0, 0, 0]], [[0, 0, 0, 0, 0, 0, 0, 0, 0, 0, 0, 0, 1, 0, 0, 0, 0, 0, 0, 0, 0, 0], [0, 0, 0, 0, 0, 0, 0, 0, 0, 0, 0, 0, 1, 0, 0, 0, 0, 0, 0, 0, 0, 0], [0, 0, 0, 0, 0, 0, 0, 0, 0, 0, 0, 0, 1, 0, 0, 0, 0, 0, 0, 0, 0, 0], [0, 0, 0, 0, 0, 0, 0, 0, 0, 0, 0, 0, 1, 0, 0, 0, 0, 0, 0, 0, 0, 0], [0, 0, 0, 0, 0, 0, 0, 0, 0, 0, 0, 0, 1, 0, 0, 0, 0, 0, 0, 0, 0, 0], [0, 0, 0, 0, 0, 0, 0, 0, 0, 0, 0, 0, 1, 0, 0, 0, 0, 0, 0, 0, 0, 0]], [[0, 0, 0, 0, 0, 0, 0, 0, 0, 0, 0, 0, 0, 1, 0, 0, 0, 0, 0, 0, 0, 0], [0, 0, 0, 0, 0, 0, 0, 0, 0, 0, 0, 0, 0, 1, 0, 0, 0, 0, 0, 0, 0, 0], [0, 0, 0, 0, 0, 0, 0, 0, 0, 0, 0, 0, 0, 1, 0, 0, 0, 0, 0, 0, 0, 0], [0, 0, 0, 0, 0, 0, 0, 0, 0, 0, 0, 0, 0, 1, 0, 0, 0, 0, 0, 0, 0, 0], [0, 0, 0, 0, 0, 0, 0, 0, 0, 0, 0, 0, 0, 1, 0, 0, 0, 0, 0, 0, 0, 0], [0, 0, 0, 0, 0, 0, 0, 0, 0, 0, 0, 0, 0, 1, 0, 0, 0, 0, 0, 0, 0, 0]], [[0, 0, 0, 0, 0, 0, 0, 0, 0, 0, 0, 0, 0, 0, 1, 0, 0, 0, 0, 0, 0, 0], [0, 0, 0, 0, 0, 0, 0, 0, 0, 0, 0, 0, 0, 0, 1, 0, 0, 0, 0, 0, 0, 0], [0, 0, 0, 0, 0, 0, 0, 0, 0, 0, 0, 0, 0, 0, 1, 0, 0, 0, 0, 0, 0, 0], [0, 0, 0, 0, 0, 0, 0, 0, 0, 0, 0, 0, 0, 0, 1, 0, 0, 0, 0, 0, 0, 0], [0, 0, 0, 0, 0, 0, 0, 0, 0, 0, 0, 0, 0, 0, 1, 0, 0, 0, 0, 0, 0, 0], [0, 0, 0, 0, 0, 0, 0, 0, 0, 0, 0, 0, 0, 0, 1, 0, 0, 0, 0, 0, 0, 0]], [[0, 0, 0, 0, 0, 0, 0, 0, 0, 0, 0, 0, 0, 0, 0, 1, 0, 0, 0, 0, 0, 0], [0, 0, 0, 0, 0, 0, 0, 0, 0, 0, 0, 0, 0, 0, 0, 1, 0, 0, 0, 0, 0, 0], [0, 0, 0, 0, 0, 0, 0, 0, 0, 0, 0, 0, 0, 0, 0, 1, 0, 0, 0, 0, 0, 0], [0, 0, 0, 0, 0, 0, 0, 0, 0, 0, 0, 0, 0, 0, 0, 1, 0, 0, 0, 0, 0, 0], [0, 0, 0, 0, 0, 0, 0, 0, 0, 0, 0, 0, 0, 0, 0, 1, 0, 0, 0, 0, 0, 0], [0, 0, 0, 0, 0, 0, 0, 0, 0, 0, 0, 0, 0, 0, 0, 1, 0, 0, 0, 0, 0, 0]], [[0, 0, 0, 0, 0, 0, 0, 0, 0, 0, 0, 0, 0, 0, 0, 0, 1, 0, 0, 0, 0, 0], [0, 0, 0, 0, 0, 0, 0, 0, 0, 0, 0, 0, 0, 0, 0, 0, 1, 0, 0, 0, 0, 0], [0, 0, 0, 0, 0, 0, 0, 0, 0, 0, 0, 0, 0, 0, 0, 0, 1, 0, 0, 0, 0, 0], [0, 0, 0, 0, 0, 0, 0, 0, 0, 0, 0, 0, 0, 0, 0, 0, 1, 0, 0, 0, 0, 0], [0, 0, 0, 0, 0, 0, 0, 0, 0, 0, 0, 0, 0, 0, 0, 0, 1, 0, 0, 0, 0, 0], [0, 0, 0, 0, 0, 0, 0, 0, 0, 0, 0, 0, 0, 0, 0, 0, 1, 0, 0, 0, 0, 0]], [[0, 0, 0, 0, 0, 0, 0, 0, 0, 0, 0, 0, 0, 0, 0, 0, 0, 1, 0, 0, 0, 0], [0, 0, 0, 0, 0, 0, 0, 0, 0, 0, 0, 0, 0, 0, 0, 0, 0, 1, 0, 0, 0, 0], [0, 0, 0, 0, 0, 0, 0, 0, 0, 0, 0, 0, 0, 0, 0, 0, 0, 1, 0, 0, 0, 0], [0, 0, 0, 0, 0, 0, 0, 0, 0, 0, 0, 0, 0, 0, 0, 0, 0, 1, 0, 0, 0, 0], [0, 0, 0, 0, 0, 0, 0, 0, 0, 0, 0, 0, 0, 0, 0, 0, 0, 1, 0, 0, 0, 0], [0, 0, 0, 0, 0, 0, 0, 0, 0, 0, 0, 0, 0, 0, 0, 0, 0, 1, 0, 0, 0, 0]], [[0, 0, 0, 0, 0, 0, 0, 0, 0, 0, 0, 0, 0, 0, 0, 0, 0, 0, 1, 0, 0, 0], [0, 0, 0, 0, 0, 0, 0, 0, 0, 0, 0, 0, 0, 0, 0, 0, 0, 0, 1, 0, 0, 0], [0, 0, 0, 0, 0, 0, 0, 0, 0, 0, 0, 0, 0, 0, 0, 0, 0, 0, 1, 0, 0, 0], [0, 0, 0, 0, 0, 0, 0, 0, 0, 0, 0, 0, 0, 0, 0, 0, 0, 0, 1, 0, 0, 0], [0, 0, 0, 0, 0, 0, 0, 0, 0, 0, 0, 0, 0, 0, 0, 0, 0, 0, 1, 0, 0, 0], [0, 0, 0, 0, 0, 0, 0, 0, 0, 0, 0, 0, 0, 0, 0, 0, 0, 0, 1, 0, 0, 0]], [[0, 0, 0, 0, 0, 0, 0, 0, 0, 0, 0, 0, 0, 0, 0, 0, 0, 0, 0, 1, 0, 0], [0, 0, 0, 0, 0, 0, 0, 0, 0, 0, 0, 0, 0, 0, 0, 0, 0, 0, 0, 1, 0, 0], [0, 0, 0, 0, 0, 0, 0, 0, 0, 0, 0, 0, 0, 0, 0, 0, 0, 0, 0, 1, 0, 0], [0, 0, 0, 0, 0, 0, 0, 0, 0, 0, 0, 0, 0, 0, 0, 0, 0, 0, 0, 1, 0, 0], [0, 0, 0, 0, 0, 0, 0, 0, 0, 0, 0, 0, 0, 0, 0, 0, 0, 0, 0, 1, 0, 0], [0, 0, 0, 0, 0, 0, 0, 0, 0, 0, 0, 0, 0, 0, 0, 0, 0, 0, 0, 1, 0, 0]], [[0, 0, 0, 0, 0, 0, 0, 0, 0, 0, 0, 0, 0, 0, 0, 0, 0, 0, 0, 0, 1, 0], [0, 0, 0, 0, 0, 0, 0, 0, 0, 0, 0, 0, 0, 0, 0, 0, 0, 0, 0, 0, 1, 0], [0, 0, 0, 0, 0, 0, 0, 0, 0, 0, 0, 0, 0, 0, 0, 0, 0, 0, 0, 0, 1, 0], [0, 0, 0, 0, 0, 0, 0, 0, 0, 0, 0, 0, 0, 0, 0, 0, 0, 0, 0, 0, 1, 0], [0, 0, 0, 0, 0, 0, 0, 0, 0, 0, 0, 0, 0, 0, 0, 0, 0, 0, 0, 0, 1, 0], [0, 0, 0, 0, 0, 0, 0, 0, 0, 0, 0, 0, 0, 0, 0, 0, 0, 0, 0, 0, 1, 0]], [[0, 0, 0, 0, 0, 0, 0, 0, 0, 0, 0, 0, 0, 0, 0, 0, 0, 0, 0, 0, 0, 1], [0, 0, 0, 0, 0, 0, 0, 0, 0, 0, 0, 0, 0, 0, 0, 0, 0, 0, 0, 0, 0, 1], [0, 0, 0, 0, 0, 0, 0, 0, 0, 0, 0, 0, 0, 0, 0, 0, 0, 0, 0, 0, 0, 1], [0, 0, 0, 0, 0, 0, 0, 0, 0, 0, 0, 0, 0, 0, 0, 0, 0, 0, 0, 0, 0, 1], [0, 0, 0, 0, 0, 0, 0, 0, 0, 0, 0, 0, 0, 0, 0, 0, 0, 0, 0, 0, 0, 1], [0, 0, 0, 0, 0, 0, 0, 0, 0, 0, 0, 0, 0, 0, 0, 0, 0, 0, 0, 0, 0, 1]]], prehc: 0, lambdahc: 1.275, rcut: 4.81, dcut: 0.01, rcut_in: 1.2, dcut_in: 0.01, inner_cutoff_type: distance}
functions:
  0:
    - {mu0: 0, rank: 1, ndensity: 1, num_ms_combs: 1, mus: [0], ns: [1], ls: [0], ms_combs: [0], ctildes: [1.0]}
    - {mu0: 0, rank: 1, ndensity: 1, num_ms_combs: 1, mus: [0], ns: [2], ls: [0], ms_combs: [0], ctildes: [1.0]}
    - {mu0: 0, rank: 1, ndensity: 1, num_ms_combs: 1, mus: [0], ns: [3], ls: [0], ms_combs: [0], ctildes: [1.0]}
    - {mu0: 0, rank: 1, ndensity: 1, num_ms_combs: 1, mus: [0], ns: [4], ls: [0], ms_combs: [0], ctildes: [1.0]}
    - {mu0: 0, rank: 1, ndensity: 1, num_ms_combs: 1, mus: [0], ns: [5], ls: [0], ms_combs: [0], ctildes: [1.0]}
    - {mu0: 0, rank: 1, ndensity: 1, num_ms_combs: 1, mus: [0], ns: [6], ls: [0], ms_combs: [0], ctildes: [1.0]}
    - {mu0: 0, rank: 1, ndensity: 1, num_ms_combs: 1, mus: [0], ns: [7], ls: [0], ms_combs: [0], ctildes: [1.0]}
    - {mu0: 0, rank: 1, ndensity: 1, num_ms_combs: 1, mus: [0], ns: [8], ls: [0], ms_combs: [0], ctildes: [1.0]}
    - {mu0: 0, rank: 1, ndensity: 1, num_ms_combs: 1, mus: [0], ns: [9], ls: [0], ms_combs: [0], ctildes: [1.0]}
    - {mu0: 0, rank: 1, ndensity: 1, num_ms_combs: 1, mus: [0], ns: [10], ls: [0], ms_combs: [0], ctildes: [1.0]}
    - {mu0: 0, rank: 1, ndensity: 1, num_ms_combs: 1, mus: [0], ns: [11], ls: [0], ms_combs: [0], ctildes: [1.0]}
    - {mu0: 0, rank: 1, ndensity: 1, num_ms_combs: 1, mus: [0], ns: [12], ls: [0], ms_combs: [0], ctildes: [1.0]}
    - {mu0: 0, rank: 1, ndensity: 1, num_ms_combs: 1, mus: [0], ns: [13], ls: [0], ms_combs: [0], ctildes: [1.0]}
    - {mu0: 0, rank: 1, ndensity: 1, num_ms_combs: 1, mus: [0], ns: [14], ls: [0], ms_combs: [0], ctildes: [1.0]}
    - {mu0: 0, rank: 1, ndensity: 1, num_ms_combs: 1, mus: [0], ns: [15], ls: [0], ms_combs: [0], ctildes: [1.0]}
    - {mu0: 0, rank: 1, ndensity: 1, num_ms_combs: 1, mus: [0], ns: [16], ls: [0], ms_combs: [0], ctildes: [1.0]}
    - {mu0: 0, rank: 1, ndensity: 1, num_ms_combs: 1, mus: [0], ns: [17], ls: [0], ms_combs: [0], ctildes: [1.0]}
    - {mu0: 0, rank: 1, ndensity: 1, num_ms_combs: 1, mus: [0], ns: [18], ls: [0], ms_combs: [0], ctildes: [1.0]}
    - {mu0: 0, rank: 1, ndensity: 1, num_ms_combs: 1, mus: [0], ns: [19], ls: [0], ms_combs: [0], ctildes: [1.0]}
    - {mu0: 0, rank: 1, ndensity: 1, num_ms_combs: 1, mus: [0], ns: [20], ls: [0], ms_combs: [0], ctildes: [1.0]}
    - {mu0: 0, rank: 1, ndensity: 1, num_ms_combs: 1, mus: [0], ns: [21], ls: [0], ms_combs: [0], ctildes: [1.0]}
    - {mu0: 0, rank: 1, ndensity: 1, num_ms_combs: 1, mus: [0], ns: [22], ls: [0], ms_combs: [0], ctildes: [1.0]}
    - {mu0: 0, rank: 2, ndensity: 1, num_ms_combs: 1, mus: [0, 0], ns: [1, 1], ls: [0, 0], ms_combs: [0, 0], ctildes: [1.0]}
    - {mu0: 0, rank: 2, ndensity: 1, num_ms_combs: 1, mus: [0, 0], ns: [1, 2], ls: [0, 0], ms_combs: [0, 0], ctildes: [1.0]}
    - {mu0: 0, rank: 2, ndensity: 1, num_ms_combs: 1, mus: [0, 0], ns: [1, 3], ls: [0, 0], ms_combs: [0, 0], ctildes: [1.0]}
    - {mu0: 0, rank: 2, ndensity: 1, num_ms_combs: 1, mus: [0, 0], ns: [1, 4], ls: [0, 0], ms_combs: [0, 0], ctildes: [1.0]}
    - {mu0: 0, rank: 2, ndensity: 1, num_ms_combs: 1, mus: [0, 0], ns: [1, 5], ls: [0, 0], ms_combs: [0, 0], ctildes: [1.0]}
    - {mu0: 0, rank: 2, ndensity: 1, num_ms_combs: 1, mus: [0, 0], ns: [2, 2], ls: [0, 0], ms_combs: [0, 0], ctildes: [1.0]}
    - {mu0: 0, rank: 2, ndensity: 1, num_ms_combs: 1, mus: [0, 0], ns: [2, 3], ls: [0, 0], ms_combs: [0, 0], ctildes: [1.0]}
    - {mu0: 0, rank: 2, ndensity: 1, num_ms_combs: 1, mus: [0, 0], ns: [2, 4], ls: [0, 0], ms_combs: [0, 0], ctildes: [1.0]}
    - {mu0: 0, rank: 2, ndensity: 1, num_ms_combs: 1, mus: [0, 0], ns: [2, 5], ls: [0, 0], ms_combs: [0, 0], ctildes: [1.0]}
    - {mu0: 0, rank: 2, ndensity: 1, num_ms_combs: 1, mus: [0, 0], ns: [3, 3], ls: [0, 0], ms_combs: [0, 0], ctildes: [1.0]}
    - {mu0: 0, rank: 2, ndensity: 1, num_ms_combs: 1, mus: [0, 0], ns: [3, 4], ls: [0, 0], ms_combs: [0, 0], ctildes: [1.0]}
    - {mu0: 0, rank: 2, ndensity: 1, num_ms_combs: 1, mus: [0, 0], ns: [3, 5], ls: [0, 0], ms_combs: [0, 0], ctildes: [1.0]}
    - {mu0: 0, rank: 2, ndensity: 1, num_ms_combs: 1, mus: [0, 0], ns: [4, 4], ls: [0, 0], ms_combs: [0, 0], ctildes: [1.0]}
    - {mu0: 0, rank: 2, ndensity: 1, num_ms_combs: 1, mus: [0, 0], ns: [4, 5], ls: [0, 0], ms_combs: [0, 0], ctildes: [1.0]}
    - {mu0: 0, rank: 2, ndensity: 1, num_ms_combs: 1, mus: [0, 0], ns: [5, 5], ls: [0, 0], ms_combs: [0, 0], ctildes: [1.0]}
    - {mu0: 0, rank: 2, ndensity: 1, num_ms_combs: 3, mus: [0, 0], ns: [1, 1], ls: [1, 1], ms_combs: [-1, 1, 0, 0, 1, -1], ctildes: [0.5773502691896257, -0.5773502691896257, 0.5773502691896257]}
    - {mu0: 0, rank: 2, ndensity: 1, num_ms_combs: 3, mus: [0, 0], ns: [1, 2], ls: [1, 1], ms_combs: [-1, 1, 0, 0, 1, -1], ctildes: [0.5773502691896257, -0.5773502691896257, 0.5773502691896257]}
    - {mu0: 0, rank: 2, ndensity: 1, num_ms_combs: 3, mus: [0, 0], ns: [1, 3], ls: [1, 1], ms_combs: [-1, 1, 0, 0, 1, -1], ctildes: [0.5773502691896257, -0.5773502691896257, 0.5773502691896257]}
    - {mu0: 0, rank: 2, ndensity: 1, num_ms_combs: 3, mus: [0, 0], ns: [1, 4], ls: [1, 1], ms_combs: [-1, 1, 0, 0, 1, -1], ctildes: [0.5773502691896257, -0.5773502691896257, 0.5773502691896257]}
    - {mu0: 0, rank: 2, ndensity: 1, num_ms_combs: 3, mus: [0, 0], ns: [1, 5], ls: [1, 1], ms_combs: [-1, 1, 0, 0, 1, -1], ctildes: [0.5773502691896257, -0.5773502691896257, 0.5773502691896257]}
    - {mu0: 0, rank: 2, ndensity: 1, num_ms_combs: 3, mus: [0, 0], ns: [2, 2], ls: [1, 1], ms_combs: [-1, 1, 0, 0, 1, -1], ctildes: [0.5773502691896257, -0.5773502691896257, 0.5773502691896257]}
    - {mu0: 0, rank: 2, ndensity: 1, num_ms_combs: 3, mus: [0, 0], ns: [2, 3], ls: [1, 1], ms_combs: [-1, 1, 0, 0, 1, -1], ctildes: [0.5773502691896257, -0.5773502691896257, 0.5773502691896257]}
    - {mu0: 0, rank: 2, ndensity: 1, num_ms_combs: 3, mus: [0, 0], ns: [2, 4], ls: [1, 1], ms_combs: [-1, 1, 0, 0, 1, -1], ctildes: [0.5773502691896257, -0.5773502691896257, 0.5773502691896257]}
    - {mu0: 0, rank: 2, ndensity: 1, num_ms_combs: 3, mus: [0, 0], ns: [2, 5], ls: [1, 1], ms_combs: [-1, 1, 0, 0, 1, -1], ctildes: [0.5773502691896257, -0.5773502691896257, 0.5773502691896257]}
    - {mu0: 0, rank: 2, ndensity: 1, num_ms_combs: 3, mus: [0, 0], ns: [3, 3], ls: [1, 1], ms_combs: [-1, 1, 0, 0, 1, -1], ctildes: [0.5773502691896257, -0.5773502691896257, 0.5773502691896257]}
    - {mu0: 0, rank: 2, ndensity: 1, num_ms_combs: 3, mus: [0, 0], ns: [3, 4], ls: [1, 1], ms_combs: [-1, 1, 0, 0, 1, -1], ctildes: [0.5773502691896257, -0.5773502691896257, 0.5773502691896257]}
    - {mu0: 0, rank: 2, ndensity: 1, num_ms_combs: 3, mus: [0, 0], ns: [3, 5], ls: [1, 1], ms_combs: [-1, 1, 0, 0, 1, -1], ctildes: [0.5773502691896257, -0.5773502691896257, 0.5773502691896257]}
    - {mu0: 0, rank: 2, ndensity: 1, num_ms_combs: 3, mus: [0, 0], ns: [4, 4], ls: [1, 1], ms_combs: [-1, 1, 0, 0, 1, -1], ctildes: [0.5773502691896257, -0.5773502691896257, 0.5773502691896257]}
    - {mu0: 0, rank: 2, ndensity: 1, num_ms_combs: 3, mus: [0, 0], ns: [4, 5], ls: [1, 1], ms_combs: [-1, 1, 0, 0, 1, -1], ctildes: [0.5773502691896257, -0.5773502691896257, 0.5773502691896257]}
    - {mu0: 0, rank: 2, ndensity: 1, num_ms_combs: 3, mus: [0, 0], ns: [5, 5], ls: [1, 1], ms_combs: [-1, 1, 0, 0, 1, -1], ctildes: [0.5773502691896257, -0.5773502691896257, 0.5773502691896257]}
    - {mu0: 0, rank: 2, ndensity: 1, num_ms_combs: 5, mus: [0, 0], ns: [1, 1], ls: [2, 2], ms_combs: [-2, 2, -1, 1, 0, 0, 1, -1, 2, -2], ctildes: [0.4472135954999579, -0.4472135954999579, 0.447213595499958, -0.4472135954999579, 0.4472135954999579]}
    - {mu0: 0, rank: 2, ndensity: 1, num_ms_combs: 5, mus: [0, 0], ns: [1, 2], ls: [2, 2], ms_combs: [-2, 2, -1, 1, 0, 0, 1, -1, 2, -2], ctildes: [0.4472135954999579, -0.4472135954999579, 0.447213595499958, -0.4472135954999579, 0.4472135954999579]}
    - {mu0: 0, rank: 2, ndensity: 1, num_ms_combs: 5, mus: [0, 0], ns: [1, 3], ls: [2, 2], ms_combs: [-2, 2, -1, 1, 0, 0, 1, -1, 2, -2], ctildes: [0.4472135954999579, -0.4472135954999579, 0.447213595499958, -0.4472135954999579, 0.4472135954999579]}
    - {mu0: 0, rank: 2, ndensity: 1, num_ms_combs: 5, mus: [0, 0], ns: [1, 4], ls: [2, 2], ms_combs: [-2, 2, -1, 1, 0, 0, 1, -1, 2, -2], ctildes: [0.4472135954999579, -0.4472135954999579, 0.447213595499958, -0.4472135954999579, 0.4472135954999579]}
    - {mu0: 0, rank: 2, ndensity: 1, num_ms_combs: 5, mus: [0, 0], ns: [1, 5], ls: [2, 2], ms_combs: [-2, 2, -1, 1, 0, 0, 1, -1, 2, -2], ctildes: [0.4472135954999579, -0.4472135954999579, 0.447213595499958, -0.4472135954999579, 0.4472135954999579]}
    - {mu0: 0, rank: 2, ndensity: 1, num_ms_combs: 5, mus: [0, 0], ns: [2, 2], ls: [2, 2], ms_combs: [-2, 2, -1, 1, 0, 0, 1, -1, 2, -2], ctildes: [0.4472135954999579, -0.4472135954999579, 0.447213595499958, -0.4472135954999579, 0.4472135954999579]}
    - {mu0: 0, rank: 2, ndensity: 1, num_ms_combs: 5, mus: [0, 0], ns: [2, 3], ls: [2, 2], ms_combs: [-2, 2, -1, 1, 0, 0, 1, -1, 2, -2], ctildes: [0.4472135954999579, -0.4472135954999579, 0.447213595499958, -0.4472135954999579, 0.4472135954999579]}
    - {mu0: 0, rank: 2, ndensity: 1, num_ms_combs: 5, mus: [0, 0], ns: [2, 4], ls: [2, 2], ms_combs: [-2, 2, -1, 1, 0, 0, 1, -1, 2, -2], ctildes: [0.4472135954999579, -0.4472135954999579, 0.447213595499958, -0.4472135954999579, 0.4472135954999579]}
    - {mu0: 0, rank: 2, ndensity: 1, num_ms_combs: 5, mus: [0, 0], ns: [2, 5], ls: [2, 2], ms_combs: [-2, 2, -1, 1, 0, 0, 1, -1, 2, -2], ctildes: [0.4472135954999579, -0.4472135954999579, 0.447213595499958, -0.4472135954999579, 0.4472135954999579]}
    - {mu0: 0, rank: 2, ndensity: 1, num_ms_combs: 5, mus: [0, 0], ns: [3, 3], ls: [2, 2], ms_combs: [-2, 2, -1, 1, 0, 0, 1, -1, 2, -2], ctildes: [0.4472135954999579, -0.4472135954999579, 0.447213595499958, -0.4472135954999579, 0.4472135954999579]}
    - {mu0: 0, rank: 2, ndensity: 1, num_ms_combs: 5, mus: [0, 0], ns: [3, 4], ls: [2, 2], ms_combs: [-2, 2, -1, 1, 0, 0, 1, -1, 2, -2], ctildes: [0.4472135954999579, -0.4472135954999579, 0.447213595499958, -0.4472135954999579, 0.4472135954999579]}
    - {mu0: 0, rank: 2, ndensity: 1, num_ms_combs: 5, mus: [0, 0], ns: [3, 5], ls: [2, 2], ms_combs: [-2, 2, -1, 1, 0, 0, 1, -1, 2, -2], ctildes: [0.4472135954999579, -0.4472135954999579, 0.447213595499958, -0.4472135954999579, 0.4472135954999579]}
    - {mu0: 0, rank: 2, ndensity: 1, num_ms_combs: 5, mus: [0, 0], ns: [4, 4], ls: [2, 2], ms_combs: [-2, 2, -1, 1, 0, 0, 1, -1, 2, -2], ctildes: [0.4472135954999579, -0.4472135954999579, 0.447213595499958, -0.4472135954999579, 0.4472135954999579]}
    - {mu0: 0, rank: 2, ndensity: 1, num_ms_combs: 5, mus: [0, 0], ns: [4, 5], ls: [2, 2], ms_combs: [-2, 2, -1, 1, 0, 0, 1, -1, 2, -2], ctildes: [0.4472135954999579, -0.4472135954999579, 0.447213595499958, -0.4472135954999579, 0.4472135954999579]}
    - {mu0: 0, rank: 2, ndensity: 1, num_ms_combs: 5, mus: [0, 0], ns: [5, 5], ls: [2, 2], ms_combs: [-2, 2, -1, 1, 0, 0, 1, -1, 2, -2], ctildes: [0.4472135954999579, -0.4472135954999579, 0.447213595499958, -0.4472135954999579, 0.4472135954999579]}
    - {mu0: 0, rank: 2, ndensity: 1, num_ms_combs: 7, mus: [0, 0], ns: [1, 1], ls: [3, 3], ms_combs: [-3, 3, -2, 2, -1, 1, 0, 0, 1, -1, 2, -2, 3, -3], ctildes: [0.3779644730092272, -0.37796447300922725, 0.3779644730092272, -0.3779644730092272, 0.3779644730092272, -0.37796447300922725, 0.3779644730092272]}
    - {mu0: 0, rank: 2, ndensity: 1, num_ms_combs: 7, mus: [0, 0], ns: [1, 2], ls: [3, 3], ms_combs: [-3, 3, -2, 2, -1, 1, 0, 0, 1, -1, 2, -2, 3, -3], ctildes: [0.3779644730092272, -0.37796447300922725, 0.3779644730092272, -0.3779644730092272, 0.3779644730092272, -0.37796447300922725, 0.3779644730092272]}
    - {mu0: 0, rank: 2, ndensity: 1, num_ms_combs: 7, mus: [0, 0], ns: [1, 3], ls: [3, 3], ms_combs: [-3, 3, -2, 2, -1, 1, 0, 0, 1, -1, 2, -2, 3, -3], ctildes: [0.3779644730092272, -0.37796447300922725, 0.3779644730092272, -0.3779644730092272, 0.3779644730092272, -0.37796447300922725, 0.3779644730092272]}
    - {mu0: 0, rank: 2, ndensity: 1, num_ms_combs: 7, mus: [0, 0], ns: [1, 4], ls: [3, 3], ms_combs: [-3, 3, -2, 2, -1, 1, 0, 0, 1, -1, 2, -2, 3, -3], ctildes: [0.3779644730092272, -0.37796447300922725, 0.3779644730092272, -0.3779644730092272, 0.3779644730092272, -0.37796447300922725, 0.3779644730092272]}
    - {mu0: 0, rank: 2, ndensity: 1, num_ms_combs: 7, mus: [0, 0], ns: [1, 5], ls: [3, 3], ms_combs: [-3, 3, -2, 2, -1, 1, 0, 0, 1, -1, 2, -2, 3, -3], ctildes: [0.3779644730092272, -0.37796447300922725, 0.3779644730092272, -0.3779644730092272, 0.3779644730092272, -0.37796447300922725, 0.3779644730092272]}
    - {mu0: 0, rank: 2, ndensity: 1, num_ms_combs: 7, mus: [0, 0], ns: [2, 2], ls: [3, 3], ms_combs: [-3, 3, -2, 2, -1, 1, 0, 0, 1, -1, 2, -2, 3, -3], ctildes: [0.3779644730092272, -0.37796447300922725, 0.3779644730092272, -0.3779644730092272, 0.3779644730092272, -0.37796447300922725, 0.3779644730092272]}
    - {mu0: 0, rank: 2, ndensity: 1, num_ms_combs: 7, mus: [0, 0], ns: [2, 3], ls: [3, 3], ms_combs: [-3, 3, -2, 2, -1, 1, 0, 0, 1, -1, 2, -2, 3, -3], ctildes: [0.3779644730092272, -0.37796447300922725, 0.3779644730092272, -0.3779644730092272, 0.3779644730092272, -0.37796447300922725, 0.3779644730092272]}
    - {mu0: 0, rank: 2, ndensity: 1, num_ms_combs: 7, mus: [0, 0], ns: [2, 4], ls: [3, 3], ms_combs: [-3, 3, -2, 2, -1, 1, 0, 0, 1, -1, 2, -2, 3, -3], ctildes: [0.3779644730092272, -0.37796447300922725, 0.3779644730092272, -0.3779644730092272, 0.3779644730092272, -0.37796447300922725, 0.3779644730092272]}
    - {mu0: 0, rank: 2, ndensity: 1, num_ms_combs: 7, mus: [0, 0], ns: [2, 5], ls: [3, 3], ms_combs: [-3, 3, -2, 2, -1, 1, 0, 0, 1, -1, 2, -2, 3, -3], ctildes: [0.3779644730092272, -0.37796447300922725, 0.3779644730092272, -0.3779644730092272, 0.3779644730092272, -0.37796447300922725, 0.3779644730092272]}
    - {mu0: 0, rank: 2, ndensity: 1, num_ms_combs: 7, mus: [0, 0], ns: [3, 3], ls: [3, 3], ms_combs: [-3, 3, -2, 2, -1, 1, 0, 0, 1, -1, 2, -2, 3, -3], ctildes: [0.3779644730092272, -0.37796447300922725, 0.3779644730092272, -0.3779644730092272, 0.3779644730092272, -0.37796447300922725, 0.3779644730092272]}
    - {mu0: 0, rank: 2, ndensity: 1, num_ms_combs: 7, mus: [0, 0], ns: [3, 4], ls: [3, 3], ms_combs: [-3, 3, -2, 2, -1, 1, 0, 0, 1, -1, 2, -2, 3, -3], ctildes: [0.3779644730092272, -0.37796447300922725, 0.3779644730092272, -0.3779644730092272, 0.3779644730092272, -0.37796447300922725, 0.3779644730092272]}
    - {mu0: 0, rank: 2, ndensity: 1, num_ms_combs: 7, mus: [0, 0], ns: [3, 5], ls: [3, 3], ms_combs: [-3, 3, -2, 2, -1, 1, 0, 0, 1, -1, 2, -2, 3, -3], ctildes: [0.3779644730092272, -0.37796447300922725, 0.3779644730092272, -0.3779644730092272, 0.3779644730092272, -0.37796447300922725, 0.3779644730092272]}
    - {mu0: 0, rank: 2, ndensity: 1, num_ms_combs: 7, mus: [0, 0], ns: [4, 4], ls: [3, 3], ms_combs: [-3, 3, -2, 2, -1, 1, 0, 0, 1, -1, 2, -2, 3, -3], ctildes: [0.3779644730092272, -0.37796447300922725, 0.3779644730092272, -0.3779644730092272, 0.3779644730092272, -0.37796447300922725, 0.3779644730092272]}
    - {mu0: 0, rank: 2, ndensity: 1, num_ms_combs: 7, mus: [0, 0], ns: [4, 5], ls: [3, 3], ms_combs: [-3, 3, -2, 2, -1, 1, 0, 0, 1, -1, 2, -2, 3, -3], ctildes: [0.3779644730092272, -0.37796447300922725, 0.3779644730092272, -0.3779644730092272, 0.3779644730092272, -0.37796447300922725, 0.3779644730092272]}
    - {mu0: 0, rank: 2, ndensity: 1, num_ms_combs: 7, mus: [0, 0], ns: [5, 5], ls: [3, 3], ms_combs: [-3, 3, -2, 2, -1, 1, 0, 0, 1, -1, 2, -2, 3, -3], ctildes: [0.3779644730092272, -0.37796447300922725, 0.3779644730092272, -0.3779644730092272, 0.3779644730092272, -0.37796447300922725, 0.3779644730092272]}
    - {mu0: 0, rank: 2, ndensity: 1, num_ms_combs: 9, mus: [0, 0], ns: [1, 1], ls: [4, 4], ms_combs: [-4, 4, -3, 3, -2, 2, -1, 1, 0, 0, 1, -1, 2, -2, 3, -3, 4, -4], ctildes: [0.3333333333333333, -0.3333333333333333, 0.3333333333333333, -0.3333333333333333, 0.33333333333333337, -0.3333333333333333, 0.3333333333333333, -0.3333333333333333, 0.3333333333333333]}
    - {mu0: 0, rank: 2, ndensity: 1, num_ms_combs: 9, mus: [0, 0], ns: [1, 2], ls: [4, 4], ms_combs: [-4, 4, -3, 3, -2, 2, -1, 1, 0, 0, 1, -1, 2, -2, 3, -3, 4, -4], ctildes: [0.3333333333333333, -0.3333333333333333, 0.3333333333333333, -0.3333333333333333, 0.33333333333333337, -0.3333333333333333, 0.3333333333333333, -0.3333333333333333, 0.3333333333333333]}
    - {mu0: 0, rank: 2, ndensity: 1, num_ms_combs: 9, mus: [0, 0], ns: [1, 3], ls: [4, 4], ms_combs: [-4, 4, -3, 3, -2, 2, -1, 1, 0, 0, 1, -1, 2, -2, 3, -3, 4, -4], ctildes: [0.3333333333333333, -0.3333333333333333, 0.3333333333333333, -0.3333333333333333, 0.33333333333333337, -0.3333333333333333, 0.3333333333333333, -0.3333333333333333, 0.3333333333333333]}
    - {mu0: 0, rank: 2, ndensity: 1, num_ms_combs: 9, mus: [0, 0], ns: [1, 4], ls: [4, 4], ms_combs: [-4, 4, -3, 3, -2, 2, -1, 1, 0, 0, 1, -1, 2, -2, 3, -3, 4, -4], ctildes: [0.3333333333333333, -0.3333333333333333, 0.3333333333333333, -0.3333333333333333, 0.33333333333333337, -0.3333333333333333, 0.3333333333333333, -0.3333333333333333, 0.3333333333333333]}
    - {mu0: 0, rank: 2, ndensity: 1, num_ms_combs: 9, mus: [0, 0], ns: [1, 5], ls: [4, 4], ms_combs: [-4, 4, -3, 3, -2, 2, -1, 1, 0, 0, 1, -1, 2, -2, 3, -3, 4, -4], ctildes: [0.3333333333333333, -0.3333333333333333, 0.3333333333333333, -0.3333333333333333, 0.33333333333333337, -0.3333333333333333, 0.3333333333333333, -0.3333333333333333, 0.3333333333333333]}
    - {mu0: 0, rank: 2, ndensity: 1, num_ms_combs: 9, mus: [0, 0], ns: [2, 2], ls: [4, 4], ms_combs: [-4, 4, -3, 3, -2, 2, -1, 1, 0, 0, 1, -1, 2, -2, 3, -3, 4, -4], ctildes: [0.3333333333333333, -0.3333333333333333, 0.3333333333333333, -0.3333333333333333, 0.33333333333333337, -0.3333333333333333, 0.3333333333333333, -0.3333333333333333, 0.3333333333333333]}
    - {mu0: 0, rank: 2, ndensity: 1, num_ms_combs: 9, mus: [0, 0], ns: [2, 3], ls: [4, 4], ms_combs: [-4, 4, -3, 3, -2, 2, -1, 1, 0, 0, 1, -1, 2, -2, 3, -3, 4, -4], ctildes: [0.3333333333333333, -0.3333333333333333, 0.3333333333333333, -0.3333333333333333, 0.33333333333333337, -0.3333333333333333, 0.3333333333333333, -0.3333333333333333, 0.3333333333333333]}
    - {mu0: 0, rank: 2, ndensity: 1, num_ms_combs: 9, mus: [0, 0], ns: [2, 4], ls: [4, 4], ms_combs: [-4, 4, -3, 3, -2, 2, -1, 1, 0, 0, 1, -1, 2, -2, 3, -3, 4, -4], ctildes: [0.3333333333333333, -0.3333333333333333, 0.3333333333333333, -0.3333333333333333, 0.33333333333333337, -0.3333333333333333, 0.3333333333333333, -0.3333333333333333, 0.3333333333333333]}
    - {mu0: 0, rank: 2, ndensity: 1, num_ms_combs: 9, mus: [0, 0], ns: [2, 5], ls: [4, 4], ms_combs: [-4, 4, -3, 3, -2, 2, -1, 1, 0, 0, 1, -1, 2, -2, 3, -3, 4, -4], ctildes: [0.3333333333333333, -0.3333333333333333, 0.3333333333333333, -0.3333333333333333, 0.33333333333333337, -0.3333333333333333, 0.3333333333333333, -0.3333333333333333, 0.3333333333333333]}
    - {mu0: 0, rank: 2, ndensity: 1, num_ms_combs: 9, mus: [0, 0], ns: [3, 3], ls: [4, 4], ms_combs: [-4, 4, -3, 3, -2, 2, -1, 1, 0, 0, 1, -1, 2, -2, 3, -3, 4, -4], ctildes: [0.3333333333333333, -0.3333333333333333, 0.3333333333333333, -0.3333333333333333, 0.33333333333333337, -0.3333333333333333, 0.3333333333333333, -0.3333333333333333, 0.3333333333333333]}
    - {mu0: 0, rank: 2, ndensity: 1, num_ms_combs: 9, mus: [0, 0], ns: [3, 4], ls: [4, 4], ms_combs: [-4, 4, -3, 3, -2, 2, -1, 1, 0, 0, 1, -1, 2, -2, 3, -3, 4, -4], ctildes: [0.3333333333333333, -0.3333333333333333, 0.3333333333333333, -0.3333333333333333, 0.33333333333333337, -0.3333333333333333, 0.3333333333333333, -0.3333333333333333, 0.3333333333333333]}
    - {mu0: 0, rank: 2, ndensity: 1, num_ms_combs: 9, mus: [0, 0], ns: [3, 5], ls: [4, 4], ms_combs: [-4, 4, -3, 3, -2, 2, -1, 1, 0, 0, 1, -1, 2, -2, 3, -3, 4, -4], ctildes: [0.3333333333333333, -0.3333333333333333, 0.3333333333333333, -0.3333333333333333, 0.33333333333333337, -0.3333333333333333, 0.3333333333333333, -0.3333333333333333, 0.3333333333333333]}
    - {mu0: 0, rank: 2, ndensity: 1, num_ms_combs: 9, mus: [0, 0], ns: [4, 4], ls: [4, 4], ms_combs: [-4, 4, -3, 3, -2, 2, -1, 1, 0, 0, 1, -1, 2, -2, 3, -3, 4, -4], ctildes: [0.3333333333333333, -0.3333333333333333, 0.3333333333333333, -0.3333333333333333, 0.33333333333333337, -0.3333333333333333, 0.3333333333333333, -0.3333333333333333, 0.3333333333333333]}
    - {mu0: 0, rank: 2, ndensity: 1, num_ms_combs: 9, mus: [0, 0], ns: [4, 5], ls: [4, 4], ms_combs: [-4, 4, -3, 3, -2, 2, -1, 1, 0, 0, 1, -1, 2, -2, 3, -3, 4, -4], ctildes: [0.3333333333333333, -0.3333333333333333, 0.3333333333333333, -0.3333333333333333, 0.33333333333333337, -0.3333333333333333, 0.3333333333333333, -0.3333333333333333, 0.3333333333333333]}
    - {mu0: 0, rank: 2, ndensity: 1, num_ms_combs: 9, mus: [0, 0], ns: [5, 5], ls: [4, 4], ms_combs: [-4, 4, -3, 3, -2, 2, -1, 1, 0, 0, 1, -1, 2, -2, 3, -3, 4, -4], ctildes: [0.3333333333333333, -0.3333333333333333, 0.3333333333333333, -0.3333333333333333, 0.33333333333333337, -0.3333333333333333, 0.3333333333333333, -0.3333333333333333, 0.3333333333333333]}
    - {mu0: 0, rank: 2, ndensity: 1, num_ms_combs: 11, mus: [0, 0], ns: [1, 1], ls: [5, 5], ms_combs: [-5, 5, -4, 4, -3, 3, -2, 2, -1, 1, 0, 0, 1, -1, 2, -2, 3, -3, 4, -4, 5, -5], ctildes: [0.30151134457776363, -0.30151134457776363, 0.30151134457776363, -0.3015113445777636, 0.30151134457776363, -0.3015113445777637, 0.30151134457776363, -0.3015113445777636, 0.30151134457776363, -0.30151134457776363, 0.30151134457776363]}
    - {mu0: 0, rank: 2, ndensity: 1, num_ms_combs: 11, mus: [0, 0], ns: [1, 2], ls: [5, 5], ms_combs: [-5, 5, -4, 4, -3, 3, -2, 2, -1, 1, 0, 0, 1, -1, 2, -2, 3, -3, 4, -4, 5, -5], ctildes: [0.30151134457776363, -0.30151134457776363, 0.30151134457776363, -0.3015113445777636, 0.30151134457776363, -0.3015113445777637, 0.30151134457776363, -0.3015113445777636, 0.30151134457776363, -0.30151134457776363, 0.30151134457776363]}
    - {mu0: 0, rank: 2, ndensity: 1, num_ms_combs: 11, mus: [0, 0], ns: [1, 3], ls: [5, 5], ms_combs: [-5, 5, -4, 4, -3, 3, -2, 2, -1, 1, 0, 0, 1, -1, 2, -2, 3, -3, 4, -4, 5, -5], ctildes: [0.30151134457776363, -0.30151134457776363, 0.30151134457776363, -0.3015113445777636, 0.30151134457776363, -0.3015113445777637, 0.30151134457776363, -0.3015113445777636, 0.30151134457776363, -0.30151134457776363, 0.30151134457776363]}
    - {mu0: 0, rank: 2, ndensity: 1, num_ms_combs: 11, mus: [0, 0], ns: [1, 4], ls: [5, 5], ms_combs: [-5, 5, -4, 4, -3, 3, -2, 2, -1, 1, 0, 0, 1, -1, 2, -2, 3, -3, 4, -4, 5, -5], ctildes: [0.30151134457776363, -0.30151134457776363, 0.30151134457776363, -0.3015113445777636, 0.30151134457776363, -0.3015113445777637, 0.30151134457776363, -0.3015113445777636, 0.30151134457776363, -0.30151134457776363, 0.30151134457776363]}
    - {mu0: 0, rank: 2, ndensity: 1, num_ms_combs: 11, mus: [0, 0], ns: [1, 5], ls: [5, 5], ms_combs: [-5, 5, -4, 4, -3, 3, -2, 2, -1, 1, 0, 0, 1, -1, 2, -2, 3, -3, 4, -4, 5, -5], ctildes: [0.30151134457776363, -0.30151134457776363, 0.30151134457776363, -0.3015113445777636, 0.30151134457776363, -0.3015113445777637, 0.30151134457776363, -0.3015113445777636, 0.30151134457776363, -0.30151134457776363, 0.30151134457776363]}
    - {mu0: 0, rank: 2, ndensity: 1, num_ms_combs: 11, mus: [0, 0], ns: [2, 2], ls: [5, 5], ms_combs: [-5, 5, -4, 4, -3, 3, -2, 2, -1, 1, 0, 0, 1, -1, 2, -2, 3, -3, 4, -4, 5, -5], ctildes: [0.30151134457776363, -0.30151134457776363, 0.30151134457776363, -0.3015113445777636, 0.30151134457776363, -0.3015113445777637, 0.30151134457776363, -0.3015113445777636, 0.30151134457776363, -0.30151134457776363, 0.30151134457776363]}
    - {mu0: 0, rank: 2, ndensity: 1, num_ms_combs: 11, mus: [0, 0], ns: [2, 3], ls: [5, 5], ms_combs: [-5, 5, -4, 4, -3, 3, -2, 2, -1, 1, 0, 0, 1, -1, 2, -2, 3, -3, 4, -4, 5, -5], ctildes: [0.30151134457776363, -0.30151134457776363, 0.30151134457776363, -0.3015113445777636, 0.30151134457776363, -0.3015113445777637, 0.30151134457776363, -0.3015113445777636, 0.30151134457776363, -0.30151134457776363, 0.30151134457776363]}
    - {mu0: 0, rank: 2, ndensity: 1, num_ms_combs: 11, mus: [0, 0], ns: [2, 4], ls: [5, 5], ms_combs: [-5, 5, -4, 4, -3, 3, -2, 2, -1, 1, 0, 0, 1, -1, 2, -2, 3, -3, 4, -4, 5, -5], ctildes: [0.30151134457776363, -0.30151134457776363, 0.30151134457776363, -0.3015113445777636, 0.30151134457776363, -0.3015113445777637, 0.30151134457776363, -0.3015113445777636, 0.30151134457776363, -0.30151134457776363, 0.30151134457776363]}
    - {mu0: 0, rank: 2, ndensity: 1, num_ms_combs: 11, mus: [0, 0], ns: [2, 5], ls: [5, 5], ms_combs: [-5, 5, -4, 4, -3, 3, -2, 2, -1, 1, 0, 0, 1, -1, 2, -2, 3, -3, 4, -4, 5, -5], ctildes: [0.30151134457776363, -0.30151134457776363, 0.30151134457776363, -0.3015113445777636, 0.30151134457776363, -0.3015113445777637, 0.30151134457776363, -0.3015113445777636, 0.30151134457776363, -0.30151134457776363, 0.30151134457776363]}
    - {mu0: 0, rank: 2, ndensity: 1, num_ms_combs: 11, mus: [0, 0], ns: [3, 3], ls: [5, 5], ms_combs: [-5, 5, -4, 4, -3, 3, -2, 2, -1, 1, 0, 0, 1, -1, 2, -2, 3, -3, 4, -4, 5, -5], ctildes: [0.30151134457776363, -0.30151134457776363, 0.30151134457776363, -0.3015113445777636, 0.30151134457776363, -0.3015113445777637, 0.30151134457776363, -0.3015113445777636, 0.30151134457776363, -0.30151134457776363, 0.30151134457776363]}
    - {mu0: 0, rank: 2, ndensity: 1, num_ms_combs: 11, mus: [0, 0], ns: [3, 4], ls: [5, 5], ms_combs: [-5, 5, -4, 4, -3, 3, -2, 2, -1, 1, 0, 0, 1, -1, 2, -2, 3, -3, 4, -4, 5, -5], ctildes: [0.30151134457776363, -0.30151134457776363, 0.30151134457776363, -0.3015113445777636, 0.30151134457776363, -0.3015113445777637, 0.30151134457776363, -0.3015113445777636, 0.30151134457776363, -0.30151134457776363, 0.30151134457776363]}
    - {mu0: 0, rank: 2, ndensity: 1, num_ms_combs: 11, mus: [0, 0], ns: [3, 5], ls: [5, 5], ms_combs: [-5, 5, -4, 4, -3, 3, -2, 2, -1, 1, 0, 0, 1, -1, 2, -2, 3, -3, 4, -4, 5, -5], ctildes: [0.30151134457776363, -0.30151134457776363, 0.30151134457776363, -0.3015113445777636, 0.30151134457776363, -0.3015113445777637, 0.30151134457776363, -0.3015113445777636, 0.30151134457776363, -0.30151134457776363, 0.30151134457776363]}
    - {mu0: 0, rank: 2, ndensity: 1, num_ms_combs: 11, mus: [0, 0], ns: [4, 4], ls: [5, 5], ms_combs: [-5, 5, -4, 4, -3, 3, -2, 2, -1, 1, 0, 0, 1, -1, 2, -2, 3, -3, 4, -4, 5, -5], ctildes: [0.30151134457776363, -0.30151134457776363, 0.30151134457776363, -0.3015113445777636, 0.30151134457776363, -0.3015113445777637, 0.30151134457776363, -0.3015113445777636, 0.30151134457776363, -0.30151134457776363, 0.30151134457776363]}
    - {mu0: 0, rank: 2, ndensity: 1, num_ms_combs: 11, mus: [0, 0], ns: [4, 5], ls: [5, 5], ms_combs: [-5, 5, -4, 4, -3, 3, -2, 2, -1, 1, 0, 0, 1, -1, 2, -2, 3, -3, 4, -4, 5, -5], ctildes: [0.30151134457776363, -0.30151134457776363, 0.30151134457776363, -0.3015113445777636, 0.30151134457776363, -0.3015113445777637, 0.30151134457776363, -0.3015113445777636, 0.30151134457776363, -0.30151134457776363, 0.30151134457776363]}
    - {mu0: 0, rank: 2, ndensity: 1, num_ms_combs: 11, mus: [0, 0], ns: [5, 5], ls: [5, 5], ms_combs: [-5, 5, -4, 4, -3, 3, -2, 2, -1, 1, 0, 0, 1, -1, 2, -2, 3, -3, 4, -4, 5, -5], ctildes: [0.30151134457776363, -0.30151134457776363, 0.30151134457776363, -0.3015113445777636, 0.30151134457776363, -0.3015113445777637, 0.30151134457776363, -0.3015113445777636, 0.30151134457776363, -0.30151134457776363, 0.30151134457776363]}
    - {mu0: 0, rank: 3, ndensity: 1, num_ms_combs: 9, mus: [0, 0, 0], ns: [1, 1, 1], ls: [1, 1, 2], ms_combs: [-1, -1, 2, -1, 0, 1, -1, 1, 0, 0, -1, 1, 0, 0, 0, 0, 1, -1, 1, -1, 0, 1, 0, -1, 1, 1, -2], ctildes: [0.19999999999999998, -0.1414213562373095, 0.08164965809277261, -0.1414213562373095, 0.16329931618554522, -0.1414213562373095, 0.08164965809277261, -0.1414213562373095, 0.19999999999999998]}
    - {mu0: 0, rank: 3, ndensity: 1, num_ms_combs: 9, mus: [0, 0, 0], ns: [1, 1, 2], ls: [1, 1, 2], ms_combs: [-1, -1, 2, -1, 0, 1, -1, 1, 0, 0, -1, 1, 0, 0, 0, 0, 1, -1, 1, -1, 0, 1, 0, -1, 1, 1, -2], ctildes: [0.19999999999999998, -0.1414213562373095, 0.08164965809277261, -0.1414213562373095, 0.16329931618554522, -0.1414213562373095, 0.08164965809277261, -0.1414213562373095, 0.19999999999999998]}
    - {mu0: 0, rank: 3, ndensity: 1, num_ms_combs: 9, mus: [0, 0, 0], ns: [1, 1, 3], ls: [1, 1, 2], ms_combs: [-1, -1, 2, -1, 0, 1, -1, 1, 0, 0, -1, 1, 0, 0, 0, 0, 1, -1, 1, -1, 0, 1, 0, -1, 1, 1, -2], ctildes: [0.19999999999999998, -0.1414213562373095, 0.08164965809277261, -0.1414213562373095, 0.16329931618554522, -0.1414213562373095, 0.08164965809277261, -0.1414213562373095, 0.19999999999999998]}
    - {mu0: 0, rank: 3, ndensity: 1, num_ms_combs: 9, mus: [0, 0, 0], ns: [1, 2, 1], ls: [1, 1, 2], ms_combs: [-1, -1, 2, -1, 0, 1, -1, 1, 0, 0, -1, 1, 0, 0, 0, 0, 1, -1, 1, -1, 0, 1, 0, -1, 1, 1, -2], ctildes: [0.19999999999999998, -0.1414213562373095, 0.08164965809277261, -0.1414213562373095, 0.16329931618554522, -0.1414213562373095, 0.08164965809277261, -0.1414213562373095, 0.19999999999999998]}
    - {mu0: 0, rank: 3, ndensity: 1, num_ms_combs: 9, mus: [0, 0, 0], ns: [1, 2, 2], ls: [1, 1, 2], ms_combs: [-1, -1, 2, -1, 0, 1, -1, 1, 0, 0, -1, 1, 0, 0, 0, 0, 1, -1, 1, -1, 0, 1, 0, -1, 1, 1, -2], ctildes: [0.19999999999999998, -0.1414213562373095, 0.08164965809277261, -0.1414213562373095, 0.16329931618554522, -0.1414213562373095, 0.08164965809277261, -0.1414213562373095, 0.19999999999999998]}
    - {mu0: 0, rank: 3, ndensity: 1, num_ms_combs: 9, mus: [0, 0, 0], ns: [1, 2, 3], ls: [1, 1, 2], ms_combs: [-1, -1, 2, -1, 0, 1, -1, 1, 0, 0, -1, 1, 0, 0, 0, 0, 1, -1, 1, -1, 0, 1, 0, -1, 1, 1, -2], ctildes: [0.19999999999999998, -0.1414213562373095, 0.08164965809277261, -0.1414213562373095, 0.16329931618554522, -0.1414213562373095, 0.08164965809277261, -0.1414213562373095, 0.19999999999999998]}
    - {mu0: 0, rank: 3, ndensity: 1, num_ms_combs: 9, mus: [0, 0, 0], ns: [1, 3, 1], ls: [1, 1, 2], ms_combs: [-1, -1, 2, -1, 0, 1, -1, 1, 0, 0, -1, 1, 0, 0, 0, 0, 1, -1, 1, -1, 0, 1, 0, -1, 1, 1, -2], ctildes: [0.19999999999999998, -0.1414213562373095, 0.08164965809277261, -0.1414213562373095, 0.16329931618554522, -0.1414213562373095, 0.08164965809277261, -0.1414213562373095, 0.19999999999999998]}
    - {mu0: 0, rank: 3, ndensity: 1, num_ms_combs: 9, mus: [0, 0, 0], ns: [1, 3, 2], ls: [1, 1, 2], ms_combs: [-1, -1, 2, -1, 0, 1, -1, 1, 0, 0, -1, 1, 0, 0, 0, 0, 1, -1, 1, -1, 0, 1, 0, -1, 1, 1, -2], ctildes: [0.19999999999999998, -0.1414213562373095, 0.08164965809277261, -0.1414213562373095, 0.16329931618554522, -0.1414213562373095, 0.08164965809277261, -0.1414213562373095, 0.19999999999999998]}
    - {mu0: 0, rank: 3, ndensity: 1, num_ms_combs: 9, mus: [0, 0, 0], ns: [1, 3, 3], ls: [1, 1, 2], ms_combs: [-1, -1, 2, -1, 0, 1, -1, 1, 0, 0, -1, 1, 0, 0, 0, 0, 1, -1, 1, -1, 0, 1, 0, -1, 1, 1, -2], ctildes: [0.19999999999999998, -0.1414213562373095, 0.08164965809277261, -0.1414213562373095, 0.16329931618554522, -0.1414213562373095, 0.08164965809277261, -0.1414213562373095, 0.19999999999999998]}
    - {mu0: 0, rank: 3, ndensity: 1, num_ms_combs: 9, mus: [0, 0, 0], ns: [2, 2, 1], ls: [1, 1, 2], ms_combs: [-1, -1, 2, -1, 0, 1, -1, 1, 0, 0, -1, 1, 0, 0, 0, 0, 1, -1, 1, -1, 0, 1, 0, -1, 1, 1, -2], ctildes: [0.19999999999999998, -0.1414213562373095, 0.08164965809277261, -0.1414213562373095, 0.16329931618554522, -0.1414213562373095, 0.08164965809277261, -0.1414213562373095, 0.19999999999999998]}
    - {mu0: 0, rank: 3, ndensity: 1, num_ms_combs: 9, mus: [0, 0, 0], ns: [2, 2, 2], ls: [1, 1, 2], ms_combs: [-1, -1, 2, -1, 0, 1, -1, 1, 0, 0, -1, 1, 0, 0, 0, 0, 1, -1, 1, -1, 0, 1, 0, -1, 1, 1, -2], ctildes: [0.19999999999999998, -0.1414213562373095, 0.08164965809277261, -0.1414213562373095, 0.16329931618554522, -0.1414213562373095, 0.08164965809277261, -0.1414213562373095, 0.19999999999999998]}
    - {mu0: 0, rank: 3, ndensity: 1, num_ms_combs: 9, mus: [0, 0, 0], ns: [2, 2, 3], ls: [1, 1, 2], ms_combs: [-1, -1, 2, -1, 0, 1, -1, 1, 0, 0, -1, 1, 0, 0, 0, 0, 1, -1, 1, -1, 0, 1, 0, -1, 1, 1, -2], ctildes: [0.19999999999999998, -0.1414213562373095, 0.08164965809277261, -0.1414213562373095, 0.16329931618554522, -0.1414213562373095, 0.08164965809277261, -0.1414213562373095, 0.19999999999999998]}
    - {mu0: 0, rank: 3, ndensity: 1, num_ms_combs: 9, mus: [0, 0, 0], ns: [2, 3, 1], ls: [1, 1, 2], ms_combs: [-1, -1, 2, -1, 0, 1, -1, 1, 0, 0, -1, 1, 0, 0, 0, 0, 1, -1, 1, -1, 0, 1, 0, -1, 1, 1, -2], ctildes: [0.19999999999999998, -0.1414213562373095, 0.08164965809277261, -0.1414213562373095, 0.16329931618554522, -0.1414213562373095, 0.08164965809277261, -0.1414213562373095, 0.19999999999999998]}
    - {mu0: 0, rank: 3, ndensity: 1, num_ms_combs: 9, mus: [0, 0, 0], ns: [2, 3, 2], ls: [1, 1, 2], ms_combs: [-1, -1, 2, -1, 0, 1, -1, 1, 0, 0, -1, 1, 0, 0, 0, 0, 1, -1, 1, -1, 0, 1, 0, -1, 1, 1, -2], ctildes: [0.19999999999999998, -0.1414213562373095, 0.08164965809277261, -0.1414213562373095, 0.16329931618554522, -0.1414213562373095, 0.08164965809277261, -0.1414213562373095, 0.19999999999999998]}
    - {mu0: 0, rank: 3, ndensity: 1, num_ms_combs: 9, mus: [0, 0, 0], ns: [2, 3, 3], ls: [1, 1, 2], ms_combs: [-1, -1, 2, -1, 0, 1, -1, 1, 0, 0, -1, 1, 0, 0, 0, 0, 1, -1, 1, -1, 0, 1, 0, -1, 1, 1, -2], ctildes: [0.19999999999999998, -0.1414213562373095, 0.08164965809277261, -0.1414213562373095, 0.16329931618554522, -0.1414213562373095, 0.08164965809277261, -0.1414213562373095, 0.19999999999999998]}
    - {mu0: 0, rank: 3, ndensity: 1, num_ms_combs: 9, mus: [0, 0, 0], ns: [3, 3, 1], ls: [1, 1, 2], ms_combs: [-1, -1, 2, -1, 0, 1, -1, 1, 0, 0, -1, 1, 0, 0, 0, 0, 1, -1, 1, -1, 0, 1, 0, -1, 1, 1, -2], ctildes: [0.19999999999999998, -0.1414213562373095, 0.08164965809277261, -0.1414213562373095, 0.16329931618554522, -0.1414213562373095, 0.08164965809277261, -0.1414213562373095, 0.19999999999999998]}
    - {mu0: 0, rank: 3, ndensity: 1, num_ms_combs: 9, mus: [0, 0, 0], ns: [3, 3, 2], ls: [1, 1, 2], ms_combs: [-1, -1, 2, -1, 0, 1, -1, 1, 0, 0, -1, 1, 0, 0, 0, 0, 1, -1, 1, -1, 0, 1, 0, -1, 1, 1, -2], ctildes: [0.19999999999999998, -0.1414213562373095, 0.08164965809277261, -0.1414213562373095, 0.16329931618554522, -0.1414213562373095, 0.08164965809277261, -0.1414213562373095, 0.19999999999999998]}
    - {mu0: 0, rank: 3, ndensity: 1, num_ms_combs: 9, mus: [0, 0, 0], ns: [3, 3, 3], ls: [1, 1, 2], ms_combs: [-1, -1, 2, -1, 0, 1, -1, 1, 0, 0, -1, 1, 0, 0, 0, 0, 1, -1, 1, -1, 0, 1, 0, -1, 1, 1, -2], ctildes: [0.19999999999999998, -0.1414213562373095, 0.08164965809277261, -0.1414213562373095, 0.16329931618554522, -0.1414213562373095, 0.08164965809277261, -0.1414213562373095, 0.19999999999999998]}
    - {mu0: 0, rank: 3, ndensity: 1, num_ms_combs: 19, mus: [0, 0, 0], ns: [1, 1, 1], ls: [2, 2, 2], ms_combs: [-2, 0, 2, -2, 1, 1, -2, 2, 0, -1, -1, 2, -1, 0, 1, -1, 1, 0, -1, 2, -1, 0, -2, 2, 0, -1, 1, 0, 0, 0, 0, 1, -1, 0, 2, -2, 1, -2, 1, 1, -1, 0, 1, 0, -1, 1, 1, -2, 2, -2, 0, 2, -1, -1, 2, 0, -2], ctildes: [0.10690449676496976, -0.1309307341415954, 0.10690449676496976, -0.1309307341415954, 0.05345224838248488, 0.05345224838248488, -0.1309307341415954, 0.10690449676496976, 0.05345224838248488, -0.10690449676496976, 0.05345224838248488, 0.10690449676496976, -0.1309307341415954, 0.05345224838248488, 0.05345224838248488, -0.1309307341415954, 0.10690449676496976, -0.1309307341415954, 0.10690449676496976]}
    - {mu0: 0, rank: 3, ndensity: 1, num_ms_combs: 19, mus: [0, 0, 0], ns: [1, 1, 2], ls: [2, 2, 2], ms_combs: [-2, 0, 2, -2, 1, 1, -2, 2, 0, -1, -1, 2, -1, 0, 1, -1, 1, 0, -1, 2, -1, 0, -2, 2, 0, -1, 1, 0, 0, 0, 0, 1, -1, 0, 2, -2, 1, -2, 1, 1, -1, 0, 1, 0, -1, 1, 1, -2, 2, -2, 0, 2, -1, -1, 2, 0, -2], ctildes: [0.10690449676496976, -0.1309307341415954, 0.10690449676496976, -0.1309307341415954, 0.05345224838248488, 0.05345224838248488, -0.1309307341415954, 0.10690449676496976, 0.05345224838248488, -0.10690449676496976, 0.05345224838248488, 0.10690449676496976, -0.1309307341415954, 0.05345224838248488, 0.05345224838248488, -0.1309307341415954, 0.10690449676496976, -0.1309307341415954, 0.10690449676496976]}
    - {mu0: 0, rank: 3, ndensity: 1, num_ms_combs: 19, mus: [0, 0, 0], ns: [1, 1, 3], ls: [2, 2, 2], ms_combs: [-2, 0, 2, -2, 1, 1, -2, 2, 0, -1, -1, 2, -1, 0, 1, -1, 1, 0, -1, 2, -1, 0, -2, 2, 0, -1, 1, 0, 0, 0, 0, 1, -1, 0, 2, -2, 1, -2, 1, 1, -1, 0, 1, 0, -1, 1, 1, -2, 2, -2, 0, 2, -1, -1, 2, 0, -2], ctildes: [0.10690449676496976, -0.1309307341415954, 0.10690449676496976, -0.1309307341415954, 0.05345224838248488, 0.05345224838248488, -0.1309307341415954, 0.10690449676496976, 0.05345224838248488, -0.10690449676496976, 0.05345224838248488, 0.10690449676496976, -0.1309307341415954, 0.05345224838248488, 0.05345224838248488, -0.1309307341415954, 0.10690449676496976, -0.1309307341415954, 0.10690449676496976]}
    - {mu0: 0, rank: 3, ndensity: 1, num_ms_combs: 19, mus: [0, 0, 0], ns: [1, 2, 2], ls: [2, 2, 2], ms_combs: [-2, 0, 2, -2, 1, 1, -2, 2, 0, -1, -1, 2, -1, 0, 1, -1, 1, 0, -1, 2, -1, 0, -2, 2, 0, -1, 1, 0, 0, 0, 0, 1, -1, 0, 2, -2, 1, -2, 1, 1, -1, 0, 1, 0, -1, 1, 1, -2, 2, -2, 0, 2, -1, -1, 2, 0, -2], ctildes: [0.10690449676496976, -0.1309307341415954, 0.10690449676496976, -0.1309307341415954, 0.05345224838248488, 0.05345224838248488, -0.1309307341415954, 0.10690449676496976, 0.05345224838248488, -0.10690449676496976, 0.05345224838248488, 0.10690449676496976, -0.1309307341415954, 0.05345224838248488, 0.05345224838248488, -0.1309307341415954, 0.10690449676496976, -0.1309307341415954, 0.10690449676496976]}
    - {mu0: 0, rank: 3, ndensity: 1, num_ms_combs: 19, mus: [0, 0, 0], ns: [1, 2, 3], ls: [2, 2, 2], ms_combs: [-2, 0, 2, -2, 1, 1, -2, 2, 0, -1, -1, 2, -1, 0, 1, -1, 1, 0, -1, 2, -1, 0, -2, 2, 0, -1, 1, 0, 0, 0, 0, 1, -1, 0, 2, -2, 1, -2, 1, 1, -1, 0, 1, 0, -1, 1, 1, -2, 2, -2, 0, 2, -1, -1, 2, 0, -2], ctildes: [0.10690449676496976, -0.1309307341415954, 0.10690449676496976, -0.1309307341415954, 0.05345224838248488, 0.05345224838248488, -0.1309307341415954, 0.10690449676496976, 0.05345224838248488, -0.10690449676496976, 0.05345224838248488, 0.10690449676496976, -0.1309307341415954, 0.05345224838248488, 0.05345224838248488, -0.1309307341415954, 0.10690449676496976, -0.1309307341415954, 0.10690449676496976]}
    - {mu0: 0, rank: 3, ndensity: 1, num_ms_combs: 19, mus: [0, 0, 0], ns: [1, 3, 3], ls: [2, 2, 2], ms_combs: [-2, 0, 2, -2, 1, 1, -2, 2, 0, -1, -1, 2, -1, 0, 1, -1, 1, 0, -1, 2, -1, 0, -2, 2, 0, -1, 1, 0, 0, 0, 0, 1, -1, 0, 2, -2, 1, -2, 1, 1, -1, 0, 1, 0, -1, 1, 1, -2, 2, -2, 0, 2, -1, -1, 2, 0, -2], ctildes: [0.10690449676496976, -0.1309307341415954, 0.10690449676496976, -0.1309307341415954, 0.05345224838248488, 0.05345224838248488, -0.1309307341415954, 0.10690449676496976, 0.05345224838248488, -0.10690449676496976, 0.05345224838248488, 0.10690449676496976, -0.1309307341415954, 0.05345224838248488, 0.05345224838248488, -0.1309307341415954, 0.10690449676496976, -0.1309307341415954, 0.10690449676496976]}
    - {mu0: 0, rank: 3, ndensity: 1, num_ms_combs: 19, mus: [0, 0, 0], ns: [2, 2, 2], ls: [2, 2, 2], ms_combs: [-2, 0, 2, -2, 1, 1, -2, 2, 0, -1, -1, 2, -1, 0, 1, -1, 1, 0, -1, 2, -1, 0, -2, 2, 0, -1, 1, 0, 0, 0, 0, 1, -1, 0, 2, -2, 1, -2, 1, 1, -1, 0, 1, 0, -1, 1, 1, -2, 2, -2, 0, 2, -1, -1, 2, 0, -2], ctildes: [0.10690449676496976, -0.1309307341415954, 0.10690449676496976, -0.1309307341415954, 0.05345224838248488, 0.05345224838248488, -0.1309307341415954, 0.10690449676496976, 0.05345224838248488, -0.10690449676496976, 0.05345224838248488, 0.10690449676496976, -0.1309307341415954, 0.05345224838248488, 0.05345224838248488, -0.1309307341415954, 0.10690449676496976, -0.1309307341415954, 0.10690449676496976]}
    - {mu0: 0, rank: 3, ndensity: 1, num_ms_combs: 19, mus: [0, 0, 0], ns: [2, 2, 3], ls: [2, 2, 2], ms_combs: [-2, 0, 2, -2, 1, 1, -2, 2, 0, -1, -1, 2, -1, 0, 1, -1, 1, 0, -1, 2, -1, 0, -2, 2, 0, -1, 1, 0, 0, 0, 0, 1, -1, 0, 2, -2, 1, -2, 1, 1, -1, 0, 1, 0, -1, 1, 1, -2, 2, -2, 0, 2, -1, -1, 2, 0, -2], ctildes: [0.10690449676496976, -0.1309307341415954, 0.10690449676496976, -0.1309307341415954, 0.05345224838248488, 0.05345224838248488, -0.1309307341415954, 0.10690449676496976, 0.05345224838248488, -0.10690449676496976, 0.05345224838248488, 0.10690449676496976, -0.1309307341415954, 0.05345224838248488, 0.05345224838248488, -0.1309307341415954, 0.10690449676496976, -0.1309307341415954, 0.10690449676496976]}
    - {mu0: 0, rank: 3, ndensity: 1, num_ms_combs: 19, mus: [0, 0, 0], ns: [2, 3, 3], ls: [2, 2, 2], ms_combs: [-2, 0, 2, -2, 1, 1, -2, 2, 0, -1, -1, 2, -1, 0, 1, -1, 1, 0, -1, 2, -1, 0, -2, 2, 0, -1, 1, 0, 0, 0, 0, 1, -1, 0, 2, -2, 1, -2, 1, 1, -1, 0, 1, 0, -1, 1, 1, -2, 2, -2, 0, 2, -1, -1, 2, 0, -2], ctildes: [0.10690449676496976, -0.1309307341415954, 0.10690449676496976, -0.1309307341415954, 0.05345224838248488, 0.05345224838248488, -0.1309307341415954, 0.10690449676496976, 0.05345224838248488, -0.10690449676496976, 0.05345224838248488, 0.10690449676496976, -0.1309307341415954, 0.05345224838248488, 0.05345224838248488, -0.1309307341415954, 0.10690449676496976, -0.1309307341415954, 0.10690449676496976]}
    - {mu0: 0, rank: 3, ndensity: 1, num_ms_combs: 19, mus: [0, 0, 0], ns: [3, 3, 3], ls: [2, 2, 2], ms_combs: [-2, 0, 2, -2, 1, 1, -2, 2, 0, -1, -1, 2, -1, 0, 1, -1, 1, 0, -1, 2, -1, 0, -2, 2, 0, -1, 1, 0, 0, 0, 0, 1, -1, 0, 2, -2, 1, -2, 1, 1, -1, 0, 1, 0, -1, 1, 1, -2, 2, -2, 0, 2, -1, -1, 2, 0, -2], ctildes: [0.10690449676496976, -0.1309307341415954, 0.10690449676496976, -0.1309307341415954, 0.05345224838248488, 0.05345224838248488, -0.1309307341415954, 0.10690449676496976, 0.05345224838248488, -0.10690449676496976, 0.05345224838248488, 0.10690449676496976, -0.1309307341415954, 0.05345224838248488, 0.05345224838248488, -0.1309307341415954, 0.10690449676496976, -0.1309307341415954, 0.10690449676496976]}
    - {mu0: 0, rank: 4, ndensity: 1, num_ms_combs: 19, mus: [0, 0, 0, 0], ns: [1, 1, 1, 1], ls: [1, 1, 1, 1], ms_combs: [-1, -1, 1, 1, -1, 0, 0, 1, -1, 0, 1, 0, -1, 1, -1, 1, -1, 1, 0, 0, -1, 1, 1, -1, 0, -1, 0, 1, 0, -1, 1, 0, 0, 0, -1, 1, 0, 0, 0, 0, 0, 0, 1, -1, 0, 1, -1, 0, 0, 1, 0, -1, 1, -1, -1, 1, 1, -1, 0, 0, 1, -1, 1, -1, 1, 0, -1, 0, 1, 0, 0, -1, 1, 1, -1, -1], ctildes: [0.0, 0.0, 0.0, 0.3333333333333333, -0.3333333333333333, 0.3333333333333333, 0.0, 0.0, -0.3333333333333333, 0.3333333333333333, -0.3333333333333333, 0.0, 0.0, 0.3333333333333333, -0.3333333333333333, 0.3333333333333333, 0.0, 0.0, 0.0]}
