DATE: 2007-06-11 CONTRIBUTOR: Stephen Foiles, foiles@sandia.gov CITATION: Foiles et al, Phys Rev B, 33, 7983 (1986) COMMENT: Ag functions (universal 3)
   47     107.87         4.0900    FCC
  500  5.0100200400801306e-04  500  1.1212121212121229e-02  5.5500000000000114e+00
  0.                     -5.3437496524125194e-01 -7.9903970176950523e-01 -1.0066582430185846e+00 -1.1839019175820411e+00
 -1.3414582590500288e+00 -1.4853604249917538e+00 -1.6189116822476493e+00 -1.7442779519440705e+00 -1.8629711612232995e+00
 -1.9760965580129337e+00 -2.0844912853647344e+00 -2.1888075291300311e+00 -2.2895651572834481e+00 -2.3871865170380318e+00
 -2.4820202718935036e+00 -2.5743582262663978e+00 -2.6644475069132341e+00 -2.7524995783524133e+00 -2.8386970440226804e+00
 -2.9231988641276132e+00 -3.0061444187879260e+00 -3.0876567146272293e+00 -3.1678449456498328e+00 -3.2467689274655100e+00
 -3.3242346949523949e+00 -3.4006321466864904e+00 -3.4760321141854860e+00 -3.5504989054625185e+00 -3.6240911075465903e+00
 -3.6968622664001032e+00 -3.7688614662420719e+00 -3.8401338260526501e+00 -3.9107209271878958e+00 -3.9806611834939645e+00
 -4.0499901630911950e+00 -4.1187408693411385e+00 -4.1869439870879148e+00 -4.2546280994687891e+00 -4.3218198792019678e+00
 -4.3885442581858740e+00 -4.4548245782107756e+00 -4.5206827253295785e+00 -4.5861392499996896e+00 -4.6512134747895857e+00
 -4.7159235912331781e+00 -4.7802867470139461e+00 -4.8443191248289565e+00 -4.9080360137061234e+00 -4.9714518737221738e+00
 -5.0345803948858077e+00 -5.0974345506478471e+00 -5.1600266469578173e+00 -5.2223683668310059e+00 -5.2844708114709533e+00
 -5.3463445377331880e+00 -5.4079995927441189e+00 -5.4694455456580897e+00 -5.5306915169691706e+00 -5.5917462055646467e+00
 -5.6526179136999417e+00 -5.7133145702240427e+00 -5.7738437519450940e+00 -5.8342127035882925e+00 -5.8944283562843793e+00
 -5.9544973447787584e+00 -6.0144260234596061e+00 -6.0742204812985676e+00 -6.1338865557989379e+00 -6.1933756375859446e+00
 -6.2527427849286141e+00 -6.3119965512252918e+00 -6.3711418742363719e+00 -6.4301834978170973e+00 -6.4891259814488365e+00
 -6.5479737089971763e+00 -6.6067308970343390e+00 -6.6654016026546969e+00 -6.7239897308397190e+00 -6.7824990413962496e+00
 -6.8409331555049562e+00 -6.8992955619006295e+00 -6.9575896227115095e+00 -7.0158185789788376e+00 -7.0739855558796592e+00
 -7.1320935676701538e+00 -7.1901455223678283e+00 -7.2481442261905329e+00 -7.3060923877667676e+00 -7.3639926221302687e+00
 -7.4218474545126298e+00 -7.4796593239491642e+00 -7.5374305867049713e+00 -7.5951635195341680e+00 -7.6528603227799863e+00
 -7.7105231233307734e+00 -7.7681539774309840e+00 -7.8257548734075897e+00 -7.8833277340534664e+00 -7.9408744193289067e+00
 -7.9983967285240851e+00 -8.0558964024962734e+00 -8.1133751258264510e+00 -8.1708345288365649e+00 -8.2282761895350518e+00
 -8.2857016354705593e+00 -8.3431123455118268e+00 -8.4005097515488956e+00 -8.4578952401209904e+00 -8.5152701539793156e+00
 -8.5726357935864712e+00 -8.6299934185456095e+00 -8.6873442489810486e+00 -8.7446894668607911e+00 -8.8020302172579363e+00
 -8.8593676095740648e+00 -8.9167027187059489e+00 -8.9740365861691203e+00 -9.0313702211774398e+00 -9.0887046016832187e+00
 -9.1460406753731718e+00 -9.2033793606302652e+00 -9.2607215474596956e+00 -9.3180680983760453e+00 -9.3754198492623573e+00
 -9.4327776101925451e+00 -9.4901421662309531e+00 -9.5475142781961608e+00 -9.6048946833999480e+00 -9.6622840963585759e+00
 -9.7196832094814454e+00 -9.7770926937345735e+00 -9.8345131993015116e+00 -9.8919453560995407e+00 -9.9493897745388153e+00
 -1.0006847045998711e+01 -1.0064317743373067e+01 -1.0121748166403506e+01 -1.0179184175887258e+01 -1.0236634342023535e+01
 -1.0294099162537293e+01 -1.0351579119261203e+01 -1.0409074678585910e+01 -1.0466586291899830e+01 -1.0524114396012521e+01
 -1.0581659413567252e+01 -1.0639221753434299e+01 -1.0696801811102546e+01 -1.0754399969046744e+01 -1.0812016597090462e+01
 -1.0869652052754020e+01 -1.0927306681583161e+01 -1.0984980817529618e+01 -1.1042674783183031e+01 -1.1100388890145553e+01
 -1.1158123439306110e+01 -1.1215878721135880e+01 -1.1273655015969894e+01 -1.1331452594275902e+01 -1.1389271716926032e+01
 -1.1447112635444682e+01 -1.1504975592267158e+01 -1.1562860820976141e+01 -1.1620768546537477e+01 -1.1678698985528627e+01
 -1.1736652346363257e+01 -1.1794628829499914e+01 -1.1852628627658078e+01 -1.1910651926018090e+01 -1.1968698902417373e+01
 -1.2026769727542899e+01 -1.2084864565120995e+01 -1.2142983572093499e+01 -1.2201126898797668e+01 -1.2259294689135004e+01
 -1.2317487080741330e+01 -1.2375704205139982e+01 -1.2433946187914103e+01 -1.2492213148846247e+01 -1.2550505202072827e+01
 -1.2608822456232815e+01 -1.2667165014601494e+01 -1.2725532975231943e+01 -1.2783926431092596e+01 -1.2842345470187752e+01
 -1.2900790175692634e+01 -1.2959260626075661e+01 -1.3017756895213779e+01 -1.3076279052513485e+01 -1.3134827163026898e+01
 -1.3193401287555901e+01 -1.3252001482767980e+01 -1.3310627801294743e+01 -1.3369280291838152e+01 -1.3427958999271482e+01
 -1.3486663964736351e+01 -1.3545395225734751e+01 -1.3604152816222381e+01 -1.3662936766704718e+01 -1.3721747104316307e+01
 -1.3780583852910013e+01 -1.3839447033146939e+01 -1.3898336662568056e+01 -1.3957252755675370e+01 -1.4016195324018383e+01
 -1.4075164376260375e+01 -1.4134159918252408e+01 -1.4193181953113481e+01 -1.4252230481292827e+01 -1.4311305500639264e+01
 -1.4370407006469577e+01 -1.4429534991639230e+01 -1.4488689446595686e+01 -1.4547870359441731e+01 -1.4607077716009940e+01
 -1.4666311499902008e+01 -1.4725571692560152e+01 -1.4784858273320197e+01 -1.4844171219462169e+01 -1.4903510506269640e+01
 -1.4962876107080547e+01 -1.5022267993334594e+01 -1.5081686134633401e+01 -1.5141130498773236e+01 -1.5200601051804028e+01
 -1.5260097758078587e+01 -1.5319620580290916e+01 -1.5379169479517373e+01 -1.5438744415271458e+01 -1.5498345345538723e+01
 -1.5557972226815878e+01 -1.5617625014159103e+01 -1.5677303661215319e+01 -1.5737008120267433e+01 -1.5796738342266281e+01
 -1.5856494276872127e+01 -1.5916275872489223e+01 -1.5976083076298892e+01 -1.6035915834294769e+01 -1.6095774091318731e+01
 -1.6155657791090675e+01 -1.6215566876239677e+01 -1.6275501288341275e+01 -1.6335460967943845e+01 -1.6395445854600666e+01
 -1.6455455886893674e+01 -1.6515491002459612e+01 -1.6575551138027322e+01 -1.6635636229336455e+01 -1.6695746211592677e+01
 -1.6755881018843979e+01 -1.6816040584444636e+01 -1.6876224840966302e+01 -1.6936433720224045e+01 -1.6996667153299313e+01
 -1.7056925070563125e+01 -1.7117207401699716e+01 -1.7177514075732574e+01 -1.7237845021041494e+01 -1.7298200165376670e+01
 -1.7358579435894740e+01 -1.7418982759173673e+01 -1.7479410061226872e+01 -1.7539861267525566e+01 -1.7600336303020981e+01
 -1.7660835092162984e+01 -1.7721357558906448e+01 -1.7781903626752637e+01 -1.7842473218738746e+01 -1.7903066257479850e+01
 -1.7963682665166971e+01 -1.8024322363592091e+01 -1.8084985274161113e+01 -1.8145671317915912e+01 -1.8206380415539911e+01
 -1.8267112487377062e+01 -1.8327867453448562e+01 -1.8388645233465354e+01 -1.8449445746838705e+01 -1.8510268912699757e+01
 -1.8571114649908054e+01 -1.8631982877068594e+01 -1.8692873512535812e+01 -1.8753786474440631e+01 -1.8814721680689559e+01
 -1.8875679048982192e+01 -1.8936658496821337e+01 -1.8997659941523580e+01 -1.9058683300235202e+01 -1.9119728489936051e+01
 -1.9180795427453859e+01 -1.9241884029477887e+01 -1.9302994212558133e+01 -1.9364125893128289e+01 -1.9425278987507227e+01
 -1.9486453411966522e+01 -1.9547649082420548e+01 -1.9608865915177830e+01 -1.9670103826067020e+01 -1.9731362730991918e+01
 -1.9792642545788340e+01 -1.9853943186241736e+01 -1.9915264568092539e+01 -1.9976606607052418e+01 -2.0037969218792568e+01
 -2.0099352318978617e+01 -2.0160755823255613e+01 -2.0222179647265875e+01 -2.0283623706651952e+01 -2.0345087917070146e+01
 -2.0406572194190289e+01 -2.0468076453700746e+01 -2.0529600611326373e+01 -2.0591144582683455e+01 -2.0652708283824495e+01
 -2.0714291630411367e+01 -2.0775894538374928e+01 -2.0837516923664680e+01 -2.0899158702295153e+01 -2.0960819790343635e+01
 -2.1022500103969605e+01 -2.1084199559404396e+01 -2.1145918072970062e+01 -2.1207655561071078e+01 -2.1269411940212649e+01
 -2.1331187126995587e+01 -2.1392981038118705e+01 -2.1454793590398140e+01 -2.1516624700753709e+01 -2.1578474286230858e+01
 -2.1640342263983371e+01 -2.1702228551297821e+01 -2.1764133065585156e+01 -2.1826055724390471e+01 -2.1887996445394606e+01
 -2.1949955146413117e+01 -2.2011931745416064e+01 -2.2073926160503447e+01 -2.2135938309940798e+01 -2.2197968112133935e+01
 -2.2260015485654890e+01 -2.2322080349226553e+01 -2.2384162621741552e+01 -2.2446262222254404e+01 -2.2508379069985949e+01
 -2.2570513084330287e+01 -2.2632664184854207e+01 -2.2694832291301623e+01 -2.2757017323594482e+01 -2.2819219201837768e+01
 -2.2881437846318249e+01 -2.2943673177506071e+01 -2.3005925116068966e+01 -2.3068193582856111e+01 -2.3130478498911771e+01
 -2.3192779785477342e+01 -2.3255097363989762e+01 -2.3317431156086514e+01 -2.3379781083600847e+01 -2.3442147068576105e+01
 -2.3504529033253448e+01 -2.3566926900084582e+01 -2.3629340591728578e+01 -2.3691770031048918e+01 -2.3754215141129407e+01
 -2.3816675845259624e+01 -2.3879152066940378e+01 -2.3941643729901898e+01 -2.4004150758079277e+01 -2.4066673075625204e+01
 -2.4129210606917241e+01 -2.4191763276559413e+01 -2.4254331009364250e+01 -2.4316913730375518e+01 -2.4379511364865266e+01
 -2.4442123838317912e+01 -2.4504751076458433e+01 -2.4567393005230542e+01 -2.4630049550811464e+01 -2.4692720639604886e+01
 -2.4755406198244145e+01 -2.4818106153597910e+01 -2.4880820432761766e+01 -2.4943548963065723e+01 -2.5006291672079669e+01
 -2.5069048487591999e+01 -2.5131819337645993e+01 -2.5194604150503437e+01 -2.5257402854671909e+01 -2.5320215378894318e+01
 -2.5383041652143220e+01 -2.5445881603641283e+01 -2.5508735162843550e+01 -2.5571602259436077e+01 -2.5634482823355711e+01
 -2.5697376784778044e+01 -2.5760284074284982e+01 -2.5823204622178537e+01 -2.5886138359530605e+01 -2.5949085217473112e+01
 -2.6012045127378542e+01 -2.6075018020862672e+01 -2.6138003829788431e+01 -2.6201002486252492e+01 -2.6264013922593222e+01
 -2.6327038071400011e+01 -2.6390074865497809e+01 -2.6453124237954626e+01 -2.6516186122078125e+01 -2.6579260451425625e+01
 -2.6642347159795463e+01 -2.6705446181225852e+01 -2.6768557450001026e+01 -2.6831680900646461e+01 -2.6894816467920919e+01
 -2.6957964086843049e+01 -2.7021123692660467e+01 -2.7084295220865442e+01 -2.7147478607201265e+01 -2.7210673787640644e+01
 -2.7273880698416178e+01 -2.7337099275979881e+01 -2.7400329457047064e+01 -2.7463571178562916e+01 -2.7526824377706134e+01
 -2.7590088991922585e+01 -2.7653364958881411e+01 -2.7716652216492776e+01 -2.7779950702903079e+01 -2.7843260356517931e+01
 -2.7906581115959852e+01 -2.7969912920112392e+01 -2.8033255708081242e+01 -2.8096609419221977e+01 -2.8159973993125959e+01
 -2.8223349369625566e+01 -2.8286735488783279e+01 -2.8350132290910324e+01 -2.8413539716551213e+01 -2.8476957706483972e+01
 -2.8540386201727870e+01 -2.8603825143538643e+01 -2.8667274473402131e+01 -2.8730734133050873e+01 -2.8794204064447968e+01
 -2.8857684209780928e+01 -2.8921174511485788e+01 -2.8984674912225955e+01 -2.9048185354898806e+01 -2.9111705782636818e+01
 -2.9175236138802120e+01 -2.9238776366995353e+01 -2.9302326411035892e+01 -2.9365886214987768e+01 -2.9429455723137153e+01
 -2.9493034880006462e+01 -2.9556623630340255e+01 -2.9620221919118649e+01 -2.9683829691548908e+01 -2.9747446893059305e+01
 -2.9811073469320490e+01 -2.9874709366217985e+01 -2.9938354529868320e+01 -3.0002008906606989e+01 -3.0065672443001631e+01
 -3.0129345085849081e+01 -3.0193026782160814e+01 -3.0256717479176132e+01 -3.0320417124358755e+01 -3.0384125665387728e+01
 -3.0447843050174697e+01 -3.0511569226843449e+01 -3.0575304143744006e+01 -3.0639047749443534e+01 -3.0702799992729979e+01
 -3.0766560822608426e+01 -3.0830330188307016e+01 -3.0894108039262164e+01 -3.0957894325136522e+01 -3.1021688995809882e+01
 -3.1085492001367129e+01 -3.1149303292113927e+01 -3.1213122818575130e+01 -3.1276950531486591e+01 -3.1340786381793578e+01
 -3.1404630320655997e+01 -3.1468482299451352e+01 -3.1532342269754281e+01 -3.1596210183370431e+01 -3.1660085992297581e+01
 -3.1723969648749289e+01 -3.1787861105149432e+01 -3.1851760314127887e+01 -3.1915667228525990e+01 -3.1979581801385393e+01
 -3.2043503985955567e+01 -3.2107433735699260e+01 -3.2171371004270668e+01 -3.2235315745534763e+01 -3.2299267913565700e+01
  1.0000000000000000e+01  1.0737819198736531e+01  1.0488568522801756e+01  1.0248581061250832e+01  1.0017475182868793e+01
  9.7948841001364144e+00  9.5804553335866558e+00  9.3738501943131496e+00  9.1747432840454053e+00  8.9828220122234370e+00
  8.7977861295217394e+00  8.6193472772895916e+00  8.4472285523926871e+00  8.2811640869547318e+00  8.1208986425151011e+00
  7.9661872181342517e+00  7.8167946719882764e+00  7.6724953560199083e+00  7.5330727632097307e+00  7.3983191870622420e+00
  7.2680353929022772e+00  7.1420303005955077e+00  7.0201206783168004e+00  6.9021308470039742e+00  6.7878923951436434e+00
  6.6772439035474065e+00  6.5700306797909320e+00  6.4661045019923051e+00  6.3653233716227930e+00  6.2675512750487599e+00
  6.1726579535142037e+00  6.0805186812836780e+00  5.9910140516726926e+00  5.9040297707014417e+00  5.8194564581183670e+00
  5.7371894555446659e+00  5.6571286415017994e+00  5.5791782530901912e+00  5.5032467140950700e+00  5.4292464693021714e+00
  5.3570938248143136e+00  5.2867087941643547e+00  5.2180149500294988e+00  5.1509392813549368e+00  5.0854120557045235e+00
  5.0213666866579842e+00  4.9587396060850892e+00  4.8974701411270871e+00  4.8375003957258684e+00  4.7787751365442830e+00
  4.7212416831255837e+00  4.6648498021472165e+00  4.6095516056265353e+00  4.5553014529417055e+00  4.5020558565363444e+00
  4.4497733911784678e+00  4.3984146066514995e+00  4.3479419437562115e+00  4.2983196535089405e+00  4.2495137194235326e+00
  4.2014917827684712e+00  4.1542230706953944e+00  4.1076783271368811e+00  4.0618297463757926e+00  4.0166509091924354e+00
  3.9721167214961639e+00  3.9282033553554783e+00  3.8848881923387779e+00  3.8421497690846138e+00  3.7999677250208208e+00
  3.7583227521562748e+00  3.7171965468692889e+00  3.6765717636215385e+00  3.6364319705278803e+00  3.5967616067142387e+00
  3.5575459413987858e+00  3.5187710346336587e+00  3.4804236996462379e+00  3.4424914667217763e+00  3.4049625485703956e+00
  3.3678258071234666e+00  3.3310707217076327e+00  3.2946873585440102e+00  3.2586663415242612e+00  3.2229988242156935e+00
  3.1876764630492715e+00  3.1526913916464139e+00  3.1180361962415759e+00  3.0837038921591926e+00  3.0496879013056031e+00
  3.0159820306364935e+00  2.9825804515637770e+00  2.9494776802648488e+00  2.9166685588606782e+00  2.8841482374287182e+00
  2.8519121568184147e+00  2.8199560322383377e+00  2.7882758375851608e+00  2.7568677904847192e+00  2.7257283380186834e+00
  2.6948541431080315e+00  2.6642420715292729e+00  2.6338891795369932e+00  2.6037927020689153e+00  2.5739500415111962e+00
  2.5443587569994150e+00  2.5150165542362828e+00  2.4859212758024540e+00  2.4570708919434736e+00  2.4284634918094810e+00
  2.4000972751338452e+00  2.3719705443281782e+00  2.3440816969794582e+00  2.3164292187318267e+00  2.2890116765357078e+00
  2.2618277122512325e+00  2.2348760365883464e+00  2.2081554233717497e+00  2.1816647041148087e+00  2.1554027628910575e+00
  2.1293685314883248e+00  2.1035609848353403e+00  2.0779791366878584e+00  2.0526220355624929e+00  2.0274887609086534e+00
  2.0025784195065768e+00  1.9778901420826287e+00  1.9534230801308610e+00  1.9291764029327680e+00  1.9051492947648754e+00
  1.8813409522870259e+00  1.8577505821010973e+00  1.8343773984745866e+00  1.8112206212188013e+00  1.7882794737163437e+00
  1.7655531810898779e+00  1.7430409685051060e+00  1.7207420596023226e+00  1.6986556750494302e+00  1.6767810312107798e+00
  1.6551173389261109e+00  1.6336638023940466e+00  1.6124196181542985e+00  1.5913839741645219e+00  1.5705560489659831e+00
  1.5499350109336589e+00  1.5295200176067425e+00  1.5093102150942599e+00  1.4893047375528994e+00  1.4695027067319444e+00
  1.4499032315824394e+00  1.4305054079263471e+00  1.4113083181827477e+00  1.3923110311472371e+00  1.3735126018217798e+00
  1.3549120712920413e+00  1.3365084666485529e+00  1.3183008009502544e+00  1.3002880732262270e+00  1.2824692685145749e+00
  1.2648433579348506e+00  1.2474092987925403e+00  1.2301660347129584e+00  1.2131124958026902e+00  1.1962475988363650e+00
  1.1795702474670833e+00  1.1630793324588211e+00  1.1467737319382962e+00  1.1306523116658340e+00  1.1147139253227465e+00
  1.0989574148140875e+00  1.0833816105854055e+00  1.0679853319520234e+00  1.0527673874397578e+00  1.0377265751353875e+00
  1.0228616830468340e+00  1.0081714894703850e+00  9.9365476336533476e-01  9.7931026473419180e-01  9.6513674500808833e-01
  9.5113294743620358e-01  9.3729760747825352e-01  9.2362945319985812e-01  9.1012720566928351e-01  8.9678957935565506e-01
  8.8361528252720589e-01  8.7060301764966042e-01  8.5775148178367644e-01  8.4505936698108286e-01  8.3252536067946181e-01
  8.2014814609408759e-01  8.0792640260762028e-01  7.9585880615642424e-01  7.8394402961355780e-01  7.7218074316776608e-01
  7.6056761469843082e-01  7.4910331014605447e-01  7.3778649387806539e-01  7.2661582904933297e-01  7.1558997795783696e-01
  7.0470760239469143e-01  6.9396736398842052e-01  6.8336792454373096e-01  6.7290794637397511e-01  6.6258609262761325e-01
  6.5240102760853702e-01  6.4235141708986987e-01  6.3243592862136921e-01  6.2265323183027377e-01  6.1300199871554284e-01
  6.0348090393540232e-01  5.9408862508822224e-01  5.8482384298648071e-01  5.7568524192409498e-01  5.6667150993680693e-01
  5.5778133905598537e-01  5.4901342555521637e-01  5.4036647019042050e-01  5.3183917843305295e-01  5.2343026069658194e-01
  5.1513843255597536e-01  5.0696241496090977e-01  4.9890093444190597e-01  4.9095272331002882e-01  4.8311651985010329e-01
  4.7539106850715029e-01  4.6777512006660160e-01  4.6026743182801155e-01  4.5286676777256574e-01  4.4557189872409886e-01
  4.3838160250425595e-01  4.3129466408127648e-01  4.2430987571297329e-01  4.1742603708367376e-01  4.1064195543526871e-01
  4.0395644569267120e-01  3.9736833058344700e-01  3.9087644075197758e-01  3.8447961486802562e-01  3.7817669973003731e-01
  3.7196655036306225e-01  3.6584803011147748e-01  3.5982001072670755e-01  3.5388137244977358e-01  3.4803100408906751e-01
  3.4226780309323779e-01  3.3659067561944589e-01  3.3099853659688350e-01  3.2549030978589322e-01  3.2006492783261109e-01
  3.1472133231929966e-01  3.0945847381045155e-01  3.0427531189474522e-01  2.9917081522304656e-01  2.9414396154238887e-01
  2.8919373772618151e-01  2.8431913980062973e-01  2.7951917296752526e-01  2.7479285162346834e-01  2.7013919937569852e-01
  2.6555724905439604e-01  2.6104604272187792e-01  2.5660463167849734e-01  2.5223207646549106e-01  2.4792744686473789e-01
  2.4368982189569532e-01  2.3951828980942036e-01  2.3541194807985111e-01  2.3136990339241503e-01  2.2739127163004369e-01
  2.2347517785667748e-01  2.1962075629831546e-01  2.1582715032178967e-01  2.1209351241111829e-01  2.0841900414180348e-01
  2.0480279615290709e-01  2.0124406811712259e-01  1.9774200870887082e-01  1.9429581557040088e-01  1.9090469527616261e-01
  1.8756786329532993e-01  1.8428454395267035e-01  1.8105397038768789e-01  1.7787538451230311e-01  1.7474803696693098e-01
  1.7167118707513218e-01  1.6864410279691366e-01  1.6566606068060530e-01  1.6273634581356777e-01  1.5985425177157975e-01
  1.5701908056717340e-01  1.5423014259675760e-01  1.5148675658672595e-01  1.4878824953859482e-01  1.4613395667314855e-01
  1.4352322137367235e-01  1.4095539512835931e-01  1.3842983747189308e-01  1.3594591592628369e-01  1.3350300594096520e-01
  1.3110049083220954e-01  1.2873776172194962e-01  1.2641421747597992e-01  1.2412926464161700e-01  1.2188231738484046e-01
  1.1967279742697601e-01  1.1750013398093406e-01  1.1536376368704682e-01  1.1326313054855586e-01  1.1119768586675516e-01
  1.0916688817583431e-01  1.0717020317748016e-01  1.0520710367523067e-01  1.0327706950862314e-01  1.0137958748716880e-01
  9.9514151324203937e-02  9.7680261570614491e-02  9.5877425548439366e-02  9.4105157284474661e-02  9.2362977443780192e-02
  9.0650413263209995e-02  8.8966998484933946e-02  8.7312273290008680e-02  8.5685784231988471e-02  8.4087084170607174e-02
  8.2515732205607151e-02  8.0971293610605510e-02  7.9453339767169506e-02  7.7961448099006070e-02  7.6495202006335639e-02
  7.5054190800469378e-02  7.3638009638570256e-02  7.2246259458647710e-02  7.0878546914799667e-02  6.9534484312701039e-02
  6.8213689545344014e-02  6.6915786029086100e-02  6.5640402639980167e-02  6.4387173650410467e-02  6.3155738666032857e-02
  6.1945742563075168e-02  6.0756835425963995e-02  5.9588672485282324e-02  5.8440914056136828e-02  5.7313225476832486e-02
  5.6205277047993496e-02  5.5116743972015492e-02  5.4047306292949404e-02  5.2996648836787008e-02  5.1964461152127051e-02
  5.0950437451314778e-02  4.9954276551940957e-02  4.8975681818834715e-02  4.8014361106443193e-02  4.7070026701691692e-02
  4.6142395267260161e-02  4.5231187785332638e-02  4.4336129501797883e-02  4.3456949870910755e-02  4.2593382500414778e-02
  4.1745165097124559e-02  4.0912039413005585e-02  4.0093751191705884e-02  3.9290050115566411e-02  3.8500689753114381e-02
  3.7725427507045550e-02  3.6964024562667452e-02  3.6216245836856675e-02  3.5481859927473991e-02  3.4760639063279530e-02
  3.4052359054345338e-02  3.3356799242931334e-02  3.2673742454873755e-02  3.2002974951456986e-02  3.1344286381765674e-02
  3.0697469735530447e-02  3.0062321296483008e-02  2.9438640596157972e-02  2.8826230368221628e-02  2.8224896503273422e-02
  2.7634448004129064e-02  2.7054696941594347e-02  2.6485458410729579e-02  2.5926550487580746e-02  2.5377794186413838e-02
  2.4839013417402578e-02  2.4310034944817760e-02  2.3790688345684208e-02  2.3280805968905693e-02  2.2780222894872915e-02
  2.2288776895536211e-02  2.1806308394944462e-02  2.1332660430249173e-02  2.0867678613187834e-02  2.0411211091993509e-02
  1.9963108513800565e-02  1.9523223987479077e-02  1.9091413046931072e-02  1.8667533614843079e-02  1.8251445966870339e-02
  1.7843012696276639e-02  1.7442098679012807e-02  1.7048571039232074e-02  1.6662299115233203e-02  1.6283154425850377e-02
  1.5911010637254974e-02  1.5545743530192668e-02  1.5187230967641185e-02  1.4835352862879070e-02  1.4489991147980552e-02
  1.4151029742709209e-02  1.3818354523833842e-02  1.3491853294834710e-02  1.3171415756020211e-02  1.2856933475037136e-02
  1.2548299857779499e-02  1.2245410119679112e-02  1.1948161257390733e-02  1.1656452020858910e-02  1.1370182885760194e-02
  1.1089256026326877e-02  1.0813575288540045e-02  1.0543046163688952e-02  1.0277575762302371e-02  1.0017072788434167e-02
  9.7614475143092960e-03  9.5106117553283576e-03  9.2644788454107063e-03  9.0229636126972212e-03  8.7859823555919148e-03
  8.5534528191351100e-03  8.3252941717242290e-03  8.1014269821597651e-03  7.8817731970210470e-03  7.6662561183681865e-03
  7.4548003817614950e-03  7.2473319346033072e-03  7.0437780147941664e-03  6.8440671296906008e-03  6.6481290353804789e-03
  6.4558947162580704e-03  6.2672963648957580e-03  6.0822673622142887e-03  5.9007422579496205e-03  5.7226567514012672e-03
  5.5479476724713539e-03  5.3765529629892228e-03  5.2084116583051565e-03  5.0434638691699285e-03  4.8816507638796969e-03
  4.7229145506927916e-03  4.5671984605124560e-03  4.4144467298285195e-03  4.2646045839200286e-03  4.1176182203155054e-03
  3.9734347925012570e-03  3.8320023938796521e-03  3.6932700419774200e-03  3.5571876628910926e-03  3.4237060759754745e-03
  3.2927769787673145e-03  3.1643529321420394e-03  3.0383873457025257e-03  2.9148344633911638e-03  2.7936493493315173e-03
  2.6747878738863362e-03  2.5582066999357278e-03  2.4438632693707663e-03  2.3317157898007090e-03  2.2217232214647720e-03
  2.1138452643568728e-03  2.0080423455504370e-03  1.9042756067229327e-03  1.8025068918839371e-03  1.7026987352920797e-03
  1.6048143495686340e-03  1.5088176140014009e-03  1.4146730630332782e-03  1.3223458749378192e-03  1.2318018606764791e-03
  1.1430074529335532e-03  1.0559296953306097e-03  9.7053623181514448e-04  8.8679529621754627e-04  8.0467570198231031e-04
  7.2414683206381558e-04  6.4517862898608169e-04  5.6774158506696371e-04  4.9180673279951292e-04  4.1734563539225222e-04
  3.4433037746661732e-04  2.7273355590169690e-04  2.0252827083565295e-04  1.3368811681230275e-04  6.6187174074083810e-05
  0.                      0.                      0.                      0.                      0.
  0.                     -9.6124419966567656e-07 -4.6571250862621961e-07  4.1787545717230843e-06  2.4959341285447998e-05
  8.7686946892736543e-05  2.3631361881719555e-04  5.3534855538333107e-04  1.0701940432790574e-03  1.9455553416298024e-03
  3.2822630775371370e-03  5.2129290250384763e-03  7.8768703900174986e-03  1.1414709052398608e-02  1.5962998778727977e-02
  2.1649168033007982e-02  2.8586997464923880e-02  3.6872785208136527e-02  4.6582293319226808e-02  5.7768516963555561e-02
  7.0460275103946479e-02  8.4661587489906154e-02  1.0035177718774468e-01  1.1748621993535613e-01  1.3599765028440736e-01
  1.5579792878168686e-01  1.7678017332376506e-01  1.9882116033638653e-01  2.2178390670742143e-01  2.4552035066775968e-01
  2.6987405840120182e-01  2.9468289251344437e-01  3.1978158814131774e-01  3.4500419207187782e-01  3.7018632948275965e-01
  3.9516727160174447e-01  4.1979178556804797e-01  4.4391175496545188e-01  4.6738756583915553e-01  4.9008925848849216e-01
  5.1189744995911113e-01  5.3270403597360882e-01  5.5241268409103839e-01  5.7093913222834658e-01  5.8821130838154900e-01
  6.0416928851860874e-01  6.1876511025071679e-01  6.3196246009260548e-01  6.4373625196602902e-01  6.5407211413915434e-01
  6.6296580109533565e-01  6.7042254593226147e-01  6.7645636786067698e-01  6.8108934823877476e-01  6.8435088738345584e-01
  6.8627695317250215e-01  6.8690933122108788e-01  6.8629488520248572e-01  6.8448483470588428e-01  6.8153405689762181e-01
  6.7750041718644738e-01  6.7244413309847673e-01  6.6642717464589651e-01  6.5951270363242998e-01  6.5176455357502050e-01
  6.4324675123869213e-01  6.3402308017672127e-01  6.2415668613824948e-01  6.1370972374871968e-01  6.0274304347932883e-01
  5.9131591759569346e-01  5.7948580351074241e-01  5.6730814275346475e-01  5.5483619360362013e-01  5.4212089532290975e-01
  5.2921076183495686e-01  5.1615180266286131e-01  5.0298746891899526e-01  4.8975862215583810e-01  4.7650352392219553e-01
  4.6325784392354663e-01  4.5005468475642552e-01  4.3692462126915110e-01  4.2389575269416113e-01  4.1099376579806091e-01
  3.9824200740049776e-01  3.8566156472212931e-01  3.7327135213225304e-01  3.6108820297753219e-01  3.4912696528282439e-01
  3.3740060022226892e-01  3.2592028236378390e-01  3.1469550079030029e-01  3.0373416029808631e-01  2.9304268196421646e-01
  2.8262610246157394e-01  2.7248817158213789e-01  2.6263144750513945e-01  2.5305738941735711e-01  2.4376644715882279e-01
  2.3475814762700420e-01  2.2603117772776393e-01  2.1758346371130521e-01  2.0941224677678960e-01  2.0151415486927515e-01
  1.9388527062968830e-01  1.8652119548994150e-01  1.7941710993370652e-01  1.7256782996813591e-01  1.6596785987262308e-01
  1.5961144130901062e-01  1.5349259889290945e-01  1.4760518233806419e-01  1.4194290529625064e-01  1.3649938102276238e-01
  1.3126815500409972e-01  1.2624273468817560e-01  1.2141661646067803e-01  1.1678331001203412e-01  1.1233636023996674e-01
  1.0806936683137724e-01  1.0397600166574650e-01  1.0005002417925191e-01  9.6285294825875223e-02  9.2675786767627777e-02
  8.9215595921878332e-02  8.5898949489087606e-02  8.2720213079257032e-02  7.9673896550283008e-02  7.6754658666216002e-02
  7.3957310677861265e-02  7.1276818922917151e-02  6.8708306537443864e-02  6.6247054365008218e-02  6.3888501144732768e-02
  6.1628243054205001e-02  5.9462032678294641e-02  5.7385777469975530e-02  5.5395537764601821e-02  5.3487524404572717e-02
  5.1658096026933276e-02  4.9903756062415372e-02  4.8221149490369708e-02  4.6607059390432415e-02  4.5058403328082974e-02
  4.3572229608059176e-02  4.2145713426329667e-02  4.0776152948442501e-02  3.9460965339299880e-02  3.8197682766786478e-02
  3.6983948399340605e-02  3.5817512415250441e-02  3.4696228039453381e-02  3.3618047621664537e-02  3.2581018767902092e-02
  3.1583280535868674e-02  3.0623059703121736e-02  2.9698667115661936e-02  2.8808494123261918e-02  2.7951009106774838e-02
  2.7124754101609638e-02  2.6328341520641230e-02  2.5560450979001614e-02  2.4819826222408858e-02  2.4105272160089619e-02
  2.3415652002667819e-02  2.2749884504935314e-02  2.2106941312935890e-02  2.1485844414358413e-02  2.0885663690907941e-02
  2.0305514571030248e-02  1.9744555781055717e-02  1.9201987192658865e-02  1.8677047764320664e-02  1.8169013574318882e-02
  1.7677195942686463e-02  1.7200939639443691e-02  1.6739621176364960e-02  1.6292647179493747e-02  1.5859452839564470e-02
  1.5439500437527953e-02  1.5032277942309602e-02  1.4637297678023242e-02  1.4254095057833871e-02  1.3882227381719570e-02
  1.3521272695448172e-02  1.3170828708100879e-02  1.2830511765565156e-02  1.2499955877471047e-02  1.2178811795127087e-02
  1.1866746138045503e-02  1.1563440566786432e-02  1.1268590999866379e-02  1.0981906872574720e-02  1.0703110435645979e-02
  1.0431936091767569e-02  1.0168129768020118e-02  9.9114483224011507e-03  9.6616589826726829e-03  9.4185388158420924e-03
  9.1818742266623343e-03  8.9514604836090639e-03  8.7271012708636242e-03  8.5086082648971884e-03  8.2958007343266194e-03
  8.0885051617581305e-03  7.8865548864220369e-03  7.6897897664471859e-03  7.4980558596766944e-03  7.3112051220013963e-03
  7.1290951222239829e-03  6.9515887725238867e-03  6.7785540736461647e-03  6.6098638739779114e-03  6.4453956417271363e-03
  6.2850312494571736e-03  6.1286567702738826e-03  5.9761622849972273e-03  5.8274416996964840e-03  5.6823925729889424e-03
  5.5409159525476592e-03  5.4029162202887671e-03  5.2683009457438201e-03  5.1369807471445816e-03  5.0088691597843793e-03
  4.8838825112353657e-03  4.7619398030310234e-03  4.6429625984486522e-03  4.5268749160403132e-03  4.4136031285890165e-03
  4.3030758671781799e-03  4.1952239300915017e-03  4.0899801962658300e-03  3.9872795430419827e-03  3.8870587679745439e-03
  3.7892565144721641e-03  3.6938132010556901e-03  3.6006709540341714e-03  3.5097735434085758e-03  3.4210663218277176e-03
  3.3344961664277112e-03  3.2500114233998678e-03  3.1675618551360307e-03  3.0870985898151793e-03  3.0085740733005045e-03
  2.9319420232199189e-03  2.8571573851196574e-03  2.7841762905758821e-03  2.7129560171657296e-03  2.6434549501992283e-03
  2.5756325461201712e-03  2.5094492974902655e-03  2.4448666994759810e-03  2.3818472177613570e-03  2.3203542578131148e-03
  2.2603521354319506e-03  2.2018060485248653e-03  2.1446820500369418e-03  2.0889470219872114e-03  2.0345686505515992e-03
  1.9815154021449038e-03  1.9297565004512199e-03  1.8792619043573600e-03  1.8300022867469221e-03  1.7819490141127020e-03
  1.7350741269496275e-03  1.6893503208916111e-03  1.6447509285557396e-03  1.6012499020631316e-03  1.5588217962044654e-03
  1.5174417522187053e-03  1.4770854821602800e-03  1.4377292538246753e-03  1.3993498762093701e-03  1.3619246854851760e-03
  1.3254315314545559e-03  1.2898487644773804e-03  1.2551552228402540e-03  1.2213302205528881e-03  1.1883535355507249e-03
  1.1562053982875978e-03  1.1248664807006550e-03  1.0943178855309238e-03  1.0645411359868281e-03  1.0355181657326212e-03
  1.0072313091906496e-03  9.7966329214286413e-04  9.5279722261979588e-04  9.2661658206445036e-04  9.0110521675969280e-04
  8.7624732950962111e-04  8.5202747156216604e-04  8.2843053476552159e-04  8.0544174394754295e-04  7.8304664950967773e-04
  7.6123112022674286e-04  7.3998133624455717e-04  7.1928378226763026e-04  6.9912524092954897e-04  6.7949278633894564e-04
  6.6037377779403286e-04  6.4175585366064991e-04  6.2362692540526149e-04  6.0597517177996690e-04  5.8878903315131778e-04
  5.7205720596992596e-04  5.5576863737381160e-04  5.3991251992222336e-04  5.2447828645468819e-04  5.0945560507077020e-04
  4.9483437422628493e-04  4.8060471794291078e-04  4.6675698112637679e-04  4.5328172498958902e-04  4.4016972257840924e-04
  4.2741195439514705e-04  4.1499960411808812e-04  4.0292405441290542e-04  3.9117688283409231e-04  3.7974985781259914e-04
  3.6863493472827011e-04  3.5782425206344094e-04  3.4731012763604581e-04  3.3708505490995071e-04  3.2714169937966484e-04
  3.1747289502825557e-04  3.0807164085594127e-04  2.9893109747746414e-04  2.9004458378666977e-04  2.8140557368649260e-04
  2.7300769288243071e-04  2.6484471573850164e-04  2.5691056219339162e-04  2.4919929473599285e-04  2.4170511543875062e-04
  2.3442236304714939e-04  2.2734551012466506e-04  2.2046916025131487e-04  2.1378804527524484e-04  2.0729702261560248e-04
  2.0099107261621618e-04  1.9486529594851809e-04  1.8891491106285373e-04  1.8313525168763781e-04  1.7752176437467199e-04
  1.7207000609021326e-04  1.6677564185090411e-04  1.6163444240356855e-04  1.5664228194802159e-04  1.5179513590237066e-04
  1.4708907870980038e-04  1.4252028168612683e-04  1.3808501090754269e-04  1.3377962513773985e-04  1.2960057379371274e-04
  1.2554439494978469e-04  1.2160771337889169e-04  1.1778723863077470e-04  1.1407976314641239e-04  1.1048216040799924e-04
  1.0699138312393651e-04  1.0360446144838274e-04  1.0031850123468208e-04  9.7130682322105893e-05  9.4038256855536254e-05
  9.1038547637418369e-05  8.8128946511519587e-05  8.5306912778017503e-05  8.2569971639472224e-05  7.9915712676979344e-05
  7.7341788356370504e-05  7.4845912563686976e-05  7.2425859169623560e-05  7.0079460622501314e-05  6.7804606569206189e-05
  6.5599242503746203e-05  6.3461368443050274e-05  6.1389037629348657e-05  5.9380355259004225e-05  5.7433477237150586e-05
  5.5546608957906954e-05  5.3718004109521225e-05  5.1945963504361654e-05  5.0228833933031822e-05  4.8565007042446684e-05
  4.6952918237416069e-05  4.5391045605253175e-05  4.3877908863238033e-05  4.2412068328296498e-05  4.0992123908781784e-05
  3.9616714117797795e-05  3.8284515107788646e-05  3.6994239726044400e-05  3.5744636590708413e-05  3.4534489186992040e-05
  3.3362614983223739e-05  3.2227864566359166e-05  3.1129120796683819e-05  3.0065297981302953e-05  2.9035341066118228e-05
  2.8038224845944792e-05  2.7072953192479321e-05  2.6138558299732928e-05  2.5234099946675565e-05  2.4358664776747904e-05
  2.3511365593895258e-05  2.2691340674909103e-05  2.1897753097661378e-05  2.1129790085006148e-05  2.0386662364044205e-05
  1.9667603540396927e-05  1.8971869487298138e-05  1.8298737749135362e-05  1.7647506959196928e-05  1.7017496271319967e-05
  1.6408044805229062e-05  1.5818511105186511e-05  1.5248272611800362e-05  1.4696725146635687e-05  1.4163282409438154e-05
  1.3647375487649477e-05  1.3148452378023757e-05  1.2665977520047087e-05  1.2199431340932112e-05  1.1748309811963962e-05
  1.1312124015913291e-05  1.0890399725342560e-05  1.0482676991502272e-05  1.0088509743666875e-05  9.7074653986115966e-06
  9.3391244800736283e-06  8.9830802479297259e-06  8.6389383369071923e-06  8.3063164046137975e-06  7.9848437886599253e-06
  7.6741611727038127e-06  7.3739202611790267e-06  7.0837834625539064e-06  6.8034235808759908e-06  6.5325235154726829e-06
  6.2707759685637972e-06  6.0178831606420369e-06  5.7735565534238582e-06  5.5375165802073870e-06  5.3094923834430996e-06
  5.0892215593639864e-06  4.8764499095138992e-06  4.6709311989815523e-06  4.4724269212180435e-06  4.2807060692441211e-06
  4.0955449131181211e-06  3.9167267835031388e-06  3.7440418611816185e-06  3.5772869723784198e-06  3.4162653897496821e-06
  3.2607866388862923e-06  3.1106663102132377e-06  2.9657258761367684e-06  2.8257925133103219e-06  2.6906989298951370e-06
  2.5602831976862379e-06  2.4343885889792697e-06  2.3128634180628909e-06  2.1955608872111356e-06  2.0823389370638786e-06
  1.9730601012880037e-06  1.8675913653932194e-06  1.7658040296149622e-06  1.6675735757385368e-06  1.5727795377773240e-06
  1.4813053763912561e-06  1.3930383569572504e-06  1.3078694311872074e-06  1.2256931222019295e-06  1.1464074129722743e-06
  1.0699136380293669e-06  9.9611637836664879e-07  9.2492335943496662e-07  8.5624535216080892e-07  7.8999607689285130e-07
  7.2609211020714963e-07  6.6445279448574949e-07  6.0500015019590098e-07  5.4765879079651217e-07  4.9235584019461222e-07
  4.3902085268864222e-07  3.8758573531970489e-07  3.3798467257473332e-07  2.9015405336432949e-07  2.4403240022190264e-07
  1.9956030065376306e-07  1.5668034058314233e-07  1.1533703982889520e-07  7.5476789558953585e-08  3.7047791665007325e-08
  0.                      0.                      0.                      0.                      0.


