elements: [C, H]
E0: [0, 0]
deltaSplineBins: 0.001
embeddings:
  0: {ndensity: 2, FS_parameters: [1, 1, 1, 0.5], npoti: FinnisSinclairShiftedScaled, rho_core_cutoff: 100000, drho_core_cutoff: 250}
  1: {ndensity: 2, FS_parameters: [1, 1, 1, 0.5], npoti: FinnisSinclairShiftedScaled, rho_core_cutoff: 100000, drho_core_cutoff: 250}
bonds:
  [0, 0]: {nradmax: 6, lmax: 3, nradbasemax: 14, radbasename: SBessel, radparameters: [5.25], radcoefficients: [[[1.588336955771503, -1.044829944533431, 0.32374206796849164, 0.10541749739109368, -0.14586579864021096, 0.093987058866680059, -0.084221617039500013, 0.12665681809474044, -0.089517606768512781, 0.037038278686767075, 0.016534992760706229, -0.026969420503073844, 0.018403833722107691, -0.0023547419973016246], [0.76186931455627882, -0.31534024474497913, -0.23262878328054018, 0.4314073809467881, -0.34627539740231866, 0.28823122488345743, -0.2600609484635798, 0.20252161892441528, -0.15260151052001178, 0.11146081299758176, -0.068308821436614237, 0.032391977772144545, -0.018384062005969024, 0.0069561723968080856], [0.71080840205936191, -0.42716588224806445, -0.10677739251061732, 0.3999683625445527, -0.33434621757187027, 0.07970472568503989, 0.067917620317108351, -0.059625468481424415, 0.0057200987026338754, 0.0011955624865706731, 0.0044935160540184637, -0.02244980702060155, 0.020388720824080438, -0.0076976680810094617], [0.26239139304322945, -0.1754768303854152, 0.0041876348463091607, 0.21245172278491745, -0.3343126525994552, 0.23931690713017009, -0.059148121838717573, 0.036924139030605901, -0.076549806610601789, 0.044776281958517974, -0.02413613543707567, 0.0027058133481019254, 0.0080690774443408012, -0.0055150399754698319]], [[0.76670944480305281, -0.097924670841874062, -0.23012346523707483, 0.12771891896938037, 0.1540450309805399, -0.23685749505887646, 0.21018526227378362, -0.10493728532548974, 0.10279402767162162, -0.10719103015434164, 0.10242472139544585, -0.05847937283787024, 0.024581607405324703, -0.00092934516391974793], [-1.0743454365502938, 0.6491363177879933, -0.021079946763879406, -0.26658783975191769, 0.19418399654341534, -0.04569479935436873, -0.012366066050193957, -0.011193753639717011, 0.035879447325206648, -0.021758326859212973, -0.0062604564844395815, 0.023214991596466974, -0.014182131787099206, 0.0028886973810094462], [-0.19724792100571081, 0.15975586275469117, 0.099784163026627473, -0.42813984430147128, 0.58345058522241178, -0.43487263944619731, 0.24891357002679554, -0.16611280363154246, 0.14582260022758961, -0.10413049445590551, 0.066257126988806661, -0.02352006963679304, -0.00079769177131912424, 0.0038074506850192978], [0.14546875767508166, 0.24640988574259606, -0.27684645605297281, -0.0025288681157845604, 0.11602323090040537, -0.010978595730757152, -0.062067037773168923, 0.13461212226422442, -0.17049410083299218, 0.12879838562653073, -0.090012457735869508, 0.060220094552618869, -0.031523377320712073, 0.009775171246297119]], [[1.4429898167253785, -1.0609941013588873, 0.23957190621057128, 0.54638177043259673, -0.98103040851367918, 0.97642843694931081, -0.75085071821574378, 0.6065929104893073, -0.48914872319114611, 0.36367199458276994, -0.21202074703934926, 0.098993339780500067, -0.02561024446576558, 0.00418796094570949], [0.08004653642920416, -0.30002929230657682, 0.36350864096837482, -0.079760558285629043, -0.34186150674854926, 0.42245575319054868, -0.25205573416371008, 0.15651269848761018, -0.1542982091909193, 0.15260869018619894, -0.12720495504717172, 0.077777631180260431, -0.017419903040293269, -0.0053692125500540361], [-0.22872081397465815, -0.033978328603490239, 0.43326052153164335, -0.46866387851196567, 0.16188918858426929, 0.18858852608441096, -0.25999188122204286, 0.15419435561936246, -0.077523079315468979, 0.060406130698591416, -0.050056471404021773, 0.038546639837105365, -0.015423403071675484, -0.0018726462398770145], [-0.32029788355699201, -0.1839822273948499, 0.75100650211426345, -0.62899026345136633, 0.18801492804050923, -0.0022321445912032735, 0.08909259117032943, 0.050193991601022718, -0.25306735067447916, 0.20455911964173465, -0.15952443379875031, 0.078496154580863661, -0.022350209247967458, 0.00044364963285383954]], [[0.90304621693006848, -0.19473692255075117, -0.1785327513859136, 0.23213821221904379, -0.039452304821094325, -0.084211250659235237, 0.057285577942243107, 0.09299274233400856, 0.16031525988179501, -0.34256540080542724, 0.38969584638431648, -0.24425043160323553, 0.10217739792381327, -0.0056721387345068756], [0.36874286624396546, 0.087988128429100421, -0.53603965071833715, 0.53271055755161567, -0.2079283434919082, 0.052045122232599043, 0.030257007979025832, -0.061629266935048062, -0.005778512515117064, 0.05599054912598387, -0.06723005162566803, 0.039995362414931013, -0.024590417844842748, 0.010020228292069422], [0.64531427578070233, 0.058921070528966807, -0.63677750122578414, 0.56074149923373573, -0.19266615335825124, 0.23696600612402391, -0.35467278632818688, 0.2106251523420915, -0.057153724929483667, 0.01911337737206931, 0.0080373399895230305, -0.015206960512888841, -0.00039090142437829355, -0.0065485144093364988], [-0.55662400992426941, 0.56840311654266662, -0.42350649706992011, 0.43349925367174991, -0.34872133352256668, -0.29649944344044116, 0.86381355558775286, -0.33055763746674821, -0.13951190106441499, -0.11219703668834313, 0.1810621526842047, -0.21682478616796935, 0.13466781045564508, -0.043981366411313325]], [[-0.11207204782478446, 0.35898459185655712, -0.26521942193452924, 0.064760528208849005, 0.14783779051181689, -0.3074437961059, 0.39170385007072861, -0.29632957720200631, 0.41932223105722555, -0.46503910300226786, 0.38225711877978136, -0.19593446897543432, 0.065692831118385475, 0.00070377552030427581], [-0.047379349950312087, -0.56604841001724593, 0.29782199410909593, -0.22710660132931429, 0.75999366092088505, -0.33615415823408407, -0.63525129737368902, 0.63006379203663998, -0.29230077609228661, 0.19486831703806845, -0.24802140019380717, 0.25661507033800995, -0.23904657837689677, 0.11086604867344306], [0.3280441880004924, 0.48273744924120421, -0.30000260082791774, -0.8132992798757015, 0.83622311894863188, 0.093328751907150273, 0.23105168847237012, 0.41795189025984536, -0.19272014462323916, -0.17976601079810256, 0.36411946370433179, 0.096211930195235135, -0.17347392069332199, 0.20098079269719465], [-0.14277047831083056, -0.385368723484381, -0.21438017388131025, -0.21109868990579755, 0.89301065405640379, 0.30279799025948956, 0.23148157570152636, 0.13983193162178875, -0.47197227959981397, -0.3096767963424138, 0.33965377334563773, -0.035904299899596474, -0.20320960907010044, -0.015054983256466878]], [[-0.15870978156898272, 0.23419758179185249, 0.34125893310220162, -0.69100074896635277, 0.22457986122142465, 0.8259409025605261, -1.2938356621140985, 0.52502296005185001, -0.18124958323969467, 0.026690861047672137, -0.19327503378401265, 0.18375864864918362, -0.13107741385437532, 0.011718086538605814], [0.27638392669943795, 0.53941746211430452, 0.043137755988571565, -0.46250790968343486, -0.38805845445726911, 1.0076844461112255, -0.34768569058690285, -0.019848838263540704, 0.11605485090915256, -0.059623803197278342, 0.055834620040026019, -0.025574174986484701, 0.096049422124198217, -0.074207262385880254], [0.41581982377908572, 0.048250417825746753, 0.25502140109590798, -0.30471245627621651, -0.78155608515479658, 0.96991919712824692, 0.19844789910526869, 0.41577981947623338, -0.25979991568034683, -0.20895503583439273, 0.37404482147205553, 0.065804952355487278, -0.12685217765716142, 0.19625665379882157], [-0.012715412694324116, 0.059954560237054332, 0.10469346477116866, 0.1941186682100019, 0.18490129757884222, 1.0036267985432037, -0.24082611031829973, -0.39841957609192219, 0.16786511007948271, 0.024912938732040996, -0.1848761598440645, 0.53829543824105719, -0.53859345489651511, 0.13257266351856667]]], prehc: 0, lambdahc: 0, rcut: 5, dcut: 0.01, rcut_in: 0, dcut_in: 0, inner_cutoff_type: distance}
  [0, 1]: {nradmax: 6, lmax: 3, nradbasemax: 11, radbasename: SBessel, radparameters: [5.25], radcoefficients: [[[1.1610646073915618, -0.7885154659608653, 0.35557565917911732, 0.10760151421749059, -0.22148595355615572, 0.20325302614988497, -0.13044294143056009, 0.0854220339062845, -0.02481639468399871, 0.0048282758523865094, 0.0019450111411862196], [0.54016441914997049, -0.43330910883493157, 0.15627379219906826, 0.041110391240987323, -0.094267377361951787, 0.065916820149005739, -0.024036339843202508, 0.0041773565067939845, 0.010966550969307326, -0.012890825945034294, 0.0054439645905585586], [0.61606027797850804, -0.48771977000898081, 0.19741122543652567, -0.026050131559172286, -0.053615534661712171, 0.028889084872836111, 0.0065883264693870061, -0.029822175404023845, 0.043035883032199865, -0.030341589276068639, 0.014803422139178088], [0.94364988811450423, -0.66167489258793877, 0.17713832602391424, -0.051997446698784797, 0.027349391094848682, -0.018332215133353889, -0.0020426582559598967, -0.010164507820290587, 0.028979275276250632, -0.035577453428900931, 0.010374174274218247]], [[0.44556295445565242, 0.0069543843238889427, -0.068995504641850974, 0.23136266400524291, -0.13020954835048792, 0.096408583370256665, -0.045757815802718836, 0.043185505206492197, -0.00092493392500470767, 0.0024956566530099198, 0.0058888588381364286], [-0.46751209844189467, 0.69746123806080129, -0.63406698268735773, 0.34726928243484517, 0.015618315003030707, -0.21546079166236187, 0.16278841784182507, -0.066232998578739682, 0.014372274228756251, 0.0049801623489715719, -0.0070525876149907275], [-0.84177282431758149, 0.39822205625756901, 0.11399419776491579, -0.2186093096225295, -0.027720834562139675, 0.17062391788423054, -0.13837296930808213, 0.068011331345144158, -0.05502249923901064, 0.043999933752067601, -0.013690632162951558], [-0.48669813447164495, -0.053245931751633141, 0.069956885600551688, 0.35678386674741885, -0.23745371592228376, -0.42938054029292688, 0.88123651701309513, -1.0591477252493959, 0.81639316806171958, -0.37188280696473669, 0.096308827944010078]], [[1.6189517860735434, -1.3493171573197529, 0.89280179819367778, -0.25308586134070876, -0.067398720341737661, 0.20701839459360583, -0.19035982474096386, 0.1453389953608884, -0.065346369117924283, 0.024433599392118185, -0.0026142936792099007], [1.0856310790215176, -0.94551898762590791, 0.3590521207273481, 0.012504333223769586, 0.07292416002389332, -0.30878561966310331, 0.35477561306545152, -0.26132379312304155, 0.17323928045796866, -0.096370171293885948, 0.034302583402350047], [-0.46602169879916622, -0.31200825330626503, 0.61713829797526243, -0.38436934706055931, -0.1413429694756865, 0.08716492721869093, 0.037467958590938023, -0.089129077511082913, 0.053830713815190057, 0.0096335994771406894, 0.012967327134619774], [-0.37905255031377677, -0.2566454879586117, 0.43352453480655101, 0.26081998750905011, -0.73528549387556708, 0.43660552619348769, 0.19929104536427558, -0.61886409657627472, 0.58161314634917105, -0.33713969497296287, 0.18161313103821672]], [[0.13328453039123594, 0.44439350495193003, -0.5773649473715351, 0.88406628562342127, -0.69318165366351014, 0.29710952297377052, 0.07680786681851981, -0.22119447456292957, 0.29211151581982103, -0.17809023573883137, 0.081148621377891972], [0.71478053472243419, 0.32172073557067099, -1.1009272016648262, 0.9425545976313523, -0.14136312560645431, -0.36571061089012175, 0.15092618751597989, 0.086219939960493902, -0.11978018441707933, 0.07447234622748819, -0.035429330195286879], [0.064606548111577247, 0.042316486268038835, -0.26828967813515958, 0.42695890217818572, -0.32702942292870374, -0.22913266467287224, 0.46337016422562799, -0.52929282829396596, 0.45884203712663496, -0.1871772315588581, 0.068921487147183963], [0, 0, 0, 1, 0, 0, 0, 0, 0, 0, 0]], [[0.13420658847662165, 0.099108792047640198, 0.49027381583054302, -0.54712937722779242, 0.22420970997849002, 0.2528034868303653, -0.18841465676176233, -0.09581215584295534, 0.33209696528089, -0.23687968048585326, 0.15518816766621393], [0.04221672083094271, 0.29258277911953634, 0.03972983472775507, -0.68980885679566384, 0.89581007961764825, -0.4103934908717467, -0.2372998969953756, 0.39785683391161447, -0.28982802937591962, 0.16507557072478948, -0.045469696939856141], [-0.070919146126432644, 0.04976956924569554, 0.23101914582619693, 0.14734461426681367, 1.2298959554928466, -0.19333742068710177, -0.37548514711705117, 0.077141558409173777, 0.14579174776097681, -0.11056149585242295, -0.14048956604525445], [0, 0, 0, 0, 1, 0, 0, 0, 0, 0, 0]], [[-0.033728018974202294, 0.28887341670643013, -0.0462290509114439, -0.18895303613716655, -0.063696799040153823, 0.64501767517274688, -0.71717869597316841, 0.41347273370151383, -0.13791549892041088, 0.032483359621004286, 0.04150838981954149], [0.12480085203073212, -0.20159723052783027, 0.16067318327104235, -0.02202689269134166, -0.49061751801176384, 0.8416733745389684, -0.67897817404288252, 0.4076901585385963, -0.20677702042586771, 0.091427182997538242, -0.030092696298672245], [0, 0, 0, 0, 0, 1, 0, 0, 0, 0, 0], [0, 0, 0, 0, 0, 1, 0, 0, 0, 0, 0]]], prehc: 0, lambdahc: 0, rcut: 5, dcut: 0.01, rcut_in: 0, dcut_in: 0, inner_cutoff_type: distance}
  [1, 0]: {nradmax: 6, lmax: 3, nradbasemax: 11, radbasename: SBessel, radparameters: [5.25], radcoefficients: [[[1.1610646073915618, -0.7885154659608653, 0.35557565917911732, 0.10760151421749059, -0.22148595355615572, 0.20325302614988497, -0.13044294143056009, 0.0854220339062845, -0.02481639468399871, 0.0048282758523865094, 0.0019450111411862196], [0.54016441914997049, -0.43330910883493157, 0.15627379219906826, 0.041110391240987323, -0.094267377361951787, 0.065916820149005739, -0.024036339843202508, 0.0041773565067939845, 0.010966550969307326, -0.012890825945034294, 0.0054439645905585586], [0.61606027797850804, -0.48771977000898081, 0.19741122543652567, -0.026050131559172286, -0.053615534661712171, 0.028889084872836111, 0.0065883264693870061, -0.029822175404023845, 0.043035883032199865, -0.030341589276068639, 0.014803422139178088], [0.94364988811450423, -0.66167489258793877, 0.17713832602391424, -0.051997446698784797, 0.027349391094848682, -0.018332215133353889, -0.0020426582559598967, -0.010164507820290587, 0.028979275276250632, -0.035577453428900931, 0.010374174274218247]], [[0.44556295445565242, 0.0069543843238889427, -0.068995504641850974, 0.23136266400524291, -0.13020954835048792, 0.096408583370256665, -0.045757815802718836, 0.043185505206492197, -0.00092493392500470767, 0.0024956566530099198, 0.0058888588381364286], [-0.46751209844189467, 0.69746123806080129, -0.63406698268735773, 0.34726928243484517, 0.015618315003030707, -0.21546079166236187, 0.16278841784182507, -0.066232998578739682, 0.014372274228756251, 0.0049801623489715719, -0.0070525876149907275], [-0.84177282431758149, 0.39822205625756901, 0.11399419776491579, -0.2186093096225295, -0.027720834562139675, 0.17062391788423054, -0.13837296930808213, 0.068011331345144158, -0.05502249923901064, 0.043999933752067601, -0.013690632162951558], [-0.48669813447164495, -0.053245931751633141, 0.069956885600551688, 0.35678386674741885, -0.23745371592228376, -0.42938054029292688, 0.88123651701309513, -1.0591477252493959, 0.81639316806171958, -0.37188280696473669, 0.096308827944010078]], [[1.6189517860735434, -1.3493171573197529, 0.89280179819367778, -0.25308586134070876, -0.067398720341737661, 0.20701839459360583, -0.19035982474096386, 0.1453389953608884, -0.065346369117924283, 0.024433599392118185, -0.0026142936792099007], [1.0856310790215176, -0.94551898762590791, 0.3590521207273481, 0.012504333223769586, 0.07292416002389332, -0.30878561966310331, 0.35477561306545152, -0.26132379312304155, 0.17323928045796866, -0.096370171293885948, 0.034302583402350047], [-0.46602169879916622, -0.31200825330626503, 0.61713829797526243, -0.38436934706055931, -0.1413429694756865, 0.08716492721869093, 0.037467958590938023, -0.089129077511082913, 0.053830713815190057, 0.0096335994771406894, 0.012967327134619774], [-0.37905255031377677, -0.2566454879586117, 0.43352453480655101, 0.26081998750905011, -0.73528549387556708, 0.43660552619348769, 0.19929104536427558, -0.61886409657627472, 0.58161314634917105, -0.33713969497296287, 0.18161313103821672]], [[0.13328453039123594, 0.44439350495193003, -0.5773649473715351, 0.88406628562342127, -0.69318165366351014, 0.29710952297377052, 0.07680786681851981, -0.22119447456292957, 0.29211151581982103, -0.17809023573883137, 0.081148621377891972], [0.71478053472243419, 0.32172073557067099, -1.1009272016648262, 0.9425545976313523, -0.14136312560645431, -0.36571061089012175, 0.15092618751597989, 0.086219939960493902, -0.11978018441707933, 0.07447234622748819, -0.035429330195286879], [0.064606548111577247, 0.042316486268038835, -0.26828967813515958, 0.42695890217818572, -0.32702942292870374, -0.22913266467287224, 0.46337016422562799, -0.52929282829396596, 0.45884203712663496, -0.1871772315588581, 0.068921487147183963], [0, 0, 0, 1, 0, 0, 0, 0, 0, 0, 0]], [[0.13420658847662165, 0.099108792047640198, 0.49027381583054302, -0.54712937722779242, 0.22420970997849002, 0.2528034868303653, -0.18841465676176233, -0.09581215584295534, 0.33209696528089, -0.23687968048585326, 0.15518816766621393], [0.04221672083094271, 0.29258277911953634, 0.03972983472775507, -0.68980885679566384, 0.89581007961764825, -0.4103934908717467, -0.2372998969953756, 0.39785683391161447, -0.28982802937591962, 0.16507557072478948, -0.045469696939856141], [-0.070919146126432644, 0.04976956924569554, 0.23101914582619693, 0.14734461426681367, 1.2298959554928466, -0.19333742068710177, -0.37548514711705117, 0.077141558409173777, 0.14579174776097681, -0.11056149585242295, -0.14048956604525445], [0, 0, 0, 0, 1, 0, 0, 0, 0, 0, 0]], [[-0.033728018974202294, 0.28887341670643013, -0.0462290509114439, -0.18895303613716655, -0.063696799040153823, 0.64501767517274688, -0.71717869597316841, 0.41347273370151383, -0.13791549892041088, 0.032483359621004286, 0.04150838981954149], [0.12480085203073212, -0.20159723052783027, 0.16067318327104235, -0.02202689269134166, -0.49061751801176384, 0.8416733745389684, -0.67897817404288252, 0.4076901585385963, -0.20677702042586771, 0.091427182997538242, -0.030092696298672245], [0, 0, 0, 0, 0, 1, 0, 0, 0, 0, 0], [0, 0, 0, 0, 0, 1, 0, 0, 0, 0, 0]]], prehc: 0, lambdahc: 0, rcut: 5, dcut: 0.01, rcut_in: 0, dcut_in: 0, inner_cutoff_type: distance}
  [1, 1]: {nradmax: 6, lmax: 3, nradbasemax: 14, radbasename: SBessel, radparameters: [5.25], radcoefficients: [[[0.50292791809296356, -0.20396529664317239, 0.18436621824910807, -0.026507983720756502, 0.084831494984144259, 0.022970636684596746, -0.007036450162238232, 0.029408443804399144, -0.024886674952903368, 0.010893183613844696, -0.012638928727170541, 0.0025104871449684782, -0.002811838124289659, -0.0016520966160976662], [0.25700570614844481, -0.24429842485660766, 0.13174516095321734, -0.028267812177572144, -0.022293292486575588, 0.027222313005518396, -0.016264872804631958, 0.014671645121547358, -0.017334166747470865, 0.0094969851264232689, -0.0042353664876719514, 0.00052055324787008957, -0.00084151857505368303, 0.0020786452925590695], [0.16466613491829371, -0.12402076653297577, 0.016203960899121843, 0.028662046428972309, -0.057259506853815353, 0.048143587859157989, -0.028335294995819924, 0.02491183362423707, -0.027902288663496904, 0.019066919487124988, -0.014219028203395219, 0.0066077189430736229, -0.0070362838552812494, 0.00060616812031816041], [0.34324558985085085, -0.38515462298643821, 0.18251635237131728, -0.10443980685932176, 0.076995776992873202, -0.038110740807250611, 0.049420519135398813, -0.0034201528564878126, -0.022363702247526367, 0.030504578681476581, -0.018345306588314035, 0.012846704398869776, -0.0083147278748991749, 0.0095761887181763823]], [[0.35747907188025768, 0.016463140602204586, 0.046135343298902259, 0.069094221492464844, 0.097122947852848682, 0.011336772849117016, 0.019589635146116058, 0.018072158145201592, -0.0090195575535754122, -0.00013416716691651357, -0.0072043182356613293, -0.00080038684868447723, -0.0015329380780922501, -0.0019086057963151185], [-0.13903303589022264, 0.18336383455212413, -0.12875484426144587, 0.11047921792851949, -0.056691896972316518, 0.021204310300358579, 0.013414640787919698, -0.01654067583358252, 0.020331601772345165, -0.012739008189801762, 0.011861891060653846, -0.0066725312696602514, 0.0030035726482455587, -0.00049865458884455597], [0.1512876489028103, -0.05634665155979092, -0.10344725787990904, 0.19853441197735097, -0.19583345758628212, 0.11751890004269482, -0.081922789962564385, 0.091701548541366959, -0.088741654771920767, 0.049858148153462421, -0.035854017503251158, 0.018674451910209357, -0.01479525360022513, 0.001098228455126982], [-0.32153367097303709, 0.80631236242603288, -0.3972298908348621, 0.067144018347715911, -0.23737368320257815, 0.14184732584057644, -0.12223806551890853, 0.049019640177010507, -0.041185088132295426, 0.051544464646876606, -0.034767044122251498, 0.033143265732470152, -0.044770724037539712, 0.0036643166128601558]], [[0.64573632544310944, -0.36562049216972525, 0.33575904695026354, -0.14639143403398189, 0.1599608547888722, -0.0079072516868191594, 0.00051677351016812009, 0.026148330448255073, -0.028793184776411851, 0.01325517275960072, -0.015867848220096143, 0.004376006738110407, -0.0040205426289974932, -0.0018729842407163443], [0.14952498697710168, -0.15026466857128215, 0.21953735146414241, -0.061149714059833327, 0.039079605898195584, -0.00058969221038161551, 0.061372259484218407, -0.06394775907497309, 0.061698183445555138, -0.037833698969327569, 0.034379286755542908, -0.017868687719400415, 0.0075247692368913786, 0.0024918301820551821], [0.098190698680134969, -0.22897236044680216, 0.21746727726181245, -0.16961282722076002, 0.17686302543642057, -0.17237616398843789, 0.15463981322446593, -0.091539458277069427, 0.077709196678666992, -0.040162354078192269, 0.016393297925909323, 0.00099266766612836192, -0.020389402139870123, 0.012392808640489913], [-0.18052722675046129, -0.13585927179956853, 0.59219698641638874, -0.47398424561427294, 0.48181441783626139, -0.0086789950855550736, -0.13059472785039017, 0.23132477435839705, -0.1313317626392663, 0.080370657949970364, -0.10081474309575671, 0.082599324076440911, -0.030804260043068861, -0.034475009632317068]], [[0.2808968578390964, 0.31078502668603475, -0.28516265602881641, 0.28360611543133213, 0.10236654449558683, -0.0028531725269858119, 0.033707084420106878, 0.067155653230587142, -0.070438690442170701, 0.053122111683202043, -0.04505254716768093, 0.023262143252646122, -0.015640015301000027, 0.0063274973207918077], [-0.26171329186664966, 0.1686903347810374, 0.026525336183164303, 0.32508270464241978, -0.062387167337665098, 0.2229781289226036, -0.19744538382278914, 0.19320310387433798, -0.088576935528416403, 0.060278891868191381, -0.012887937507507604, 0.041463841975940371, -0.017382868280818801, 0.014446238271596702], [0.58963545011646201, -0.33142989597816092, -0.17913736653934095, 0.49275414661503369, -0.46350394952757479, 0.35892517809144581, -0.31082821728972976, 0.30444483436438458, -0.29616723088860497, 0.16283583933841123, -0.10591115841767267, 0.045114272915994756, -0.014934211543449635, -0.016184706124090637], [-0.32300158164375736, -0.20000885011172248, -0.17993194038150789, 0.83932703541607157, -0.019563880780941133, 0.15765646982103379, 0.38916761743198341, 0.010548587256984394, -0.062202812118782994, 0.42731619628417095, -0.040950471922665765, 0.0053290259775061188, -0.029545173901515575, 0.0085978583587533464]], [[-0.16831987874449447, 0.13162742547651249, -0.33632227766863687, -0.45885874747701949, 0.5062478570528991, -0.17731837024844899, 0.034556979278199479, -0.13769861564060112, 0.069847761060789298, -0.12773851796406613, 0.047736921550675188, -0.02848548985079518, -0.010257322228866579, -0.0017486883332313986], [-0.17303804114114321, -0.21106133741159219, 0.32126916665344452, -0.59487315700352383, 0.73978463464769117, -0.0026610335506754442, -0.43598189926424014, 0.28074423139807086, -0.10640405021905495, -0.0026563001345633022, -0.0027829539611064595, 0.055591108326595806, -1.3180268888394373e-05, 0.0029112636046895639], [0.061580505710576286, -0.029841535889077425, -0.07481210380778712, -0.092632470830740082, 0.96080433273133892, -0.44518277828332203, -0.1286892787820321, 0.19093558820841364, -0.11550786443868573, -0.04224673183101553, 0.050921710333463981, -0.042075571597433449, 0.12958135261955855, -0.10453699130767415], [-0.10083741180001307, -0.049782575904982099, 0.018294650258833943, -0.012714613640922514, 0.78582106649854278, -0.42192926185627316, 0.035522779193475476, 0.24575300085152554, 0.027442692690258653, 0.14349111963711436, -0.13187494214329437, -0.040998269309257505, 0.1686996413591085, -0.43488489041551431]], [[0.11465835315749841, 0.060799565852762104, -0.24136980837008126, -0.25488405211226212, 0.11708684350829168, 0.2450828769847091, -0.30007372956055128, 0.062454460261617696, -0.026104556266851184, -0.079692131053750587, 0.015592612016837015, -0.012457575999995035, -0.0096848785517757788, -0.014556516125768075], [-0.04400989419542059, 0.04531490841163862, 0.13595906626957166, 0.22179549215875202, -0.075980908615559367, 0.72315688291789182, -0.49548503885028367, -0.035408128334825754, 0.29870703967083517, -0.34217428482542406, 0.29272988817289347, -0.14096480562959307, 0.11048985510490893, -0.0061332630603263697], [-0.033815991056161163, -0.25676241171488801, -0.30710353380468963, -0.025024425945203294, -0.046101672687587317, 0.76248171451317426, -0.22247738104570811, 0.15731390327404662, 0.36758389489845844, -0.030503295766880607, -0.08071057955579676, 0.026029730644486, -0.11102693177497516, 0.12134818715906345], [0.034271713970090226, 0.037541398519648633, 0.0071346970436711168, 0.0022675528810062393, 0.047022152262150708, 0.89264668597621222, -0.12312829660170109, -0.00034026183679344672, -0.10094734149673783, 0.025902011883813462, 0.23537064483035769, -0.056028022546005703, -0.091792148892516939, 0.30164246883874452]]], prehc: 0, lambdahc: 0, rcut: 5, dcut: 0.01, rcut_in: 0, dcut_in: 0, inner_cutoff_type: distance}
functions:
  0:
    - {mu0: 0, rank: 1, ndensity: 2, num_ms_combs: 1, mus: [0], ns: [1], ls: [0], ms_combs: [0], ctildes: [-5.9113856003468763, -2.0835748668775396]}
    - {mu0: 0, rank: 1, ndensity: 2, num_ms_combs: 1, mus: [0], ns: [2], ls: [0], ms_combs: [0], ctildes: [1.5414438318745951, 0.49817282023151405]}
    - {mu0: 0, rank: 1, ndensity: 2, num_ms_combs: 1, mus: [0], ns: [3], ls: [0], ms_combs: [0], ctildes: [2.5838460767305764, 0.52813620330401123]}
    - {mu0: 0, rank: 1, ndensity: 2, num_ms_combs: 1, mus: [0], ns: [4], ls: [0], ms_combs: [0], ctildes: [-3.8281524647981016, -0.81146342721134124]}
    - {mu0: 0, rank: 1, ndensity: 2, num_ms_combs: 1, mus: [0], ns: [5], ls: [0], ms_combs: [0], ctildes: [1.899952300654153, 0.54230382947370548]}
    - {mu0: 0, rank: 1, ndensity: 2, num_ms_combs: 1, mus: [0], ns: [6], ls: [0], ms_combs: [0], ctildes: [0.15577823382935396, -0.35746009096365566]}
    - {mu0: 0, rank: 1, ndensity: 2, num_ms_combs: 1, mus: [0], ns: [7], ls: [0], ms_combs: [0], ctildes: [-1.1804939848652445, 0.25540103208535792]}
    - {mu0: 0, rank: 1, ndensity: 2, num_ms_combs: 1, mus: [0], ns: [8], ls: [0], ms_combs: [0], ctildes: [1.1478813091203117, -0.21944172673681087]}
    - {mu0: 0, rank: 1, ndensity: 2, num_ms_combs: 1, mus: [0], ns: [9], ls: [0], ms_combs: [0], ctildes: [-1.2128502100035645, -0.11325900715825639]}
    - {mu0: 0, rank: 1, ndensity: 2, num_ms_combs: 1, mus: [0], ns: [10], ls: [0], ms_combs: [0], ctildes: [1.1699446358725665, 0.30575624874156421]}
    - {mu0: 0, rank: 1, ndensity: 2, num_ms_combs: 1, mus: [0], ns: [11], ls: [0], ms_combs: [0], ctildes: [-0.99554566024992985, -0.34594401030767036]}
    - {mu0: 0, rank: 1, ndensity: 2, num_ms_combs: 1, mus: [0], ns: [12], ls: [0], ms_combs: [0], ctildes: [0.60725740948654372, 0.20628085203045995]}
    - {mu0: 0, rank: 1, ndensity: 2, num_ms_combs: 1, mus: [0], ns: [13], ls: [0], ms_combs: [0], ctildes: [-0.25744720554580036, -0.080251104597738085]}
    - {mu0: 0, rank: 1, ndensity: 2, num_ms_combs: 1, mus: [0], ns: [14], ls: [0], ms_combs: [0], ctildes: [0.037963202353828253, -0.00079241219035978267]}
    - {mu0: 0, rank: 1, ndensity: 2, num_ms_combs: 1, mus: [1], ns: [1], ls: [0], ms_combs: [0], ctildes: [-2.8379772768876572, -0.49823246329141357]}
    - {mu0: 0, rank: 1, ndensity: 2, num_ms_combs: 1, mus: [1], ns: [2], ls: [0], ms_combs: [0], ctildes: [0.73795951617074151, 1.0112148948411754]}
    - {mu0: 0, rank: 1, ndensity: 2, num_ms_combs: 1, mus: [1], ns: [3], ls: [0], ms_combs: [0], ctildes: [0.099415028968614483, -0.34750748572059653]}
    - {mu0: 0, rank: 1, ndensity: 2, num_ms_combs: 1, mus: [1], ns: [4], ls: [0], ms_combs: [0], ctildes: [-1.4263541087056941, -0.094691006346714165]}
    - {mu0: 0, rank: 1, ndensity: 2, num_ms_combs: 1, mus: [1], ns: [5], ls: [0], ms_combs: [0], ctildes: [1.4296894870508308, 0.66171364518860543]}
    - {mu0: 0, rank: 1, ndensity: 2, num_ms_combs: 1, mus: [1], ns: [6], ls: [0], ms_combs: [0], ctildes: [-1.3040525411663839, -0.63049925476422319]}
    - {mu0: 0, rank: 1, ndensity: 2, num_ms_combs: 1, mus: [1], ns: [7], ls: [0], ms_combs: [0], ctildes: [0.83999687694938474, 0.50654147900452928]}
    - {mu0: 0, rank: 1, ndensity: 2, num_ms_combs: 1, mus: [1], ns: [8], ls: [0], ms_combs: [0], ctildes: [-0.50023973386669085, -0.29170919749086677]}
    - {mu0: 0, rank: 1, ndensity: 2, num_ms_combs: 1, mus: [1], ns: [9], ls: [0], ms_combs: [0], ctildes: [0.11009938460499005, 0.15822091818068301]}
    - {mu0: 0, rank: 1, ndensity: 2, num_ms_combs: 1, mus: [1], ns: [10], ls: [0], ms_combs: [0], ctildes: [-0.02228458632146783, -0.03590897071280371]}
    - {mu0: 0, rank: 1, ndensity: 2, num_ms_combs: 1, mus: [1], ns: [11], ls: [0], ms_combs: [0], ctildes: [-0.035564494770518713, 0.017610259586277651]}
    - {mu0: 0, rank: 2, ndensity: 2, num_ms_combs: 1, mus: [0, 0], ns: [1, 1], ls: [0, 0], ms_combs: [0, 0], ctildes: [0.17959755238347005, 0.7268957658626416]}
    - {mu0: 0, rank: 2, ndensity: 2, num_ms_combs: 2, mus: [0, 0], ns: [1, 1], ls: [1, 1], ms_combs: [0, 0, 1, -1], ctildes: [0.93627819474813889, 0.64522006833825241, -1.8725563894962773, -1.2904401366765046]}
    - {mu0: 0, rank: 2, ndensity: 2, num_ms_combs: 3, mus: [0, 0], ns: [1, 1], ls: [2, 2], ms_combs: [0, 0, 1, -1, 2, -2], ctildes: [0.5007150862396299, 0.34361231654627411, -1.0014301724792598, -0.68722463309254822, 1.0014301724792598, 0.68722463309254822]}
    - {mu0: 0, rank: 2, ndensity: 2, num_ms_combs: 4, mus: [0, 0], ns: [1, 1], ls: [3, 3], ms_combs: [0, 0, 1, -1, 2, -2, 3, -3], ctildes: [0.20738943679708774, -0.31044556980348958, -0.41477887359417548, 0.62089113960697917, 0.41477887359417542, -0.62089113960697906, -0.41477887359417542, 0.62089113960697906]}
    - {mu0: 0, rank: 2, ndensity: 2, num_ms_combs: 1, mus: [0, 0], ns: [1, 2], ls: [0, 0], ms_combs: [0, 0], ctildes: [0.87066291636851034, 0.36729218661473012]}
    - {mu0: 0, rank: 2, ndensity: 2, num_ms_combs: 2, mus: [0, 0], ns: [1, 2], ls: [1, 1], ms_combs: [0, 0, 1, -1], ctildes: [-0.79302531730862946, -0.35434885968407825, 1.5860506346172587, 0.70869771936815629]}
    - {mu0: 0, rank: 2, ndensity: 2, num_ms_combs: 3, mus: [0, 0], ns: [1, 2], ls: [2, 2], ms_combs: [0, 0, 1, -1, 2, -2], ctildes: [0.11123293919581473, -0.14340588172722143, -0.22246587839162948, 0.28681176345444287, 0.22246587839162948, -0.28681176345444287]}
    - {mu0: 0, rank: 2, ndensity: 2, num_ms_combs: 4, mus: [0, 0], ns: [1, 2], ls: [3, 3], ms_combs: [0, 0, 1, -1, 2, -2, 3, -3], ctildes: [0.22297364767278541, 0.014702953278321619, -0.44594729534557082, -0.029405906556643237, 0.4459472953455707, 0.029405906556643234, -0.4459472953455707, -0.029405906556643234]}
    - {mu0: 0, rank: 2, ndensity: 2, num_ms_combs: 1, mus: [0, 0], ns: [1, 3], ls: [0, 0], ms_combs: [0, 0], ctildes: [-0.0015567168746277059, -0.20104138815867703]}
    - {mu0: 0, rank: 2, ndensity: 2, num_ms_combs: 2, mus: [0, 0], ns: [1, 3], ls: [1, 1], ms_combs: [0, 0, 1, -1], ctildes: [0.42157005945578396, -0.2734648611050583, -0.8431401189115677, 0.54692972221011649]}
    - {mu0: 0, rank: 2, ndensity: 2, num_ms_combs: 3, mus: [0, 0], ns: [1, 3], ls: [2, 2], ms_combs: [0, 0, 1, -1, 2, -2], ctildes: [0.10684461604896012, 0.15333843067224731, -0.21368923209792026, -0.30667686134449462, 0.21368923209792026, 0.30667686134449462]}
    - {mu0: 0, rank: 2, ndensity: 2, num_ms_combs: 4, mus: [0, 0], ns: [1, 3], ls: [3, 3], ms_combs: [0, 0, 1, -1, 2, -2, 3, -3], ctildes: [0.093330811830527896, 0.033556668032373026, -0.18666162366105579, -0.067113336064746051, 0.18666162366105576, 0.067113336064746038, -0.18666162366105576, -0.067113336064746038]}
    - {mu0: 0, rank: 2, ndensity: 2, num_ms_combs: 1, mus: [0, 0], ns: [1, 4], ls: [0, 0], ms_combs: [0, 0], ctildes: [0.10193352031158857, 0.49217561277690686]}
    - {mu0: 0, rank: 2, ndensity: 2, num_ms_combs: 2, mus: [0, 0], ns: [1, 4], ls: [1, 1], ms_combs: [0, 0, 1, -1], ctildes: [0.26405288669856058, 0.74315400309134483, -0.52810577339712106, -1.4863080061826894]}
    - {mu0: 0, rank: 2, ndensity: 2, num_ms_combs: 3, mus: [0, 0], ns: [1, 4], ls: [2, 2], ms_combs: [0, 0, 1, -1, 2, -2], ctildes: [0.16929939630053578, -0.57666411251732563, -0.33859879260107162, 1.1533282250346515, 0.33859879260107162, -1.1533282250346515]}
    - {mu0: 0, rank: 2, ndensity: 2, num_ms_combs: 4, mus: [0, 0], ns: [1, 4], ls: [3, 3], ms_combs: [0, 0, 1, -1, 2, -2, 3, -3], ctildes: [-0.10372097892773099, 0.0050599583712115249, 0.20744195785546199, -0.01011991674242305, -0.20744195785546193, 0.010119916742423048, 0.20744195785546193, -0.010119916742423048]}
    - {mu0: 0, rank: 2, ndensity: 2, num_ms_combs: 1, mus: [0, 0], ns: [1, 5], ls: [0, 0], ms_combs: [0, 0], ctildes: [0.0024673768473122415, -0.15960272397204714]}
    - {mu0: 0, rank: 2, ndensity: 2, num_ms_combs: 2, mus: [0, 0], ns: [1, 5], ls: [1, 1], ms_combs: [0, 0, 1, -1], ctildes: [0.22237897436591986, 0.10562925256715794, -0.4447579487318396, -0.21125850513431582]}
    - {mu0: 0, rank: 2, ndensity: 2, num_ms_combs: 3, mus: [0, 0], ns: [1, 5], ls: [2, 2], ms_combs: [0, 0, 1, -1, 2, -2], ctildes: [-0.081440446401111977, 0.15202372819975585, 0.16288089280222398, -0.3040474563995117, -0.16288089280222398, 0.3040474563995117]}
    - {mu0: 0, rank: 2, ndensity: 2, num_ms_combs: 4, mus: [0, 0], ns: [1, 5], ls: [3, 3], ms_combs: [0, 0, 1, -1, 2, -2, 3, -3], ctildes: [0.01509132991553888, -0.00083956889334717419, -0.030182659831077759, 0.0016791377866943484, 0.030182659831077756, -0.0016791377866943482, -0.030182659831077756, 0.0016791377866943482]}
    - {mu0: 0, rank: 2, ndensity: 2, num_ms_combs: 1, mus: [0, 0], ns: [1, 6], ls: [0, 0], ms_combs: [0, 0], ctildes: [-0.0022552145881135437, 0.23107266148252667]}
    - {mu0: 0, rank: 2, ndensity: 2, num_ms_combs: 2, mus: [0, 0], ns: [1, 6], ls: [1, 1], ms_combs: [0, 0, 1, -1], ctildes: [0.024567883360815179, -0.17227895060929674, -0.04913576672163035, 0.34455790121859342]}
    - {mu0: 0, rank: 2, ndensity: 2, num_ms_combs: 3, mus: [0, 0], ns: [1, 6], ls: [2, 2], ms_combs: [0, 0, 1, -1, 2, -2], ctildes: [0.093203908648946412, -0.14048909672014681, -0.18640781729789285, 0.28097819344029368, 0.18640781729789285, -0.28097819344029368]}
    - {mu0: 0, rank: 2, ndensity: 2, num_ms_combs: 4, mus: [0, 0], ns: [1, 6], ls: [3, 3], ms_combs: [0, 0, 1, -1, 2, -2, 3, -3], ctildes: [-0.015694166846847352, -8.1034408695160868e-05, 0.031388333693694703, 0.00016206881739032174, -0.031388333693694696, -0.00016206881739032171, 0.031388333693694696, 0.00016206881739032171]}
    - {mu0: 0, rank: 2, ndensity: 2, num_ms_combs: 1, mus: [0, 0], ns: [2, 2], ls: [0, 0], ms_combs: [0, 0], ctildes: [0.90447219171522586, 0.23668993167793517]}
    - {mu0: 0, rank: 2, ndensity: 2, num_ms_combs: 2, mus: [0, 0], ns: [2, 2], ls: [1, 1], ms_combs: [0, 0, 1, -1], ctildes: [-0.15134839888086521, -0.18444760905971919, 0.30269679776173031, 0.36889521811943832]}
    - {mu0: 0, rank: 2, ndensity: 2, num_ms_combs: 3, mus: [0, 0], ns: [2, 2], ls: [2, 2], ms_combs: [0, 0, 1, -1, 2, -2], ctildes: [-0.51369085651900703, -0.20143045174663168, 1.0273817130380143, 0.40286090349326342, -1.0273817130380143, -0.40286090349326342]}
    - {mu0: 0, rank: 2, ndensity: 2, num_ms_combs: 4, mus: [0, 0], ns: [2, 2], ls: [3, 3], ms_combs: [0, 0, 1, -1, 2, -2, 3, -3], ctildes: [0.12202249450258193, -0.023983812262817737, -0.24404498900516386, 0.047967624525635473, 0.24404498900516383, -0.047967624525635466, -0.24404498900516383, 0.047967624525635466]}
    - {mu0: 0, rank: 2, ndensity: 2, num_ms_combs: 1, mus: [0, 0], ns: [2, 3], ls: [0, 0], ms_combs: [0, 0], ctildes: [1.2363100423708824, -1.4201086426576701]}
    - {mu0: 0, rank: 2, ndensity: 2, num_ms_combs: 2, mus: [0, 0], ns: [2, 3], ls: [1, 1], ms_combs: [0, 0, 1, -1], ctildes: [-0.59651050748557899, 0.34379606177556088, 1.1930210149711578, -0.68759212355112165]}
    - {mu0: 0, rank: 2, ndensity: 2, num_ms_combs: 3, mus: [0, 0], ns: [2, 3], ls: [2, 2], ms_combs: [0, 0, 1, -1, 2, -2], ctildes: [-0.22411754896228572, -0.05507023761676514, 0.4482350979245715, 0.11014047523353029, -0.4482350979245715, -0.11014047523353029]}
    - {mu0: 0, rank: 2, ndensity: 2, num_ms_combs: 4, mus: [0, 0], ns: [2, 3], ls: [3, 3], ms_combs: [0, 0, 1, -1, 2, -2, 3, -3], ctildes: [-0.15863872578140251, 0.074943212533290463, 0.31727745156280501, -0.14988642506658093, -0.31727745156280501, 0.14988642506658093, 0.31727745156280501, -0.14988642506658093]}
    - {mu0: 0, rank: 2, ndensity: 2, num_ms_combs: 1, mus: [0, 0], ns: [2, 4], ls: [0, 0], ms_combs: [0, 0], ctildes: [-0.12814022883335827, -0.013102529561647458]}
    - {mu0: 0, rank: 2, ndensity: 2, num_ms_combs: 2, mus: [0, 0], ns: [2, 4], ls: [1, 1], ms_combs: [0, 0, 1, -1], ctildes: [-0.065034643613023954, -0.08404292652105895, 0.13006928722604788, 0.16808585304211787]}
    - {mu0: 0, rank: 2, ndensity: 2, num_ms_combs: 3, mus: [0, 0], ns: [2, 4], ls: [2, 2], ms_combs: [0, 0, 1, -1, 2, -2], ctildes: [-0.15166228774653806, -0.13451529828771816, 0.30332457549307612, 0.26903059657543632, -0.30332457549307612, -0.26903059657543632]}
    - {mu0: 0, rank: 2, ndensity: 2, num_ms_combs: 4, mus: [0, 0], ns: [2, 4], ls: [3, 3], ms_combs: [0, 0, 1, -1, 2, -2, 3, -3], ctildes: [0.041674837994730339, -0.036224307092513446, -0.083349675989460678, 0.072448614185026891, 0.083349675989460678, -0.072448614185026877, -0.083349675989460678, 0.072448614185026877]}
    - {mu0: 0, rank: 2, ndensity: 2, num_ms_combs: 1, mus: [0, 0], ns: [2, 5], ls: [0, 0], ms_combs: [0, 0], ctildes: [0.070256732597992921, 0.1396084579046539]}
    - {mu0: 0, rank: 2, ndensity: 2, num_ms_combs: 2, mus: [0, 0], ns: [2, 5], ls: [1, 1], ms_combs: [0, 0, 1, -1], ctildes: [-0.075116785605134948, 0.15276224548625167, 0.15023357121026987, -0.30552449097250328]}
    - {mu0: 0, rank: 2, ndensity: 2, num_ms_combs: 3, mus: [0, 0], ns: [2, 5], ls: [2, 2], ms_combs: [0, 0, 1, -1, 2, -2], ctildes: [-0.1564397176770293, 0.17050014993186857, 0.31287943535405865, -0.3410002998637372, -0.31287943535405865, 0.3410002998637372]}
    - {mu0: 0, rank: 2, ndensity: 2, num_ms_combs: 4, mus: [0, 0], ns: [2, 5], ls: [3, 3], ms_combs: [0, 0, 1, -1, 2, -2, 3, -3], ctildes: [-0.013966123292689783, 0.01283378084059672, 0.027932246585379565, -0.02566756168119344, -0.027932246585379562, 0.025667561681193437, 0.027932246585379562, -0.025667561681193437]}
    - {mu0: 0, rank: 2, ndensity: 2, num_ms_combs: 1, mus: [0, 0], ns: [2, 6], ls: [0, 0], ms_combs: [0, 0], ctildes: [0.064718429876442288, -0.18138692134712933]}
    - {mu0: 0, rank: 2, ndensity: 2, num_ms_combs: 2, mus: [0, 0], ns: [2, 6], ls: [1, 1], ms_combs: [0, 0, 1, -1], ctildes: [-0.091955281556875323, -0.097890854700237964, 0.18391056311375062, 0.1957817094004759]}
    - {mu0: 0, rank: 2, ndensity: 2, num_ms_combs: 3, mus: [0, 0], ns: [2, 6], ls: [2, 2], ms_combs: [0, 0, 1, -1, 2, -2], ctildes: [0.14779152967015771, -0.1527600905999493, -0.29558305934031548, 0.30552018119989865, 0.29558305934031548, -0.30552018119989865]}
    - {mu0: 0, rank: 2, ndensity: 2, num_ms_combs: 1, mus: [0, 0], ns: [3, 3], ls: [0, 0], ms_combs: [0, 0], ctildes: [-1.3390784498571218, 1.0620864253066562]}
    - {mu0: 0, rank: 2, ndensity: 2, num_ms_combs: 2, mus: [0, 0], ns: [3, 3], ls: [1, 1], ms_combs: [0, 0, 1, -1], ctildes: [0.24366938490997075, 0.45415205368617806, -0.4873387698199414, -0.90830410737235601]}
    - {mu0: 0, rank: 2, ndensity: 2, num_ms_combs: 3, mus: [0, 0], ns: [3, 3], ls: [2, 2], ms_combs: [0, 0, 1, -1, 2, -2], ctildes: [-0.018526742501461576, -0.02119788283331716, 0.037053485002923152, 0.042395765666634326, -0.037053485002923152, -0.042395765666634326]}
    - {mu0: 0, rank: 2, ndensity: 2, num_ms_combs: 4, mus: [0, 0], ns: [3, 3], ls: [3, 3], ms_combs: [0, 0, 1, -1, 2, -2, 3, -3], ctildes: [0.040715070044153499, -0.012728162327698325, -0.081430140088306999, 0.025456324655396649, 0.081430140088306985, -0.025456324655396646, -0.081430140088306985, 0.025456324655396646]}
    - {mu0: 0, rank: 2, ndensity: 2, num_ms_combs: 1, mus: [0, 0], ns: [3, 4], ls: [0, 0], ms_combs: [0, 0], ctildes: [-0.7508127457273911, -0.15958532227311353]}
    - {mu0: 0, rank: 2, ndensity: 2, num_ms_combs: 2, mus: [0, 0], ns: [3, 4], ls: [1, 1], ms_combs: [0, 0, 1, -1], ctildes: [0.0046572282851251338, -0.012434808263016557, -0.0093144565702502659, 0.024869616526033107]}
    - {mu0: 0, rank: 2, ndensity: 2, num_ms_combs: 3, mus: [0, 0], ns: [3, 4], ls: [2, 2], ms_combs: [0, 0, 1, -1, 2, -2], ctildes: [-0.28363071843932358, -0.041093387037232053, 0.56726143687864716, 0.082186774074464106, -0.56726143687864716, -0.082186774074464106]}
    - {mu0: 0, rank: 2, ndensity: 2, num_ms_combs: 4, mus: [0, 0], ns: [3, 4], ls: [3, 3], ms_combs: [0, 0, 1, -1, 2, -2, 3, -3], ctildes: [-0.00153564154293126, -0.0041265286013354606, 0.00307128308586252, 0.0082530572026709211, -0.0030712830858625191, -0.0082530572026709194, 0.0030712830858625191, 0.0082530572026709194]}
    - {mu0: 0, rank: 2, ndensity: 2, num_ms_combs: 1, mus: [0, 0], ns: [3, 5], ls: [0, 0], ms_combs: [0, 0], ctildes: [0.22414262757260084, 0.34497970542198569]}
    - {mu0: 0, rank: 2, ndensity: 2, num_ms_combs: 2, mus: [0, 0], ns: [3, 5], ls: [1, 1], ms_combs: [0, 0, 1, -1], ctildes: [0.022621578883722585, -0.0045477514180956961, -0.045243157767445155, 0.0090955028361913905]}
    - {mu0: 0, rank: 2, ndensity: 2, num_ms_combs: 3, mus: [0, 0], ns: [3, 5], ls: [2, 2], ms_combs: [0, 0, 1, -1, 2, -2], ctildes: [0.063249995411533588, 0.014086937678819723, -0.1264999908230672, -0.02817387535763945, 0.1264999908230672, 0.02817387535763945]}
    - {mu0: 0, rank: 2, ndensity: 2, num_ms_combs: 1, mus: [0, 0], ns: [3, 6], ls: [0, 0], ms_combs: [0, 0], ctildes: [-0.09502156829940285, -0.052280891352739181]}
    - {mu0: 0, rank: 2, ndensity: 2, num_ms_combs: 2, mus: [0, 0], ns: [3, 6], ls: [1, 1], ms_combs: [0, 0, 1, -1], ctildes: [0.028311608539214442, -0.060143255785573016, -0.056623217078428871, 0.120286511571146]}
    - {mu0: 0, rank: 2, ndensity: 2, num_ms_combs: 3, mus: [0, 0], ns: [3, 6], ls: [2, 2], ms_combs: [0, 0, 1, -1, 2, -2], ctildes: [-0.060725414688873318, -0.0074530495025832656, 0.12145082937774665, 0.014906099005166533, -0.12145082937774665, -0.014906099005166533]}
    - {mu0: 0, rank: 2, ndensity: 2, num_ms_combs: 1, mus: [0, 0], ns: [4, 4], ls: [0, 0], ms_combs: [0, 0], ctildes: [-0.019687719207455216, -0.062709448361113362]}
    - {mu0: 0, rank: 2, ndensity: 2, num_ms_combs: 2, mus: [0, 0], ns: [4, 4], ls: [1, 1], ms_combs: [0, 0, 1, -1], ctildes: [-0.54550714096834874, -0.051720758248374001, 1.0910142819366972, 0.10344151649674797]}
    - {mu0: 0, rank: 2, ndensity: 2, num_ms_combs: 3, mus: [0, 0], ns: [4, 4], ls: [2, 2], ms_combs: [0, 0, 1, -1, 2, -2], ctildes: [0.23177598148416825, -0.069352238688160067, -0.46355196296833656, 0.13870447737632016, 0.46355196296833656, -0.13870447737632016]}
    - {mu0: 0, rank: 2, ndensity: 2, num_ms_combs: 1, mus: [0, 0], ns: [4, 5], ls: [0, 0], ms_combs: [0, 0], ctildes: [0.28319872596116952, -0.2915159772475473]}
    - {mu0: 0, rank: 2, ndensity: 2, num_ms_combs: 2, mus: [0, 0], ns: [4, 5], ls: [1, 1], ms_combs: [0, 0, 1, -1], ctildes: [-0.050895566239760631, -0.047722361177557099, 0.10179113247952123, 0.095444722355114184]}
    - {mu0: 0, rank: 2, ndensity: 2, num_ms_combs: 3, mus: [0, 0], ns: [4, 5], ls: [2, 2], ms_combs: [0, 0, 1, -1, 2, -2], ctildes: [0.01285115361540622, -0.0044538604582569684, -0.025702307230812443, 0.0089077209165139386, 0.025702307230812443, -0.0089077209165139386]}
    - {mu0: 0, rank: 2, ndensity: 2, num_ms_combs: 1, mus: [0, 0], ns: [4, 6], ls: [0, 0], ms_combs: [0, 0], ctildes: [-0.050586801214515496, -0.030886714421387487]}
    - {mu0: 0, rank: 2, ndensity: 2, num_ms_combs: 2, mus: [0, 0], ns: [4, 6], ls: [1, 1], ms_combs: [0, 0, 1, -1], ctildes: [0.042022127737422713, -0.034803758768312938, -0.084044255474845411, 0.069607517536625862]}
    - {mu0: 0, rank: 2, ndensity: 2, num_ms_combs: 1, mus: [0, 0], ns: [5, 5], ls: [0, 0], ms_combs: [0, 0], ctildes: [-0.37743409298615171, 0.43833978848101357]}
    - {mu0: 0, rank: 2, ndensity: 2, num_ms_combs: 2, mus: [0, 0], ns: [5, 5], ls: [1, 1], ms_combs: [0, 0, 1, -1], ctildes: [0.0074998982651472016, -0.035727275454624952, -0.014999796530294401, 0.071454550909249889]}
    - {mu0: 0, rank: 2, ndensity: 2, num_ms_combs: 1, mus: [0, 0], ns: [5, 6], ls: [0, 0], ms_combs: [0, 0], ctildes: [0.049561305678360611, 0.036305936677741603]}
    - {mu0: 0, rank: 2, ndensity: 2, num_ms_combs: 2, mus: [0, 0], ns: [5, 6], ls: [1, 1], ms_combs: [0, 0, 1, -1], ctildes: [0.015814803009961881, -0.037993332378961908, -0.031629606019923755, 0.075986664757923802]}
    - {mu0: 0, rank: 2, ndensity: 2, num_ms_combs: 1, mus: [0, 0], ns: [6, 6], ls: [0, 0], ms_combs: [0, 0], ctildes: [-0.00075694946974366045, -0.0053095571154853924]}
    - {mu0: 0, rank: 2, ndensity: 2, num_ms_combs: 1, mus: [0, 1], ns: [1, 1], ls: [0, 0], ms_combs: [0, 0], ctildes: [-0.061121311421276747, 0.28018867038185014]}
    - {mu0: 0, rank: 2, ndensity: 2, num_ms_combs: 2, mus: [0, 1], ns: [1, 1], ls: [1, 1], ms_combs: [0, 0, 1, -1], ctildes: [0.37924129604475421, 0.27238610398183444, -0.7584825920895083, -0.54477220796366876]}
    - {mu0: 0, rank: 2, ndensity: 2, num_ms_combs: 3, mus: [0, 1], ns: [1, 1], ls: [2, 2], ms_combs: [0, 0, 1, -1, 2, -2], ctildes: [-0.024171985403817649, -0.01696383969566672, 0.048343970807635306, 0.03392767939133344, -0.048343970807635306, -0.03392767939133344]}
    - {mu0: 0, rank: 2, ndensity: 2, num_ms_combs: 4, mus: [0, 1], ns: [1, 1], ls: [3, 3], ms_combs: [0, 0, 1, -1, 2, -2, 3, -3], ctildes: [0.079831989998280395, -0.023126091802174006, -0.15966397999656079, 0.046252183604348011, 0.15966397999656076, -0.046252183604348004, -0.15966397999656076, 0.046252183604348004]}
    - {mu0: 0, rank: 2, ndensity: 2, num_ms_combs: 1, mus: [0, 1], ns: [1, 2], ls: [0, 0], ms_combs: [0, 0], ctildes: [0.37376258086981656, 0.97102622674263672]}
    - {mu0: 0, rank: 2, ndensity: 2, num_ms_combs: 2, mus: [0, 1], ns: [1, 2], ls: [1, 1], ms_combs: [0, 0, 1, -1], ctildes: [-0.011019248962778495, 0.47056766969949393, 0.022038497925556982, -0.94113533939898764]}
    - {mu0: 0, rank: 2, ndensity: 2, num_ms_combs: 3, mus: [0, 1], ns: [1, 2], ls: [2, 2], ms_combs: [0, 0, 1, -1, 2, -2], ctildes: [-0.27924948515774184, 0.066966739437881673, 0.55849897031548368, -0.13393347887576335, -0.55849897031548368, 0.13393347887576335]}
    - {mu0: 0, rank: 2, ndensity: 2, num_ms_combs: 4, mus: [0, 1], ns: [1, 2], ls: [3, 3], ms_combs: [0, 0, 1, -1, 2, -2, 3, -3], ctildes: [0.033872963343744705, -0.039888566623840487, -0.067745926687489411, 0.079777133247680973, 0.067745926687489397, -0.079777133247680973, -0.067745926687489397, 0.079777133247680973]}
    - {mu0: 0, rank: 2, ndensity: 2, num_ms_combs: 1, mus: [0, 1], ns: [1, 3], ls: [0, 0], ms_combs: [0, 0], ctildes: [-0.40615659577669183, -0.97488727796230712]}
    - {mu0: 0, rank: 2, ndensity: 2, num_ms_combs: 2, mus: [0, 1], ns: [1, 3], ls: [1, 1], ms_combs: [0, 0, 1, -1], ctildes: [-0.043198189845108967, 0.21918044170061241, 0.08639637969021792, -0.4383608834012247]}
    - {mu0: 0, rank: 2, ndensity: 2, num_ms_combs: 3, mus: [0, 1], ns: [1, 3], ls: [2, 2], ms_combs: [0, 0, 1, -1, 2, -2], ctildes: [0.15911657094817402, -0.17080327625535124, -0.31823314189634805, 0.34160655251070254, 0.31823314189634805, -0.34160655251070254]}
    - {mu0: 0, rank: 2, ndensity: 2, num_ms_combs: 4, mus: [0, 1], ns: [1, 3], ls: [3, 3], ms_combs: [0, 0, 1, -1, 2, -2, 3, -3], ctildes: [-0.034855014079101056, 0.037164593721585884, 0.069710028158202111, -0.074329187443171768, -0.069710028158202098, 0.074329187443171754, 0.069710028158202098, -0.074329187443171754]}
    - {mu0: 0, rank: 2, ndensity: 2, num_ms_combs: 1, mus: [0, 1], ns: [1, 4], ls: [0, 0], ms_combs: [0, 0], ctildes: [-0.0073065721239868224, 0.090181965890332089]}
    - {mu0: 0, rank: 2, ndensity: 2, num_ms_combs: 2, mus: [0, 1], ns: [1, 4], ls: [1, 1], ms_combs: [0, 0, 1, -1], ctildes: [0.024396925980295643, 0.29019145569081572, -0.048793851960591279, -0.58038291138163134]}
    - {mu0: 0, rank: 2, ndensity: 2, num_ms_combs: 3, mus: [0, 1], ns: [1, 4], ls: [2, 2], ms_combs: [0, 0, 1, -1, 2, -2], ctildes: [-0.093350316006859516, 0.038406282938908909, 0.18670063201371906, -0.076812565877817832, -0.18670063201371906, 0.076812565877817832]}
    - {mu0: 0, rank: 2, ndensity: 2, num_ms_combs: 1, mus: [0, 1], ns: [1, 5], ls: [0, 0], ms_combs: [0, 0], ctildes: [0.09712575721514051, 0.081120136917415583]}
    - {mu0: 0, rank: 2, ndensity: 2, num_ms_combs: 2, mus: [0, 1], ns: [1, 5], ls: [1, 1], ms_combs: [0, 0, 1, -1], ctildes: [-0.035380605276886579, 0.01898629054118571, 0.070761210553773143, -0.037972581082371414]}
    - {mu0: 0, rank: 2, ndensity: 2, num_ms_combs: 3, mus: [0, 1], ns: [1, 5], ls: [2, 2], ms_combs: [0, 0, 1, -1, 2, -2], ctildes: [0.0083323053221563848, 0.0078712463202667733, -0.016664610644312773, -0.01574249264053355, 0.016664610644312773, 0.01574249264053355]}
    - {mu0: 0, rank: 2, ndensity: 2, num_ms_combs: 1, mus: [0, 1], ns: [1, 6], ls: [0, 0], ms_combs: [0, 0], ctildes: [0.10128920513114859, 0.12198616588766224]}
    - {mu0: 0, rank: 2, ndensity: 2, num_ms_combs: 2, mus: [0, 1], ns: [1, 6], ls: [1, 1], ms_combs: [0, 0, 1, -1], ctildes: [-0.40165526399820578, 0.19801139359775494, 0.80331052799641145, -0.39602278719550982]}
    - {mu0: 0, rank: 2, ndensity: 2, num_ms_combs: 1, mus: [0, 1], ns: [2, 1], ls: [0, 0], ms_combs: [0, 0], ctildes: [1.0947496880055017, 1.5858456527672213]}
    - {mu0: 0, rank: 2, ndensity: 2, num_ms_combs: 2, mus: [0, 1], ns: [2, 1], ls: [1, 1], ms_combs: [0, 0, 1, -1], ctildes: [-0.63899912317254925, -0.36217556180006816, 1.2779982463450983, 0.7243511236001362]}
    - {mu0: 0, rank: 2, ndensity: 2, num_ms_combs: 3, mus: [0, 1], ns: [2, 1], ls: [2, 2], ms_combs: [0, 0, 1, -1, 2, -2], ctildes: [-0.49695325980794991, -0.023994284188221054, 0.99390651961589993, 0.047988568376442109, -0.99390651961589993, -0.047988568376442109]}
    - {mu0: 0, rank: 2, ndensity: 2, num_ms_combs: 4, mus: [0, 1], ns: [2, 1], ls: [3, 3], ms_combs: [0, 0, 1, -1, 2, -2, 3, -3], ctildes: [0.042466543587238198, 0.054013087718617084, -0.084933087174476396, -0.10802617543723417, 0.084933087174476382, 0.10802617543723415, -0.084933087174476382, -0.10802617543723415]}
    - {mu0: 0, rank: 2, ndensity: 2, num_ms_combs: 1, mus: [0, 1], ns: [2, 2], ls: [0, 0], ms_combs: [0, 0], ctildes: [0.060598735874862725, 0.97181761769262232]}
    - {mu0: 0, rank: 2, ndensity: 2, num_ms_combs: 2, mus: [0, 1], ns: [2, 2], ls: [1, 1], ms_combs: [0, 0, 1, -1], ctildes: [0.76055235750523464, -0.033784807804187238, -1.5211047150104691, 0.067569615608374461]}
    - {mu0: 0, rank: 2, ndensity: 2, num_ms_combs: 3, mus: [0, 1], ns: [2, 2], ls: [2, 2], ms_combs: [0, 0, 1, -1, 2, -2], ctildes: [-0.025530992649375358, -0.36592626586698435, 0.051061985298750723, 0.7318525317339688, -0.051061985298750723, -0.7318525317339688]}
    - {mu0: 0, rank: 2, ndensity: 2, num_ms_combs: 4, mus: [0, 1], ns: [2, 2], ls: [3, 3], ms_combs: [0, 0, 1, -1, 2, -2, 3, -3], ctildes: [-0.011887090654515167, 0.034252190742101077, 0.023774181309030334, -0.068504381484202154, -0.023774181309030331, 0.06850438148420214, 0.023774181309030331, -0.06850438148420214]}
    - {mu0: 0, rank: 2, ndensity: 2, num_ms_combs: 1, mus: [0, 1], ns: [2, 3], ls: [0, 0], ms_combs: [0, 0], ctildes: [0.23429374003353273, 0.5043400770328007]}
    - {mu0: 0, rank: 2, ndensity: 2, num_ms_combs: 2, mus: [0, 1], ns: [2, 3], ls: [1, 1], ms_combs: [0, 0, 1, -1], ctildes: [0.19394971374339856, 0.072086791924012933, -0.38789942748679707, -0.14417358384802584]}
    - {mu0: 0, rank: 2, ndensity: 2, num_ms_combs: 3, mus: [0, 1], ns: [2, 3], ls: [2, 2], ms_combs: [0, 0, 1, -1, 2, -2], ctildes: [0.10263642403028644, -0.1358023331306778, -0.20527284806057292, 0.27160466626135565, 0.20527284806057292, -0.27160466626135565]}
    - {mu0: 0, rank: 2, ndensity: 2, num_ms_combs: 1, mus: [0, 1], ns: [2, 4], ls: [0, 0], ms_combs: [0, 0], ctildes: [-0.45429763879690921, 0.26975359428745582]}
    - {mu0: 0, rank: 2, ndensity: 2, num_ms_combs: 2, mus: [0, 1], ns: [2, 4], ls: [1, 1], ms_combs: [0, 0, 1, -1], ctildes: [-0.082962666464159215, -0.11591313280628143, 0.1659253329283184, 0.23182626561256284]}
    - {mu0: 0, rank: 2, ndensity: 2, num_ms_combs: 3, mus: [0, 1], ns: [2, 4], ls: [2, 2], ms_combs: [0, 0, 1, -1, 2, -2], ctildes: [-0.0706532646027732, 0.042334005095345233, 0.14130652920554643, -0.084668010190690479, -0.14130652920554643, 0.084668010190690479]}
    - {mu0: 0, rank: 2, ndensity: 2, num_ms_combs: 1, mus: [0, 1], ns: [2, 5], ls: [0, 0], ms_combs: [0, 0], ctildes: [0.28307059439077109, -0.43090420523016842]}
    - {mu0: 0, rank: 2, ndensity: 2, num_ms_combs: 2, mus: [0, 1], ns: [2, 5], ls: [1, 1], ms_combs: [0, 0, 1, -1], ctildes: [-0.049563426167445433, 0.014535927807471198, 0.099126852334890853, -0.029071855614942389]}
    - {mu0: 0, rank: 2, ndensity: 2, num_ms_combs: 1, mus: [0, 1], ns: [2, 6], ls: [0, 0], ms_combs: [0, 0], ctildes: [-0.34570026368089052, 0.41558545817035553]}
    - {mu0: 0, rank: 2, ndensity: 2, num_ms_combs: 2, mus: [0, 1], ns: [2, 6], ls: [1, 1], ms_combs: [0, 0, 1, -1], ctildes: [-0.052780618696287612, -0.31141903915111535, 0.10556123739257521, 0.62283807830223059]}
    - {mu0: 0, rank: 2, ndensity: 2, num_ms_combs: 1, mus: [0, 1], ns: [3, 1], ls: [0, 0], ms_combs: [0, 0], ctildes: [-0.40822283129241788, -0.12527401662782506]}
    - {mu0: 0, rank: 2, ndensity: 2, num_ms_combs: 2, mus: [0, 1], ns: [3, 1], ls: [1, 1], ms_combs: [0, 0, 1, -1], ctildes: [-0.34858131527375857, 0.099325220854108151, 0.69716263054751693, -0.19865044170821627]}
    - {mu0: 0, rank: 2, ndensity: 2, num_ms_combs: 3, mus: [0, 1], ns: [3, 1], ls: [2, 2], ms_combs: [0, 0, 1, -1, 2, -2], ctildes: [-0.065202296964276985, -0.36865742787166184, 0.130404593928554, 0.73731485574332378, -0.130404593928554, -0.73731485574332378]}
    - {mu0: 0, rank: 2, ndensity: 2, num_ms_combs: 4, mus: [0, 1], ns: [3, 1], ls: [3, 3], ms_combs: [0, 0, 1, -1, 2, -2, 3, -3], ctildes: [-0.049681603110619595, 0.01796114932109226, 0.099363206221239189, -0.035922298642184519, -0.099363206221239175, 0.035922298642184512, 0.099363206221239175, -0.035922298642184512]}
    - {mu0: 0, rank: 2, ndensity: 2, num_ms_combs: 1, mus: [0, 1], ns: [3, 2], ls: [0, 0], ms_combs: [0, 0], ctildes: [-0.11852046833197975, 1.1073728731615367]}
    - {mu0: 0, rank: 2, ndensity: 2, num_ms_combs: 2, mus: [0, 1], ns: [3, 2], ls: [1, 1], ms_combs: [0, 0, 1, -1], ctildes: [-0.27814186434154753, 0.11564750674360276, 0.55628372868309495, -0.23129501348720546]}
    - {mu0: 0, rank: 2, ndensity: 2, num_ms_combs: 3, mus: [0, 1], ns: [3, 2], ls: [2, 2], ms_combs: [0, 0, 1, -1, 2, -2], ctildes: [-0.12997240045355016, 0.075591387063650692, 0.25994480090710032, -0.15118277412730138, -0.25994480090710032, 0.15118277412730138]}
    - {mu0: 0, rank: 2, ndensity: 2, num_ms_combs: 1, mus: [0, 1], ns: [3, 3], ls: [0, 0], ms_combs: [0, 0], ctildes: [-0.010159800570211095, -0.119010654416271]}
    - {mu0: 0, rank: 2, ndensity: 2, num_ms_combs: 2, mus: [0, 1], ns: [3, 3], ls: [1, 1], ms_combs: [0, 0, 1, -1], ctildes: [0.33584672421080425, -0.57988153537316955, -0.67169344842160839, 1.1597630707463389]}
    - {mu0: 0, rank: 2, ndensity: 2, num_ms_combs: 3, mus: [0, 1], ns: [3, 3], ls: [2, 2], ms_combs: [0, 0, 1, -1, 2, -2], ctildes: [0.092869150265641451, -0.19380956101224497, -0.18573830053128293, 0.38761912202448995, 0.18573830053128293, -0.38761912202448995]}
    - {mu0: 0, rank: 2, ndensity: 2, num_ms_combs: 1, mus: [0, 1], ns: [3, 4], ls: [0, 0], ms_combs: [0, 0], ctildes: [0.18571923571759097, -0.43323698667040078]}
    - {mu0: 0, rank: 2, ndensity: 2, num_ms_combs: 2, mus: [0, 1], ns: [3, 4], ls: [1, 1], ms_combs: [0, 0, 1, -1], ctildes: [0.026018057300456022, 0.024541082267069216, -0.05203611460091203, -0.049082164534138426]}
    - {mu0: 0, rank: 2, ndensity: 2, num_ms_combs: 1, mus: [0, 1], ns: [3, 5], ls: [0, 0], ms_combs: [0, 0], ctildes: [-0.1630160286698491, 0.26691350710121675]}
    - {mu0: 0, rank: 2, ndensity: 2, num_ms_combs: 2, mus: [0, 1], ns: [3, 5], ls: [1, 1], ms_combs: [0, 0, 1, -1], ctildes: [0.034332706100186891, -0.04590738352746121, -0.068665412200373768, 0.091814767054922405]}
    - {mu0: 0, rank: 2, ndensity: 2, num_ms_combs: 1, mus: [0, 1], ns: [3, 6], ls: [0, 0], ms_combs: [0, 0], ctildes: [0.086813593174577333, -0.29735655650012971]}
    - {mu0: 0, rank: 2, ndensity: 2, num_ms_combs: 1, mus: [0, 1], ns: [4, 1], ls: [0, 0], ms_combs: [0, 0], ctildes: [-0.14834081994621298, -0.10571309875458798]}
    - {mu0: 0, rank: 2, ndensity: 2, num_ms_combs: 2, mus: [0, 1], ns: [4, 1], ls: [1, 1], ms_combs: [0, 0, 1, -1], ctildes: [0.41775815521155807, -0.15573597038260495, -0.83551631042311603, 0.31147194076520984]}
    - {mu0: 0, rank: 2, ndensity: 2, num_ms_combs: 3, mus: [0, 1], ns: [4, 1], ls: [2, 2], ms_combs: [0, 0, 1, -1, 2, -2], ctildes: [0.12335057985169842, 0.30015926726966285, -0.2467011597033969, -0.60031853453932582, 0.2467011597033969, 0.60031853453932582]}
    - {mu0: 0, rank: 2, ndensity: 2, num_ms_combs: 1, mus: [0, 1], ns: [4, 2], ls: [0, 0], ms_combs: [0, 0], ctildes: [0.20713530811791467, 0.33490704057833609]}
    - {mu0: 0, rank: 2, ndensity: 2, num_ms_combs: 2, mus: [0, 1], ns: [4, 2], ls: [1, 1], ms_combs: [0, 0, 1, -1], ctildes: [0.07177817090748688, 0.25862195804473498, -0.14355634181497373, -0.51724391608946985]}
    - {mu0: 0, rank: 2, ndensity: 2, num_ms_combs: 3, mus: [0, 1], ns: [4, 2], ls: [2, 2], ms_combs: [0, 0, 1, -1, 2, -2], ctildes: [-0.043614428227990713, 0.15168099224999515, 0.087228856455981441, -0.3033619844999903, -0.087228856455981441, 0.3033619844999903]}
    - {mu0: 0, rank: 2, ndensity: 2, num_ms_combs: 1, mus: [0, 1], ns: [4, 3], ls: [0, 0], ms_combs: [0, 0], ctildes: [-0.28111390631412264, 0.24828457440744686]}
    - {mu0: 0, rank: 2, ndensity: 2, num_ms_combs: 2, mus: [0, 1], ns: [4, 3], ls: [1, 1], ms_combs: [0, 0, 1, -1], ctildes: [-0.043985777332988585, 0.12350969595696161, 0.087971554665977156, -0.24701939191392316]}
    - {mu0: 0, rank: 2, ndensity: 2, num_ms_combs: 1, mus: [0, 1], ns: [4, 4], ls: [0, 0], ms_combs: [0, 0], ctildes: [-0.031570879966743327, 0.052160125231671094]}
    - {mu0: 0, rank: 2, ndensity: 2, num_ms_combs: 2, mus: [0, 1], ns: [4, 4], ls: [1, 1], ms_combs: [0, 0, 1, -1], ctildes: [0.00083226615324805662, -0.22163798037607599, -0.001664532306496113, 0.44327596075215187]}
    - {mu0: 0, rank: 2, ndensity: 2, num_ms_combs: 1, mus: [0, 1], ns: [4, 5], ls: [0, 0], ms_combs: [0, 0], ctildes: [-0.11229505984272416, 0.18291563336997543]}
    - {mu0: 0, rank: 2, ndensity: 2, num_ms_combs: 1, mus: [0, 1], ns: [4, 6], ls: [0, 0], ms_combs: [0, 0], ctildes: [0.10186136791947081, -0.40778338217071036]}
    - {mu0: 0, rank: 2, ndensity: 2, num_ms_combs: 1, mus: [0, 1], ns: [5, 1], ls: [0, 0], ms_combs: [0, 0], ctildes: [0.49528730054673581, -0.14781440894889269]}
    - {mu0: 0, rank: 2, ndensity: 2, num_ms_combs: 2, mus: [0, 1], ns: [5, 1], ls: [1, 1], ms_combs: [0, 0, 1, -1], ctildes: [0.1715145160279507, -0.081755258189906269, -0.34302903205590135, 0.16351051637981251]}
    - {mu0: 0, rank: 2, ndensity: 2, num_ms_combs: 3, mus: [0, 1], ns: [5, 1], ls: [2, 2], ms_combs: [0, 0, 1, -1, 2, -2], ctildes: [0.0071167866024177667, 0.023801802353242744, -0.014233573204835535, -0.047603604706485489, 0.014233573204835535, 0.047603604706485489]}
    - {mu0: 0, rank: 2, ndensity: 2, num_ms_combs: 1, mus: [0, 1], ns: [5, 2], ls: [0, 0], ms_combs: [0, 0], ctildes: [-0.4176900580821285, -0.08777028502403289]}
    - {mu0: 0, rank: 2, ndensity: 2, num_ms_combs: 2, mus: [0, 1], ns: [5, 2], ls: [1, 1], ms_combs: [0, 0, 1, -1], ctildes: [-0.079275278270276653, 0.013489758842947334, 0.15855055654055328, -0.026979517685894662]}
    - {mu0: 0, rank: 2, ndensity: 2, num_ms_combs: 1, mus: [0, 1], ns: [5, 3], ls: [0, 0], ms_combs: [0, 0], ctildes: [0.0036538543019242198, -0.042702942673943409]}
    - {mu0: 0, rank: 2, ndensity: 2, num_ms_combs: 2, mus: [0, 1], ns: [5, 3], ls: [1, 1], ms_combs: [0, 0, 1, -1], ctildes: [0.088601721778066841, -0.1430932880858973, -0.17720344355613366, 0.28618657617179455]}
    - {mu0: 0, rank: 2, ndensity: 2, num_ms_combs: 1, mus: [0, 1], ns: [5, 4], ls: [0, 0], ms_combs: [0, 0], ctildes: [0.052083616984657514, -0.1924873834260491]}
    - {mu0: 0, rank: 2, ndensity: 2, num_ms_combs: 1, mus: [0, 1], ns: [5, 5], ls: [0, 0], ms_combs: [0, 0], ctildes: [0.060702073992259666, 0.17256940970650841]}
    - {mu0: 0, rank: 2, ndensity: 2, num_ms_combs: 1, mus: [0, 1], ns: [6, 1], ls: [0, 0], ms_combs: [0, 0], ctildes: [0.080273679242553672, -0.15055383468370476]}
    - {mu0: 0, rank: 2, ndensity: 2, num_ms_combs: 2, mus: [0, 1], ns: [6, 1], ls: [1, 1], ms_combs: [0, 0, 1, -1], ctildes: [0.26401748214875548, -0.21679179410887042, -0.52803496429751084, 0.43358358821774079]}
    - {mu0: 0, rank: 2, ndensity: 2, num_ms_combs: 1, mus: [0, 1], ns: [6, 2], ls: [0, 0], ms_combs: [0, 0], ctildes: [-0.0382552835482955, 0.12199822994229835]}
    - {mu0: 0, rank: 2, ndensity: 2, num_ms_combs: 2, mus: [0, 1], ns: [6, 2], ls: [1, 1], ms_combs: [0, 0, 1, -1], ctildes: [-0.020487354076595798, -0.020568589672017464, 0.04097470815319159, 0.041137179344034921]}
    - {mu0: 0, rank: 2, ndensity: 2, num_ms_combs: 1, mus: [0, 1], ns: [6, 3], ls: [0, 0], ms_combs: [0, 0], ctildes: [-0.051750853161268075, 0.095357300832941708]}
    - {mu0: 0, rank: 2, ndensity: 2, num_ms_combs: 1, mus: [0, 1], ns: [6, 4], ls: [0, 0], ms_combs: [0, 0], ctildes: [-0.015928906528501124, 0.013895962011816259]}
    - {mu0: 0, rank: 2, ndensity: 2, num_ms_combs: 1, mus: [1, 1], ns: [1, 1], ls: [0, 0], ms_combs: [0, 0], ctildes: [-0.25705013590274101, 0.20358268552519912]}
    - {mu0: 0, rank: 2, ndensity: 2, num_ms_combs: 2, mus: [1, 1], ns: [1, 1], ls: [1, 1], ms_combs: [0, 0, 1, -1], ctildes: [-0.047666336591335109, 0.20356262309142481, 0.095332673182670191, -0.40712524618284957]}
    - {mu0: 0, rank: 2, ndensity: 2, num_ms_combs: 3, mus: [1, 1], ns: [1, 1], ls: [2, 2], ms_combs: [0, 0, 1, -1, 2, -2], ctildes: [0.10798309625379766, 0.13137325196249131, -0.21596619250759536, -0.26274650392498261, 0.21596619250759536, 0.26274650392498261]}
    - {mu0: 0, rank: 2, ndensity: 2, num_ms_combs: 4, mus: [1, 1], ns: [1, 1], ls: [3, 3], ms_combs: [0, 0, 1, -1, 2, -2, 3, -3], ctildes: [0.0041736305813157735, 0.00017437243370878449, -0.008347261162631547, -0.00034874486741756899, 0.008347261162631547, 0.00034874486741756893, -0.008347261162631547, -0.00034874486741756893]}
    - {mu0: 0, rank: 2, ndensity: 2, num_ms_combs: 1, mus: [1, 1], ns: [1, 2], ls: [0, 0], ms_combs: [0, 0], ctildes: [0.18507121967227408, -0.38587133769935189]}
    - {mu0: 0, rank: 2, ndensity: 2, num_ms_combs: 2, mus: [1, 1], ns: [1, 2], ls: [1, 1], ms_combs: [0, 0, 1, -1], ctildes: [-0.10444965611504121, -0.11636677171599244, 0.20889931223008237, 0.23273354343198485]}
    - {mu0: 0, rank: 2, ndensity: 2, num_ms_combs: 3, mus: [1, 1], ns: [1, 2], ls: [2, 2], ms_combs: [0, 0, 1, -1, 2, -2], ctildes: [0.090852753099138636, -0.054941378886396448, -0.1817055061982773, 0.10988275777279291, 0.1817055061982773, -0.10988275777279291]}
    - {mu0: 0, rank: 2, ndensity: 2, num_ms_combs: 4, mus: [1, 1], ns: [1, 2], ls: [3, 3], ms_combs: [0, 0, 1, -1, 2, -2, 3, -3], ctildes: [0.0083645135100703025, -0.010293723478104543, -0.016729027020140605, 0.020587446956209086, 0.016729027020140601, -0.020587446956209083, -0.016729027020140601, 0.020587446956209083]}
    - {mu0: 0, rank: 2, ndensity: 2, num_ms_combs: 1, mus: [1, 1], ns: [1, 3], ls: [0, 0], ms_combs: [0, 0], ctildes: [0.05965297083620099, 0.039207257546233845]}
    - {mu0: 0, rank: 2, ndensity: 2, num_ms_combs: 2, mus: [1, 1], ns: [1, 3], ls: [1, 1], ms_combs: [0, 0, 1, -1], ctildes: [-0.2873323830622817, 0.069533446933027918, 0.5746647661245633, -0.13906689386605584]}
    - {mu0: 0, rank: 2, ndensity: 2, num_ms_combs: 3, mus: [1, 1], ns: [1, 3], ls: [2, 2], ms_combs: [0, 0, 1, -1, 2, -2], ctildes: [-0.090366367907004946, 0.18214313926644662, 0.18073273581400989, -0.3642862785328933, -0.18073273581400989, 0.3642862785328933]}
    - {mu0: 0, rank: 2, ndensity: 2, num_ms_combs: 4, mus: [1, 1], ns: [1, 3], ls: [3, 3], ms_combs: [0, 0, 1, -1, 2, -2, 3, -3], ctildes: [-0.011092335955442064, 0.0094728475647276288, 0.022184671910884128, -0.018945695129455258, -0.022184671910884125, 0.018945695129455258, 0.022184671910884125, -0.018945695129455258]}
    - {mu0: 0, rank: 2, ndensity: 2, num_ms_combs: 1, mus: [1, 1], ns: [1, 4], ls: [0, 0], ms_combs: [0, 0], ctildes: [-0.073138184850807628, 0.39484099709369186]}
    - {mu0: 0, rank: 2, ndensity: 2, num_ms_combs: 2, mus: [1, 1], ns: [1, 4], ls: [1, 1], ms_combs: [0, 0, 1, -1], ctildes: [-0.027936457506964822, 0.19156072567983709, 0.055872915013929637, -0.38312145135967407]}
    - {mu0: 0, rank: 2, ndensity: 2, num_ms_combs: 3, mus: [1, 1], ns: [1, 4], ls: [2, 2], ms_combs: [0, 0, 1, -1, 2, -2], ctildes: [-0.04935940927303463, 0.049043521821375342, 0.098718818546069273, -0.098087043642750685, -0.098718818546069273, 0.098087043642750685]}
    - {mu0: 0, rank: 2, ndensity: 2, num_ms_combs: 1, mus: [1, 1], ns: [1, 5], ls: [0, 0], ms_combs: [0, 0], ctildes: [-0.22670023880810417, 0.36114291641366031]}
    - {mu0: 0, rank: 2, ndensity: 2, num_ms_combs: 2, mus: [1, 1], ns: [1, 5], ls: [1, 1], ms_combs: [0, 0, 1, -1], ctildes: [0.010399209159956849, -0.10850945587813672, -0.020798418319913695, 0.21701891175627341]}
    - {mu0: 0, rank: 2, ndensity: 2, num_ms_combs: 3, mus: [1, 1], ns: [1, 5], ls: [2, 2], ms_combs: [0, 0, 1, -1, 2, -2], ctildes: [-0.00070100650196258554, 0.011699633401543612, 0.0014020130039251713, -0.023399266803087227, -0.0014020130039251713, 0.023399266803087227]}
    - {mu0: 0, rank: 2, ndensity: 2, num_ms_combs: 1, mus: [1, 1], ns: [1, 6], ls: [0, 0], ms_combs: [0, 0], ctildes: [0.20824646898560162, -0.50153789068106025]}
    - {mu0: 0, rank: 2, ndensity: 2, num_ms_combs: 2, mus: [1, 1], ns: [1, 6], ls: [1, 1], ms_combs: [0, 0, 1, -1], ctildes: [0.18674109308037795, -0.029244774591540734, -0.37348218616075585, 0.058489549183081455]}
    - {mu0: 0, rank: 2, ndensity: 2, num_ms_combs: 1, mus: [1, 1], ns: [2, 2], ls: [0, 0], ms_combs: [0, 0], ctildes: [0.48192531369700325, -0.39442982427757595]}
    - {mu0: 0, rank: 2, ndensity: 2, num_ms_combs: 2, mus: [1, 1], ns: [2, 2], ls: [1, 1], ms_combs: [0, 0, 1, -1], ctildes: [0.095879175347845846, 0.37539778284192132, -0.19175835069569167, -0.75079556568384254]}
    - {mu0: 0, rank: 2, ndensity: 2, num_ms_combs: 3, mus: [1, 1], ns: [2, 2], ls: [2, 2], ms_combs: [0, 0, 1, -1, 2, -2], ctildes: [0.058185633639046982, -0.03546541404015878, -0.11637126727809398, 0.070930828080317573, 0.11637126727809398, -0.070930828080317573]}
    - {mu0: 0, rank: 2, ndensity: 2, num_ms_combs: 4, mus: [1, 1], ns: [2, 2], ls: [3, 3], ms_combs: [0, 0, 1, -1, 2, -2, 3, -3], ctildes: [-0.00028628288560948208, -0.00038176239951488462, 0.00057256577121896416, 0.00076352479902976923, -0.00057256577121896405, -0.00076352479902976912, 0.00057256577121896405, 0.00076352479902976912]}
    - {mu0: 0, rank: 2, ndensity: 2, num_ms_combs: 1, mus: [1, 1], ns: [2, 3], ls: [0, 0], ms_combs: [0, 0], ctildes: [0.64665703738614289, -0.29577382692690601]}
    - {mu0: 0, rank: 2, ndensity: 2, num_ms_combs: 2, mus: [1, 1], ns: [2, 3], ls: [1, 1], ms_combs: [0, 0, 1, -1], ctildes: [-0.074904084436210966, 0.1668386516861074, 0.1498081688724219, -0.33367730337221474]}
    - {mu0: 0, rank: 2, ndensity: 2, num_ms_combs: 3, mus: [1, 1], ns: [2, 3], ls: [2, 2], ms_combs: [0, 0, 1, -1, 2, -2], ctildes: [-0.10678523417874028, 0.15444618732498902, 0.21357046835748059, -0.30889237464997804, -0.21357046835748059, 0.30889237464997804]}
    - {mu0: 0, rank: 2, ndensity: 2, num_ms_combs: 1, mus: [1, 1], ns: [2, 4], ls: [0, 0], ms_combs: [0, 0], ctildes: [0.0522198864751676, -0.043686934356003654]}
    - {mu0: 0, rank: 2, ndensity: 2, num_ms_combs: 2, mus: [1, 1], ns: [2, 4], ls: [1, 1], ms_combs: [0, 0, 1, -1], ctildes: [0.053373607526568195, -0.23334324118384259, -0.10674721505313638, 0.46668648236768506]}
    - {mu0: 0, rank: 2, ndensity: 2, num_ms_combs: 3, mus: [1, 1], ns: [2, 4], ls: [2, 2], ms_combs: [0, 0, 1, -1, 2, -2], ctildes: [-0.018069017362196557, 0.034969051504691526, 0.036138034724393121, -0.069938103009383065, -0.036138034724393121, 0.069938103009383065]}
    - {mu0: 0, rank: 2, ndensity: 2, num_ms_combs: 1, mus: [1, 1], ns: [2, 5], ls: [0, 0], ms_combs: [0, 0], ctildes: [0.10865319222278334, -0.23598349497451118]}
    - {mu0: 0, rank: 2, ndensity: 2, num_ms_combs: 2, mus: [1, 1], ns: [2, 5], ls: [1, 1], ms_combs: [0, 0, 1, -1], ctildes: [-0.039144343943359576, 0.053136694301765139, 0.078288687886719124, -0.10627338860353025]}
    - {mu0: 0, rank: 2, ndensity: 2, num_ms_combs: 1, mus: [1, 1], ns: [2, 6], ls: [0, 0], ms_combs: [0, 0], ctildes: [-0.085376633454635073, 0.19402346709230378]}
    - {mu0: 0, rank: 2, ndensity: 2, num_ms_combs: 2, mus: [1, 1], ns: [2, 6], ls: [1, 1], ms_combs: [0, 0, 1, -1], ctildes: [0.23292624642414195, -0.23063312167764027, -0.46585249284828378, 0.46126624335528049]}
    - {mu0: 0, rank: 2, ndensity: 2, num_ms_combs: 1, mus: [1, 1], ns: [3, 3], ls: [0, 0], ms_combs: [0, 0], ctildes: [-0.080675512764145807, 0.0021894652614775638]}
    - {mu0: 0, rank: 2, ndensity: 2, num_ms_combs: 2, mus: [1, 1], ns: [3, 3], ls: [1, 1], ms_combs: [0, 0, 1, -1], ctildes: [0.041498680991748159, 0.058907490917570214, -0.082997361983496304, -0.1178149818351404]}
    - {mu0: 0, rank: 2, ndensity: 2, num_ms_combs: 3, mus: [1, 1], ns: [3, 3], ls: [2, 2], ms_combs: [0, 0, 1, -1, 2, -2], ctildes: [0.03763539714448072, -0.064570611921911394, -0.075270794288961454, 0.12914122384382279, 0.075270794288961454, -0.12914122384382279]}
    - {mu0: 0, rank: 2, ndensity: 2, num_ms_combs: 1, mus: [1, 1], ns: [3, 4], ls: [0, 0], ms_combs: [0, 0], ctildes: [0.069649683980242377, -0.21689431928304775]}
    - {mu0: 0, rank: 2, ndensity: 2, num_ms_combs: 2, mus: [1, 1], ns: [3, 4], ls: [1, 1], ms_combs: [0, 0, 1, -1], ctildes: [0.10679456892260918, -0.2188793693102434, -0.2135891378452183, 0.4377587386204867]}
    - {mu0: 0, rank: 2, ndensity: 2, num_ms_combs: 1, mus: [1, 1], ns: [3, 5], ls: [0, 0], ms_combs: [0, 0], ctildes: [0.097628550997283861, -0.20917592987942885]}
    - {mu0: 0, rank: 2, ndensity: 2, num_ms_combs: 2, mus: [1, 1], ns: [3, 5], ls: [1, 1], ms_combs: [0, 0, 1, -1], ctildes: [-0.039798671074688395, 0.10298901795293713, 0.079597342149376776, -0.20597803590587424]}
    - {mu0: 0, rank: 2, ndensity: 2, num_ms_combs: 1, mus: [1, 1], ns: [3, 6], ls: [0, 0], ms_combs: [0, 0], ctildes: [-0.082966566523326651, 0.32223087645096193]}
    - {mu0: 0, rank: 2, ndensity: 2, num_ms_combs: 1, mus: [1, 1], ns: [4, 4], ls: [0, 0], ms_combs: [0, 0], ctildes: [0.0058486547707862612, -0.055768418395824734]}
    - {mu0: 0, rank: 2, ndensity: 2, num_ms_combs: 2, mus: [1, 1], ns: [4, 4], ls: [1, 1], ms_combs: [0, 0, 1, -1], ctildes: [0.0084404752316984376, 0.01166932033394141, -0.016880950463396875, -0.023338640667882816]}
    - {mu0: 0, rank: 2, ndensity: 2, num_ms_combs: 1, mus: [1, 1], ns: [4, 5], ls: [0, 0], ms_combs: [0, 0], ctildes: [-0.00091495673581400215, 0.062438376685575232]}
    - {mu0: 0, rank: 3, ndensity: 2, num_ms_combs: 1, mus: [0, 0, 0], ns: [1, 1, 1], ls: [0, 0, 0], ms_combs: [0, 0, 0], ctildes: [0.05868510388071748, -0.24163884406080396]}
    - {mu0: 0, rank: 3, ndensity: 2, num_ms_combs: 2, mus: [0, 0, 0], ns: [1, 1, 1], ls: [0, 1, 1], ms_combs: [0, 0, 0, 0, 1, -1], ctildes: [-0.40749788906474727, -0.50399224399453413, 0.81499577812949431, 1.007984487989068]}
    - {mu0: 0, rank: 3, ndensity: 2, num_ms_combs: 3, mus: [0, 0, 0], ns: [1, 1, 1], ls: [0, 2, 2], ms_combs: [0, 0, 0, 0, 1, -1, 0, 2, -2], ctildes: [-0.34395053931465436, -0.36833903749472752, 0.68790107862930872, 0.73667807498945514, -0.68790107862930872, -0.73667807498945514]}
    - {mu0: 0, rank: 3, ndensity: 2, num_ms_combs: 4, mus: [0, 0, 0], ns: [1, 1, 1], ls: [0, 3, 3], ms_combs: [0, 0, 0, 0, 1, -1, 0, 2, -2, 0, 3, -3], ctildes: [0.015524585849667448, -0.040546497124641881, -0.031049171699334896, 0.081092994249283762, 0.031049171699334889, -0.081092994249283748, -0.031049171699334889, 0.081092994249283748]}
    - {mu0: 0, rank: 3, ndensity: 2, num_ms_combs: 4, mus: [0, 0, 0], ns: [1, 1, 1], ls: [1, 1, 2], ms_combs: [-1, 1, 0, 0, 0, 0, 0, 1, -1, 1, 1, -2], ctildes: [-0.23637615783451552, 0.23501253789681392, -0.23637615783451546, 0.23501253789681389, 0.81883103013460201, -0.81410731210597598, -0.5790009740541433, 0.57566080100368866]}
    - {mu0: 0, rank: 3, ndensity: 2, num_ms_combs: 8, mus: [0, 0, 0], ns: [1, 1, 1], ls: [1, 2, 3], ms_combs: [0, 0, 0, 0, 1, -1, 0, 2, -2, 1, -2, 1, 1, -1, 0, 1, 0, -1, 1, 1, -2, 1, 2, -3], ctildes: [-0.16492790440030725, -0.13077363787247853, 0.31099103895558367, 0.24658913637350258, -0.24586000375044903, -0.19494582929853524, 0.10995193626687147, 0.087182425248318998, -0.19044234000479646, -0.15100439005716421, 0.26932614008485145, 0.21355245639671858, -0.34769855174898501, -0.27569503572205878, 0.42584201804485244, 0.33765608106871248]}
    - {mu0: 0, rank: 3, ndensity: 2, num_ms_combs: 5, mus: [0, 0, 0], ns: [1, 1, 1], ls: [2, 2, 2], ms_combs: [-2, 0, 2, -2, 1, 1, -1, -1, 2, -1, 0, 1, 0, 0, 0], ctildes: [-0.39813396418937347, 0.3080208335820544, 0.32507502051182513, -0.25149795747425552, 0.16253751025591257, -0.12574897873712776, -0.19906698209468671, 0.15401041679102717, 0.066355660698228888, -0.051336805597009059]}
    - {mu0: 0, rank: 3, ndensity: 2, num_ms_combs: 9, mus: [0, 0, 0], ns: [1, 1, 1], ls: [2, 3, 3], ms_combs: [0, -3, 3, 0, -1, 1, 0, 0, 0, 1, -3, 2, 1, -2, 1, 1, -1, 0, 2, -3, 1, 2, -2, 0, 2, -1, -1], ctildes: [-0.011298225293416793, 0.06213431320090957, 0.0067789351760500745, -0.037280587920545741, -0.0045192901173667175, 0.024853725280363829, 0.022596450586833586, -0.12426862640181914, -0.017503135361241061, 0.09625806410206339, 0.0063912413762787076, -0.035148475366985579, -0.014291250177968499, 0.078594380226056609, 0.020210879824949967, -0.1111492384419971, -0.011069954787151158, 0.060878945144202168]}
    - {mu0: 0, rank: 3, ndensity: 2, num_ms_combs: 1, mus: [0, 0, 0], ns: [1, 1, 2], ls: [0, 0, 0], ms_combs: [0, 0, 0], ctildes: [-0.46815104225121701, -0.33749410263994861]}
    - {mu0: 0, rank: 3, ndensity: 2, num_ms_combs: 2, mus: [0, 0, 0], ns: [1, 1, 2], ls: [0, 1, 1], ms_combs: [0, 0, 0, 0, 1, -1], ctildes: [-0.1462506099376307, 0.33483499426435337, 0.29250121987526134, -0.66966998852870652]}
    - {mu0: 0, rank: 3, ndensity: 2, num_ms_combs: 3, mus: [0, 0, 0], ns: [1, 1, 2], ls: [0, 2, 2], ms_combs: [0, 0, 0, 0, 1, -1, 0, 2, -2], ctildes: [-0.10575076901341557, 0.068620134881108297, 0.21150153802683114, -0.13724026976221662, -0.21150153802683114, 0.13724026976221662]}
    - {mu0: 0, rank: 3, ndensity: 2, num_ms_combs: 4, mus: [0, 0, 0], ns: [1, 1, 2], ls: [0, 3, 3], ms_combs: [0, 0, 0, 0, 1, -1, 0, 2, -2, 0, 3, -3], ctildes: [-0.036033782065596348, 0.064572300981612582, 0.072067564131192696, -0.12914460196322516, -0.072067564131192696, 0.12914460196322514, 0.072067564131192696, -0.12914460196322514]}
    - {mu0: 0, rank: 3, ndensity: 2, num_ms_combs: 2, mus: [0, 0, 0], ns: [1, 1, 2], ls: [1, 1, 0], ms_combs: [0, 0, 0, 1, -1, 0], ctildes: [-0.027519428111030413, -0.30782386103068832, 0.055038856222060811, 0.61564772206137652]}
    - {mu0: 0, rank: 3, ndensity: 2, num_ms_combs: 4, mus: [0, 0, 0], ns: [1, 1, 2], ls: [1, 1, 2], ms_combs: [-1, 1, 0, 0, 0, 0, 0, 1, -1, 1, 1, -2], ctildes: [-0.10201446068059557, 0.0048606751768311973, -0.10201446068059555, 0.0048606751768311965, 0.35338845801105812, -0.016837872730720942, -0.24988337505267669, 0.011906173988648829]}
    - {mu0: 0, rank: 3, ndensity: 2, num_ms_combs: 5, mus: [0, 0, 0], ns: [1, 1, 2], ls: [1, 2, 1], ms_combs: [0, 0, 0, 0, 1, -1, 1, -2, 1, 1, -1, 0, 1, 0, -1], ctildes: [0.30287805663645118, -0.0053175005798781769, -0.52460018259205743, 0.0092101811736259708, 0.74189669304508954, -0.013025163127655195, -0.52460018259205743, 0.0092101811736259708, 0.30287805663645112, -0.005317500579878176]}
    - {mu0: 0, rank: 3, ndensity: 2, num_ms_combs: 8, mus: [0, 0, 0], ns: [1, 1, 2], ls: [1, 2, 3], ms_combs: [0, 0, 0, 0, 1, -1, 0, 2, -2, 1, -2, 1, 1, -1, 0, 1, 0, -1, 1, 1, -2, 1, 2, -3], ctildes: [0.036375902107767748, 0.01777131399857193, -0.068591058805814939, -0.033509911037295011, 0.054225993237231027, 0.026491910766866945, -0.024250601405178495, -0.011847542665714618, 0.042003273747870364, 0.020520545841857734, -0.05940159939830806, -0.029020434236854031, 0.07668713506924385, 0.037465219499681054, -0.093922175377770478, -0.045885335437794529]}
    - {mu0: 0, rank: 3, ndensity: 2, num_ms_combs: 8, mus: [0, 0, 0], ns: [1, 1, 2], ls: [1, 3, 2], ms_combs: [0, 0, 0, 0, 1, -1, 0, 2, -2, 1, -3, 2, 1, -2, 1, 1, -1, 0, 1, 0, -1, 1, 1, -2], ctildes: [-0.13789166384822812, -0.035809529198169862, 0.2600110148698081, 0.067523095805662903, -0.20555675593012562, -0.053381694352914261, 0.3560347451100126, 0.092459806813360093, -0.29070115207379976, -0.0754931161363466, 0.22517614414102724, 0.058476716309874555, -0.15922357848355984, -0.041349282644234285, 0.091927775898818759, 0.023873019465446583]}
    - {mu0: 0, rank: 3, ndensity: 2, num_ms_combs: 3, mus: [0, 0, 0], ns: [1, 1, 2], ls: [2, 2, 0], ms_combs: [0, 0, 0, 1, -1, 0, 2, -2, 0], ctildes: [0.41139523032415515, 0.17088737944526367, -0.82279046064831041, -0.34177475889052733, 0.82279046064831041, 0.34177475889052733]}
    - {mu0: 0, rank: 3, ndensity: 2, num_ms_combs: 8, mus: [0, 0, 0], ns: [1, 1, 2], ls: [2, 2, 2], ms_combs: [-2, 1, 1, -2, 2, 0, -1, 1, 0, -1, 2, -1, 0, 0, 0, 0, 1, -1, 0, 2, -2, 1, 1, -2], ctildes: [-0.12791386969988164, 0.29585045320788178, 0.10444123726318796, -0.24156088351015356, 0.052220618631593989, -0.1207804417550768, -0.12791386969988164, 0.29585045320788178, -0.052220618631593989, 0.1207804417550768, 0.10444123726318798, -0.24156088351015359, 0.20888247452637604, -0.48312176702030735, -0.12791386969988161, 0.29585045320788173]}
    - {mu0: 0, rank: 3, ndensity: 2, num_ms_combs: 8, mus: [0, 0, 0], ns: [1, 1, 2], ls: [2, 3, 1], ms_combs: [0, 0, 0, 0, 1, -1, 1, -2, 1, 1, -1, 0, 1, 0, -1, 2, -3, 1, 2, -2, 0, 2, -1, -1], ctildes: [-0.14576657811176996, -0.10291139750073723, 0.23803582528358888, 0.16805360839569208, -0.30730292904135942, -0.21695627552885952, 0.27486009560850966, 0.19405159209108164, -0.16831674622336193, -0.11883184609946239, 0.37636768630701833, 0.26571608577019118, -0.2172959850036337, -0.1534112536474336, 0.097177718741179947, 0.068607598333824793]}
    - {mu0: 0, rank: 3, ndensity: 2, num_ms_combs: 14, mus: [0, 0, 0], ns: [1, 1, 2], ls: [2, 3, 3], ms_combs: [0, 0, 0, 0, 1, -1, 0, 3, -3, 1, -3, 2, 1, -2, 1, 1, -1, 0, 1, 0, -1, 1, 1, -2, 1, 2, -3, 2, -3, 1, 2, -2, 0, 2, -1, -1, 2, 0, -2, 2, 1, -3], ctildes: [0.0583218294569346, -0.041550699284113278, -0.087482744185401876, 0.062326048926169907, 0.14580457364233648, -0.1038767482102832, -0.14580457364233648, 0.1038767482102832, 0.11293973710352842, -0.080462583175321581, -0.041239761100203776, 0.029380781226839511, -0.041239761100203803, 0.029380781226839535, 0.11293973710352843, -0.080462583175321595, -0.14580457364233648, 0.1038767482102832, 0.092214909195907191, -0.06569742405526284, -0.1304115752378554, 0.092910188111929151, 0.1428587230351111, -0.10177801170190383, -0.1304115752378554, 0.092910188111929137, 0.092214909195907177, -0.065697424055262826]}
    - {mu0: 0, rank: 3, ndensity: 2, num_ms_combs: 4, mus: [0, 0, 0], ns: [1, 1, 2], ls: [3, 3, 0], ms_combs: [0, 0, 0, 1, -1, 0, 2, -2, 0, 3, -3, 0], ctildes: [-0.020873858451263296, 0.054887325375226191, 0.041747716902526592, -0.10977465075045238, -0.041747716902526585, 0.10977465075045237, 0.041747716902526585, -0.10977465075045237]}
    - {mu0: 0, rank: 3, ndensity: 2, num_ms_combs: 12, mus: [0, 0, 0], ns: [1, 1, 2], ls: [3, 3, 2], ms_combs: [-3, 1, 2, -3, 2, 1, -3, 3, 0, -2, 1, 1, -2, 3, -1, -1, 1, 0, -1, 2, -1, -1, 3, -2, 0, 0, 0, 0, 1, -1, 0, 2, -2, 1, 1, -2], ctildes: [-0.033157035219177011, 0.045314371043445281, 0.052425875875509807, -0.07164831161763395, -0.0524258758755098, 0.071648311617633936, -0.040608908835237337, 0.055498543535795135, 0.052425875875509807, -0.07164831161763395, 0.031455525525305873, -0.042988986970580352, -0.040608908835237337, 0.055498543535795135, -0.033157035219177011, 0.045314371043445281, -0.020970350350203924, 0.028659324647053577, 0.029656553872973782, -0.040530405604316706, 0.093782257790085005, -0.12816839620009399, -0.051366658085394132, 0.070200721758050866]}
    - {mu0: 0, rank: 3, ndensity: 2, num_ms_combs: 1, mus: [0, 0, 0], ns: [1, 1, 3], ls: [0, 0, 0], ms_combs: [0, 0, 0], ctildes: [0.82199918984193543, 0.53665658255032922]}
    - {mu0: 0, rank: 3, ndensity: 2, num_ms_combs: 2, mus: [0, 0, 0], ns: [1, 1, 3], ls: [0, 1, 1], ms_combs: [0, 0, 0, 0, 1, -1], ctildes: [0.014313666157099831, -0.046224802836352413, -0.028627332314199654, 0.092449605672704813]}
    - {mu0: 0, rank: 3, ndensity: 2, num_ms_combs: 3, mus: [0, 0, 0], ns: [1, 1, 3], ls: [0, 2, 2], ms_combs: [0, 0, 0, 0, 1, -1, 0, 2, -2], ctildes: [0.11471610769881363, -0.26245576998339487, -0.22943221539762729, 0.52491153996678974, 0.22943221539762729, -0.52491153996678974]}
    - {mu0: 0, rank: 3, ndensity: 2, num_ms_combs: 4, mus: [0, 0, 0], ns: [1, 1, 3], ls: [0, 3, 3], ms_combs: [0, 0, 0, 0, 1, -1, 0, 2, -2, 0, 3, -3], ctildes: [-0.034904041388778229, 0.021342810899230291, 0.069808082777556457, -0.042685621798460582, -0.069808082777556443, 0.042685621798460575, 0.069808082777556443, -0.042685621798460575]}
    - {mu0: 0, rank: 3, ndensity: 2, num_ms_combs: 2, mus: [0, 0, 0], ns: [1, 1, 3], ls: [1, 1, 0], ms_combs: [0, 0, 0, 1, -1, 0], ctildes: [-0.20932222064974593, -0.13613910081550235, 0.4186444412994918, 0.27227820163100463]}
    - {mu0: 0, rank: 3, ndensity: 2, num_ms_combs: 4, mus: [0, 0, 0], ns: [1, 1, 3], ls: [1, 1, 2], ms_combs: [-1, 1, 0, 0, 0, 0, 0, 1, -1, 1, 1, -2], ctildes: [-0.28118675012694139, -0.0071053311262890143, -0.28118675012694133, -0.0071053311262890134, 0.97405947527007397, 0.024613589030666339, -0.68876406024247949, -0.017404435712922987]}
    - {mu0: 0, rank: 3, ndensity: 2, num_ms_combs: 5, mus: [0, 0, 0], ns: [1, 1, 3], ls: [1, 2, 1], ms_combs: [0, 0, 0, 0, 1, -1, 1, -2, 1, 1, -1, 0, 1, 0, -1], ctildes: [0.017565205691867199, 0.2733150916315229, -0.030423828703712026, -0.47339562518114098, 0.0430257911721054, 0.66948251349925969, -0.030423828703712026, -0.47339562518114098, 0.017565205691867196, 0.27331509163152284]}
    - {mu0: 0, rank: 3, ndensity: 2, num_ms_combs: 8, mus: [0, 0, 0], ns: [1, 1, 3], ls: [1, 2, 3], ms_combs: [0, 0, 0, 0, 1, -1, 0, 2, -2, 1, -2, 1, 1, -1, 0, 1, 0, -1, 1, 1, -2, 1, 2, -3], ctildes: [0.094777584359636777, -0.060929599044149955, -0.17871432694714459, 0.11488995375758884, 0.14128608091424574, -0.090828483536350299, -0.063185056239757842, 0.040619732696099961, 0.1094397276863575, -0.070355440819511866, -0.15477114715646509, 0.099497618593691356, 0.19980869180346883, -0.12845087326688798, -0.2447146705457611, 0.15731954825939201]}
    - {mu0: 0, rank: 3, ndensity: 2, num_ms_combs: 8, mus: [0, 0, 0], ns: [1, 1, 3], ls: [1, 3, 2], ms_combs: [0, 0, 0, 0, 1, -1, 0, 2, -2, 1, -3, 2, 1, -2, 1, 1, -1, 0, 1, 0, -1, 1, 1, -2], ctildes: [-0.0021015389984912411, -0.17250346652754148, 0.0039626999380297139, 0.32527565589282997, -0.0031327893719954964, -0.25715298500662831, 0.0054261503617079945, 0.44540203534947792, -0.0044304332179343217, -0.36366923900109893, 0.0034317988139087527, 0.2816969812358362, -0.0024266482129828297, -0.19918984567163942, 0.001401025998994161, 0.11500231101836102]}
    - {mu0: 0, rank: 3, ndensity: 2, num_ms_combs: 3, mus: [0, 0, 0], ns: [1, 1, 3], ls: [2, 2, 0], ms_combs: [0, 0, 0, 1, -1, 0, 2, -2, 0], ctildes: [-0.001793957041038586, 0.32898698452159331, 0.0035879140820771725, -0.65797396904318672, -0.0035879140820771725, 0.65797396904318672]}
    - {mu0: 0, rank: 3, ndensity: 2, num_ms_combs: 8, mus: [0, 0, 0], ns: [1, 1, 3], ls: [2, 2, 2], ms_combs: [-2, 1, 1, -2, 2, 0, -1, 1, 0, -1, 2, -1, 0, 0, 0, 0, 1, -1, 0, 2, -2, 1, 1, -2], ctildes: [0.14543574009196444, -0.10113640606877559, -0.11874778452978234, 0.082577529762473373, -0.059373892264891176, 0.041288764881236686, 0.14543574009196444, -0.10113640606877559, 0.059373892264891176, -0.041288764881236686, -0.11874778452978235, 0.082577529762473373, -0.23749556905956479, 0.1651550595249468, 0.14543574009196442, -0.10113640606877558]}
    - {mu0: 0, rank: 3, ndensity: 2, num_ms_combs: 8, mus: [0, 0, 0], ns: [1, 1, 3], ls: [2, 3, 1], ms_combs: [0, 0, 0, 0, 1, -1, 1, -2, 1, 1, -1, 0, 1, 0, -1, 2, -3, 1, 2, -2, 0, 2, -1, -1], ctildes: [-0.025135546262401321, 0.0070185566792672497, 0.041046175166002702, -0.011461255063338324, -0.052990384281146989, 0.014796416662314923, 0.047396040562592404, -0.01323431739213869, -0.029024028801651374, 0.008104331176195181, 0.064899701381404246, -0.018121835422143254, -0.03746986006288007, 0.010462646559184505, 0.016757030841600875, -0.0046790377861781647]}
    - {mu0: 0, rank: 3, ndensity: 2, num_ms_combs: 4, mus: [0, 0, 0], ns: [1, 1, 3], ls: [3, 3, 0], ms_combs: [0, 0, 0, 1, -1, 0, 2, -2, 0, 3, -3, 0], ctildes: [-0.010595285355499006, 0.042050884119315339, 0.021190570710998013, -0.084101768238630678, -0.021190570710998009, 0.084101768238630664, 0.021190570710998009, -0.084101768238630664]}
    - {mu0: 0, rank: 3, ndensity: 2, num_ms_combs: 1, mus: [0, 0, 0], ns: [1, 1, 4], ls: [0, 0, 0], ms_combs: [0, 0, 0], ctildes: [0.47427413984408956, 0.023196264341064851]}
    - {mu0: 0, rank: 3, ndensity: 2, num_ms_combs: 2, mus: [0, 0, 0], ns: [1, 1, 4], ls: [0, 1, 1], ms_combs: [0, 0, 0, 0, 1, -1], ctildes: [-0.13323444071308818, -0.17294392434565561, 0.26646888142617631, 0.34588784869131117]}
    - {mu0: 0, rank: 3, ndensity: 2, num_ms_combs: 3, mus: [0, 0, 0], ns: [1, 1, 4], ls: [0, 2, 2], ms_combs: [0, 0, 0, 0, 1, -1, 0, 2, -2], ctildes: [-0.1628903399622289, 0.26287854893646112, 0.32578067992445781, -0.52575709787292235, -0.32578067992445781, 0.52575709787292235]}
    - {mu0: 0, rank: 3, ndensity: 2, num_ms_combs: 4, mus: [0, 0, 0], ns: [1, 1, 4], ls: [0, 3, 3], ms_combs: [0, 0, 0, 0, 1, -1, 0, 2, -2, 0, 3, -3], ctildes: [0.012626904229938183, 0.002381772084432817, -0.025253808459876365, -0.0047635441688656339, 0.025253808459876358, 0.004763544168865633, -0.025253808459876358, -0.004763544168865633]}
    - {mu0: 0, rank: 3, ndensity: 2, num_ms_combs: 2, mus: [0, 0, 0], ns: [1, 1, 4], ls: [1, 1, 0], ms_combs: [0, 0, 0, 1, -1, 0], ctildes: [-0.057421537269030903, -0.030710125946757136, 0.11484307453806178, 0.061420251893514258]}
    - {mu0: 0, rank: 3, ndensity: 2, num_ms_combs: 4, mus: [0, 0, 0], ns: [1, 1, 4], ls: [1, 1, 2], ms_combs: [-1, 1, 0, 0, 0, 0, 0, 1, -1, 1, 1, -2], ctildes: [-0.056276137118711891, -0.018214118560572597, -0.056276137118711884, -0.018214118560572593, 0.19494625748664363, 0.063095557523990084, -0.13784782063574447, -0.044615296587959277]}
    - {mu0: 0, rank: 3, ndensity: 2, num_ms_combs: 5, mus: [0, 0, 0], ns: [1, 1, 4], ls: [1, 2, 1], ms_combs: [0, 0, 0, 0, 1, -1, 1, -2, 1, 1, -1, 0, 1, 0, -1], ctildes: [-0.11638583743998113, 0.1097814534553067, 0.2015861837274994, -0.19014705511334909, -0.28508591501446412, 0.26890854418660265, 0.2015861837274994, -0.19014705511334909, -0.11638583743998111, 0.10978145345530668]}
    - {mu0: 0, rank: 3, ndensity: 2, num_ms_combs: 8, mus: [0, 0, 0], ns: [1, 1, 4], ls: [1, 2, 3], ms_combs: [0, 0, 0, 0, 1, -1, 0, 2, -2, 1, -2, 1, 1, -1, 0, 1, 0, -1, 1, 1, -2, 1, 2, -3], ctildes: [0.0046317024070228223, -0.023253822559757432, -0.0087336218145170463, 0.043847828321368534, 0.006904534289101618, -0.034664751986890507, -0.0030878016046818812, 0.015502548373171618, 0.0053482292630017275, -0.026851201429127489, -0.0075635383584177068, 0.037973333227083926, 0.0097644860335175838, -0.049023362396160251, -0.011959004191325461, 0.060041111673068553]}
    - {mu0: 0, rank: 3, ndensity: 2, num_ms_combs: 8, mus: [0, 0, 0], ns: [1, 1, 4], ls: [1, 3, 2], ms_combs: [0, 0, 0, 0, 1, -1, 0, 2, -2, 1, -3, 2, 1, -2, 1, 1, -1, 0, 1, 0, -1, 1, 1, -2], ctildes: [-0.011924400504968161, -0.0049447711370330895, 0.022484865223059418, 0.0093239498730976374, -0.017775846746694426, -0.0073712295970566133, 0.030788669712832673, 0.012767344176357515, -0.025138843551840914, -0.010424492867523427, 0.019472464483838714, 0.0080747774537152459, -0.01376911168293656, -0.0057097298940942945, 0.0079496003366454418, 0.0032965140913553937]}
    - {mu0: 0, rank: 3, ndensity: 2, num_ms_combs: 3, mus: [0, 0, 0], ns: [1, 1, 4], ls: [2, 2, 0], ms_combs: [0, 0, 0, 1, -1, 0, 2, -2, 0], ctildes: [-0.057547140369181841, 0.0073639426320801435, 0.1150942807383637, -0.01472788526416029, -0.1150942807383637, 0.01472788526416029]}
    - {mu0: 0, rank: 3, ndensity: 2, num_ms_combs: 8, mus: [0, 0, 0], ns: [1, 1, 4], ls: [2, 2, 2], ms_combs: [-2, 1, 1, -2, 2, 0, -1, 1, 0, -1, 2, -1, 0, 0, 0, 0, 1, -1, 0, 2, -2, 1, 1, -2], ctildes: [-0.097195982333862771, 0.09076487479237462, 0.079360187255510584, -0.074109209936306999, 0.039680093627755299, -0.0370546049681535, -0.097195982333862771, 0.09076487479237462, -0.039680093627755299, 0.0370546049681535, 0.079360187255510597, -0.074109209936306999, 0.15872037451102125, -0.14821841987261405, -0.097195982333862757, 0.090764874792374592]}
    - {mu0: 0, rank: 3, ndensity: 2, num_ms_combs: 8, mus: [0, 0, 0], ns: [1, 1, 4], ls: [2, 3, 1], ms_combs: [0, 0, 0, 0, 1, -1, 1, -2, 1, 1, -1, 0, 1, 0, -1, 2, -3, 1, 2, -2, 0, 2, -1, -1], ctildes: [-0.010220664694122854, 0.031916830551815441, 0.016690275555120059, -0.052119966039213768, -0.021547053089530917, 0.067286586824923708, 0.019272270169195201, -0.060182952845788465, -0.011801807024897462, 0.03685438142154062, 0.026389642765005283, -0.082408902127270173, -0.015236067354193862, 0.047578801826800958, 0.0068137764627485666, -0.02127788703454362]}
    - {mu0: 0, rank: 3, ndensity: 2, num_ms_combs: 4, mus: [0, 0, 0], ns: [1, 1, 4], ls: [3, 3, 0], ms_combs: [0, 0, 0, 1, -1, 0, 2, -2, 0, 3, -3, 0], ctildes: [-0.0033467130412487183, -0.0079975563215237098, 0.0066934260824974365, 0.01599511264304742, -0.0066934260824974357, -0.01599511264304742, 0.0066934260824974357, 0.01599511264304742]}
    - {mu0: 0, rank: 3, ndensity: 2, num_ms_combs: 1, mus: [0, 0, 0], ns: [1, 2, 2], ls: [0, 0, 0], ms_combs: [0, 0, 0], ctildes: [0.44580736919569736, 0.22655319759917136]}
    - {mu0: 0, rank: 3, ndensity: 2, num_ms_combs: 2, mus: [0, 0, 0], ns: [1, 2, 2], ls: [0, 1, 1], ms_combs: [0, 0, 0, 0, 1, -1], ctildes: [0.17404481687572901, 0.066632213757477257, -0.34808963375145796, -0.13326442751495449]}
    - {mu0: 0, rank: 3, ndensity: 2, num_ms_combs: 3, mus: [0, 0, 0], ns: [1, 2, 2], ls: [0, 2, 2], ms_combs: [0, 0, 0, 0, 1, -1, 0, 2, -2], ctildes: [0.25572505347522573, 0.056549954636899512, -0.51145010695045157, -0.11309990927379904, 0.51145010695045157, 0.11309990927379904]}
    - {mu0: 0, rank: 3, ndensity: 2, num_ms_combs: 4, mus: [0, 0, 0], ns: [1, 2, 2], ls: [0, 3, 3], ms_combs: [0, 0, 0, 0, 1, -1, 0, 2, -2, 0, 3, -3], ctildes: [0.0053326457765236444, 0.0052974225246611743, -0.010665291553047289, -0.010594845049322349, 0.010665291553047287, 0.010594845049322347, -0.010665291553047287, -0.010594845049322347]}
    - {mu0: 0, rank: 3, ndensity: 2, num_ms_combs: 2, mus: [0, 0, 0], ns: [1, 2, 2], ls: [1, 0, 1], ms_combs: [0, 0, 0, 1, 0, -1], ctildes: [0.061467625526727361, 0.39290725169570645, -0.12293525105345469, -0.78581450339141279]}
    - {mu0: 0, rank: 3, ndensity: 2, num_ms_combs: 5, mus: [0, 0, 0], ns: [1, 2, 2], ls: [1, 1, 2], ms_combs: [0, 0, 0, 0, 1, -1, 1, -1, 0, 1, 0, -1, 1, 1, -2], ctildes: [0.06091717081945746, -0.21502609848833937, -0.10551163491265257, 0.37243612753511324, 0.060917170819457467, -0.2150260984883394, -0.10551163491265257, 0.37243612753511324, 0.14921598508163181, -0.52670422267787276]}
    - {mu0: 0, rank: 3, ndensity: 2, num_ms_combs: 8, mus: [0, 0, 0], ns: [1, 2, 2], ls: [1, 2, 3], ms_combs: [0, 0, 0, 0, 1, -1, 0, 2, -2, 1, -2, 1, 1, -1, 0, 1, 0, -1, 1, 1, -2, 1, 2, -3], ctildes: [0.072555884154608313, -0.022394649708474709, -0.13681268720189096, 0.042227756456426145, 0.10815992609153599, -0.033383972720296855, -0.048370589436405535, 0.014929766472316471, 0.083780318495908807, -0.025859114075190492, -0.11848326267685172, 0.036570309836087389, 0.15296123438392178, -0.047212066986937237, -0.187338487333435, 0.057822736910047537]}
    - {mu0: 0, rank: 3, ndensity: 2, num_ms_combs: 3, mus: [0, 0, 0], ns: [1, 2, 2], ls: [2, 0, 2], ms_combs: [0, 0, 0, 1, 0, -1, 2, 0, -2], ctildes: [0.36966974358804539, 0.079591212781659551, -0.73933948717609077, -0.15918242556331913, 0.73933948717609077, 0.15918242556331913]}
    - {mu0: 0, rank: 3, ndensity: 2, num_ms_combs: 4, mus: [0, 0, 0], ns: [1, 2, 2], ls: [2, 1, 1], ms_combs: [0, -1, 1, 0, 0, 0, 1, -1, 0, 2, -1, -1], ctildes: [-0.096623287481970341, 0.31655368089081548, -0.096623287481970355, 0.31655368089081554, 0.33471288622621309, -1.0965741172516754, -0.23667775160107662, 0.77539499438231196]}
    - {mu0: 0, rank: 3, ndensity: 2, num_ms_combs: 8, mus: [0, 0, 0], ns: [1, 2, 2], ls: [2, 1, 3], ms_combs: [0, 0, 0, 0, 1, -1, 1, -1, 0, 1, 0, -1, 1, 1, -2, 2, -1, -1, 2, 0, -2, 2, 1, -3], ctildes: [0.036641483340167334, -0.040003428305014445, -0.059835291734733724, 0.065325324872863424, 0.04230994053990559, -0.046191980200815962, -0.069091843580176615, 0.075431187800494903, 0.077247029468028638, -0.084334631772729693, -0.024427655560111554, 0.02666895220334296, 0.054621898363360122, -0.059633590015367638, -0.094607903171203031, 0.10328840774434886]}
    - {mu0: 0, rank: 3, ndensity: 2, num_ms_combs: 7, mus: [0, 0, 0], ns: [1, 2, 2], ls: [2, 2, 2], ms_combs: [0, -2, 2, 0, -1, 1, 0, 0, 0, 1, -2, 1, 1, -1, 0, 2, -2, 0, 2, -1, -1], ctildes: [0.39256592159871129, -0.55034275404043553, 0.19628296079935559, -0.27517137702021766, -0.19628296079935559, 0.27517137702021766, -0.96158619832226855, 1.3480589310370921, 0.39256592159871118, -0.55034275404043531, 0.78513184319742235, -1.1006855080808708, -0.48079309916113427, 0.67402946551854603]}
    - {mu0: 0, rank: 3, ndensity: 2, num_ms_combs: 4, mus: [0, 0, 0], ns: [1, 2, 2], ls: [3, 0, 3], ms_combs: [0, 0, 0, 1, 0, -1, 2, 0, -2, 3, 0, -3], ctildes: [-0.0045594221176028082, -0.045530313664072057, 0.0091188442352056163, 0.091060627328144114, -0.0091188442352056146, -0.0910606273281441, 0.0091188442352056146, 0.0910606273281441]}
    - {mu0: 0, rank: 3, ndensity: 2, num_ms_combs: 8, mus: [0, 0, 0], ns: [1, 2, 2], ls: [3, 1, 2], ms_combs: [0, 0, 0, 0, 1, -1, 1, -1, 0, 1, 0, -1, 1, 1, -2, 2, -1, -1, 2, 0, -2, 3, -1, -2], ctildes: [-0.10691524911139244, 0.012470210543103467, -0.12345509570987669, 0.014399358827824197, 0.1745918706969761, -0.020363768543785733, 0.20160132709043899, -0.023514054500939852, 0.071276832740928303, -0.0083134736954023122, -0.22539713586419571, 0.026289512145368198, -0.15937984322959839, 0.018589492312075954, 0.27605398617602689, -0.032197945171426587]}
    - {mu0: 0, rank: 3, ndensity: 2, num_ms_combs: 1, mus: [0, 0, 0], ns: [1, 2, 3], ls: [0, 0, 0], ms_combs: [0, 0, 0], ctildes: [-0.38268656264084772, 0.39875179553624224]}
    - {mu0: 0, rank: 3, ndensity: 2, num_ms_combs: 2, mus: [0, 0, 0], ns: [1, 2, 3], ls: [0, 1, 1], ms_combs: [0, 0, 0, 0, 1, -1], ctildes: [0.022017274588680552, -0.010188908929676376, -0.044034549177361097, 0.020377817859352745]}
    - {mu0: 0, rank: 3, ndensity: 2, num_ms_combs: 3, mus: [0, 0, 0], ns: [1, 2, 3], ls: [0, 2, 2], ms_combs: [0, 0, 0, 0, 1, -1, 0, 2, -2], ctildes: [0.23331451212576629, 0.43509709457110024, -0.46662902425153263, -0.87019418914220048, 0.46662902425153263, 0.87019418914220048]}
    - {mu0: 0, rank: 3, ndensity: 2, num_ms_combs: 4, mus: [0, 0, 0], ns: [1, 2, 3], ls: [0, 3, 3], ms_combs: [0, 0, 0, 0, 1, -1, 0, 2, -2, 0, 3, -3], ctildes: [0.013921122237666251, -0.0035387288273650845, -0.027842244475332501, 0.0070774576547301691, 0.027842244475332498, -0.0070774576547301682, -0.027842244475332498, 0.0070774576547301682]}
    - {mu0: 0, rank: 3, ndensity: 2, num_ms_combs: 2, mus: [0, 0, 0], ns: [1, 2, 3], ls: [1, 0, 1], ms_combs: [0, 0, 0, 1, 0, -1], ctildes: [0.07284394197216866, 0.076410991862305336, -0.14568788394433729, -0.15282198372461064]}
    - {mu0: 0, rank: 3, ndensity: 2, num_ms_combs: 2, mus: [0, 0, 0], ns: [1, 2, 3], ls: [1, 1, 0], ms_combs: [0, 0, 0, 1, -1, 0], ctildes: [-0.28452837946427767, -0.053050128373201687, 0.56905675892855523, 0.10610025674640335]}
    - {mu0: 0, rank: 3, ndensity: 2, num_ms_combs: 5, mus: [0, 0, 0], ns: [1, 2, 3], ls: [1, 1, 2], ms_combs: [0, 0, 0, 0, 1, -1, 1, -1, 0, 1, 0, -1, 1, 1, -2], ctildes: [0.06904483939217966, -0.22097820620276662, -0.11958916982768825, 0.38274548050862395, 0.069044839392179674, -0.22097820620276667, -0.11958916982768825, 0.38274548050862395, 0.16912462588325602, -0.54128384947230301]}
    - {mu0: 0, rank: 3, ndensity: 2, num_ms_combs: 5, mus: [0, 0, 0], ns: [1, 2, 3], ls: [1, 2, 1], ms_combs: [0, 0, 0, 0, 1, -1, 1, -2, 1, 1, -1, 0, 1, 0, -1], ctildes: [-0.086125622824493722, -0.12117654672869475, 0.14917395456553689, 0.20988393561984356, -0.2109638296994101, -0.29682070827782425, 0.14917395456553689, 0.20988393561984356, -0.086125622824493708, -0.12117654672869474]}
    - {mu0: 0, rank: 3, ndensity: 2, num_ms_combs: 8, mus: [0, 0, 0], ns: [1, 2, 3], ls: [1, 2, 3], ms_combs: [0, 0, 0, 0, 1, -1, 0, 2, -2, 1, -2, 1, 1, -1, 0, 1, 0, -1, 1, 1, -2, 1, 2, -3], ctildes: [0.095264203927914362, -0.069335657050090399, -0.17963190560471035, 0.13074056874171672, 0.14201149053681261, -0.10335949495240974, -0.063509469285276232, 0.046223771366726923, 0.11000162756383351, -0.08006192052461851, -0.15556579358388745, 0.11322465383555237, 0.20083457592997883, -0.14617239956173131, -0.24597111686834627, 0.17902389670223259]}
    - {mu0: 0, rank: 3, ndensity: 2, num_ms_combs: 8, mus: [0, 0, 0], ns: [1, 2, 3], ls: [1, 3, 2], ms_combs: [0, 0, 0, 0, 1, -1, 0, 2, -2, 1, -3, 2, 1, -2, 1, 1, -1, 0, 1, 0, -1, 1, 1, -2], ctildes: [0.046804444367914984, -0.032296839753154054, -0.088255306672589892, 0.060899505067601341, 0.06977194617051008, -0.048145286097646685, -0.1208485557102842, 0.083390081666063556, 0.098672432547500882, -0.068087716563624764, -0.076431337597249127, 0.05274051846644192, 0.05404511711017318, -0.037293178250915417, -0.031202962911943331, 0.021531226502102711]}
    - {mu0: 0, rank: 3, ndensity: 2, num_ms_combs: 3, mus: [0, 0, 0], ns: [1, 2, 3], ls: [2, 0, 2], ms_combs: [0, 0, 0, 1, 0, -1, 2, 0, -2], ctildes: [0.10026530587318155, 0.20161455297960598, -0.20053061174636314, -0.40322910595921202, 0.20053061174636314, 0.40322910595921202]}
