# DATE: 2020-01-31 CONTRIBUTOR: Yunxing Zuo <y9zuo@eng.ucsd.edu> CITATION: Y. Zuo, C. Chen, X, Li, Z. Deng, Y. Chen, J. Behler, G. Csányi, A. V. Shapeev, A. P. Thompson, M. A. Wood, S. P. Ong, "Performance and Cost Assessment of Machine Learning Interatomic Potentials" J. Phys. Chem. A 124, 4, 731-745 (2020)
# Generated by Materials Virtual Lab

1 496
Cu 0.5 1
13.471977397937613
0.1036211859818506
0.10363841757551885
0.621033030987932
-0.21185789372622277
-0.2570659984917341
-0.5467785425939466
-0.5365464723688037
-0.2494295358403523
-0.4802162154483056
-1.1082500553759274
-0.4630919024325791
-0.6651549284588344
-0.0029251074026806173
-0.19260375829027657
-0.21857190710698032
-0.19829154688152476
-0.3157112168631522
-0.1631919758279015
-0.12110110303187388
0.16380996794933228
-0.061209983872419285
0.1201519782661597
0.26321586469489083
-0.05846647009686243
-0.04813333274153896
0.018675175078407078
-0.09164487341728099
0.28859657359189794
0.14185864296773137
0.0803200720841282
-0.00014401841073222177
0.0003285477814888027
-0.004138649344589254
0.003151849972706053
-0.0009779498543849435
-0.0015148327721482488
-0.0016594731517730818
0.00033748073832527703
-0.0018225406615418327
-0.004567786292018747
-0.0029136636313592534
-0.0020006698128240685
-0.0002524708620035565
-0.00013557486337845148
-0.0028422449888521606
-0.005677197343759918
-0.001015010035775506
-0.0009765207919150351
0.0006683886841801351
0.0002045741417952343
-0.0005332810347389444
0.00041885875493113955
-0.002375255278458936
0.001188156979012589
0.0017462110820191806
0.0007349993839032287
-0.0003346303002194212
-0.00035326714369901535
0.0010356316809578547
-1.55120504609918e-05
-0.0025881954476935755
-0.036366384607490254
0.0012886008122195685
-0.02145234316193358
0.002646075132213576
-0.012775985639350328
-0.0017761174795594727
-0.003689689399879216
0.0008999178669914843
-0.0035452341045603217
0.003765777083888081
-1.473939150533482e-05
-0.0006115952041365613
0.011333099429680688
0.0046027588513758745
-0.004636638051493164
0.00026952037324009387
-0.0013766586872288938
-0.001520876680556801
7.056404549078688e-05
-0.0019230157952529092
0.001314108363954286
-0.0020808404489751453
-0.0031977910665247893
-0.001542358169115726
0.0003811678238141089
-0.003238282187663669
-0.001743739878018213
0.00023977817699438395
0.10504167820006623
0.01565576249809622
-0.01128816712782536
0.03088216543968068
-0.0020781110683259544
0.01219442725760888
0.009111342026832718
0.020927139446711825
-0.035118796930951275
-0.01698520427856124
-0.002057982469727739
0.005717736909593713
0.03639307567651677
-0.012446451740382863
0.010166610097971499
-0.03429833533696867
-0.004192043565899942
-0.003325956992955699
-0.0022088137861783
0.02568557895373312
-0.01595970525044252
-0.00613974647313658
0.006179508508503243
0.002592776878543116
0.0007697618567966968
-0.017822670822463936
-0.013271672183902416
-0.0017838108815779966
-0.003946961047224043
0.01446212507390721
-0.003813482406923892
0.012230677632561752
-0.004438298291119518
0.01670632393618289
0.0041006085165118545
0.01071903549512731
0.007728535696666235
0.0030549772513752474
-0.0018748708146282822
0.0012442258952583573
0.0024835836566738795
0.0020378527552769206
0.006317036250023143
0.00038765717694164495
7.371556847105692e-05
-0.00022663838890443766
0.002242116106992608
0.0019276281623740246
0.00020070127075288817
-0.0017929278357251867
-0.0009693695988643031
-0.0005052334926042845
0.003236933680150114
0.0010070685663443454
0.0001653778736567732
0.03142555747655504
0.03515092008066848
0.0019570441540856234
0.005854647349221503
0.017645224138683982
0.027306542959461378
0.0010288151573773687
0.004099299746087042
0.0006165078943043759
0.005776765438825264
0.028396330961895276
-0.005521765957043647
0.012932388070792123
-0.014527541597969065
0.004214333515239452
-0.0054602280376573826
-0.00035211862823674583
-0.003917030117315662
-0.019089342317763998
-0.0007912182453706888
0.007529455451748433
0.0015964992834498048
0.0012740872215644683
-0.015357513398770183
-0.004620781959173616
-0.001061966694708219
0.008615389580837504
0.01797711820294831
0.0022647592953603923
0.017161753336943645
0.019561527742143207
0.009386331452771034
0.011059654339434911
0.0003040999809367194
0.005480211320984781
-0.001656616524513104
7.637608677613615e-05
0.01114937863061043
0.0034970895362819165
-0.000976564073550571
-0.005096013857662213
0.0013478827891899876
-0.010753955737982948
-0.001115257544720737
0.00020837414296478226
0.0016306341973385602
0.0009997102882259796
0.002544216312632845
-0.0028872457627613706
-0.0042926087293599985
-0.0012273588518469485
0.005105654844991719
0.00286690430360286
0.014707711785593904
0.027903911330169152
0.012097018417586564
0.011242631245172025
0.0033808585722144534
0.003832413851557283
0.017242287862610502
0.00035444830690358614
0.0006830108628291653
-0.007222494149578734
0.0013704542429452075
-0.0024641507407898626
0.001236848494439051
0.007041409688837192
-0.015102162825574063
-0.003323826075508055
0.0007504170812515729
-0.001887801079988682
0.002100459472063096
-0.015894788154420372
-0.0022826934325144693
-0.0021837479366668628
0.0010196042372125
0.0024957403425112865
0.0067453675822293085
0.0016160583715086885
0.0021545307260518454
-0.0008780244190034897
0.0005778773271021553
0.004792429249446527
0.010343992246806183
0.005132090167117669
0.00503829519623716
-0.0005077102699887273
0.00021673712078062318
0.00024996217355388595
0.0011968486200680806
0.006195765382004757
0.001401799813052912
-0.0007441075428899838
-0.0004879670876805492
0.0004958137002131213
0.0026020376596135875
-0.002302340492001176
-7.320298090576771e-05
0.01902259325712566
0.016592016684083048
0.008213970166425466
0.009977940332591508
0.008039145481936329
0.00477427234675026
-0.004948393059373954
-0.017382362689451144
0.00554113155716162
-0.00564723443157669
0.004384157287183723
-0.003956601172828604
0.0004278536576873618
0.0025083285778915295
-0.0223154509681441
9.15423575060352e-05
0.006961883425661801
0.001845906222467877
0.0011410477650942163
-0.01012243688668419
-0.0018632374958809008
-0.0029556570208925485
0.04815814933298078
0.017030579605299526
0.02440392513042448
0.0004982078610425086
0.008954119794618555
-0.0029277678782309168
0.0001755825139188906
0.009323779167840298
-0.0007967635518621699
0.003867131604720863
-0.00990162234761872
0.001700032518527718
-0.012143076871425443
-0.012965596989248223
-0.0006203177207952382
0.004532769258802493
0.0007064962445740893
0.0042206371213529895
-0.014383696068459288
-0.008332859233400903
-0.0033687367709378767
0.01658056764725773
0.009943751106203803
0.007570654021760562
0.003877200954828096
0.006254547765682025
-0.004155804254951528
0.001295092347350509
-0.011058074299801313
0.002342815857768594
-0.0010123503582973384
0.0030227697905579817
-0.0010202857258300602
-0.019150883287858557
-0.004665886259739679
-0.0012587715504318395
-0.0005547019913281041
0.002220532925660379
-0.01310928173045062
-0.0031904613763394686
-0.0029303065765419745
0.019837573236620797
0.0015762203297667171
0.002838134767035941
-0.00492254489119677
-0.002842774228957644
-0.001109646954610563
0.004254925478236304
0.0037857697841531847
-0.004356578885375318
0.0007163471310605296
-0.008501207617652959
-0.012023924911957515
-0.0003763348181699596
0.0036409238677795573
0.0011259000610578255
0.0020201020615790433
-0.009568064263607394
-0.0012507726281483361
-0.002062885990280011
0.003030640692100784
0.0004420343198657771
0.0011569302016920793
-0.005154676675180811
-0.002049780774463522
-0.0050641459702046015
0.00044211712858544666
-0.000769478735353356
0.0007326127941010563
0.0013609016647913655
-0.007043700015253205
-0.0028338123678346913
-0.002150267059832926
-0.0010103451670680358
0.00015716156793793568
-0.003833241756322117
0.0010000049500485941
-0.0004778772005968532
0.0002299136309848182
0.0027986858519796647
0.0062201997147673105
0.0022427258223073065
0.0006443099018657583
0.00018828506204809914
0.000608358682584173
0.001006675043583205
-0.0009783030477633452
0.0006015975749693522
-0.0016149164621501871
-0.0010838543756041957
-0.0011895705495639716
0.0002491367073072237
-0.0005431288729794564
-1.2898562465335495e-05
6.63924593430551e-05
-0.0116287906681794
-0.01360634282636993
0.009931357711211028
0.0012671626508730758
0.0005532387441839078
0.0015820411202739932
0.0018192018795640946
-0.0043615415264174106
-0.006603413088579372
0.0002235127529610541
0.006245275548337015
-0.0013105084837221792
0.0016196844728256117
-0.0012645938197640393
-0.0005182349228787736
-0.0018040589755111995
-0.008796273229758718
0.007258149817404181
-0.003115678578138166
0.0005914832750685897
-0.002965142778844656
0.001250760957074326
-0.0077370952131558205
-0.0008655779206234639
0.0003173110424567263
0.005831115689167676
0.000770580375453276
0.0021206008641296986
-0.0042918456381082215
-0.0046239183986485945
-0.000667534224316339
0.002876720989070311
0.0013542026649650436
0.00031475235948687057
-0.0011212027308584536
0.0010150656076447634
0.0009056925761129712
-0.0018017038570959949
-2.1595501043815933e-05
-0.002150034540495241
-0.0006505939581563651
0.0009202486636438276
0.0003559090349818826
-0.001873162446508321
-0.00038653366805686644
0.004634195919263732
0.0029483502954694915
-0.0021515118007506863
-0.001154054432233556
0.002285603402778903
0.0010825199157812257
0.005515749806649864
0.0036974739375012396
0.0032505374090823734
0.00013706970548559363
0.0007932275424739326
1.4658553601942792e-05
-0.0003268879015274114
0.000736941642511953
-0.0010856140618703061
-0.0008072851739592962
0.00040168485355200146
0.0004418011738512853
0.0014466872383136625
0.0009466887253085192
0.0010760763899273738
0.00031067764763077765
-0.0009864955510058664
-0.001586409020994278
-0.00042896581565341103
-0.0012044001838638872
-0.0005845530633939999
0.0028071926796219403
0.0021845338129501245
0.002545756190168804
-0.001803222278307065
0.00011499307410103334
-0.0002253916181577248
0.0006910416069063931
-4.341054807764644e-05
-0.00012009183009360248
0.0005622986015070275
-0.0007617834093005121
-0.0007734741446193856
-0.0010379859215141445
-0.0010846458032108125
-0.0005846557915516852
0.0004951771979587738
-0.000619355800314067
-0.0012628003039104017
-0.0003419446121181724
0.008854641904114901
0.00011376175867310045
0.0008904565828735458
0.002055414543970676
-0.0007868107651520222
-0.0006411186045178763
0.0011144073154358454
0.001430223775922338
0.0003296430468924527
0.006929976872128343
0.004952676876649621
0.003984187714671928
0.0007237174169831169
-0.00030272919784780916
0.002610646656647969
0.0012336143555509143
0.0008710465884436656
0.0032113386351846837
0.0027940742057973103
0.000370567979090599
-0.0011560710256176415
0.0018115111808705078
0.00370271015011296
0.0012313772226941397
-0.0010915803571591616
0.00024100126135388408
-0.0003238607492457371
0.002681757073708566
0.0004815672979827275
4.7972090804825757e-05
0.00019677216963326447
-0.00031133935453994677
0.0002934570722083144
0.0008032622418568877
0.00032466863813352537
0.00019127151978956536
-0.0007383505273949043
-0.00016437059156705625
2.1277621449239392e-05
0.004030855892415611
0.0014373143365751344
0.0006751204783949499
-0.0014956186996378483
-0.0005246319923461144
-0.00013958417608329193
