# DATE: 2020-01-31 CONTRIBUTOR: Yunxing Zuo <y9zuo@eng.ucsd.edu> CITATION: Y. Zuo, C. Chen, X, Li, Z. Deng, Y. Chen, J. Behler, G. Csányi, A. V. Shapeev, A. P. Thompson, M. A. Wood, S. P. Ong, "Performance and Cost Assessment of Machine Learning Interatomic Potentials" J. Phys. Chem. A 124, 4, 731-745 (2020)
# Generated by Materials Virtual Lab

1 56
Cu 0.5 1
-12.559674308193694
0.008593898227798338
0.013673289984609718
0.06393914675613394
-0.00938080439749897
0.19064400881977597
0.09753232271855786
0.08099824635372653
0.007145123624140076
0.09290210440877074
0.0880190669861532
0.1192830725749653
0.06527049820983855
0.031413864437182484
0.0027738405275973543
0.09192674870264071
0.05320931150968683
0.09883922626911948
0.08375319117498556
0.019016869593934897
0.028411907572350095
0.03866932412785962
0.004342301636475969
0.0018982900821655022
0.0541948726045012
0.04856452232995496
0.050754423617382534
0.06674845036606598
0.004412438551730208
0.044792107275286236
0.025289716758114707
0.022196449531340784
0.0039030958858326317
-0.0058835986209963
0.0337280161999949
0.039241910216947416
0.01906508559478233
0.03036951121581222
0.025041486753492357
0.004417989749957392
0.017529728714520857
0.008591996145570893
0.0010550495739926474
0.0015925920262541832
-0.009461637124847912
0.007715985306991011
0.005317265968847962
0.0038030355779348976
0.000863611802402537
0.0016815884134270126
-0.0033443140272306285
0.0014842353373478168
-0.008112696937181432
0.0019470800109651284
-0.0022623725036069603
0.002010751092649435
