# DATE: 2020-01-31 CONTRIBUTOR: Yunxing Zuo <y9zuo@eng.ucsd.edu> CITATION: Y. Zuo, C. Chen, X, Li, Z. Deng, Y. Chen, J. Behler, G. Csányi, A. V. Shapeev, A. P. Thompson, M. A. Wood, S. P. Ong, "Performance and Cost Assessment of Machine Learning Interatomic Potentials" J. Phys. Chem. A 124, 4, 731-745 (2020)
# Generated by Materials Virtual Lab

1 496
Li 0.5 1
-2.1412240789313617
-0.0009231555538458846
-0.007661299068972888
-0.00834332243696876
0.009676563611348906
0.09160437718453437
0.013098575408597497
0.004394894580070823
0.002074653367731459
0.022047953144192983
0.02488179879859288
-0.013743531201294977
-0.0029595908679397073
-0.003800244032814118
-0.001575857356328943
0.006133013397458346
-0.005760440597981321
0.0018604884099176437
0.015439121754361384
0.0007671476341472011
0.010976904001820446
-0.0006862120521443027
-0.01527570567767355
0.004099719196321517
0.012468336495706734
0.011003386548234805
-0.0004457853327389625
-0.0014698077425459547
0.0015661519999420322
0.003675314685878377
0.0013547707395554225
1.6059793954902877e-05
-2.0690257087080476e-06
0.00023918652998682435
1.7387586862435816e-05
-0.00010956561849543768
-8.58947481695223e-05
-2.1694161473068158e-05
-2.4996449559027228e-05
0.0001558831125431055
3.671057085392114e-05
6.79138355890313e-05
1.6456869419683555e-05
3.444357764532815e-05
-2.9465167023334264e-05
-6.774380631549649e-05
-5.078775557045969e-05
-1.7806925388484782e-05
7.0469001842314976e-06
2.210304678359812e-05
1.9072198735119225e-05
5.38497233379579e-07
-4.2750335036158554e-05
-6.13923971682868e-05
-4.513908586537613e-05
5.545067863541657e-06
-2.988053875100616e-05
-3.90791144788411e-06
-4.2027648007753464e-05
2.4004174493009498e-05
4.389650212868209e-06
0.00019994132443323326
-0.0008257695803735019
0.00015456640663769896
0.0002442618733735491
-0.0006095603146564489
-0.00020761230945534853
-3.6030849557142855e-05
-0.00027191548195370645
-7.899984834834831e-05
-0.00044497301174238385
0.00037984411768524025
0.00011007365051239534
7.648531579580698e-05
0.0005033645635113761
-0.0002605686289848443
4.3110346408105704e-05
0.00025347268940708207
-8.282308069322647e-06
-0.00017272537243811988
-1.4262281448210403e-05
0.000322271347777112
0.0001821697656989701
0.00016823647762681277
5.786825518465558e-05
4.4823212536460254e-05
3.205002091024034e-05
3.352201485531044e-05
-0.00010358718629705439
-5.0715807026244685e-05
-0.0013319148181126117
0.000972030384478281
-0.0002476799277089418
0.002329265879471674
-0.0034093105376934918
-0.00011820226513704268
0.0013425441170395788
0.0022079598536845755
-0.001829066880627336
0.0016414757502981885
-0.0005945765249523567
-0.0001370900675828496
-0.0007076521354336618
-0.000605664916739653
-0.0015754584702457478
0.001196876052034379
-0.00010176802471163478
0.0005977680307153918
-0.00021610684525758428
-0.0010730988770069295
-0.00029741322748487545
0.0010963880426812164
0.0005118058870796731
0.00042554023259319397
-0.00023724777296840673
-0.00026758137396028664
0.0003670973214941757
0.0003445712209688253
3.269506735299249e-05
0.0005101250839258585
-0.00014834373728293875
-3.112862183676996e-05
7.170215786907294e-05
0.0001456254005982088
-0.0002940472721590921
-7.527396257767417e-05
-0.00025399519246354724
-4.827847250662522e-05
-8.956582740120233e-06
-9.760455940837656e-05
-0.00016144595115304692
2.0103282281235056e-05
-0.00019405685666744972
2.0537004132252274e-06
3.357290664757216e-05
-2.304887965800405e-05
9.311438363853534e-05
-8.053530316363574e-05
-2.7561246662097407e-06
0.00013685762943279348
7.766609760133328e-05
-1.961828640961381e-05
-8.749099256381905e-05
6.13329893782444e-05
4.736541092166059e-06
0.002931945410035946
-0.001024683738516553
-0.0008309260685524421
6.210710499744502e-05
-0.0017889301344619756
-0.0014671450044332936
-0.0029931687168037067
-0.001072301002403191
-0.00013676573115981952
-9.90148751179879e-06
0.001551668548942669
-0.0010538402363663827
0.0003159593587843749
0.0005550994021965564
-0.00014820982726320965
0.0003504456202206434
-0.0001538342941720429
-0.00017865480082050153
0.0007983492969464872
0.00138132404975013
0.00021799744832404113
0.00020297232943218728
-0.00011465880568103434
0.0003890729188889889
9.895099866630969e-05
-3.434263966097327e-05
-0.000851102087270158
-0.000556024749195277
0.0004384594932178084
-0.0015148589511070145
-0.00016284037557689357
-0.0022171461372615417
-0.0010638133578684016
-0.0003687131634153438
5.411001845572084e-05
0.00042689492192495465
0.0002512568765298352
0.00019730303742772904
0.00023654202306856785
7.70500612588116e-05
0.0001574909751282805
-0.00016525814201626658
0.00017590470105136665
0.0012459305398878615
0.0006394798817971307
0.0005023552361222442
0.00011948039902327457
5.013673153317365e-07
0.0003033663937229021
2.462092277945443e-05
-0.00016036870874291828
-0.0013429545483129661
-0.0002482399473908289
0.0005115860392256346
0.00043381341056637665
0.0003374284895109973
0.0006902592237780365
0.00022428041149110523
3.9074808410894317e-05
0.0005031935198987236
0.000614411341951122
-0.0006923836743303698
0.00036344680675747963
-0.0004258490404859001
-6.269113430322106e-05
6.483857759396568e-05
0.0003789364580273417
0.0005388540520513687
-0.00016787579448257283
-0.00043285978723906995
-2.9832483885554487e-05
0.00016168723288313542
5.039482707902878e-06
-0.0004706170790862433
-0.00011497891019349747
8.651307773026221e-05
-0.00033982611401776045
-0.00017193796501189157
-0.0004560679798133605
-0.00011884452713185679
-0.00012869057544404706
7.18312634905562e-05
0.00018980912852285792
0.00011915639204287442
8.679284816290175e-05
1.6531292649257062e-06
-8.17329671029727e-05
-4.900555832353852e-05
-9.25080459560415e-06
6.954877420742723e-05
0.00013382486753658448
0.00015812380460028733
-1.5852420144975423e-06
5.04699259471341e-05
1.9491042952427355e-05
0.0001481541131313622
-6.36228012715316e-05
-4.8838337378253734e-05
0.001441788602208205
4.406881338758142e-05
0.000796193264720557
0.0004943724029044831
0.0004623905919188462
-0.0002679646835012705
-0.0005054323733602711
-0.000553651909241632
0.00045000654729431585
0.0003027497224886417
0.000187766285008011
0.0002785184412618931
-2.7822718345276108e-05
-0.0003829270593299004
-0.00056089812161026
-0.0004975812250968114
0.00039586765321396404
-9.133189121224652e-05
-6.158865650595222e-05
-0.0005735691509450511
0.00012739569013209216
2.6438654165791123e-05
-0.001278281720933766
0.0003256062264459796
-0.0002554839578393963
0.00041463873880888234
-2.8799090117582115e-05
0.0006187371703944389
-0.0005579331696903862
0.0010113648832426137
2.75885324798809e-05
0.00021933342119202583
-0.0002779495740316995
-7.710532111821011e-05
-1.3524586069184051e-05
-8.412766152879701e-05
1.6552525680130356e-05
0.00017629642434473765
-0.0001384263413412454
-1.2880340789650607e-05
-0.0001518135092762628
9.562577580673634e-05
-7.357116023457347e-05
0.0008032397087854466
0.0015489083800610344
0.00045090019254601175
-0.0001000489703777192
0.00040495805270715507
0.0004570484840169622
-0.0002617938095824416
0.0004386145391635341
-5.54884208760822e-06
0.00022119239650977582
0.00010848949610253032
9.33083627399187e-05
-0.0004838267894987159
-0.0002472948310516105
-0.00026955568510039286
-6.246679177664773e-05
5.476318478973106e-05
-9.317839138213481e-05
-0.00016896588722344733
-2.891189070500237e-05
0.00047587848020688126
0.0003792757050299604
2.1807786155343294e-05
-0.00031572293875171796
-0.00028085973495744544
0.0002335950967282466
-0.00016188174632396701
3.395362667052528e-05
-0.00013988593913412753
8.253277556312035e-05
0.00031129772926024094
-0.0002624658366646051
-0.0005357581289388576
-0.00020780332599070527
-0.000280382796926588
2.6382833593728437e-05
-0.00019803978278796697
-3.836240074516929e-05
2.52199969199963e-05
0.0001755949966139284
-6.319846371456512e-05
-0.00014177125815702864
0.00011372626020554034
-0.0002455249065191294
4.847904507351463e-05
5.677758514661485e-05
3.0005162906912344e-05
3.4551304339986536e-05
5.625589262735177e-06
-0.0001661246810686982
-0.00025196907735790307
-2.338467826349885e-05
-4.949081304533806e-05
4.418200919252631e-07
-0.0001386621740744733
3.087153842625511e-05
3.313460022500447e-05
7.448446869253392e-05
3.7051011940367696e-05
0.0001161397889396386
-1.2594997247816293e-05
-4.4125778431849337e-05
-5.428845088953675e-05
-4.574466821663063e-05
1.723877701217235e-05
8.74336529963266e-05
0.00015141973401443275
7.231575739971423e-06
-3.682771605552807e-05
2.969865866386144e-05
1.5387612965842645e-05
6.753535564709428e-05
-4.334801396192797e-05
-1.7534134425931773e-05
-0.0005136759836186642
0.00017607248026867972
-0.00028269567619830825
-0.00021727306569819494
5.5565698983942125e-05
4.80972042587268e-05
7.425087155919899e-05
-0.0004096710386710902
-0.00016764516093941212
-0.00027545774822200747
1.0898840567778227e-05
6.902810796352574e-05
-2.761602670925889e-05
-3.9407191540427e-05
0.00028087558413431333
0.00012684134036569915
1.179869241397249e-05
0.0003690398125957319
-0.00010883422953150801
4.1501225212773755e-06
-0.00010304391938581659
9.632869481488289e-05
0.000133073253708549
-5.498293803452558e-05
-3.368124976636306e-05
-0.0003346041155738474
-0.00015107665568999147
-2.2649998114166815e-06
0.0001618854801546201
-5.813273453735355e-06
1.2792304483556038e-05
-0.00032298758055197515
4.8590067382891585e-05
-0.00011036183742814574
2.9592359698026668e-05
2.2316364541521546e-05
-0.00029895018605530005
0.0003322854516357027
-0.00014086579323246572
-3.782322666874295e-05
3.518792123979381e-05
2.510724248878993e-05
8.888692851518335e-05
6.677330172388448e-05
-4.0314076998428155e-05
-0.00018457801709823558
0.00022412735252329567
-0.00011511481698820258
3.525203396105099e-05
0.00018767161952404484
-6.264206762659092e-05
-0.0004106897749111341
-4.5843499641616954e-05
-8.303806533371317e-05
-2.4217251861603966e-05
4.8181388440447036e-05
0.00012967810908954774
8.39179529210102e-05
5.812294768883187e-05
-1.4534885510923565e-06
-1.2080439720917475e-05
5.296700685807484e-05
-3.927109616971857e-05
7.419368075179074e-05
2.065682196878164e-05
-3.242543658028595e-05
9.039710612358053e-06
-5.870816541934664e-06
-3.349356162432634e-06
-2.2667463109640555e-06
-1.1412109905015556e-05
-2.2154456738053796e-05
-8.126627062326725e-05
-0.00025025699880465793
1.9349098988870033e-05
-1.2935207525527337e-05
-8.469310044831229e-06
-1.3830951869204185e-05
-9.430317984216039e-05
3.91047195674899e-05
7.915186078716358e-07
-1.717662521204781e-06
2.1022303172932996e-05
-1.8386097576231955e-05
3.785502799511454e-05
-2.9153427058423584e-05
3.0340670463156925e-05
2.3855630830594614e-06
3.363646405352777e-05
-2.5721931740086344e-05
-5.939648332150995e-06
0.0001109561698106193
-3.919165896753001e-07
-6.256738764599541e-05
0.00019289656601981933
-3.2462128854297175e-05
2.0499453403125054e-05
0.00036217216378710645
1.2331021876771377e-06
2.1510338370513608e-05
0.00019883214496827263
0.00016523439077175192
8.337496468570917e-05
4.51419434831287e-05
3.0238532058046737e-05
0.0002772650322719416
-9.382825285147343e-05
-3.424018260450939e-05
-0.00010484901191525162
-5.414367671485117e-05
-1.8108290929005675e-05
-2.727980835353352e-05
3.1276779826336416e-05
9.811899104402588e-05
0.0001087732118202894
0.0001161064042663474
-8.699626344806719e-05
-8.389563445866245e-06
-4.080006823045966e-05
2.68392518119246e-05
1.319735436191107e-05
-0.00013630204049762103
3.663554617394765e-05
-4.737732551772256e-05
-6.670431359704589e-05
-5.4269127119263065e-05
-4.32982499607689e-06
9.341788094848339e-06
2.883469739498435e-07
1.7874864002477404e-05
0.00033917224623550453
-4.014948520301642e-05
-1.8878659141880476e-06
9.373973478063064e-06
-4.837079079751623e-05
-4.7348451196593835e-05
