# DATE: 2020-01-31 CONTRIBUTOR: Yunxing Zuo <y9zuo@eng.ucsd.edu> CITATION: Y. Zuo, C. Chen, X, Li, Z. Deng, Y. Chen, J. Behler, G. Csányi, A. V. Shapeev, A. P. Thompson, M. A. Wood, S. P. Ong, "Performance and Cost Assessment of Machine Learning Interatomic Potentials" J. Phys. Chem. A 124, 4, 731-745 (2020)
# Generated by Materials Virtual Lab

1 31
Mo 0.5 1
-17.762702673549285
0.02178925465143394
0.0034745701647209758
0.30915622205909093
0.02899432432314361
0.6209839107774174
0.26114917061057
0.19006433764250869
0.017254172264534122
0.27785227586454786
0.28879256134802844
0.10086566742884026
0.09395419349167436
0.011563742687598653
0.018074432449994685
0.1318986782245502
0.09473608457162533
0.09697249346594379
0.06796804957852472
0.009058281101362966
-0.017251248829005406
0.0033493610548456947
0.06883283837405953
0.06276174257928209
-0.007960716239306791
0.016230577837509374
-0.041246164097147035
-0.0032769754000261603
0.058385382001993454
-0.0016932115732663107
0.0008444839877686181
