# DATE: 2020-01-31 CONTRIBUTOR: Yunxing Zuo <y9zuo@eng.ucsd.edu> CITATION: Y. Zuo, C. Chen, X, Li, Z. Deng, Y. Chen, J. Behler, G. Csányi, A. V. Shapeev, A. P. Thompson, M. A. Wood, S. P. Ong, "Performance and Cost Assessment of Machine Learning Interatomic Potentials" J. Phys. Chem. A 124, 4, 731-745 (2020)
# Generated by Materials Virtual Lab

1 496
Mo 0.5 1
-8.138991753441568
0.043384508746688054
-0.047996260002755683
-0.21325240787723881
0.09837081626080132
0.5830991543998562
0.4820795605286178
0.060839068035529784
0.017339854523614494
0.4111159401122883
0.5264606662229518
-0.06564022630320393
-0.18213278181337542
-0.12444055260628212
-0.10733357067913704
-0.16076348497137302
0.3346022357550442
-0.13715823100621918
-0.13475443109850377
0.06129979514763583
0.07913687972063524
-0.04048593659362227
-0.024360155561520554
-0.1864591255661114
-0.08766991512160359
0.13043204793899052
0.011718902640366586
-0.02513537098151072
0.08173069176648773
0.1128467751142765
-0.012292342467836769
5.168203453451285e-05
1.9916096600808214e-05
0.0010125587214311403
-9.273742046920657e-05
0.0022604115297687054
0.0009381964828896608
-0.0002755255042528086
-0.0001823083852853721
-0.0003157240419700573
0.0008075294545561683
0.00015118434236242997
-0.0006431738438380568
-0.00022364170510090603
-0.00014985309153199222
-0.000313390190676426
-0.0004927307931872224
-0.0005012866975809415
-0.0004133385661715067
-0.00010167762603137241
2.5945658881376298e-05
-0.00011815124842285131
-0.00013732515625951432
2.5441126684935995e-05
-0.0001593702499906981
0.0001357458709888407
0.000269078544083378
-2.348534815216869e-05
6.334072274748815e-05
-9.350104435094598e-05
-1.831356007812812e-05
-0.002740875522213565
-0.004531291089425373
0.0012547864950854916
-0.00939797598765904
-0.000842016752561608
0.003025582761330424
-0.0002770205059348859
-0.007266884659423379
-0.00901796547572012
-0.004318544933713991
-0.0007879844836948788
0.0017335858676584732
-0.00020232926884287107
0.004473392694959386
0.0004920504037107997
0.0025027712902135207
0.004350225796257925
0.0008622892795490419
0.0013165136068852236
-4.870901846135327e-05
0.0042084586192978595
-0.0010532438871923345
0.0022743623986088714
0.001461798311095006
-0.001488835344484064
-0.0002796907812519418
-0.0019765673964826282
0.0011692242538979148
4.673546364238873e-05
0.030043832558364673
0.014734804212749275
-0.03743017584146662
-0.040542834819475994
0.018549063011873437
0.007091356687521607
0.00012090051808519978
-0.051039746303528526
-0.003964776924101225
-0.0025460389261230966
-0.01570288965359407
-0.003687796261764903
0.010000119376750641
0.012105703780737997
0.024742012130191948
-8.309785745314441e-05
0.0003523226505628087
0.005908832332045182
-0.0029626619944401987
0.020941747679821987
-0.03310130704238045
9.339932805223341e-05
0.014693021422348558
0.00660671100914414
-0.0010414508986295453
-0.010313371174714462
0.005592994926023745
-0.0003260979311863145
-0.0005231222538829356
0.0008421564296140866
-0.0003689799922705557
-0.0006979747949588604
-0.0002852101161481683
0.0017244598289560176
-0.00268403354879522
0.0016510201776320224
-0.0018809180092166373
0.0019056524816780055
0.0008758545622144465
-0.0011541296884733944
-0.0038192458388907175
-0.0015024057194541042
-0.0038609526965407313
-0.0018483509930703182
-0.0017071766028803556
-3.0680711084301506e-05
0.0014059444657129334
0.003201111288430791
0.001382208677925798
-0.00043170685643154197
-0.00028542168588460785
4.359688888790206e-05
-0.0018070150739171013
-0.0008714133665482657
3.0356018752503646e-06
-0.031723328015284546
0.05218171892700164
0.023624098006844584
-0.00035542807142118827
0.0056534990030143424
-0.013928261090089855
-0.026213636425198385
-0.01703802548327037
-0.003624848162458129
-0.006608448375416679
0.012954692125048056
0.026030813751087314
-0.003197892511784207
-0.010413872764665546
0.006901282020939892
0.007823606994214595
-0.0012093685936647508
-0.004194024491793641
0.0004900836364774567
0.0036271919472599117
0.00450470146037197
-0.006128494987361423
-0.0027651138453105325
0.004216327952406651
0.012752709066886213
-0.0005953545586108017
0.045453028137860924
-0.0034836438197160817
-0.001388450719569136
0.00125225358877311
0.022047218590065157
0.02214152351820228
-0.009418583020159358
0.00482844688876188
-0.0003873221638957754
-0.026704357129102175
-0.005348148198515291
-0.020263177156264495
-0.010379854032287585
-0.004753658733919222
-0.0017923966179530845
-0.00013720725639612647
0.00384633678699258
0.0026986386008604948
-0.00962113993648937
-0.00579690016629239
-0.002127540859960777
-0.0015869503838477335
0.01045484183324804
0.0029977160435196784
0.002853453349393122
6.805589010995881e-05
0.0011947028289136534
0.0041617778225144664
0.008978291399443178
-0.0016246999475701958
-0.004658229959642826
0.0028109327984521407
0.0024346540263274702
-0.009368908243296914
-0.0052915220583809736
-0.0019320802509412986
-0.009933943584471711
-0.006719510186115919
-0.0027486856239499827
0.00034991315257437374
-0.0007834636732880383
0.0019274057823678986
0.0031801082602047324
-0.0012237221252534914
-0.0019109520501813893
0.00025037075438579957
-0.0030955202463385863
-0.0020123884895001773
0.00044201788887241264
0.0009931238024801416
0.0006270468026688679
-0.00354952370340649
-0.0002835772052207178
-0.0011506827211536774
-0.0015533485676542222
0.000529502165692271
0.0010822007034342867
0.0002646861684351726
0.0026456938210940644
-0.0020303236918554858
-0.0008369354944912611
-0.00043876032646989767
0.00013813215037517432
0.0001916875593597152
-0.0006965824342630978
0.00026346253076360007
-0.00043434009534921704
-0.0001348434984332917
0.0001310694972658307
0.00015543654035622323
-0.0003715809810155002
-0.00013576570442584804
-0.0022647333504122466
0.022341828225511354
-0.006205136274909991
-0.006066889689962213
-0.005470051550577403
0.00029260538675353386
0.004475729737275435
-0.004841096212913104
-0.0038106691203649095
-0.005662750362950582
-0.003368981874227167
-0.001836720660769856
-0.0007729370637885716
0.0061995265548513276
0.0033591206219055173
-0.0011782431106539257
0.0019318430076235408
0.0011039178261619772
0.0010370816166496383
-0.0019098730422093925
-0.004257466815341621
-0.0013918855642565029
0.04550831537555661
-0.010991925804103027
0.008743791080236275
0.0010859632984481125
-0.0007286705670636669
-0.0004921556704186323
-9.49998438838776e-05
-0.008349844225226116
-0.006516331005689712
-0.0030756113075126345
-0.0009755466399345294
-0.0009784155132997192
-0.010907844635984827
0.008112399484844855
0.0021402653041987956
-0.005729283325787883
0.004988562428219325
-0.0006431373703333818
0.00032051679837073196
0.0002094310388391499
0.00020513184578761765
-0.0018596314894194087
-0.002287183239877805
-0.0032709663103351583
-0.001064081517525392
0.008585275789595968
0.003585743924153775
-0.004256175192059854
0.00849266017472649
0.0035143824516370593
0.0011943881788082293
-0.0003804254461869532
0.0013999289086634096
0.0032116817258315564
0.0026101409873510797
0.003645947866137159
-0.005292061114623796
0.001001091848654026
0.0029947648702228708
-0.004355654858623979
-0.0009123006871873891
0.009909763597441525
0.003123599856936215
0.001609570629590827
0.0014407490768560758
-0.0037593046491876426
-0.0018599641966802463
0.005691837284388049
-0.0001510197176087444
-0.0024611620093862134
0.0006413074433243471
0.0019360017863451551
0.005924860587068085
0.00014338078509152567
-0.0029043990697536918
0.00037869198952044574
0.0005314485305646517
-0.002954254988162472
-0.0024558727090604362
0.00015172143081083837
0.004032450679425271
0.00039358684472068974
-0.0014852461366664823
-0.002078028255243636
-0.004344479718123
0.0038612620062380104
0.0007507206351707442
0.0002164779392235719
0.0003704843132959377
-0.00012881502891281749
0.002963846646572681
0.0014430750514233131
0.0007677977590249816
-0.000551237615319674
0.00014368525153145168
-0.00035649636174449144
-0.00024595334885017903
-0.00019198199783422446
0.0005631647280434516
0.00041387862919760917
0.00049658115944942
0.0006835961047099554
0.0005975118652315885
-0.00024594789700606496
-0.00021821237719689656
0.00028362107371726863
0.0006185641527762518
-0.00044411282633300103
0.0005562589134658759
-0.000404994776220183
-0.00021810580003653974
8.829472891013419e-05
-0.0006796699322054896
-1.402150048335565e-05
0.00010110510514033839
-0.002620634935298386
-0.0023654654725177617
0.004627951427232762
-0.0007392139402325516
0.0003582294505198363
-0.00023974278407371444
0.0005123386200833549
-0.001865171117512186
-0.003953247857941306
-0.001361912177193327
-0.0007530705020349742
0.0014248353139677957
0.0006173402162106201
-0.001808893437319689
-0.0006193169024632379
-0.0006914433571719881
-0.0032503525323959244
0.0018582687998393878
-0.0047030055672821975
-0.0020317609261675976
-0.0011518344937899684
0.00016183352514699157
0.0013353839088337592
-0.002220561906665887
-0.004800833614188147
-0.0035744872895007206
0.0020555647444771533
5.6143231433116074e-05
0.003300509850594326
-0.0005530146552798123
-0.00021656062715533095
0.009775470449955508
0.00029056442687873895
-0.00013963011031780168
0.001788295016573429
0.0010467370049577387
0.0019790330953067536
-0.003661156034874619
0.00021495007612469942
-0.0011655414466003667
-0.0029417753962148485
0.00021372981579840706
0.0010104002391253546
-0.0002715249820228884
0.0004401425892943739
0.0047352625789872085
0.0023401164415047483
-0.0002815733562203963
0.000699146075523123
-0.002383269522097874
0.0074218088155191975
0.0012850787238422939
-0.0021118941168366216
-0.0009613002600870781
5.864309148121324e-05
-0.000506007986640435
-0.0002983755274646727
0.0005903089711529376
0.0011111176501449854
0.00013352005988996127
-0.00016367534962229063
-0.0005017348531242773
0.001929465605276709
1.0333932872210561e-05
0.0007166223237095169
0.00022579029609651394
2.588892212268369e-05
0.0011835540594136626
-0.00040319636858848166
-0.0002553234369394281
0.00038352448657665933
3.386144296988702e-05
-0.001836528136091292
0.00021409525698569642
-0.00032171860198724036
-0.000622273888670325
-0.0003343567520720101
-9.182755473380859e-05
0.0011933054664371768
3.763164350444565e-05
5.203144128701167e-05
0.00020829534235537492
8.440226601600742e-05
0.0001810479058329711
-0.0001485917605475064
-0.0005020493225437182
-0.00032810546567428763
6.166660653270683e-05
0.00015795839274900615
-7.699352330007406e-05
1.0184656982393807e-05
-0.0019715138472229687
-0.0020073968210085158
-0.0004176441316029867
0.00043307221312676337
0.001064992944994761
0.00014722510109121349
-0.002364257563542085
-0.0004987727532629713
0.000634123828754501
-0.0037731261938282155
-0.002036883790473753
0.00016437050043094037
0.0025043822392641054
-5.794714580143734e-05
-0.0022074039468362996
0.0020086983879189935
3.6624170339024163e-06
0.0011245753564837013
0.0012106264256998148
0.0015078422809317116
-7.523370215046021e-06
-0.0034601446350195045
-0.00013781040095016555
0.0002642077577331552
0.0011177346639295138
0.0006911956929363105
-6.032812233619523e-05
-0.0006935975314753891
-0.0001403308206133063
-0.00019637883413635944
0.0007621905728841977
-0.00027228774140544086
6.827287698978965e-05
0.0006085621970632685
3.3428366760204596e-05
5.8148971768074205e-05
-0.0002512448153702301
-0.00011201655478792101
1.5843865220278162e-05
0.006296864680729187
0.0009286096888887845
0.0002548584717626181
9.368549135708728e-05
-1.1722666095177873e-05
-0.00014445599719675858
