DATE: 2007-06-11 CONTRIBUTOR: Stephen Foiles, foiles@sandia.gov CITATION: Foiles et al, Phys Rev B, 33, 7983 (1986) COMMENT: Ni function (universal 3), SM Foiles et al, PRB, 33, 7983 (1986)
   28     58.710         3.5200    FCC
  500  5.0100200400801306e-04  500  9.6969696969697039e-03  4.8000000000000114e+00
  0.                     -5.0517016048996766e-01 -7.9317853848267106e-01 -1.0217438587039425e+00 -1.2174805690269395e+00
 -1.3915708504375530e+00 -1.5499932328286121e+00 -1.6963954974188340e+00 -1.8332004716104038e+00 -1.9621160791940611e+00
 -2.0843760483513876e+00 -2.1992938880209749e+00 -2.3093396176347341e+00 -2.4151048342909860e+00 -2.5170730411782927e+00
 -2.6156455313181937e+00 -2.7111597934241303e+00 -2.8039029250035838e+00 -2.8941216165036252e+00 -2.9820297219149694e+00
 -3.0678140937243796e+00 -3.1516391457178798e+00 -3.2336504675375721e+00 -3.3139777215379382e+00 -3.3927369891350594e+00
 -3.4700326894515854e+00 -3.5459591620359561e+00 -3.6206019830134863e+00 -3.6940390674917722e+00 -3.7663415995091469e+00
 -3.8375748211898610e+00 -3.9077987065080180e+00 -3.9770685396213423e+00 -4.0454354138360316e+00 -4.1129466641100976e+00
 -4.1796462436871593e+00 -4.2455750533765979e+00 -4.3107712306517953e+00 -4.3752704043257609e+00 -4.4391059197901370e+00
 -4.5023090387655884e+00 -4.5649091171416387e+00 -4.6269337636658463e+00 -4.6884089819903636e+00 -4.7493592982170298e+00
 -4.8098078755955100e+00 -4.8697766180438862e+00 -4.9292862637278461e+00 -4.9883564698644989e+00 -5.0470058897358570e+00
 -5.1052522427840188e+00 -5.1623072179650649e+00 -5.2189018510607639e+00 -5.2751350144308446e+00 -5.3310209820086811e+00
 -5.3865733770414863e+00 -5.4418052123181724e+00 -5.4967289272545088e+00 -5.5513564221275828e+00 -5.6056990897199057e+00
 -5.6597678446140094e+00 -5.7135731503426257e+00 -5.7671250445876296e+00 -5.8204331625956058e+00 -5.8735067589604455e+00
 -5.9263547279134343e+00 -5.9789856222417370e+00 -6.0314076709491928e+00 -6.0836287957580453e+00 -6.1356566265451704e+00
 -6.1874985157960793e+00 -6.2391615521814003e+00 -6.2906525731472414e+00 -6.3419781770271015e+00 -6.3931447341185503e+00
 -6.4441583972792955e+00 -6.4950251118515041e+00 -6.5457506250122037e+00 -6.5963404945961486e+00 -6.6468000974149675e+00
 -6.6971346371185234e+00 -6.7473491516179536e+00 -6.7974485201119705e+00 -6.8474374697293854e+00 -6.8973205818230383e+00
 -6.9471022979348334e+00 -6.9967869254475659e+00 -7.0463786429507991e+00 -7.0958815053338640e+00 -7.1452994486230068e+00
 -7.1946362945806470e+00 -7.2438957550783698e+00 -7.2930814362578644e+00 -7.3421968424935073e+00 -7.3912453801662821e+00
 -7.4402303612538390e+00 -7.4891550067840740e+00 -7.5380224500758857e+00 -7.5868357398816215e+00 -7.6355978434033887e+00
 -7.6843116489928320e+00 -7.7329799690993184e+00 -7.7816055427344679e+00 -7.8301910379813648e+00 -7.8787390543927813e+00
 -7.9272521252767660e+00 -7.9757327198801704e+00 -8.0241832454879045e+00 -8.0726060494311014e+00 -8.1210034210155300e+00
 -8.1693775933707116e+00 -8.2177307452265609e+00 -8.2660650026147664e+00 -8.3143824405092914e+00 -8.3626850843966167e+00
 -8.4109749117892534e+00 -8.4592538536799680e+00 -8.5075237959315473e+00 -8.5557865806474069e+00 -8.6040440074316393e+00
 -8.6522978346561672e+00 -8.7005497806599692e+00 -8.7488015249013529e+00 -8.7970547090747573e+00 -8.8453109381845820e+00
 -8.8935717815805901e+00 -8.9417402661794085e+00 -8.9898383368729355e+00 -9.0379436351492473e+00 -9.0860575781817374e+00
 -9.1341815522981733e+00 -9.1823169138104959e+00 -9.2304649898246680e+00 -9.2786270790152230e+00 -9.3268044523757681e+00
 -9.3749983539491382e+00 -9.4232100015290143e+00 -9.4714405873368719e+00 -9.5196912786851726e+00 -9.5679632186102026e+00
 -9.6162575264887096e+00 -9.6645752986381694e+00 -9.7129176088877784e+00 -9.7612855091464326e+00 -9.8096800299389315e+00
 -9.8581021809341678e+00 -9.9065529514548416e+00 -9.9550333109705207e+00 -1.0003544209576205e+01 -1.0052086578458329e+01
 -1.0100661330345247e+01 -1.0149269359941854e+01 -1.0197911544358305e+01 -1.0246588743517407e+01 -1.0295301800557468e+01
 -1.0344051542219859e+01 -1.0392838779225485e+01 -1.0441664306641712e+01 -1.0490528904236726e+01 -1.0539433336827699e+01
 -1.0588378354614804e+01 -1.0637364693509198e+01 -1.0686393075449359e+01 -1.0735464208710937e+01 -1.0784578788206602e+01
 -1.0833737495777086e+01 -1.0882941000477615e+01 -1.0932189958852859e+01 -1.0981485015205521e+01 -1.1030826801860144e+01
 -1.1080215939416007e+01 -1.1129653036995705e+01 -1.1179138692487811e+01 -1.1228673492782434e+01 -1.1278258013997231e+01
 -1.1327892821704779e+01 -1.1377578471149377e+01 -1.1427315507456228e+01 -1.1477104465839943e+01 -1.1526945871807015e+01
 -1.1576840241350737e+01 -1.1626788081143559e+01 -1.1676789888720691e+01 -1.1726846152666326e+01 -1.1776957352790021e+01
 -1.1827123960296717e+01 -1.1877346437960568e+01 -1.1927625240283987e+01 -1.1977960813666357e+01 -1.2028353596557736e+01
 -1.2078804019606196e+01 -1.2129312505807263e+01 -1.2179879470659557e+01 -1.2230505322233341e+01 -1.2281190461588324e+01
 -1.2331935282489439e+01 -1.2382740171822832e+01 -1.2433605509650079e+01 -1.2484531669341038e+01 -1.2535519017690660e+01
 -1.2586567915048647e+01 -1.2637678715430582e+01 -1.2688851766635594e+01 -1.2740087410360104e+01 -1.2791385982309691e+01
 -1.2842747812302150e+01 -1.2894173224380381e+01 -1.2945662536907093e+01 -1.2997216062675022e+01 -1.3048834108996232e+01
 -1.3100516977805853e+01 -1.3152264965755137e+01 -1.3204078364302120e+01 -1.3255957459800982e+01 -1.3307902533596177e+01
 -1.3359913862102815e+01 -1.3411991716894249e+01 -1.3464136364786839e+01 -1.3516348067917022e+01 -1.3568627083826016e+01
 -1.3620973665531096e+01 -1.3673388061610183e+01 -1.3725870516267150e+01 -1.3778421269413343e+01 -1.3831040556733626e+01
 -1.3883728609760851e+01 -1.3936485655939009e+01 -1.3989311918697354e+01 -1.4042207617510314e+01 -1.4095172967964288e+01
 -1.4148208181825794e+01 -1.4201313467092689e+01 -1.4254489028066530e+01 -1.4307735065404927e+01 -1.4360825840962775e+01
 -1.4413978799379436e+01 -1.4467200637720680e+01 -1.4520491531087600e+01 -1.4573851651247821e+01 -1.4627281166688022e+01
 -1.4680780242682715e+01 -1.4734349041210180e+01 -1.4787987721378727e+01 -1.4841696438965585e+01 -1.4895475346811168e+01
 -1.4949324594764903e+01 -1.5003244329738379e+01 -1.5057234695747354e+01 -1.5111295833957456e+01 -1.5165427882730739e+01
 -1.5219630977660984e+01 -1.5273905251625195e+01 -1.5328250834816970e+01 -1.5382667854791293e+01 -1.5437156436504551e+01
 -1.5491716702349208e+01 -1.5546348772196666e+01 -1.5601052763435575e+01 -1.5655828791002250e+01 -1.5710676967424547e+01
 -1.5765597402851995e+01 -1.5820590205094163e+01 -1.5875655479554666e+01 -1.5930793329658627e+01 -1.5986003856268781e+01
 -1.6041287158172963e+01 -1.6096643331986456e+01 -1.6152072472167561e+01 -1.6207574671060911e+01 -1.6263150018929764e+01
 -1.6318798603984646e+01 -1.6374520512410413e+01 -1.6430315828395351e+01 -1.6486184634163351e+01 -1.6542127009998921e+01
 -1.6598143034272539e+01 -1.6654232783472025e+01 -1.6710396332224377e+01 -1.6766633753325436e+01 -1.6822945117765585e+01
 -1.6879330494748046e+01 -1.6935789951724587e+01 -1.6992323554410177e+01 -1.7048931366811757e+01 -1.7105613451248814e+01
 -1.7162369868381802e+01 -1.7219200677228514e+01 -1.7276105935188525e+01 -1.7333085698066157e+01 -1.7390140020095373e+01
 -1.7447268953950697e+01 -1.7504472550780861e+01 -1.7561750860218694e+01 -1.7619103930409892e+01 -1.7676531808023810e+01
 -1.7734034538283254e+01 -1.7791612164975845e+01 -1.7849264730476307e+01 -1.7906992275765219e+01 -1.7964794840444824e+01
 -1.8022672462761875e+01 -1.8080625179621734e+01 -1.8138653026605425e+01 -1.8196756037990440e+01 -1.8254934246764151e+01
 -1.8313187684642116e+01 -1.8371516382082859e+01 -1.8429920368310263e+01 -1.8488399671318348e+01 -1.8546954317899235e+01
 -1.8605584333649176e+01 -1.8664289742987989e+01 -1.8723070569174411e+01 -1.8781926834319393e+01 -1.8840858559402477e+01
 -1.8899865764282822e+01 -1.8958948467713867e+01 -1.9018106687365503e+01 -1.9077340439822024e+01 -1.9136649740611233e+01
 -1.9196034604209103e+01 -1.9255495044051372e+01 -1.9315031072554348e+01 -1.9374642701124799e+01 -1.9434329940162570e+01
 -1.9494092799088207e+01 -1.9553931286346369e+01 -1.9613845409416626e+01 -1.9673835174834608e+01 -1.9733900588187907e+01
 -1.9794041654145190e+01 -1.9854258376453799e+01 -1.9914550757959887e+01 -1.9974918800611590e+01 -2.0035362505476201e+01
 -2.0095881872749146e+01 -2.0156476901763995e+01 -2.0217147590998366e+01 -2.0277893938093484e+01 -2.0338715939858389e+01
 -2.0399613592277888e+01 -2.0460586890529044e+01 -2.0521635828982994e+01 -2.0582760401222004e+01 -2.0643960600042533e+01
 -2.0705236417468427e+01 -2.0766587844759101e+01 -2.0828014872417498e+01 -2.0889517490199864e+01 -2.0951095687123598e+01
 -2.1012749451479294e+01 -2.1074478770834048e+01 -2.1136283632044297e+01 -2.1198164021260027e+01 -2.1260119923935804e+01
 -2.1322151324842025e+01 -2.1384258208059805e+01 -2.1446440557008827e+01 -2.1508698354438025e+01 -2.1571031582440582e+01
 -2.1633440222459740e+01 -2.1695924255298678e+01 -2.1758483661130299e+01 -2.1821118419499157e+01 -2.1883828509315435e+01
 -2.1946613908883251e+01 -2.2009474595907591e+01 -2.2072410547490904e+01 -2.2135421740141624e+01 -2.2198508149625354e+01
 -2.2261669751600152e+01 -2.2324906520680884e+01 -2.2388218431072119e+01 -2.2451605456420339e+01 -2.2515067569818370e+01
 -2.2578604743809933e+01 -2.2642216950395323e+01 -2.2705904161046874e+01 -2.2769666346698159e+01 -2.2833503477769341e+01
 -2.2897415524152620e+01 -2.2961402455235202e+01 -2.3025464239895996e+01 -2.3089600846513576e+01 -2.3153812242971071e+01
 -2.3218098396659570e+01 -2.3282459274490293e+01 -2.3346894842892652e+01 -2.3411405067819828e+01 -2.3475989914765478e+01
 -2.3540649348746115e+01 -2.3605383334332714e+01 -2.3670191835634910e+01 -2.3735074816317024e+01 -2.3800032239597726e+01
 -2.3865064068258562e+01 -2.3930170264648723e+01 -2.3995350790681982e+01 -2.4060605607854882e+01 -2.4125934677236842e+01
 -2.4191337959488578e+01 -2.4256815414853463e+01 -2.4322367003169916e+01 -2.4387992683878451e+01 -2.4453692416015087e+01
 -2.4519466158226919e+01 -2.4585313868769163e+01 -2.4651235505509703e+01 -2.4717231025938531e+01 -2.4783300387171153e+01
 -2.4849443545942677e+01 -2.4915660458622597e+01 -2.4981951081215925e+01 -2.5048315369364445e+01 -2.5114753278356716e+01
 -2.5181264763122385e+01 -2.5247849778241061e+01 -2.5314508277950381e+01 -2.5381240216142828e+01 -2.5448045546370622e+01
 -2.5514924221854017e+01 -2.5581876195479936e+01 -2.5648901419802769e+01 -2.5715999847061425e+01 -2.5783171429163417e+01
 -2.5850416117703276e+01 -2.5917733863959484e+01 -2.5985124618898908e+01 -2.6052588333183735e+01 -2.6120124957166922e+01
 -2.6187734440899703e+01 -2.6255416734137384e+01 -2.6323171786339913e+01 -2.6390999546672560e+01 -2.6458899964009333e+01
 -2.6526872986945250e+01 -2.6594918563787246e+01 -2.6663036642560087e+01 -2.6731227171017508e+01 -2.6799490096630279e+01
 -2.6867825366607576e+01 -2.6936232927879701e+01 -2.7004712727119340e+01 -2.7073264710729632e+01 -2.7141888824860530e+01
 -2.7210585015393917e+01 -2.7279353227967249e+01 -2.7348193407960821e+01 -2.7417105500503567e+01 -2.7486089450479881e+01
 -2.7555145202530412e+01 -2.7624272701049790e+01 -2.7693471890195497e+01 -2.7762742713890816e+01 -2.7832085115820746e+01
 -2.7901499039439045e+01 -2.7970984427971530e+01 -2.8040541224415165e+01 -2.8110169371542838e+01 -2.8179868811902452e+01
 -2.8249639487825789e+01 -2.8319481341422943e+01 -2.8389394314591641e+01 -2.8459378349013832e+01 -2.8529433386177288e+01
 -2.8599559367335587e+01 -2.8669756233536873e+01 -2.8740023925633068e+01 -2.8810362384271002e+01 -2.8880771549902647e+01
 -2.8951251362561607e+01 -2.9021801762731002e+01 -2.9092422690058129e+01 -2.9163114084212566e+01 -2.9233875884670852e+01
 -2.9304708030721031e+01 -2.9375610461472206e+01 -2.9446583115842486e+01 -2.9517625932568308e+01 -2.9588738850209438e+01
 -2.9659921807143974e+01 -2.9731174741575614e+01 -2.9802497591530710e+01 -2.9873890294866897e+01 -2.9945352789269464e+01
 -3.0016885012252033e+01 -3.0088486901162696e+01 -3.0160158393185156e+01 -3.0231899425338497e+01 -3.0303709934482413e+01
 -3.0375589857305158e+01 -3.0447539130352652e+01 -3.0519557690005286e+01 -3.0591645472488608e+01 -3.0663802413871281e+01
 -3.0736028450080539e+01 -3.0808323516880364e+01 -3.0880687549896038e+01 -3.0953120484603915e+01 -3.1025622256328688e+01
  1.0000000000000000e+01  9.8993242032246371e+00  9.8057191085309796e+00  9.7122900702135553e+00  9.6190607944140538e+00
  9.5260540818798063e+00  9.4332918527874199e+00  9.3407951709670556e+00  9.2485842675412187e+00  9.1566785639921022e+00
  9.0650966946685685e+00  8.9738565287487972e+00  8.8829751916672990e+00  8.7924690860197643e+00  8.7023539119586530e+00
  8.6126446870900395e+00  8.5233557658822292e+00  8.4345008585987102e+00  8.3460930497666368e+00  8.2581448161884055e+00
  8.1706680445109328e+00  8.0836740483591711e+00  7.9971735850459709e+00  7.9111768718671556e+00  7.8256936019907357e+00
  7.7407329599515151e+00  7.6563036367581105e+00  7.5724138446213090e+00  7.4890713313149035e+00  7.4062833941746078e+00
  7.3240568937442561e+00  7.2423982670791531e+00  7.1613135407112622e+00  7.0808083432878277e+00  7.0008879178868995e+00
  6.9215571340211000e+00  6.8428204993344366e+00  6.7646821709996345e+00  6.6871459668244597e+00  6.6102153760714941e+00
  6.5338935699995488e+00  6.4581834121337636e+00  6.3830874682686840e+00  6.3086080162124460e+00  6.2347470552773245e+00
  6.1615063155225300e+00  6.0888872667561031e+00  6.0168911272995160e+00  5.9455188725228254e+00  5.8747712431541856e+00
  5.8046487533705715e+00  5.7351516986726381e+00  5.6662801635515905e+00  5.5980340289504795e+00  5.5304129795266590e+00
  5.4634165107192416e+00  5.3970439356263000e+00  5.3312943916964741e+00  5.2661668472395320e+00  5.2016601077597215e+00
  5.1377728221172276e+00  5.0745034885205484e+00  5.0118504603546512e+00  4.9498119518489432e+00  4.8883860435884969e+00
  4.8275706878724520e+00  4.7673637139236007e+00  4.7077628329525680e+00  4.6487656430795710e+00  4.5903696341183604e+00
  4.5325721922252171e+00  4.4753706044153034e+00  4.4187620629512878e+00  4.3627436696064308e+00  4.3073124398053722e+00
  4.2524653066454619e+00  4.1981991248019028e+00  4.1445106743194629e+00  4.0913966642936259e+00  4.0388537364436559e+00
  3.9868784685803007e+00  3.9354673779716904e+00  3.8846169246080535e+00  3.8343235143699275e+00  3.7845835021006451e+00
  3.7353931945865924e+00  3.6867488534464030e+00  3.6386466979333392e+00  3.5910829076501329e+00  3.5440536251817321e+00
  3.4975549586455656e+00  3.4515829841626982e+00  3.4061337482512926e+00  3.3612032701449550e+00  3.3167875440371120e+00
  3.2728825412544325e+00  3.2294842123596226e+00  3.1865884891868035e+00  3.1441912868105533e+00  3.1022885054503888e+00
  3.0608760323122084e+00  3.0199497433692102e+00  2.9795055050822441e+00  2.9395391760631071e+00  2.9000466086804977e+00
  2.8610236506118696e+00  2.8224661463407159e+00  2.7843699386024952e+00  2.7467308697794124e+00  2.7095447832462014e+00
  2.6728075246672347e+00  2.6365149432474198e+00  2.6006628929371232e+00  2.5652472335932828e+00  2.5302638320970061e+00
  2.4957085634295453e+00  2.4615773117070177e+00  2.4278659711761890e+00  2.3945704471710769e+00  2.3616866570323651e+00
  2.3292105309901103e+00  2.2971380130111925e+00  2.2654650616121756e+00  2.2341876506386598e+00  2.2033017700121320e+00
  2.1728034264450997e+00  2.1426886441253288e+00  2.1129534653705520e+00  2.0835939512536754e+00  2.0546061822001747e+00
  2.0259862585579214e+00  1.9977303011403791e+00  1.9698344517436936e+00  1.9422948736395682e+00  1.9151077520426867e+00
  1.8882692945553075e+00  1.8617757315883168e+00  1.8356233167606177e+00  1.8098083272764001e+00  1.7843270642818041e+00
  1.7591758532008299e+00  1.7343510440521328e+00  1.7098490117462504e+00  1.6856661563643627e+00  1.6617989034191183e+00
  1.6382437040983007e+00  1.6149970354911076e+00  1.5920554007986354e+00  1.5694153295280060e+00  1.5470733776717225e+00
  1.5250261278715769e+00  1.5032701895688163e+00  1.4818021991397359e+00  1.4606188200184036e+00  1.4397167428059703e+00
  1.4190926853676089e+00  1.3987433929171260e+00  1.3786656380898776e+00  1.3588562210043307e+00  1.3393119693125612e+00
  1.3200297382401516e+00  1.3010064106158339e+00  1.2822388968913216e+00  1.2637241351513353e+00  1.2454590911147605e+00
  1.2274407581266260e+00  1.2096661571415410e+00  1.1921323366990961e+00  1.1748363728909510e+00  1.1577753693205821e+00
  1.1409464570554135e+00  1.1243467945718493e+00  1.1079735676937119e+00  1.0918239895238244e+00  1.0758953003693179e+00
  1.0601847676609850e+00  1.0446896858667927e+00  1.0294073763996394e+00  1.0143351875199400e+00  9.9947049423283119e-01
  9.8481069818076961e-01  9.7035322753107422e-01  9.5609553685923743e-01  9.4203510702756788e-01  9.2816944506015275e-01
  9.1449608401352123e-01  9.0101258284363794e-01  8.8771652626940778e-01  8.7460552463267049e-01  8.6167721375499085e-01
  8.4892925479136494e-01  8.3635933408090324e-01  8.2396516299494493e-01  8.1174447778230174e-01  7.9969503941215692e-01
  7.8781463341458746e-01  7.7610106971892279e-01  7.6455218248987933e-01  7.5316582996180870e-01  7.4193989427123341e-01
  7.3087228128747483e-01  7.1996092044178539e-01  7.0920376455494605e-01  6.9859878966352440e-01  6.8814399484488220e-01
  6.7783740204091103e-01  6.6767705588071991e-01  6.5766102350242051e-01  6.4778739437393895e-01  6.3805428011308152e-01
  6.2845981430683651e-01  6.1900215233006151e-01  6.0967947116362708e-01  6.0048996921213060e-01  5.9143186612108778e-01
  5.8250340259395017e-01  5.7370284020878159e-01  5.6502846123474981e-01  5.5647856844851162e-01  5.4805148495055178e-01
  5.3974555398145085e-01  5.3155913873843019e-01  5.2349062219165532e-01  5.1553840690106156e-01  5.0770091483322233e-01
  4.9997658717849447e-01  4.9236388416861310e-01  4.8486128489444091e-01  4.7746728712437303e-01  4.7018040712309350e-01
  4.6299917947073332e-01  4.5592215688277093e-01  4.4894791003037327e-01  4.4207502736140292e-01  4.3530211492211102e-01
  4.2862779617936830e-01  4.2205071184386433e-01  4.1556951969380762e-01  4.0918289439959388e-01  4.0288952734917061e-01
  3.9668812647427920e-01  3.9057741607756924e-01  3.8455613666061161e-01  3.7862304475270037e-01  3.7277691274081626e-01
  3.6701652870034884e-01  3.6134069622685772e-01  3.5574823426883739e-01  3.5023797696151959e-01  3.4480877346164718e-01
  3.3945948778332813e-01  3.3418899863496421e-01  3.2899619925721169e-01  3.2387999726210026e-01  3.1883931447318403e-01
  3.1387308676685954e-01  3.0898026391477451e-01  3.0415980942741427e-01  2.9941070039879136e-01  2.9473192735234299e-01
  2.9012249408790858e-01  2.8558141753001287e-01  2.8110772757715452e-01  2.7670046695245354e-01  2.7235869105539834e-01
  2.6808146781476161e-01  2.6386787754278096e-01  2.5971701279057946e-01  2.5562797820463778e-01  2.5159989038467856e-01
  2.4763187774259166e-01  2.4372308036269530e-01  2.3987264986319179e-01  2.3607974925875652e-01  2.3234355282446906e-01
  2.2866324596092369e-01  2.2503802506048665e-01  2.2146709737491133e-01  2.1794968088402022e-01  2.1448500416573690e-01
  2.1107230626729301e-01  2.0771083657756151e-01  2.0439985470075150e-01  2.0113863033121149e-01  1.9792644312946006e-01
  1.9476258259946633e-01  1.9164634796702718e-01  1.8857704805947506e-01  1.8555400118649334e-01  1.8257653502209870e-01
  1.7964398648790514e-01  1.7675570163748855e-01  1.7391103554195020e-01  1.7110935217664736e-01  1.6835002430910073e-01
  1.6563243338803524e-01  1.6295596943364199e-01  1.6032003092885994e-01  1.5772402471195601e-01  1.5516736587011604e-01
  1.5264947763423642e-01  1.5016979127480834e-01  1.4772774599894145e-01  1.4532278884846228e-01  1.4295437459917348e-01
  1.4062196566113006e-01  1.3832503198009682e-01  1.3606305094001581e-01  1.3383550726658733e-01  1.3164189293190898e-01
  1.2948170706017503e-01  1.2735445583442129e-01  1.2525965240434545e-01  1.2319681679512406e-01  1.2116547581730508e-01
  1.1916516297767910e-01  1.1719541839120495e-01  1.1525578869391095e-01  1.1334582695682949e-01  1.1146509260089488e-01
  1.0961315131283333e-01  1.0778957496203434e-01  1.0599394151839725e-01  1.0422583497111182e-01  1.0248484524841883e-01
  1.0077056813830154e-01  9.9082605210113250e-02  9.7420563737128152e-02  9.5784056620032310e-02  9.4172702311299705e-02
  9.2586124740488884e-02  9.1023953240430000e-02  8.9485822474299592e-02  8.7971372363576883e-02  8.6480248016858940e-02
  8.5012099659556473e-02  8.3566582564446712e-02  8.2143356983039428e-02  8.0742088077824459e-02  7.9362445855320374e-02
  7.8004105099968690e-02  7.6666745308809237e-02  7.5350050627007725e-02  7.4053709784148491e-02  7.2777416031309272e-02
  7.1520867078974870e-02  7.0283765035655144e-02  6.9065816347314346e-02  6.7866731737558084e-02  6.6686226148542804e-02
  6.5524018682673990e-02  6.4379832544994464e-02  6.3253394986330314e-02  6.2144437247152684e-02  6.1052694502150562e-02
  5.9977905805502552e-02  5.8919814036857865e-02  5.7878165848002538e-02  5.6852711610213102e-02  5.5843205362281267e-02
  5.4849404759204079e-02  5.3871071021555084e-02  5.2907968885476775e-02  5.1959866553358269e-02  5.1026535645117388e-02
  5.0107751150135327e-02  4.9203291379825043e-02  4.8312937920789834e-02  4.7436475588615856e-02  4.6573692382274823e-02
  4.5724379439095575e-02  4.4888330990358272e-02  4.4065344317457900e-02  4.3255219708641324e-02  4.2457760416331647e-02
  4.1672772615001907e-02  4.0900065359606330e-02  4.0139450544587119e-02  3.9390742863385508e-02  3.8653759768535023e-02
  3.7928321432253886e-02  3.7214250707576557e-02  3.6511373090018173e-02  3.5819516679722607e-02  3.5138512144143652e-02
  3.4468192681223808e-02  3.3808393983053797e-02  3.3158954200040336e-02  3.2519713905552639e-02  3.1890516061029439e-02
  3.1271205981592498e-02  3.0661631302092207e-02  3.0061641943631479e-02  2.9471090080552376e-02  2.8889830107845960e-02
  2.8317718609035092e-02  2.7754614324478899e-02  2.7200378120111335e-02  2.6654872956618725e-02  2.6117963859025206e-02
  2.5589517886701607e-02  2.5069404103800874e-02  2.4557493550066090e-02  2.4053659212077361e-02  2.3557775994875407e-02
  2.3069720693975837e-02  2.2589371967784877e-02  2.2116610310377816e-02  2.1651318024671573e-02  2.1193379195963979e-02
  2.0742679665830766e-02  2.0299107006404360e-02  1.9862550494997966e-02  1.9432901089081245e-02  1.9010051401619821e-02
  1.8593895676740635e-02  1.8184329765760343e-02  1.7781251103520468e-02  1.7384558685080709e-02  1.6994153042732330e-02
  1.6609936223318855e-02  1.6231811765900273e-02  1.5859684679716324e-02  1.5493461422459553e-02  1.5133049878863769e-02
  1.4778359339593705e-02  1.4429300480422236e-02  1.4085785341715229e-02  1.3747727308204616e-02  1.3415041089038238e-02
  1.3087642698128565e-02  1.2765449434765652e-02  1.2448379864521963e-02  1.2136353800409783e-02  1.1829292284323834e-02
  1.1527117568744027e-02  1.1229753098690343e-02  1.0937123493950818e-02  1.0649154531552685e-02  1.0365773128486300e-02
  1.0086907324682204e-02  9.8124862662264389e-03  9.5424401888180022e-03  9.2767004014673304e-03  9.0151992704248229e-03
  8.7578702033437317e-03  8.5046476336718135e-03  8.2554670052626400e-03  8.0102647572203867e-03  7.7689783089454623e-03
  7.5315460454166705e-03  7.2979073026746000e-03  7.0680023535117376e-03  6.8417723933825170e-03  6.6191595265108760e-03
  6.4001067521917143e-03  6.1845579513078452e-03  5.9724578730325772e-03  5.7637521217223098e-03  5.5583871440119115e-03
  5.3563102160883447e-03  5.1574694311534164e-03  4.9618136870692719e-03  4.7692926741860209e-03  4.5798568633435566e-03
  4.3934574940516224e-03  4.2100465628429617e-03  4.0295768117985520e-03  3.8520017172329890e-03  3.6772754785580619e-03
  3.5053530073032024e-03  3.3361899162928088e-03  3.1697425089940445e-03  3.0059677690114639e-03  2.8448233497412878e-03
  2.6862675641767808e-03  2.5302593748634528e-03  2.3767583840036965e-03  2.2257248237074201e-03  2.0771195463848979e-03
  1.9309040152846180e-03  1.7870402951681297e-03  1.6454910431250580e-03  1.5062194995254519e-03  1.3691894790999193e-03
  1.2343653621603723e-03  1.1017120859476148e-03  9.7119513610272046e-04  8.4278053827493982e-04  7.1643484984554306e-04
  5.9212515177992087e-04  4.6981904059889557e-04  3.4948462047074136e-04  2.3109049541980564e-04  1.1460576165300829e-04
  0.                      0.                      0.                      0.                      0.
  0.                      5.9010126319814817e-05  9.5123001765930887e-04  4.3610102840051235e-03  1.2418760266605156e-02
  2.7296776919998988e-02  5.0949808246058437e-02  8.4958617911537360e-02  1.3044948432187731e-01  1.8806835258921506e-01
  2.5799305640066805e-01  3.3997082530515677e-01  4.3337134797535981e-01  5.3724810475810614e-01  6.5040262300578888e-01
  7.7144783782308224e-01  8.9886793518261499e-01  1.0310729771528742e+00  1.1664473126750252e+00  1.3033913052230872e+00
  1.4403562964417773e+00  1.5758730017291569e+00  1.7085737236354248e+00  1.8372088913430460e+00  1.9606585051503700e+00
  2.0779390964991507e+00  2.1882068168517321e+00  2.2907572507149467e+00  2.3850225157235485e+00  2.4705661709060394e+00
  2.5470764069287242e+00  2.6143579421585343e+00  2.6723229980107988e+00  2.7209816778323130e+00  2.7604320266538878e+00
  2.7908500052743079e+00  2.8124795717793063e+00  2.8256230270044398e+00  2.8306317476844498e+00  2.8278974020662275e+00
  2.8178437174311881e+00  2.8009188471197035e+00  2.7775883659789145e+00  2.7483289074652220e+00  2.7136224425962325e+00
  2.6739511903254396e+00  2.6297931404181583e+00  2.5816181632919921e+00  2.5298846763057838e+00  2.4750368324058769e+00
  2.4175021946711297e+00  2.3576898589451218e+00  2.2959889862334961e+00  2.2327677067340232e+00  2.1683723581147518e+00
  2.1031270218484224e+00  2.0373333229482995e+00  1.9712704602410369e+00  1.9051954362820354e+00  1.8393434581054251e+00
  1.7739284821481149e+00  1.7091438788567075e+00  1.6451631946320333e+00  1.5821409908724249e+00  1.5202137419055788e+00
  1.4595007755506515e+00  1.4001052418942663e+00  1.3421150976051877e+00  1.2856040947366125e+00  1.2306327644709114e+00
  1.1772493876521040e+00  1.1254909452253727e+00  1.0753840428599872e+00  1.0269458050837557e+00  9.8018473519940130e-01
  9.3510153809833696e-01  8.9168990383690883e-01  8.4993725050077984e-01  8.0982542546483316e-01  7.7133136465729990e-01
  7.3442770987267991e-01  6.9908338454677477e-01  6.6526412872113738e-01  6.3293299418218751e-01  6.0205080097434305e-01
  5.7257655665637230e-01  5.4446783980309021e-01  5.1768114935412513e-01  4.9217222148221218e-01  4.6789631569801671e-01
  4.4480847193145756e-01  4.2286374033358065e-01  4.0201738552994115e-01  3.8222506703151460e-01  3.6344299747029751e-01
  3.4562808028171510e-01  3.2873802840042821e-01  3.1273146547670727e-01  2.9756801105628305e-01  2.8320835109841447e-01
  2.6961429513751689e-01  2.5674882132317656e-01  2.4457611050121031e-01  2.3306157042885722e-01  2.2217185114615656e-01
  2.1187485245800097e-01  2.0213972441401395e-01  1.9293686160916401e-01  1.8423789206599128e-01  1.7601566139938463e-01
  1.6824421290823288e-01  1.6089876418413329e-01  1.5395568077589861e-01  1.4739244740058677e-01  1.4118763714583071e-01
  1.3532087906606094e-01  1.2977282453457750e-01  1.2452511267704969e-01  1.1956033517667564e-01  1.1486200070957642e-01
  1.1041449923916735e-01  1.0620306637086507e-01  1.0221374794353455e-01  9.8433365010703433e-02  9.4849479343793064e-02
  9.1450359570144357e-02  8.8224948041312423e-02  8.5162828511148092e-02  8.2254194688911930e-02  7.9489819719782862e-02
  7.6861026633556762e-02  7.4359659791945365e-02  7.1978057355755354e-02  6.9709024785019391e-02  6.7545809377936639e-02
  6.5482075848213306e-02  6.3511882934839115e-02  6.1629661033566707e-02  5.9830190835290065e-02  5.8108582952962173e-02
  5.6460258515815376e-02  5.4880930707118747e-02  5.3366587219797479e-02  5.1913473602555715e-02  5.0518077467937905e-02
  4.9177113532858696e-02  4.7887509461463251e-02  4.6646392479786414e-02  4.5451076731534812e-02  4.4299051344329321e-02
  4.3187969175906726e-02  4.2115636210163343e-02  4.1080001573322589e-02  4.0079148141122012e-02  3.9111283708509692e-02
  3.8174732694119751e-02  3.7267928352499924e-02  3.6389405467974978e-02  3.5537793504821114e-02  3.4711810189337999e-02
  3.3910255500315678e-02  3.3132006045311968e-02  3.2376009801025063e-02  3.1641281197056115e-02  3.0926896523147174e-02
  3.0231989640976842e-02  2.9555747982425329e-02  2.8897408817098458e-02  2.8256255772741601e-02  2.7631615592998982e-02
  2.7022855117770250e-02  2.6429378472184961e-02  2.5850624450970416e-02  2.5286064085690785e-02  2.4735198383046275e-02
  2.4197556223065408e-02  2.3672692406680351e-02  2.3160185842761583e-02  2.2659637865279025e-02  2.2170670671835202e-02
  2.1692925875283153e-02  2.1226063160710629e-02  2.0769759040521030e-02  2.0323705700767247e-02  1.9887609932384143e-02
  1.9461192141316586e-02  1.9044185431947969e-02  1.8636334758602713e-02  1.8237396140230899e-02  1.7847135933689695e-02
  1.7465330161385073e-02  1.7091763889272138e-02  1.6726230651524898e-02  1.6368531918402485e-02  1.6018476604117482e-02
  1.5675880611694337e-02  1.5340566412041456e-02  1.5012362654659439e-02  1.4691103807558503e-02  1.4376629824175480e-02
  1.4068785835212261e-02  1.3767421863463636e-02  1.3472392559873647e-02  1.3183556959150522e-02  1.2900778253428224e-02
  1.2623923582545604e-02  1.2352863839649619e-02  1.2087473490903944e-02  1.1827630408180745e-02  1.1573215713719498e-02
  1.1324113635776012e-02  1.1080211374406845e-02  1.0841398976555172e-02  1.0607569219707735e-02  1.0378617503423171e-02
  1.0154441748097653e-02  9.9349423003910475e-03  9.7200218447674458e-03  9.5095853206588199e-03  9.3035398448000906e-03
  9.1017946383145087e-03  8.9042609581665988e-03  8.7108520326330541e-03  8.5214830004667341e-03  8.3360708534563344e-03
  8.1545343821158855e-03  7.9767941242498419e-03  7.8027723161667450e-03  7.6323928463390700e-03  7.4655812113108566e-03
  7.3022644736793763e-03  7.1423712220031466e-03  6.9858315324717313e-03  6.8325769322190866e-03  6.6825403641552206e-03
  6.5356561531992319e-03  6.3918599738218562e-03  6.2510888187975733e-03  6.1132809690869205e-03  5.9783759647687174e-03
  5.8463145769541147e-03  5.7170387806181611e-03  5.5904917282912081e-03  5.4666177245562830e-03  5.3453622013025781e-03
  5.2266716936939239e-03  5.1104938168121949e-03  4.9967772429345414e-03  4.8854716794144715e-03  4.7765278471371131e-03
  4.6698974595187626e-03  4.5655332020223260e-03  4.4633887121737770e-03  4.3634185600484876e-03  4.2655782292140842e-03
  4.1698240981107859e-03  4.0761134218494921e-03  3.9844043144161567e-03  3.8946557312677932e-03  3.8068274523043177e-03
  3.7208800652058643e-03  3.6367749491276330e-03  3.5544742587341888e-03  3.4739409085721706e-03  3.3951385577662696e-03
  3.3180315950305517e-03  3.2425851239922809e-03  3.1687649488125469e-03  3.0965375601038209e-03  3.0258701211323263e-03
  2.9567304543036133e-03  2.8890870279202896e-03  2.8229089432085241e-03  2.7581659216093096e-03  2.6948282923243694e-03
  2.6328669801167909e-03  2.5722534933561303e-03  2.5129599123076413e-03  2.4549588776574399e-03  2.3982235792709000e-03
  2.3427277451791295e-03  2.2884456307876860e-03  2.2353520083073786e-03  2.1834221563960809e-03  2.1326318500153457e-03
  2.0829573504910909e-03  2.0343753957773325e-03  1.9868631909199103e-03  1.9403983987140230e-03  1.8949591305523622e-03
  1.8505239374625310e-03  1.8070718013256451e-03  1.7645821262764899e-03  1.7230347302798696e-03  1.6824098368790896e-03
  1.6426880671145255e-03  1.6038504316082877e-03  1.5658783228106390e-03  1.5287535074066244e-03  1.4924581188781386e-03
  1.4569746502193157e-03  1.4222859468012855e-03  1.3883751993830559e-03  1.3552259372668837e-03  1.3228220215934505e-03
  1.2911476387746715e-03  1.2601872940613337e-03  1.2299258052420187e-03  1.2003482964717746e-03  1.1714401922264736e-03
  1.1431872113803060e-03  1.1155753614053091e-03  1.0885909326878856e-03  1.0622204929616186e-03  1.0364508818534041e-03
  1.0112692055400316e-03  9.8666283151283701e-04  9.6261938344921819e-04  9.3912673618656156e-04  9.1617301079857313e-04
  8.9374656977029426e-04  8.7183601227025162e-04  8.5043016951734385e-04  8.2951810024052205e-04  8.0908908622959533e-04
  7.8913262797420530e-04  7.6963844039006427e-04  7.5059644863021552e-04  7.3199678397861331e-04  7.1382977982614032e-04
  6.9608596772510398e-04  6.7875607352167050e-04  6.6183101356499102e-04  6.4530189098998408e-04  6.2915999207315693e-04
  6.1339678265999453e-04  5.9800390466146700e-04  5.8297317261902029e-04  5.6829657033648229e-04  5.5396624757679883e-04
  5.3997451682300662e-04  5.2631385010162846e-04  5.1297687586741511e-04  4.9995637594766468e-04  4.8724528254567509e-04
  4.7483667530116673e-04  4.6272377840723272e-04  4.5089995778220364e-04  4.3935871829548813e-04  4.2809370104602770e-04
  4.1709868069276027e-04  4.0636756283551206e-04  3.9589438144539517e-04  3.8567329634417967e-04  3.7569859073094576e-04
  3.6596466875535652e-04  3.5646605313704831e-04  3.4719738282937979e-04  3.3815341072727413e-04  3.2932900141820903e-04
  3.2071912897517658e-04  3.1231887479109613e-04  3.0412342545394974e-04  2.9612807066136011e-04  2.8832820117438013e-04
  2.8071930680946024e-04  2.7329697446802463e-04  2.6605688620252518e-04  2.5899481731896101e-04  2.5210663451460773e-04
  2.4538829405039951e-04  2.3883583995754076e-04  2.3244540227755281e-04  2.2621319533494815e-04  2.2013551604236053e-04
  2.1420874223712898e-04  2.0842933104886149e-04  2.0279381729763207e-04  1.9729881192189717e-04  1.9194100043584596e-04
  1.8671714141556012e-04  1.8162406501339226e-04  1.7665867150027260e-04  1.7181792983513803e-04  1.6709887626118174e-04
  1.6249861292849666e-04  1.5801430654247602e-04  1.5364318703756877e-04  1.4938254627607905e-04  1.4522973677123623e-04
  1.4118217043452164e-04  1.3723731734648428e-04  1.3339270455082000e-04  1.2964591487125629e-04  1.2599458575065798e-04
  1.2243640811247618e-04  1.1896912524339207e-04  1.1559053169753544e-04  1.1229847222142672e-04  1.0909084069933963e-04
  1.0596557911894027e-04  1.0292067655662610e-04  9.9954168182353649e-05  9.7064134283507061e-05  9.4248699307630801e-05
  9.1506030923423857e-05  8.8834339100102040e-05  8.6231875204344742e-05  8.3696931114819219e-05  8.1227838353902480e-05
  7.8822967236273373e-05  7.6480726034077341e-05  7.4199560158407993e-05  7.1977951356812751e-05  6.9814416926499475e-05
  6.7707508943029831e-05  6.5655813504213612e-05  6.3657949988866168e-05  6.1712570330282358e-05  5.9818358304071853e-05
  5.7974028830165385e-05  5.6178327288702694e-05  5.4430028849589227e-05  5.2727937815392426e-05  5.1070886977526431e-05
  4.9457736985278073e-05  4.7887375727560756e-05  4.6358717727160289e-05  4.4870703547245875e-05  4.3422299209859138e-05
  4.2012495626317673e-05  4.0640308039126966e-05  3.9304775475375526e-05  3.8004960211247439e-05  3.6739947247565801e-05
  3.5508843796142400e-05  3.4310778776663886e-05  3.3144902324029873e-05  3.2010385305857383e-05  3.0906418850064473e-05
  2.9832213882209505e-05  2.8787000672575664e-05  2.7770028392667219e-05  2.6780564681032955e-05  2.5817895218209702e-05
  2.4881323310664734e-05  2.3970169483444534e-05  2.3083771081538595e-05  2.2221481879665080e-05  2.1382671700350851e-05
  2.0566726040181392e-05  1.9773045704053120e-05  1.9001046447230654e-05  1.8250158625112214e-05  1.7519826850580754e-05
  1.6809509658667816e-05  1.6118679178557115e-05  1.5446820812670342e-05  1.4793432922725696e-05  1.4158026522648345e-05
  1.3540124978214771e-05  1.2939263713231488e-05  1.2354989922202923e-05  1.1786862289310442e-05  1.1234450713584233e-05
  1.0697336040167097e-05  1.0175109797512299e-05  9.6673739404608315e-06  9.1737405989803780e-06  8.6938318325755241e-06
  8.2272793901403372e-06  7.7737244752313066e-06  7.3328175165903700e-06  6.9042179438641416e-06  6.4875939683566573e-06
  6.0826223687688533e-06  5.6889882817751591e-06  5.3063849973837519e-06  4.9345137589397459e-06  4.5730835677019240e-06
  4.2218109918944072e-06  3.8804199801278200e-06  3.5486416791253358e-06  3.2262142556238214e-06  2.9128827224128399e-06
  2.6083987683696969e-06  2.3125205924632631e-06  2.0250127415929456e-06  1.7456459522151562e-06  1.4741969956554718e-06
  1.2104485270563944e-06  9.5418893783608431e-07  7.0521221163838584e-07  4.6331778365889687e-07  2.2831040328782914e-07
  0.                      0.                      0.                      0.                      0.

