# DATE: 2020-01-31 CONTRIBUTOR: Yunxing Zuo <y9zuo@eng.ucsd.edu> CITATION: Y. Zuo, C. Chen, X, Li, Z. Deng, Y. Chen, J. Behler, G. Csányi, A. V. Shapeev, A. P. Thompson, M. A. Wood, S. P. Ong, "Performance and Cost Assessment of Machine Learning Interatomic Potentials" J. Phys. Chem. A 124, 4, 731-745 (2020)
# Generated by Materials Virtual Lab

1 496
Ni 0.5 1
10.356343450183674
0.11285514870052679
0.9274095140066043
0.07374085611284704
-0.03762640327861091
0.5229413785343182
-2.078612041780932
1.2071495991852963
-0.4671999567607938
-0.5995481419268094
-2.1514182588022948
0.35009807122951564
-0.3820784708801409
0.35833945255729777
0.057165603344637814
-0.5295246422142617
-1.3283024150787217
-0.20543311892763128
-0.850282189828648
-0.14742987699512713
-0.11777066147130788
-0.08282441791473201
0.19288963818184274
0.45023114102732564
0.4629007146856834
-0.28578193623848513
-0.12329657750071922
-0.021653659576176036
0.20677575989515198
-0.214705010183548
-0.06699754710623217
0.0010490049323940986
-0.006168114640355271
0.008067212419163867
-0.0011030910911700165
0.0005994933841398931
0.005716575524086172
-0.008406370344080007
0.0003852844986020343
0.005271888415372926
0.0017449977421995534
-0.002462237158467162
-0.002274350881051268
-0.001822179448588257
-0.003099396465033988
0.0035066918931879187
0.003112581277164732
0.0012513791181766876
0.0011393905249604264
0.002375443369489638
0.002701345855483761
0.000483930511227193
-0.004155093314785363
-0.00277588339115592
-0.004197909720586257
0.0010917830087771585
-0.0009784502365698389
-0.0011932553036097526
0.0005711356321667083
0.0032328302628335803
0.0014684486431447707
-0.0021185204109687526
-0.07943777262183052
0.005787494089779317
-0.067779055525252
-0.022186760548394725
-0.025991937077610633
-0.0003599563854197324
-0.04365491915404268
-0.02454369221686112
-0.022921266764835427
-0.009766407550341
-0.004230163362609708
0.009550233386118233
-0.01767981801333133
-0.0294865773655346
-0.020199076798239915
-0.010339615854554287
-0.010743711324784244
-0.014821316745393949
-0.0021862051041535435
0.009792324334288676
0.006024421285798565
-0.0007967732992836818
0.0047376975486344165
0.0012450576046151044
0.0028180742431499484
0.004093403956813072
-0.0032382222845371567
-0.0008814166456505707
-0.03485858993981602
-0.009702754827562322
-0.007407501018857015
0.027506788257423465
-0.015754927767368608
0.017122275332912773
0.08871026067901236
0.11723125979961196
-0.020306447928976835
-0.010390420652763691
-0.026641453005539217
-0.01125547442325546
0.04282589817257829
0.021926165529211755
0.02594901316199998
-0.0694221838315221
0.014677365446048033
0.027348594452072876
0.00823821004923752
-0.011555112804893939
-0.028261754546953274
-0.04841611737854069
-0.029924159201091337
0.009537137273924818
-0.006538301753995376
0.0060980678637218046
-0.0006631782984074224
0.00955674838938158
0.0031254156777456576
0.004167450579135531
0.00149022465083902
0.0025842005483934904
-0.0017211645525154334
-0.01663467347244394
0.002926022454963536
-0.007447368863892981
0.0037096679865115355
0.0004586509992300647
0.004172275787886676
-0.005605297584632723
-0.0024450998962981044
-0.013127900910770686
0.002965245923123843
-0.0034208471312272837
-0.004982347881437095
-0.0007838700552988964
0.01761585636029113
0.010757506459215659
0.0045147386850326945
-0.0012374494373584323
0.0009717112790320892
0.0014684532116287785
0.003414647583984076
-0.0033174178783450872
-0.0005560601259608083
-0.07885721073822803
0.06689268744630027
-0.09774780566333842
0.0158079328051004
0.04597370315706318
0.06464642643877996
-0.03336859432705273
-0.002540354252708543
-0.02944169944965777
-0.0051663828566425145
0.08008449132499999
0.013176585647365896
0.0223823853360507
0.014485498680166166
0.00910517696265692
-0.009271292352902426
-0.004351748093255135
0.013763358425560207
-0.017015001248872574
-0.03627594694628519
0.0210995038687364
-0.005408278557766544
-0.002528201770993166
0.003827214818729885
0.002710974143157314
0.008532397295622544
0.03433676134977772
0.041881803584699506
-0.004910703948876681
0.07418187646669822
0.08569575581751998
0.03083248989248409
0.04995176457917469
0.008139283440940902
-0.000658557526262064
0.019819844505725073
0.0282057104627595
0.006754321509859343
0.030723595102822052
0.007187657408111756
-0.00102458592777439
0.0007207429517628178
-0.00830648545870933
-0.0033209992514436574
-0.0002492064696736976
0.006770967245181575
0.003982408848650698
0.001058208868727907
-0.011393406360556139
0.0016014090686503682
0.001175194333940987
-0.08536565528610686
0.016252517781834848
-0.03174765589100795
0.007485209652313231
-0.052923966275135695
-0.025405307577116825
-0.02240995597524039
0.0017477230880338715
0.02867918062933422
0.013499916387379506
-0.005607524355613186
-0.010131379353610487
-0.004987327586060365
-0.005353904813528916
-7.227686782386444e-06
0.0056901508178682815
-0.011811267626707051
-0.02273355527224015
0.00689517337508364
0.00015654899851488303
0.0006521992616960112
0.003755133577654982
-4.7924336153191624e-05
0.0017674364424168296
0.002573140569709864
0.01288815212293809
0.0077669298168438
0.006370469572102022
0.004089929875661286
-0.0002524968271828687
0.0023331510533081967
0.0005138567116430848
0.006024020461197918
0.011089431523267523
0.0027361388316190782
-0.0012092522218419902
-0.0006150057333795672
-0.0006568328330393836
0.0016514543606173104
0.005730998179096836
0.0061333101844434496
0.00045609981511063324
0.00010897494637768235
0.0011704121406372892
0.0006895921445150832
-0.0046327708759480585
-0.001978299214165369
0.057798910858945396
0.08160709875199346
-0.009248094113261725
0.00015220468744222854
-0.015051941196011887
-0.01585966105008821
0.02004473668523898
0.05086531075293372
0.029060459295313396
0.005820944102771846
0.011557668256036598
0.023823771280129427
0.007322909321767348
-0.02740632872328317
-0.01951202619214691
-0.02848125856023879
0.003224006478675128
-0.0026127113067893754
-0.007254547031873726
-0.0018929384485002268
0.021413772206212135
0.008525567005747067
0.11958045969386633
0.024183636059517205
0.03525435418621041
0.0026129184995645136
-0.0029526652741079518
0.03434268788746694
0.041061277657030756
0.021480379642858555
0.03783384790610266
0.006384682298040967
0.007764651279532575
0.002747604196680589
-0.0008933067957662758
-0.027106243382828354
-0.01714576785349475
0.007062135307844438
0.002071101440600853
0.0005730475559648507
-0.02253785625098763
0.0012918802490516253
0.0011560319676114997
-0.01313672124289508
-0.004073355623464989
-0.01219797917853263
-0.006935555869745785
0.011379814337436345
0.02908221816758577
-0.004710249096430908
0.006921246894545055
0.0094456248158746
0.0033442849075802673
0.001916231650224448
-0.013403101445624288
-0.014129697727882091
-0.01944970816982947
0.007976146245271681
-0.0007321506149844878
-0.001065495028795771
0.002939907123918742
0.008940460670005573
0.003810939786104521
0.0064386426222424326
-0.00021595693859499665
-0.0011453107195982526
-0.001369234564349616
0.015306575814270107
-0.006979542487875613
0.01354119590367061
0.0023034032118149153
0.0014999829971070987
0.0015031719132850146
-0.0031638040834948873
-0.019097682065914216
-0.011055449651782512
0.006885453367379758
0.004658747499442603
4.144283382023772e-06
-0.008766399138849648
0.005604438061358422
0.0017230796305286455
-0.0030003741093973524
-0.0011944811459572435
0.0005128436621485988
0.0032391286865135066
-0.014725783507084804
-0.002109165687645083
0.0003179415643299287
-0.00015587605804290305
0.001448663223253016
-0.0019323126201333807
-0.002917039787748224
-0.008603546494606422
-0.0009011283096209983
0.0015919726664343492
-0.0006271909162907097
0.0008559071190318845
0.005774135411819849
0.002219266189036964
0.004909664093469324
-0.0021021405649874064
-0.0062586542473045265
-0.0041325243935032285
-0.00508972249713327
-0.0025420778029945357
-0.004610506165407868
-0.0004304642433176076
0.00654073707707372
0.0026744881214183086
0.0011674887327947775
0.00029350041266351656
0.002724748438278801
0.001751144652147263
0.00031824677768703055
-0.004425789637109032
-0.0007116977451438466
-0.005398291266006237
0.00925150027331332
0.004204959289523218
0.012666415607438659
0.0009759266540746931
0.009358928328404986
0.0008110782598237318
-0.009362614611872055
-0.007947771258531295
-0.0028742534910043555
0.0014290023593389483
0.0036815111555434646
-0.0008720691922483315
-0.0054952332748573335
0.003766816783128242
0.0018483043668045887
0.026806486267460735
0.024081734343988557
0.023381537806904416
0.009239665706034954
0.01098050561471908
0.0020319213386238086
-0.021466032977739295
-0.02087293786358894
-0.003627785017762543
0.0035837917920516233
0.0012456865090610773
-0.001466970086554692
-0.013791081676043485
0.007349221622778127
-0.0009073606009937923
0.020026390018866115
1.7645186505071964e-05
-0.000645696493857646
0.007124570031684287
0.0030014742465431926
-0.02821506609749587
0.003108592927598613
-0.011643052758699406
-0.0009367211723152191
0.0003286480170214129
-0.0021467065304053012
0.007464160152785795
0.007423722335587319
0.004298938941106785
0.022972342937271885
0.01097847944415329
0.0046584217637678504
0.001039075756955235
-0.010352390185044177
-0.007424674338292241
0.00013611082039862409
0.0028874903368086846
0.0026218970379646017
0.0001241484377495182
-0.005594491518577391
0.0059670045875896745
0.0009897548839400139
0.0014598821381248267
0.00046038065493921726
-0.0015689460575785408
0.003412801097719638
-0.00420024899318243
-0.0007158372914741577
0.002752764000210302
0.00046388687458916167
-0.00019443840265627454
0.0013545305636312038
0.0008896050369491572
-0.0007452517708710048
0.005118026784602967
0.0020865486856176396
-0.00870716067385956
0.0010763435213221352
-0.002783564782065276
-0.002724807267172294
-0.00481405420142534
-0.0021042204010641163
-0.0009278000907149697
0.007010320800915041
0.0014057225530113224
0.0005281615786202898
-0.0012354889502706537
-0.0007876582262306697
0.0005094599531176996
-0.0009291381001668431
-0.0016090022752804356
-0.0003966450442366154
-0.001512170295391739
0.0011913517430552079
-0.00038827942852798225
0.019397247007001624
-0.0018494902344606823
-0.002754547287999509
0.0018388338209735918
0.012141620260526877
0.004239197883857626
0.0008144101513924418
-0.008039035164525886
-0.00029238030866039766
-0.006878786465980039
0.004516233912781824
0.0004921100652847859
0.003173179162615114
0.00030506542852948293
-0.004336385846769104
-0.0004732647100172162
-0.0016329308939515494
-0.0009618891990548564
-0.00011707594868689934
-0.0003910037913128217
0.0006910874093864622
0.003999268445077725
0.003572664106524251
0.0008943460943900694
0.0026039717367661447
0.004246025582946306
0.0004731921176533149
0.003529727562944524
-0.0018285657006552047
0.000660266111630288
0.0037295165265255753
0.0014090040055322328
0.0005391916371809274
-0.006425068797073941
-0.00044727871618421844
0.0005906371965740953
-0.00019355990042069227
-0.0011566183965259352
-0.00019156800417580166
0.0005014915867621317
-0.0013753769517430708
-0.0010297995066643612
0.0017389392843440293
-0.001502483116572792
-0.000273051878340938
