# DATE: 2020-01-31 CONTRIBUTOR: Yunxing Zuo <y9zuo@eng.ucsd.edu> CITATION: Y. Zuo, C. Chen, X, Li, Z. Deng, Y. Chen, J. Behler, G. Csányi, A. V. Shapeev, A. P. Thompson, M. A. Wood, S. P. Ong, "Performance and Cost Assessment of Machine Learning Interatomic Potentials" J. Phys. Chem. A 124, 4, 731-745 (2020)
# Generated by Materials Virtual Lab

1 56
Ni 0.5 1
-13.981410261722266
0.014498298295814536
0.01009901609878365
0.12054695725330583
-0.006889616925370962
0.2776408812983965
0.11092253195422327
0.11050083502221106
0.010313578861053413
0.12340040989449619
0.13039135510234542
0.1352821529381515
0.061399614328409104
0.02477626778018876
0.005134285723997267
0.09622793751539735
0.048797107907248935
0.099150739352655
0.08182747420199402
0.020030009874751214
0.022720360502777287
0.0316253340060541
0.0015374207047660696
-0.0004492196418074551
0.05837912394391745
0.041884387551950654
0.05650849600714676
0.05599900218342105
0.0004479044912328832
0.03278488848430462
0.028915949720689595
0.013706496643580618
0.00490725689107064
-0.007009295051790751
0.03158298910258939
0.03669162053334976
0.02309349791553273
0.031709528269101145
0.0170053035722206
0.007918753870603402
0.01374372143122009
0.004859557404579148
0.005663710130194816
-0.003706838361900361
0.007243319266009754
0.016766602962023897
0.008563185376256069
0.0024990411637851664
0.000733392821839908
0.0043099402533140554
0.0007772409882662451
-0.0007573338114589823
0.002526539410172261
-0.0008004751079078755
-0.0009174591208531259
0.0008135791723930669
