DATE: 2007-06-11 CONTRIBUTOR: MI Mendelev, mendelev@ameslab.gov CITATION: Unknown
Sunday, Jun 10, 2007  The potential was taken from v1_20_V (in C:\SIMULATION.MD\V-Fe\v1_20)
################################################
2  V  Fe  
10000   5.00000000000000E-0002  10000   5.30000000000000E-0004   5.30000000000000E+0000
23   5.09415000000000E+0001   3.02987000000000E+0000  bcc
0  -2.23607821200000E-0001  -3.16231860100000E-0001  -3.87307546200000E-0001  -4.47229971700000E-0001  
-5.00025587900000E-0001  -5.47759403900000E-0001  -5.91658130400000E-0001  -6.32521036700000E-0001  -6.70903297500000E-0001  
-7.07209132100000E-0001  -7.41743693100000E-0001  -7.74744054000000E-0001  -8.06398747100000E-0001  -8.36860633100000E-0001  
-8.66255691500000E-0001  -8.94689206700000E-0001  -9.22250236300000E-0001  -9.49014910400000E-0001  -9.75048915400000E-0001  
-1.00040939620000E+0000  -1.02514643480000E+0000  -1.04930421500000E+0000  -1.07292195170000E+0000  -1.09603463920000E+0000  
-1.11867366150000E+0000  -1.14086729320000E+0000  -1.16264111370000E+0000  -1.18401835470000E+0000  -1.20502019060000E+0000  
-1.22566598530000E+0000  -1.24597350110000E+0000  -1.26595907920000E+0000  -1.28563779310000E+0000  -1.30502358250000E+0000  
-1.32412936950000E+0000  -1.34296715920000E+0000  -1.36154812820000E+0000  -1.37988270330000E+0000  -1.39798062930000E+0000  
-1.41585102990000E+0000  -1.43350246230000E+0000  -1.45094296490000E+0000  -1.46818010030000E+0000  -1.48522099340000E+0000  
-1.50207236730000E+0000  -1.51874057310000E+0000  -1.53523161830000E+0000  -1.55155119290000E+0000  -1.56770469170000E+0000  
-1.58369723600000E+0000  -1.59953369180000E+0000  -1.61521868790000E+0000  -1.63075663160000E+0000  -1.64615172330000E+0000  
-1.66140796960000E+0000  -1.67652919600000E+0000  -1.69151905770000E+0000  -1.70638105050000E+0000  -1.72111852000000E+0000  
-1.73573467090000E+0000  -1.75023257430000E+0000  -1.76461517640000E+0000  -1.77888530500000E+0000  -1.79304567600000E+0000  
-1.80709889970000E+0000  -1.82104748650000E+0000  -1.83489385160000E+0000  -1.84864032080000E+0000  -1.86228913460000E+0000  
-1.87584245260000E+0000  -1.88930235750000E+0000  -1.90267085910000E+0000  -1.91594989720000E+0000  -1.92914134580000E+0000  
-1.94224701560000E+0000  -1.95526865730000E+0000  -1.96820796410000E+0000  -1.98106657410000E+0000  -1.99384607370000E+0000  
-2.00654799870000E+0000  -2.01917383710000E+0000  -2.03172503150000E+0000  -2.04420298020000E+0000  -2.05660903990000E+0000  
-2.06894452640000E+0000  -2.08121071760000E+0000  -2.09340885420000E+0000  -2.10554014070000E+0000  -2.11760574860000E+0000  
-2.12960681580000E+0000  -2.14154444850000E+0000  -2.15341972320000E+0000  -2.16523368690000E+0000  -2.17698735850000E+0000  
-2.18868173010000E+0000  -2.20031776740000E+0000  -2.21189641130000E+0000  -2.22341857840000E+0000  -2.23488516180000E+0000  
-2.24629703270000E+0000  -2.25765503970000E+0000  -2.26896001110000E+0000  -2.28021275470000E+0000  -2.29141405870000E+0000  
-2.30256469250000E+0000  -2.31366540700000E+0000  -2.32471693600000E+0000  -2.33571999540000E+0000  -2.34667528520000E+0000  
-2.35758348890000E+0000  -2.36844527480000E+0000  -2.37926129620000E+0000  -2.39003219170000E+0000  -2.40075858570000E+0000  
-2.41144108930000E+0000  -2.42208029970000E+0000  -2.43267680220000E+0000  -2.44323116860000E+0000  -2.45374395940000E+0000  
-2.46421572290000E+0000  -2.47464699600000E+0000  -2.48503830480000E+0000  -2.49539016450000E+0000  -2.50570307970000E+0000  
-2.51597754510000E+0000  -2.52621404530000E+0000  -2.53641305540000E+0000  -2.54657504100000E+0000  -2.55670045900000E+0000  
-2.56678975700000E+0000  -2.57684337450000E+0000  -2.58686174210000E+0000  -2.59684528260000E+0000  -2.60679441080000E+0000  
-2.61670953370000E+0000  -2.62659105070000E+0000  -2.63643935410000E+0000  -2.64625482880000E+0000  -2.65603785310000E+0000  
-2.66578879810000E+0000  -2.67550802830000E+0000  -2.68519590200000E+0000  -2.69485277120000E+0000  -2.70447898150000E+0000  
-2.71407487260000E+0000  -2.72364077850000E+0000  -2.73317702730000E+0000  -2.74268394170000E+0000  -2.75216183870000E+0000  
-2.76161103010000E+0000  -2.77103182280000E+0000  -2.78042451800000E+0000  -2.78978941270000E+0000  -2.79912679840000E+0000  
-2.80843696210000E+0000  -2.81772018650000E+0000  -2.82697674900000E+0000  -2.83620692350000E+0000  -2.84541097890000E+0000  
-2.85458918020000E+0000  -2.86374178810000E+0000  -2.87286905940000E+0000  -2.88197124670000E+0000  -2.89104859890000E+0000  
-2.90010136130000E+0000  -2.90912977510000E+0000  -2.91813407800000E+0000  -2.92711450420000E+0000  -2.93607128450000E+0000  
-2.94500464610000E+0000  -2.95391481300000E+0000  -2.96280200580000E+0000  -2.97166644190000E+0000  -2.98050833580000E+0000  
-2.98932789850000E+0000  -2.99812533840000E+0000  -3.00690086070000E+0000  -3.01565466770000E+0000  -3.02438695900000E+0000  
-3.03309793130000E+0000  -3.04178777860000E+0000  -3.05045669210000E+0000  -3.05910486060000E+0000  -3.06773247010000E+0000  
-3.07633970430000E+0000  -3.08492674420000E+0000  -3.09349376860000E+0000  -3.10204095360000E+0000  -3.11056847310000E+0000  
-3.11907649890000E+0000  -3.12756520000000E+0000  -3.13603474400000E+0000  -3.14448529550000E+0000  -3.15291701750000E+0000  
-3.16133007060000E+0000  -3.16972461360000E+0000  -3.17810080300000E+0000  -3.18645879350000E+0000  -3.19479873770000E+0000  
-3.20312078650000E+0000  -3.21142508870000E+0000  -3.21971179130000E+0000  -3.22798103950000E+0000  -3.23623297680000E+0000  
-3.24446774470000E+0000  -3.25268548320000E+0000  -3.26088633050000E+0000  -3.26907042320000E+0000  -3.27723789600000E+0000  
-3.28538888250000E+0000  -3.29352351420000E+0000  -3.30164192120000E+0000  -3.30974423210000E+0000  -3.31783057410000E+0000  
-3.32590107260000E+0000  -3.33395585180000E+0000  -3.34199503460000E+0000  -3.35001874190000E+0000  -3.35802709390000E+0000  
-3.36602020900000E+0000  -3.37399820410000E+0000  -3.38196119530000E+0000  -3.38990929710000E+0000  -3.39784262270000E+0000  
-3.40576128400000E+0000  -3.41366539180000E+0000  -3.42155505560000E+0000  -3.42943038350000E+0000  -3.43729148270000E+0000  
-3.44513845930000E+0000  -3.45297141770000E+0000  -3.46079046170000E+0000  -3.46859569380000E+0000  -3.47638721540000E+0000  
-3.48416512680000E+0000  -3.49192952720000E+0000  -3.49968051470000E+0000  -3.50741818660000E+0000  -3.51514263900000E+0000  
-3.52285396690000E+0000  -3.53055226460000E+0000  -3.53823762510000E+0000  -3.54591014050000E+0000  -3.55356990220000E+0000  
-3.56121700030000E+0000  -3.56885152430000E+0000  -3.57647356240000E+0000  -3.58408320240000E+0000  -3.59168053080000E+0000  
-3.59926563340000E+0000  -3.60683859530000E+0000  -3.61439950020000E+0000  -3.62194843170000E+0000  -3.62948547180000E+0000  
-3.63701070260000E+0000  -3.64452420450000E+0000  -3.65202605750000E+0000  -3.65951634090000E+0000  -3.66699513320000E+0000  
-3.67446251200000E+0000  -3.68191855410000E+0000  -3.68936333600000E+0000  -3.69679693270000E+0000  -3.70421941930000E+0000  
-3.71163086960000E+0000  -3.71903135720000E+0000  -3.72642095440000E+0000  -3.73379973310000E+0000  -3.74116776500000E+0000  
-3.74852512020000E+0000  -3.75587186890000E+0000  -3.76320808020000E+0000  -3.77053382300000E+0000  -3.77784916520000E+0000  
-3.78515417390000E+0000  -3.79244891640000E+0000  -3.79973345850000E+0000  -3.80700786580000E+0000  -3.81427220330000E+0000  
-3.82152653550000E+0000  -3.82877092590000E+0000  -3.83600543790000E+0000  -3.84323013430000E+0000  -3.85044507690000E+0000  
-3.85765032740000E+0000  -3.86484594690000E+0000  -3.87203199580000E+0000  -3.87920853400000E+0000  -3.88637562080000E+0000  
-3.89353331530000E+0000  -3.90068167590000E+0000  -3.90782076010000E+0000  -3.91495062580000E+0000  -3.92207132950000E+0000  
-3.92918292770000E+0000  -3.93628547630000E+0000  -3.94337903090000E+0000  -3.95046364620000E+0000  -3.95753937690000E+0000  
-3.96460627680000E+0000  -3.97166439970000E+0000  -3.97871379860000E+0000  -3.98575452630000E+0000  -3.99278663500000E+0000  
-3.99981017650000E+0000  -4.00682520200000E+0000  -4.01383176270000E+0000  -4.02082990920000E+0000  -4.02781969130000E+0000  
-4.03480115910000E+0000  -4.04177436150000E+0000  -4.04873934770000E+0000  -4.05569616630000E+0000  -4.06264486490000E+0000  
-4.06958549180000E+0000  -4.07651809410000E+0000  -4.08344271870000E+0000  -4.09035941230000E+0000  -4.09726822100000E+0000  
-4.10416919080000E+0000  -4.11106236720000E+0000  -4.11794779510000E+0000  -4.12482551960000E+0000  -4.13169558490000E+0000  
-4.13855803500000E+0000  -4.14541291390000E+0000  -4.15226026480000E+0000  -4.15910013090000E+0000  -4.16593255470000E+0000  
-4.17275757880000E+0000  -4.17957524520000E+0000  -4.18638559560000E+0000  -4.19318867150000E+0000  -4.19998451380000E+0000  
-4.20677316360000E+0000  -4.21355466130000E+0000  -4.22032904710000E+0000  -4.22709636060000E+0000  -4.23385664160000E+0000  
-4.24060992950000E+0000  -4.24735626310000E+0000  -4.25409568120000E+0000  -4.26082822210000E+0000  -4.26755392400000E+0000  
-4.27427282470000E+0000  -4.28098496180000E+0000  -4.28769037260000E+0000  -4.29438909420000E+0000  -4.30108116310000E+0000  
-4.30776661600000E+0000  -4.31444548890000E+0000  -4.32111781790000E+0000  -4.32778363880000E+0000  -4.33444298670000E+0000  
-4.34109589700000E+0000  -4.34774240460000E+0000  -4.35438254420000E+0000  -4.36101635010000E+0000  -4.36764385660000E+0000  
-4.37426509740000E+0000  -4.38088010650000E+0000  -4.38748891720000E+0000  -4.39409156290000E+0000  -4.40068807620000E+0000  
-4.40727849030000E+0000  -4.41386283740000E+0000  -4.42044114990000E+0000  -4.42701345990000E+0000  -4.43357979920000E+0000  
-4.44014019950000E+0000  -4.44669469230000E+0000  -4.45324330860000E+0000  -4.45978607930000E+0000  -4.46632303540000E+0000  
-4.47285420740000E+0000  -4.47937962560000E+0000  -4.48589932020000E+0000  -4.49241332110000E+0000  -4.49892165790000E+0000  
-4.50542436040000E+0000  -4.51192145790000E+0000  -4.51841297910000E+0000  -4.52489895350000E+0000  -4.53137940950000E+0000  
-4.53785437590000E+0000  -4.54432388090000E+0000  -4.55078795270000E+0000  -4.55724661920000E+0000  -4.56369990830000E+0000  
-4.57014784780000E+0000  -4.57659046480000E+0000  -4.58302778670000E+0000  -4.58945984070000E+0000  -4.59588665340000E+0000  
-4.60230825200000E+0000  -4.60872466250000E+0000  -4.61513591150000E+0000  -4.62154202540000E+0000  -4.62794303000000E+0000  
-4.63433895130000E+0000  -4.64072981500000E+0000  -4.64711564660000E+0000  -4.65349647140000E+0000  -4.65987231460000E+0000  
-4.66624320140000E+0000  -4.67260915660000E+0000  -4.67897020500000E+0000  -4.68532637100000E+0000  -4.69167767920000E+0000  
-4.69802415390000E+0000  -4.70436581900000E+0000  -4.71070269860000E+0000  -4.71703481640000E+0000  -4.72336219620000E+0000  
-4.72968486170000E+0000  -4.73600283570000E+0000  -4.74231614180000E+0000  -4.74862480320000E+0000  -4.75492884250000E+0000  
-4.76122828280000E+0000  -4.76752314640000E+0000  -4.77381345600000E+0000  -4.78009923420000E+0000  -4.78638050290000E+0000  
-4.79265728430000E+0000  -4.79892960050000E+0000  -4.80519747300000E+0000  -4.81146092390000E+0000  -4.81771997450000E+0000  
-4.82397464630000E+0000  -4.83022496070000E+0000  -4.83647093870000E+0000  -4.84271260160000E+0000  -4.84894996990000E+0000  
-4.85518306490000E+0000  -4.86141190700000E+0000  -4.86763651670000E+0000  -4.87385691460000E+0000  -4.88007312080000E+0000  
-4.88628515580000E+0000  -4.89249303930000E+0000  -4.89869679150000E+0000  -4.90489643220000E+0000  -4.91109198110000E+0000  
-4.91728345750000E+0000  -4.92347088120000E+0000  -4.92965427160000E+0000  -4.93583364790000E+0000  -4.94200902900000E+0000  
-4.94818043430000E+0000  -4.95434788230000E+0000  -4.96051139230000E+0000  -4.96667098260000E+0000  -4.97282667200000E+0000  
-4.97897847890000E+0000  -4.98512642160000E+0000  -4.99127051860000E+0000  -4.99741078790000E+0000  -5.00354724750000E+0000  
-5.00967991540000E+0000  -5.01580880970000E+0000  -5.02193394780000E+0000  -5.02805534760000E+0000  -5.03417302640000E+0000  
-5.04028700200000E+0000  -5.04639729160000E+0000  -5.05250391210000E+0000  -5.05860688130000E+0000  -5.06470621570000E+0000  
-5.07080193270000E+0000  -5.07689404880000E+0000  -5.08298258110000E+0000  -5.08906754610000E+0000  -5.09514896040000E+0000  
-5.10122684050000E+0000  -5.10730120280000E+0000  -5.11337206360000E+0000  -5.11943943930000E+0000  -5.12550334580000E+0000  
-5.13156379920000E+0000  -5.13762081550000E+0000  -5.14367441050000E+0000  -5.14972460000000E+0000  -5.15577139970000E+0000  
-5.16181482540000E+0000  -5.16785489220000E+0000  -5.17389161610000E+0000  -5.17992501180000E+0000  -5.18595509500000E+0000  
-5.19198188100000E+0000  -5.19800538440000E+0000  -5.20402562070000E+0000  -5.21004260450000E+0000  -5.21605635090000E+0000  
-5.22206687440000E+0000  -5.22807419010000E+0000  -5.23407831230000E+0000  -5.24007925550000E+0000  -5.24607703450000E+0000  
-5.25207166350000E+0000  -5.25806315660000E+0000  -5.26405152840000E+0000  -5.27003679270000E+0000  -5.27601896380000E+0000  
-5.28199805580000E+0000  -5.28797408240000E+0000  -5.29394705750000E+0000  -5.29991699490000E+0000  -5.30588390850000E+0000  
-5.31184781160000E+0000  -5.31780871790000E+0000  -5.32376664120000E+0000  -5.32972159440000E+0000  -5.33567359130000E+0000  
-5.34162264480000E+0000  -5.34756876850000E+0000  -5.35351197530000E+0000  -5.35945227820000E+0000  -5.36538969040000E+0000  
-5.37132422480000E+0000  -5.37725589440000E+0000  -5.38318471160000E+0000  -5.38911068940000E+0000  -5.39503384060000E+0000  
-5.40095417770000E+0000  -5.40687171310000E+0000  -5.41278645940000E+0000  -5.41869842910000E+0000  -5.42460763430000E+0000  
-5.43051408760000E+0000  -5.43641780100000E+0000  -5.44231878670000E+0000  -5.44821705690000E+0000  -5.45411262350000E+0000  
-5.46000549850000E+0000  -5.46589569390000E+0000  -5.47178322150000E+0000  -5.47766809320000E+0000  -5.48355032040000E+0000  
-5.48942991510000E+0000  -5.49530688890000E+0000  -5.50118125320000E+0000  -5.50705301960000E+0000  -5.51292219960000E+0000  
-5.51878880440000E+0000  -5.52465284530000E+0000  -5.53051433390000E+0000  -5.53637328100000E+0000  -5.54222969810000E+0000  
-5.54808359610000E+0000  -5.55393498610000E+0000  -5.55978387900000E+0000  -5.56563028600000E+0000  -5.57147421770000E+0000  
-5.57731568490000E+0000  -5.58315469860000E+0000  -5.58899126940000E+0000  -5.59482540800000E+0000  -5.60065712490000E+0000  
-5.60648643080000E+0000  -5.61231333610000E+0000  -5.61813785140000E+0000  -5.62395998700000E+0000  -5.62977975310000E+0000  
-5.63559716030000E+0000  -5.64141221870000E+0000  -5.64722493850000E+0000  -5.65303532980000E+0000  -5.65884340270000E+0000  
-5.66464916750000E+0000  -5.67045263390000E+0000  -5.67625381190000E+0000  -5.68205271160000E+0000  -5.68784934270000E+0000  
-5.69364371500000E+0000  -5.69943583820000E+0000  -5.70522572220000E+0000  -5.71101337650000E+0000  -5.71679881080000E+0000  
-5.72258203470000E+0000  -5.72836305770000E+0000  -5.73414188920000E+0000  -5.73991853880000E+0000  -5.74569301550000E+0000  
-5.75146532930000E+0000  -5.75723548890000E+0000  -5.76300350380000E+0000  -5.76876938330000E+0000  -5.77453313630000E+0000  
-5.78029477210000E+0000  -5.78605429980000E+0000  -5.79181172830000E+0000  -5.79756706670000E+0000  -5.80332032400000E+0000  
-5.80907150890000E+0000  -5.81482063050000E+0000  -5.82056769730000E+0000  -5.82631271840000E+0000  -5.83205570250000E+0000  
-5.83779665810000E+0000  -5.84353559400000E+0000  -5.84927251870000E+0000  -5.85500744080000E+0000  -5.86074036900000E+0000  
-5.86647131160000E+0000  -5.87220027710000E+0000  -5.87792727400000E+0000  -5.88365231040000E+0000  -5.88937539500000E+0000  
-5.89509653590000E+0000  -5.90081574130000E+0000  -5.90653301950000E+0000  -5.91224837860000E+0000  -5.91796182690000E+0000  
-5.92367337220000E+0000  -5.92938302290000E+0000  -5.93509078670000E+0000  -5.94079667190000E+0000  -5.94650068630000E+0000  
-5.95220283760000E+0000  -5.95790313410000E+0000  -5.96360158330000E+0000  -5.96929819330000E+0000  -5.97499297140000E+0000  
-5.98068592570000E+0000  -5.98637706390000E+0000  -5.99206639350000E+0000  -5.99775392200000E+0000  -6.00343965730000E+0000  
-6.00912360690000E+0000  -6.01480577800000E+0000  -6.02048617840000E+0000  -6.02616481540000E+0000  -6.03184169660000E+0000  
-6.03751682900000E+0000  -6.04319022020000E+0000  -6.04886187760000E+0000  -6.05453180830000E+0000  -6.06020001950000E+0000  
-6.06586651860000E+0000  -6.07153131260000E+0000  -6.07719440870000E+0000  -6.08285581400000E+0000  -6.08851553560000E+0000  
-6.09417358060000E+0000  -6.09982995590000E+0000  -6.10548466840000E+0000  -6.11113772520000E+0000  -6.11678913320000E+0000  
-6.12243889920000E+0000  -6.12808703020000E+0000  -6.13373353290000E+0000  -6.13937841420000E+0000  -6.14502168060000E+0000  
-6.15066333890000E+0000  -6.15630339610000E+0000  -6.16194185860000E+0000  -6.16757873310000E+0000  -6.17321402620000E+0000  
-6.17884774430000E+0000  -6.18447989420000E+0000  -6.19011048250000E+0000  -6.19573951530000E+0000  -6.20136699930000E+0000  
-6.20699294070000E+0000  -6.21261734630000E+0000  -6.21824022220000E+0000  -6.22386157480000E+0000  -6.22948141030000E+0000  
-6.23509973510000E+0000  -6.24071655540000E+0000  -6.24633187750000E+0000  -6.25194570750000E+0000  -6.25755805160000E+0000  
-6.26316891590000E+0000  -6.26877830660000E+0000  -6.27438622970000E+0000  -6.27999269130000E+0000  -6.28559769740000E+0000  
-6.29120125400000E+0000  -6.29680336720000E+0000  -6.30240404280000E+0000  -6.30800328680000E+0000  -6.31360110490000E+0000  
-6.31919750320000E+0000  -6.32479248740000E+0000  -6.33038606350000E+0000  -6.33597823700000E+0000  -6.34156901390000E+0000  
-6.34715839990000E+0000  -6.35274640060000E+0000  -6.35833302180000E+0000  -6.36391826900000E+0000  -6.36950214800000E+0000  
-6.37508466440000E+0000  -6.38066582360000E+0000  -6.38624563140000E+0000  -6.39182409310000E+0000  -6.39740121440000E+0000  
-6.40297700080000E+0000  -6.40855145740000E+0000  -6.41412459000000E+0000  -6.41969640400000E+0000  -6.42526690470000E+0000  
-6.43083609730000E+0000  -6.43640398720000E+0000  -6.44197058000000E+0000  -6.44753588070000E+0000  -6.45309989460000E+0000  
-6.45866262690000E+0000  -6.46422408300000E+0000  -6.46978426810000E+0000  -6.47534318710000E+0000  -6.48090084530000E+0000  
-6.48645724790000E+0000  -6.49201240000000E+0000  -6.49756630640000E+0000  -6.50311897250000E+0000  -6.50867040320000E+0000  
-6.51422060340000E+0000  -6.51976957820000E+0000  -6.52531733260000E+0000  -6.53086387150000E+0000  -6.53640919990000E+0000  
-6.54195332250000E+0000  -6.54749624430000E+0000  -6.55303797010000E+0000  -6.55857850480000E+0000  -6.56411785320000E+0000  
-6.56965602010000E+0000  -6.57519301020000E+0000  -6.58072882830000E+0000  -6.58626347920000E+0000  -6.59179696730000E+0000  
-6.59732929770000E+0000  -6.60286047480000E+0000  -6.60839050330000E+0000  -6.61391938780000E+0000  -6.61944713290000E+0000  
-6.62497374330000E+0000  -6.63049922340000E+0000  -6.63602357770000E+0000  -6.64154681090000E+0000  -6.64706892740000E+0000  
-6.65258993170000E+0000  -6.65810982810000E+0000  -6.66362862120000E+0000  -6.66914631560000E+0000  -6.67466291520000E+0000  
-6.68017842490000E+0000  -6.68569284860000E+0000  -6.69120619100000E+0000  -6.69671845640000E+0000  -6.70222964870000E+0000  
-6.70773977250000E+0000  -6.71324883210000E+0000  -6.71875683170000E+0000  -6.72426377520000E+0000  -6.72976966730000E+0000  
-6.73527451200000E+0000  -6.74077831330000E+0000  -6.74628107550000E+0000  -6.75178280270000E+0000  -6.75728349890000E+0000  
-6.76278316850000E+0000  -6.76828181520000E+0000  -6.77377944330000E+0000  -6.77927605660000E+0000  -6.78477165950000E+0000  
-6.79026625550000E+0000  -6.79575984890000E+0000  -6.80125244370000E+0000  -6.80674404370000E+0000  -6.81223465300000E+0000  
-6.81772427530000E+0000  -6.82321291460000E+0000  -6.82870057470000E+0000  -6.83418725940000E+0000  -6.83967297280000E+0000  
-6.84515771850000E+0000  -6.85064150040000E+0000  -6.85612432230000E+0000  -6.86160618790000E+0000  -6.86708710080000E+0000  
-6.87256706510000E+0000  -6.87804608430000E+0000  -6.88352416200000E+0000  -6.88900130210000E+0000  -6.89447750820000E+0000  
-6.89995278390000E+0000  -6.90542713290000E+0000  -6.91090055860000E+0000  -6.91637306500000E+0000  -6.92184465540000E+0000  
-6.92731533340000E+0000  -6.93278510250000E+0000  -6.93825396640000E+0000  -6.94372192860000E+0000  -6.94918899240000E+0000  
-6.95465516140000E+0000  -6.96012043930000E+0000  -6.96558482920000E+0000  -6.97104833480000E+0000  -6.97651095930000E+0000  
-6.98197270630000E+0000  -6.98743357900000E+0000  -6.99289358110000E+0000  -6.99835271550000E+0000  -7.00381098590000E+0000  
-7.00926839560000E+0000  -7.01472494770000E+0000  -7.02018064570000E+0000  -7.02563549270000E+0000  -7.03108949230000E+0000  
-7.03654264740000E+0000  -7.04199496150000E+0000  -7.04744643750000E+0000  -7.05289707890000E+0000  -7.05834688890000E+0000  
-7.06379587040000E+0000  -7.06924402700000E+0000  -7.07469136130000E+0000  -7.08013787690000E+0000  -7.08558357680000E+0000  
-7.09102846380000E+0000  -7.09647254150000E+0000  -7.10191581260000E+0000  -7.10735828030000E+0000  -7.11279994770000E+0000  
-7.11824081760000E+0000  -7.12368089330000E+0000  -7.12912017760000E+0000  -7.13455867360000E+0000  -7.13999638430000E+0000  
-7.14543331270000E+0000  -7.15086946150000E+0000  -7.15630483390000E+0000  -7.16173943260000E+0000  -7.16717326070000E+0000  
-7.17260632100000E+0000  -7.17803861640000E+0000  -7.18347014970000E+0000  -7.18890092390000E+0000  -7.19433094170000E+0000  
-7.19976020600000E+0000  -7.20518871950000E+0000  -7.21061648520000E+0000  -7.21604350570000E+0000  -7.22146978380000E+0000  
-7.22689532240000E+0000  -7.23232012410000E+0000  -7.23774419170000E+0000  -7.24316752790000E+0000  -7.24859013540000E+0000  
-7.25401201680000E+0000  -7.25943317490000E+0000  -7.26485361240000E+0000  -7.27027333180000E+0000  -7.27569233590000E+0000  
-7.28111062730000E+0000  -7.28652820850000E+0000  -7.29194508220000E+0000  -7.29736125090000E+0000  -7.30277671740000E+0000  
-7.30819148390000E+0000  -7.31360555320000E+0000  -7.31901892800000E+0000  -7.32443161050000E+0000  -7.32984360330000E+0000  
-7.33525490900000E+0000  -7.34066553000000E+0000  -7.34607546890000E+0000  -7.35148472800000E+0000  -7.35689330980000E+0000  
-7.36230121690000E+0000  -7.36770845140000E+0000  -7.37311501610000E+0000  -7.37852091310000E+0000  -7.38392614500000E+0000  
-7.38933071400000E+0000  -7.39473462270000E+0000  -7.40013787340000E+0000  -7.40554046820000E+0000  -7.41094240960000E+0000  
-7.41634370000000E+0000  -7.42174434160000E+0000  -7.42714433680000E+0000  -7.43254368780000E+0000  -7.43794239690000E+0000  
-7.44334046650000E+0000  -7.44873789850000E+0000  -7.45413469540000E+0000  -7.45953085940000E+0000  -7.46492639290000E+0000  
-7.47032129780000E+0000  -7.47571557640000E+0000  -7.48110923080000E+0000  -7.48650226350000E+0000  -7.49189467620000E+0000  
-7.49728647150000E+0000  -7.50267765120000E+0000  -7.50806821770000E+0000  -7.51345817280000E+0000  -7.51884751890000E+0000  
-7.52423625790000E+0000  -7.52962439210000E+0000  -7.53501192340000E+0000  -7.54039885380000E+0000  -7.54578518560000E+0000  
-7.55117092060000E+0000  -7.55655606100000E+0000  -7.56194060880000E+0000  -7.56732456580000E+0000  -7.57270793430000E+0000  
-7.57809071610000E+0000  -7.58347291330000E+0000  -7.58885452770000E+0000  -7.59423556150000E+0000  -7.59961601640000E+0000  
-7.60499589440000E+0000  -7.61037519750000E+0000  -7.61575392770000E+0000  -7.62113208670000E+0000  -7.62650967650000E+0000  
-7.63188669900000E+0000  -7.63726315610000E+0000  -7.64263904940000E+0000  -7.64801438130000E+0000  -7.65338915300000E+0000  
-7.65876336670000E+0000  -7.66413702440000E+0000  -7.66951012750000E+0000  -7.67488267790000E+0000  -7.68025467770000E+0000  
-7.68562612840000E+0000  -7.69099703180000E+0000  -7.69636738980000E+0000  -7.70173720400000E+0000  -7.70710647620000E+0000  
-7.71247520810000E+0000  -7.71784340160000E+0000  -7.72321105810000E+0000  -7.72857817960000E+0000  -7.73394476780000E+0000  
-7.73931082420000E+0000  -7.74467635050000E+0000  -7.75004134850000E+0000  -7.75540581980000E+0000  -7.76076976600000E+0000  
-7.76613318870000E+0000  -7.77149608970000E+0000  -7.77685847050000E+0000  -7.78222033280000E+0000  -7.78758167800000E+0000  
-7.79294250790000E+0000  -7.79830282410000E+0000  -7.80366262800000E+0000  -7.80902192120000E+0000  -7.81438070540000E+0000  
-7.81973898210000E+0000  -7.82509675260000E+0000  -7.83045401900000E+0000  -7.83581078200000E+0000  -7.84116704380000E+0000  
-7.84652280560000E+0000  -7.85187806900000E+0000  -7.85723283540000E+0000  -7.86258710630000E+0000  -7.86794088320000E+0000  
-7.87329416750000E+0000  -7.87864696070000E+0000  -7.88399926410000E+0000  -7.88935107940000E+0000  -7.89470240780000E+0000  
-7.90005325080000E+0000  -7.90540360970000E+0000  -7.91075348600000E+0000  -7.91610288110000E+0000  -7.92145179650000E+0000  
-7.92680023330000E+0000  -7.93214819290000E+0000  -7.93749567670000E+0000  -7.94284268620000E+0000  -7.94818922250000E+0000  
-7.95353528710000E+0000  -7.95888088120000E+0000  -7.96422600620000E+0000  -7.96957066330000E+0000  -7.97491485390000E+0000  
-7.98025857920000E+0000  -7.98560184060000E+0000  -7.99094463920000E+0000  -7.99628697640000E+0000  -8.00162885320000E+0000  
-8.00697027120000E+0000  -8.01231123160000E+0000  -8.01765173530000E+0000  -8.02299178380000E+0000  -8.02833137810000E+0000  
-8.03367051960000E+0000  -8.03900920940000E+0000  -8.04434744870000E+0000  -8.04968523870000E+0000  -8.05502258070000E+0000  
-8.06035947560000E+0000  -8.06569592450000E+0000  -8.07103192890000E+0000  -8.07636748970000E+0000  -8.08170260810000E+0000  
-8.08703728520000E+0000  -8.09237152200000E+0000  -8.09770531990000E+0000  -8.10303867970000E+0000  -8.10837160270000E+0000  
-8.11370408980000E+0000  -8.11903614220000E+0000  -8.12436776100000E+0000  -8.12969894710000E+0000  -8.13502970170000E+0000  
-8.14036002570000E+0000  -8.14568992040000E+0000  -8.15101938660000E+0000  -8.15634842520000E+0000  -8.16167703760000E+0000  
-8.16700522450000E+0000  -8.17233298700000E+0000  -8.17766032600000E+0000  -8.18298724270000E+0000  -8.18831373790000E+0000  
-8.19363981270000E+0000  -8.19896546780000E+0000  -8.20429070440000E+0000  -8.20961552330000E+0000  -8.21493992570000E+0000  
-8.22026391230000E+0000  -8.22558748400000E+0000  -8.23091064170000E+0000  -8.23623338640000E+0000  -8.24155571910000E+0000  
-8.24687764050000E+0000  -8.25219915170000E+0000  -8.25752025330000E+0000  -8.26284094650000E+0000  -8.26816123180000E+0000  
-8.27348111030000E+0000  -8.27880058290000E+0000  -8.28411965030000E+0000  -8.28943831330000E+0000  -8.29475657290000E+0000  
-8.30007442980000E+0000  -8.30539188490000E+0000  -8.31070893880000E+0000  -8.31602559270000E+0000  -8.32134184710000E+0000  
-8.32665770270000E+0000  -8.33197316050000E+0000  -8.33728822120000E+0000  -8.34260288550000E+0000  -8.34791715430000E+0000  
-8.35323102830000E+0000  -8.35854450830000E+0000  -8.36385759470000E+0000  -8.36917028860000E+0000  -8.37448259070000E+0000  
-8.37979450160000E+0000  -8.38510602210000E+0000  -8.39041715270000E+0000  -8.39572789450000E+0000  -8.40103824780000E+0000  
-8.40634821350000E+0000  -8.41165779210000E+0000  -8.41696698440000E+0000  -8.42227579110000E+0000  -8.42758421270000E+0000  
-8.43289225000000E+0000  -8.43819990370000E+0000  -8.44350717420000E+0000  -8.44881406240000E+0000  -8.45412056870000E+0000  
-8.45942669380000E+0000  -8.46473243850000E+0000  -8.47003780300000E+0000  -8.47534278830000E+0000  -8.48064739470000E+0000  
-8.48595162300000E+0000  -8.49125547370000E+0000  -8.49655894720000E+0000  -8.50186204430000E+0000  -8.50716476560000E+0000  
-8.51246711140000E+0000  -8.51776908250000E+0000  -8.52307067930000E+0000  -8.52837190230000E+0000  -8.53367275210000E+0000  
-8.53897322920000E+0000  -8.54427333420000E+0000  -8.54957306750000E+0000  -8.55487242960000E+0000  -8.56017142120000E+0000  
-8.56547004260000E+0000  -8.57076829420000E+0000  -8.57606617660000E+0000  -8.58136369030000E+0000  -8.58666083570000E+0000  
-8.59195761340000E+0000  -8.59725402360000E+0000  -8.60255006700000E+0000  -8.60784574390000E+0000  -8.61314105480000E+0000  
-8.61843600000000E+0000  -8.62373058010000E+0000  -8.62902479540000E+0000  -8.63431864640000E+0000  -8.63961213340000E+0000  
-8.64490525680000E+0000  -8.65019801720000E+0000  -8.65549041480000E+0000  -8.66078245000000E+0000  -8.66607412310000E+0000  
-8.67136543460000E+0000  -8.67665638490000E+0000  -8.68194697410000E+0000  -8.68723720290000E+0000  -8.69252707150000E+0000  
-8.69781658010000E+0000  -8.70310572910000E+0000  -8.70839451890000E+0000  -8.71368294990000E+0000  -8.71897102230000E+0000  
-8.72425873640000E+0000  -8.72954609250000E+0000  -8.73483309090000E+0000  -8.74011973210000E+0000  -8.74540601590000E+0000  
-8.75069194320000E+0000  -8.75597751380000E+0000  -8.76126272820000E+0000  -8.76654758650000E+0000  -8.77183208910000E+0000  
-8.77711623620000E+0000  -8.78240002800000E+0000  -8.78768346490000E+0000  -8.79296654700000E+0000  -8.79824927470000E+0000  
-8.80353164790000E+0000  -8.80881366700000E+0000  -8.81409533230000E+0000  -8.81937664400000E+0000  -8.82465760220000E+0000  
-8.82993820700000E+0000  -8.83521845880000E+0000  -8.84049835770000E+0000  -8.84577790390000E+0000  -8.85105709760000E+0000  
-8.85633593890000E+0000  -8.86161442800000E+0000  -8.86689256500000E+0000  -8.87217035010000E+0000  -8.87744778350000E+0000  
-8.88272486540000E+0000  -8.88800159570000E+0000  -8.89327797470000E+0000  -8.89855400240000E+0000  -8.90382967910000E+0000  
-8.90910500480000E+0000  -8.91437997960000E+0000  -8.91965460380000E+0000  -8.92492887720000E+0000  -8.93020280000000E+0000  
-8.93547637240000E+0000  -8.94074959440000E+0000  -8.94602246600000E+0000  -8.95129498740000E+0000  -8.95656715870000E+0000  
-8.96183897980000E+0000  -8.96711045080000E+0000  -8.97238157190000E+0000  -8.97765234280000E+0000  -8.98292276400000E+0000  
-8.98819283530000E+0000  -8.99346255670000E+0000  -8.99873192830000E+0000  -9.00400095000000E+0000  -9.00926962200000E+0000  
-9.01453794420000E+0000  -9.01980591660000E+0000  -9.02507353910000E+0000  -9.03034081200000E+0000  -9.03560773510000E+0000  
-9.04087430830000E+0000  -9.04614053170000E+0000  -9.05140640510000E+0000  -9.05667192890000E+0000  -9.06193710260000E+0000  
-9.06720192640000E+0000  -9.07246640010000E+0000  -9.07773052380000E+0000  -9.08299429740000E+0000  -9.08825772070000E+0000  
-9.09352079390000E+0000  -9.09878351680000E+0000  -9.10404588910000E+0000  -9.10930791110000E+0000  -9.11456958260000E+0000  
-9.11983090330000E+0000  -9.12509187330000E+0000  -9.13035249260000E+0000  -9.13561276080000E+0000  -9.14087267790000E+0000  
-9.14613224390000E+0000  -9.15139145870000E+0000  -9.15665032180000E+0000  -9.16190883360000E+0000  -9.16716699360000E+0000  
-9.17242480190000E+0000  -9.17768225810000E+0000  -9.18293936230000E+0000  -9.18819611420000E+0000  -9.19345251360000E+0000  
-9.19870856050000E+0000  -9.20396425450000E+0000  -9.20921959570000E+0000  -9.21447458380000E+0000  -9.21972921850000E+0000  
-9.22498349970000E+0000  -9.23023742740000E+0000  -9.23549100110000E+0000  -9.24074422080000E+0000  -9.24599708620000E+0000  
-9.25124959710000E+0000  -9.25650175330000E+0000  -9.26175355440000E+0000  -9.26700500060000E+0000  -9.27225609140000E+0000  
-9.27750682660000E+0000  -9.28275720580000E+0000  -9.28800722900000E+0000  -9.29325689580000E+0000  -9.29850620620000E+0000  
-9.30375515950000E+0000  -9.30900375580000E+0000  -9.31425199470000E+0000  -9.31949987600000E+0000  -9.32474739940000E+0000  
-9.32999456440000E+0000  -9.33524137120000E+0000  -9.34048781900000E+0000  -9.34573390780000E+0000  -9.35097963720000E+0000  
-9.35622500690000E+0000  -9.36147001670000E+0000  -9.36671466610000E+0000  -9.37195895500000E+0000  -9.37720288300000E+0000  
-9.38244644970000E+0000  -9.38768965490000E+0000  -9.39293249790000E+0000  -9.39817497900000E+0000  -9.40341709730000E+0000  
-9.40865885260000E+0000  -9.41390024470000E+0000  -9.41914127310000E+0000  -9.42438193740000E+0000  -9.42962223750000E+0000  
-9.43486217280000E+0000  -9.44010174300000E+0000  -9.44534094760000E+0000  -9.45057978650000E+0000  -9.45581825890000E+0000  
-9.46105636470000E+0000  -9.46629410340000E+0000  -9.47153147490000E+0000  -9.47676847820000E+0000  -9.48200511350000E+0000  
-9.48724137990000E+0000  -9.49247727730000E+0000  -9.49771280520000E+0000  -9.50294796320000E+0000  -9.50818275060000E+0000  
-9.51341716740000E+0000  -9.51865121280000E+0000  -9.52388488670000E+0000  -9.52911818840000E+0000  -9.53435111740000E+0000  
-9.53958367340000E+0000  -9.54481585590000E+0000  -9.55004766450000E+0000  -9.55527909840000E+0000  -9.56051015770000E+0000  
-9.56574084140000E+0000  -9.57097114940000E+0000  -9.57620108100000E+0000  -9.58143063560000E+0000  -9.58665981300000E+0000  
-9.59188861250000E+0000  -9.59711703370000E+0000  -9.60234507600000E+0000  -9.60757273900000E+0000  -9.61280002220000E+0000  
-9.61802692500000E+0000  -9.62325344690000E+0000  -9.62847958730000E+0000  -9.63370534580000E+0000  -9.63893072170000E+0000  
-9.64415571460000E+0000  -9.64938032390000E+0000  -9.65460454920000E+0000  -9.65982838970000E+0000  -9.66505184500000E+0000  
-9.67027491460000E+0000  -9.67549759770000E+0000  -9.68071989390000E+0000  -9.68594180270000E+0000  -9.69116332340000E+0000  
-9.69638445540000E+0000  -9.70160519830000E+0000  -9.70682555120000E+0000  -9.71204551380000E+0000  -9.71726508540000E+0000  
-9.72248426530000E+0000  -9.72770305300000E+0000  -9.73292144810000E+0000  -9.73813944950000E+0000  -9.74335705710000E+0000  
-9.74857426990000E+0000  -9.75379108740000E+0000  -9.75900750920000E+0000  -9.76422353420000E+0000  -9.76943916220000E+0000  
-9.77465439230000E+0000  -9.77986922400000E+0000  -9.78508365650000E+0000  -9.79029768940000E+0000  -9.79551132170000E+0000  
-9.80072455320000E+0000  -9.80593738280000E+0000  -9.81114981000000E+0000  -9.81636183420000E+0000  -9.82157345460000E+0000  
-9.82678467060000E+0000  -9.83199548160000E+0000  -9.83720588670000E+0000  -9.84241588540000E+0000  -9.84762547690000E+0000  
-9.85283466060000E+0000  -9.85804343580000E+0000  -9.86325180160000E+0000  -9.86845975740000E+0000  -9.87366730270000E+0000  
-9.87887443650000E+0000  -9.88408115830000E+0000  -9.88928746700000E+0000  -9.89449336240000E+0000  -9.89969884330000E+0000  
-9.90490390940000E+0000  -9.91010855940000E+0000  -9.91531279320000E+0000  -9.92051660960000E+0000  -9.92572000800000E+0000  
-9.93092298770000E+0000  -9.93612554790000E+0000  -9.94132768760000E+0000  -9.94652940640000E+0000  -9.95173070340000E+0000  
-9.95693157790000E+0000  -9.96213202900000E+0000  -9.96733205580000E+0000  -9.97253165800000E+0000  -9.97773083410000E+0000  
-9.98292958400000E+0000  -9.98812790650000E+0000  -9.99332580090000E+0000  -9.99852326660000E+0000  -1.00037203023000E+0001  
-1.00089169077000E+0001  -1.00141130817000E+0001  -1.00193088236000E+0001  -1.00245041326000E+0001  -1.00296990077000E+0001  
-1.00348934483000E+0001  -1.00400874534000E+0001  -1.00452810222000E+0001  -1.00504741540000E+0001  -1.00556668478000E+0001  
-1.00608591028000E+0001  -1.00660509183000E+0001  -1.00712422933000E+0001  -1.00764332268000E+0001  -1.00816237181000E+0001  
-1.00868137665000E+0001  -1.00920033708000E+0001  -1.00971925303000E+0001  -1.01023812443000E+0001  -1.01075695117000E+0001  
-1.01127573315000E+0001  -1.01179447032000E+0001  -1.01231316256000E+0001  -1.01283180978000E+0001  -1.01335041191000E+0001  
-1.01386896886000E+0001  -1.01438748052000E+0001  -1.01490594682000E+0001  -1.01542436765000E+0001  -1.01594274294000E+0001  
-1.01646107257000E+0001  -1.01697935648000E+0001  -1.01749759455000E+0001  -1.01801578672000E+0001  -1.01853393287000E+0001  
-1.01905203290000E+0001  -1.01957008674000E+0001  -1.02008809428000E+0001  -1.02060605545000E+0001  -1.02112397012000E+0001  
-1.02164183822000E+0001  -1.02215965966000E+0001  -1.02267743430000E+0001  -1.02319516210000E+0001  -1.02371284294000E+0001  
-1.02423047671000E+0001  -1.02474806334000E+0001  -1.02526560270000E+0001  -1.02578309471000E+0001  -1.02630053929000E+0001  
-1.02681793632000E+0001  -1.02733528569000E+0001  -1.02785258733000E+0001  -1.02836984112000E+0001  -1.02888704697000E+0001  
-1.02940420476000E+0001  -1.02992131443000E+0001  -1.03043837585000E+0001  -1.03095538891000E+0001  -1.03147235354000E+0001  
-1.03198926961000E+0001  -1.03250613703000E+0001  -1.03302295571000E+0001  -1.03353972552000E+0001  -1.03405644637000E+0001  
-1.03457311816000E+0001  -1.03508974078000E+0001  -1.03560631413000E+0001  -1.03612283811000E+0001  -1.03663931261000E+0001  
-1.03715573752000E+0001  -1.03767211274000E+0001  -1.03818843816000E+0001  -1.03870471368000E+0001  -1.03922093920000E+0001  
-1.03973711460000E+0001  -1.04025323977000E+0001  -1.04076931462000E+0001  -1.04128533901000E+0001  -1.04180131288000E+0001  
-1.04231723608000E+0001  -1.04283310852000E+0001  -1.04334893009000E+0001  -1.04386470069000E+0001  -1.04438042018000E+0001  
-1.04489608849000E+0001  -1.04541170546000E+0001  -1.04592727103000E+0001  -1.04644278506000E+0001  -1.04695824745000E+0001  
-1.04747365808000E+0001  -1.04798901684000E+0001  -1.04850432363000E+0001  -1.04901957831000E+0001  -1.04953478080000E+0001  
-1.05004993096000E+0001  -1.05056502870000E+0001  -1.05108007388000E+0001  -1.05159506641000E+0001  -1.05211000616000E+0001  
-1.05262489303000E+0001  -1.05313972689000E+0001  -1.05365450763000E+0001  -1.05416923513000E+0001  -1.05468390927000E+0001  
-1.05519852995000E+0001  -1.05571309706000E+0001  -1.05622761046000E+0001  -1.05674207002000E+0001  -1.05725647566000E+0001  
-1.05777082724000E+0001  -1.05828512465000E+0001  -1.05879936777000E+0001  -1.05931355648000E+0001  -1.05982769065000E+0001  
-1.06034177018000E+0001  -1.06085579495000E+0001  -1.06136976482000E+0001  -1.06188367968000E+0001  -1.06239753940000E+0001  
-1.06291134389000E+0001  -1.06342509299000E+0001  -1.06393878660000E+0001  -1.06445242460000E+0001  -1.06496600686000E+0001  
-1.06547953324000E+0001  -1.06599300366000E+0001  -1.06650641795000E+0001  -1.06701977603000E+0001  -1.06753307775000E+0001  
-1.06804632297000E+0001  -1.06855951162000E+0001  -1.06907264352000E+0001  -1.06958571857000E+0001  -1.07009873665000E+0001  
-1.07061169762000E+0001  -1.07112460136000E+0001  -1.07163744773000E+0001  -1.07215023664000E+0001  -1.07266296793000E+0001  
-1.07317564149000E+0001  -1.07368825717000E+0001  -1.07420081486000E+0001  -1.07471331443000E+0001  -1.07522575577000E+0001  
-1.07573813872000E+0001  -1.07625046316000E+0001  -1.07676272897000E+0001  -1.07727493601000E+0001  -1.07778708416000E+0001  
-1.07829917329000E+0001  -1.07881120325000E+0001  -1.07932317393000E+0001  -1.07983508519000E+0001  -1.08034693691000E+0001  
-1.08085872894000E+0001  -1.08137046115000E+0001  -1.08188213344000E+0001  -1.08239374563000E+0001  -1.08290529762000E+0001  
-1.08341678927000E+0001  -1.08392822045000E+0001  -1.08443959101000E+0001  -1.08495090083000E+0001  -1.08546214975000E+0001  
-1.08597333768000E+0001  -1.08648446446000E+0001  -1.08699552995000E+0001  -1.08750653402000E+0001  -1.08801747654000E+0001  
-1.08852835736000E+0001  -1.08903917637000E+0001  -1.08954993340000E+0001  -1.09006062835000E+0001  -1.09057126105000E+0001  
-1.09108183137000E+0001  -1.09159233918000E+0001  -1.09210278434000E+0001  -1.09261316672000E+0001  -1.09312348616000E+0001  
-1.09363374254000E+0001  -1.09414393571000E+0001  -1.09465406553000E+0001  -1.09516413187000E+0001  -1.09567413459000E+0001  
-1.09618407353000E+0001  -1.09669394858000E+0001  -1.09720375957000E+0001  -1.09771350637000E+0001  -1.09822318885000E+0001  
-1.09873280685000E+0001  -1.09924236024000E+0001  -1.09975184886000E+0001  -1.10026127259000E+0001  -1.10077063127000E+0001  
-1.10127992478000E+0001  -1.10178915296000E+0001  -1.10229831566000E+0001  -1.10280741274000E+0001  -1.10331644406000E+0001  
-1.10382540947000E+0001  -1.10433430885000E+0001  -1.10484314201000E+0001  -1.10535190885000E+0001  -1.10586060919000E+0001  
-1.10636924288000E+0001  -1.10687780982000E+0001  -1.10738630981000E+0001  -1.10789474274000E+0001  -1.10840310844000E+0001  
-1.10891140678000E+0001  -1.10941963761000E+0001  -1.10992780077000E+0001  -1.11043589611000E+0001  -1.11094392349000E+0001  
-1.11145188278000E+0001  -1.11195977379000E+0001  -1.11246759640000E+0001  -1.11297535045000E+0001  -1.11348303580000E+0001  
-1.11399065227000E+0001  -1.11449819977000E+0001  -1.11500567808000E+0001  -1.11551308708000E+0001  -1.11602042664000E+0001  
-1.11652769658000E+0001  -1.11703489675000E+0001  -1.11754202700000E+0001  -1.11804908718000E+0001  -1.11855607714000E+0001  
-1.11906299673000E+0001  -1.11956984579000E+0001  -1.12007662416000E+0001  -1.12058333170000E+0001  -1.12108996825000E+0001  
-1.12159653366000E+0001  -1.12210302776000E+0001  -1.12260945042000E+0001  -1.12311580147000E+0001  -1.12362208074000E+0001  
-1.12412828810000E+0001  -1.12463442339000E+0001  -1.12514048644000E+0001  -1.12564647710000E+0001  -1.12615239522000E+0001  
-1.12665824064000E+0001  -1.12716401318000E+0001  -1.12766971273000E+0001  -1.12817533910000E+0001  -1.12868089213000E+0001  
-1.12918637167000E+0001  -1.12969177756000E+0001  -1.13019710964000E+0001  -1.13070236775000E+0001  -1.13120755173000E+0001  
-1.13171266143000E+0001  -1.13221769667000E+0001  -1.13272265732000E+0001  -1.13322754318000E+0001  -1.13373235414000E+0001  
-1.13423708999000E+0001  -1.13474175059000E+0001  -1.13524633578000E+0001  -1.13575084539000E+0001  -1.13625527927000E+0001  
-1.13675963725000E+0001  -1.13726391917000E+0001  -1.13776812486000E+0001  -1.13827225416000E+0001  -1.13877630691000E+0001  
-1.13928028295000E+0001  -1.13978418210000E+0001  -1.14028800422000E+0001  -1.14079174912000E+0001  -1.14129541666000E+0001  
-1.14179900666000E+0001  -1.14230251895000E+0001  -1.14280595337000E+0001  -1.14330930977000E+0001  -1.14381258796000E+0001  
-1.14431578778000E+0001  -1.14481890908000E+0001  -1.14532195168000E+0001  -1.14582491540000E+0001  -1.14632780009000E+0001  
-1.14683060557000E+0001  -1.14733333170000E+0001  -1.14783597829000E+0001  -1.14833854516000E+0001  -1.14884103216000E+0001  
-1.14934343911000E+0001  -1.14984576587000E+0001  -1.15034801223000E+0001  -1.15085017805000E+0001  -1.15135226313000E+0001  
-1.15185426733000E+0001  -1.15235619047000E+0001  -1.15285803236000E+0001  -1.15335979287000E+0001  -1.15386147180000E+0001  
-1.15436306897000E+0001  -1.15486458423000E+0001  -1.15536601740000E+0001  -1.15586736830000E+0001  -1.15636863677000E+0001  
-1.15686982263000E+0001  -1.15737092571000E+0001  -1.15787194585000E+0001  -1.15837288286000E+0001  -1.15887373655000E+0001  
-1.15937450676000E+0001  -1.15987519335000E+0001  -1.16037579610000E+0001  -1.16087631484000E+0001  -1.16137674943000E+0001  
-1.16187709965000E+0001  -1.16237736536000E+0001  -1.16287754637000E+0001  -1.16337764250000E+0001  -1.16387765357000E+0001  
-1.16437757942000E+0001  -1.16487741986000E+0001  -1.16537717471000E+0001  -1.16587684381000E+0001  -1.16637642697000E+0001  
-1.16687592402000E+0001  -1.16737533478000E+0001  -1.16787465905000E+0001  -1.16837389668000E+0001  -1.16887304748000E+0001  
-1.16937211127000E+0001  -1.16987108787000E+0001  -1.17036997711000E+0001  -1.17086877880000E+0001  -1.17136749276000E+0001  
-1.17186611883000E+0001  -1.17236465678000E+0001  -1.17286310649000E+0001  -1.17336146774000E+0001  -1.17385974036000E+0001  
-1.17435792417000E+0001  -1.17485601899000E+0001  -1.17535402463000E+0001  -1.17585194091000E+0001  -1.17634976765000E+0001  
-1.17684750468000E+0001  -1.17734515178000E+0001  -1.17784270881000E+0001  -1.17834017556000E+0001  -1.17883755185000E+0001  
-1.17933483751000E+0001  -1.17983203234000E+0001  -1.18032913615000E+0001  -1.18082614878000E+0001  -1.18132307003000E+0001  
-1.18181989971000E+0001  -1.18231663765000E+0001  -1.18281328365000E+0001  -1.18330983753000E+0001  -1.18380629909000E+0001  
-1.18430266817000E+0001  -1.18479894457000E+0001  -1.18529512809000E+0001  -1.18579121857000E+0001  -1.18628721580000E+0001  
-1.18678311961000E+0001  -1.18727892979000E+0001  -1.18777464618000E+0001  -1.18827026856000E+0001  -1.18876579676000E+0001  
-1.18926123060000E+0001  -1.18975656988000E+0001  -1.19025181441000E+0001  -1.19074696400000E+0001  -1.19124201846000E+0001  
-1.19173697760000E+0001  -1.19223184124000E+0001  -1.19272660917000E+0001  -1.19322128121000E+0001  -1.19371585718000E+0001  
-1.19421033687000E+0001  -1.19470472008000E+0001  -1.19519900666000E+0001  -1.19569319639000E+0001  -1.19618728907000E+0001  
-1.19668128452000E+0001  -1.19717518255000E+0001  -1.19766898296000E+0001  -1.19816268556000E+0001  -1.19865629015000E+0001  
-1.19914979655000E+0001  -1.19964320456000E+0001  -1.20013651398000E+0001  -1.20062972462000E+0001  -1.20112283628000E+0001  
-1.20161584879000E+0001  -1.20210876193000E+0001  -1.20260157550000E+0001  -1.20309428932000E+0001  -1.20358690319000E+0001  
-1.20407941691000E+0001  -1.20457183029000E+0001  -1.20506414313000E+0001  -1.20555635525000E+0001  -1.20604846642000E+0001  
-1.20654047646000E+0001  -1.20703238518000E+0001  -1.20752419237000E+0001  -1.20801589784000E+0001  -1.20850750139000E+0001  
-1.20899900281000E+0001  -1.20949040193000E+0001  -1.20998169852000E+0001  -1.21047289241000E+0001  -1.21096398337000E+0001  
-1.21145497122000E+0001  -1.21194585576000E+0001  -1.21243663679000E+0001  -1.21292731410000E+0001  -1.21341788748000E+0001  
-1.21390835676000E+0001  -1.21439872174000E+0001  -1.21488898219000E+0001  -1.21537913792000E+0001  -1.21586918873000E+0001  
-1.21635913441000E+0001  -1.21684897478000E+0001  -1.21733870963000E+0001  -1.21782833874000E+0001  -1.21831786192000E+0001  
-1.21880727896000E+0001  -1.21929658968000E+0001  -1.21978579385000E+0001  -1.22027489127000E+0001  -1.22076388174000E+0001  
-1.22125276507000E+0001  -1.22174154104000E+0001  -1.22223020944000E+0001  -1.22271877009000E+0001  -1.22320722275000E+0001  
-1.22369556725000E+0001  -1.22418380337000E+0001  -1.22467193089000E+0001  -1.22515994962000E+0001  -1.22564785936000E+0001  
-1.22613565989000E+0001  -1.22662335101000E+0001  -1.22711093250000E+0001  -1.22759840417000E+0001  -1.22808576581000E+0001  
-1.22857301721000E+0001  -1.22906015815000E+0001  -1.22954718844000E+0001  -1.23003410787000E+0001  -1.23052091621000E+0001  
-1.23100761330000E+0001  -1.23149419888000E+0001  -1.23198067275000E+0001  -1.23246703472000E+0001  -1.23295328457000E+0001  
-1.23343942209000E+0001  -1.23392544708000E+0001  -1.23441135932000E+0001  -1.23489715858000E+0001  -1.23538284469000E+0001  
-1.23586841741000E+0001  -1.23635387655000E+0001  -1.23683922188000E+0001  -1.23732445319000E+0001  -1.23780957028000E+0001  
-1.23829457292000E+0001  -1.23877946093000E+0001  -1.23926423405000E+0001  -1.23974889212000E+0001  -1.24023343487000E+0001  
-1.24071786215000E+0001  -1.24120217369000E+0001  -1.24168636932000E+0001  -1.24217044880000E+0001  -1.24265441191000E+0001  
-1.24313825846000E+0001  -1.24362198822000E+0001  -1.24410560099000E+0001  -1.24458909653000E+0001  -1.24507247464000E+0001  
-1.24555573512000E+0001  -1.24603887772000E+0001  -1.24652190225000E+0001  -1.24700480848000E+0001  -1.24748759621000E+0001  
-1.24797026521000E+0001  -1.24845281527000E+0001  -1.24893524616000E+0001  -1.24941755769000E+0001  -1.24989974961000E+0001  
-1.25038182172000E+0001  -1.25086377380000E+0001  -1.25134560564000E+0001  -1.25182731700000E+0001  -1.25230890769000E+0001  
-1.25279037746000E+0001  -1.25327172612000E+0001  -1.25375295345000E+0001  -1.25423405919000E+0001  -1.25471504317000E+0001  
-1.25519590514000E+0001  -1.25567664490000E+0001  -1.25615726221000E+0001  -1.25663775686000E+0001  -1.25711812864000E+0001  
-1.25759837731000E+0001  -1.25807850265000E+0001  -1.25855850446000E+0001  -1.25903838249000E+0001  -1.25951813654000E+0001  
-1.25999776637000E+0001  -1.26047727177000E+0001  -1.26095665253000E+0001  -1.26143590841000E+0001  -1.26191503918000E+0001  
-1.26239404463000E+0001  -1.26287292453000E+0001  -1.26335167866000E+0001  -1.26383030680000E+0001  -1.26430880871000E+0001  
-1.26478718420000E+0001  -1.26526543301000E+0001  -1.26574355493000E+0001  -1.26622154974000E+0001  -1.26669941720000E+0001  
-1.26717715711000E+0001  -1.26765476922000E+0001  -1.26813225331000E+0001  -1.26860960917000E+0001  -1.26908683654000E+0001  
-1.26956393522000E+0001  -1.27004090498000E+0001  -1.27051774561000E+0001  -1.27099445684000E+0001  -1.27147103848000E+0001  
-1.27194749029000E+0001  -1.27242381205000E+0001  -1.27290000351000E+0001  -1.27337606446000E+0001  -1.27385199468000E+0001  
-1.27432779391000E+0001  -1.27480346196000E+0001  -1.27527899857000E+0001  -1.27575440353000E+0001  -1.27622967660000E+0001  
-1.27670481756000E+0001  -1.27717982617000E+0001  -1.27765470221000E+0001  -1.27812944544000E+0001  -1.27860405564000E+0001  
-1.27907853256000E+0001  -1.27955287600000E+0001  -1.28002708570000E+0001  -1.28050116145000E+0001  -1.28097510301000E+0001  
-1.28144891014000E+0001  -1.28192258261000E+0001  -1.28239612020000E+0001  -1.28286952268000E+0001  -1.28334278980000E+0001  
-1.28381592134000E+0001  -1.28428891706000E+0001  -1.28476177674000E+0001  -1.28523450011000E+0001  -1.28570708699000E+0001  
-1.28617953712000E+0001  -1.28665185025000E+0001  -1.28712402617000E+0001  -1.28759606464000E+0001  -1.28806796542000E+0001  
-1.28853972828000E+0001  -1.28901135297000E+0001  -1.28948283928000E+0001  -1.28995418696000E+0001  -1.29042539576000E+0001  
-1.29089646548000E+0001  -1.29136739587000E+0001  -1.29183818667000E+0001  -1.29230883767000E+0001  -1.29277934863000E+0001  
-1.29324971930000E+0001  -1.29371994944000E+0001  -1.29419003884000E+0001  -1.29465998724000E+0001  -1.29512979442000E+0001  
-1.29559946011000E+0001  -1.29606898411000E+0001  -1.29653836615000E+0001  -1.29700760601000E+0001  -1.29747670345000E+0001  
-1.29794565821000E+0001  -1.29841447009000E+0001  -1.29888313882000E+0001  -1.29935166418000E+0001  -1.29982004590000E+0001  
-1.30028828377000E+0001  -1.30075637754000E+0001  -1.30122432697000E+0001  -1.30169213181000E+0001  -1.30215979183000E+0001  
-1.30262730679000E+0001  -1.30309467643000E+0001  -1.30356190054000E+0001  -1.30402897886000E+0001  -1.30449591114000E+0001  
-1.30496269716000E+0001  -1.30542933665000E+0001  -1.30589582940000E+0001  -1.30636217514000E+0001  -1.30682837364000E+0001  
-1.30729442464000E+0001  -1.30776032793000E+0001  -1.30822608324000E+0001  -1.30869169032000E+0001  -1.30915714895000E+0001  
-1.30962245888000E+0001  -1.31008761985000E+0001  -1.31055263164000E+0001  -1.31101749398000E+0001  -1.31148220663000E+0001  
-1.31194676937000E+0001  -1.31241118193000E+0001  -1.31287544406000E+0001  -1.31333955553000E+0001  -1.31380351610000E+0001  
-1.31426732550000E+0001  -1.31473098349000E+0001  -1.31519448983000E+0001  -1.31565784429000E+0001  -1.31612104658000E+0001  
-1.31658409650000E+0001  -1.31704699376000E+0001  -1.31750973815000E+0001  -1.31797232939000E+0001  -1.31843476726000E+0001  
-1.31889705149000E+0001  -1.31935918185000E+0001  -1.31982115808000E+0001  -1.32028297993000E+0001  -1.32074464715000E+0001  
-1.32120615949000E+0001  -1.32166751671000E+0001  -1.32212871856000E+0001  -1.32258976479000E+0001  -1.32305065513000E+0001  
-1.32351138935000E+0001  -1.32397196720000E+0001  -1.32443238842000E+0001  -1.32489265276000E+0001  -1.32535275997000E+0001  
-1.32581270980000E+0001  -1.32627250201000E+0001  -1.32673213633000E+0001  -1.32719161251000E+0001  -1.32765093032000E+0001  
-1.32811008947000E+0001  -1.32856908974000E+0001  -1.32902793086000E+0001  -1.32948661259000E+0001  -1.32994513467000E+0001  
-1.33040349684000E+0001  -1.33086169884000E+0001  -1.33131974046000E+0001  -1.33177762140000E+0001  -1.33223534142000E+0001  
-1.33269290027000E+0001  -1.33315029768000E+0001  -1.33360753342000E+0001  -1.33406460722000E+0001  -1.33452151883000E+0001  
-1.33497826799000E+0001  -1.33543485444000E+0001  -1.33589127794000E+0001  -1.33634753822000E+0001  -1.33680363503000E+0001  
-1.33725956811000E+0001  -1.33771533721000E+0001  -1.33817094207000E+0001  -1.33862638243000E+0001  -1.33908165804000E+0001  
-1.33953676864000E+0001  -1.33999171396000E+0001  -1.34044649376000E+0001  -1.34090110777000E+0001  -1.34135555574000E+0001  
-1.34180983741000E+0001  -1.34226395251000E+0001  -1.34271790080000E+0001  -1.34317168201000E+0001  -1.34362529588000E+0001  
-1.34407874216000E+0001  -1.34453202058000E+0001  -1.34498513090000E+0001  -1.34543807282000E+0001  -1.34589084612000E+0001  
-1.34634345052000E+0001  -1.34679588577000E+0001  -1.34724815160000E+0001  -1.34770024775000E+0001  -1.34815217396000E+0001  
-1.34860392997000E+0001  -1.34905551552000E+0001  -1.34950693034000E+0001  -1.34995817420000E+0001  -1.35040924679000E+0001  
-1.35086014787000E+0001  -1.35131087718000E+0001  -1.35176143447000E+0001  -1.35221181946000E+0001  -1.35266203188000E+0001  
-1.35311207147000E+0001  -1.35356193798000E+0001  -1.35401163114000E+0001  -1.35446115069000E+0001  -1.35491049636000E+0001  
-1.35535966789000E+0001  -1.35580866501000E+0001  -1.35625748745000E+0001  -1.35670613497000E+0001  -1.35715460727000E+0001  
-1.35760290412000E+0001  -1.35805102521000E+0001  -1.35849897033000E+0001  -1.35894673918000E+0001  -1.35939433150000E+0001  
-1.35984174701000E+0001  -1.36028898547000E+0001  -1.36073604660000E+0001  -1.36118293014000E+0001  -1.36162963581000E+0001  
-1.36207616335000E+0001  -1.36252251249000E+0001  -1.36296868297000E+0001  -1.36341467453000E+0001  -1.36386048687000E+0001  
-1.36430611975000E+0001  -1.36475157289000E+0001  -1.36519684603000E+0001  -1.36564193890000E+0001  -1.36608685121000E+0001  
-1.36653158272000E+0001  -1.36697613315000E+0001  -1.36742050223000E+0001  -1.36786468968000E+0001  -1.36830869524000E+0001  
-1.36875251864000E+0001  -1.36919615962000E+0001  -1.36963961788000E+0001  -1.37008289319000E+0001  -1.37052598525000E+0001  
-1.37096889380000E+0001  -1.37141161855000E+0001  -1.37185415925000E+0001  -1.37229651562000E+0001  -1.37273868740000E+0001  
-1.37318067431000E+0001  -1.37362247606000E+0001  -1.37406409240000E+0001  -1.37450552306000E+0001  -1.37494676775000E+0001  
-1.37538782620000E+0001  -1.37582869815000E+0001  -1.37626938331000E+0001  -1.37670988143000E+0001  -1.37715019220000E+0001  
-1.37759031539000E+0001  -1.37803025069000E+0001  -1.37846999784000E+0001  -1.37890955656000E+0001  -1.37934892659000E+0001  
-1.37978810765000E+0001  -1.38022709944000E+0001  -1.38066590171000E+0001  -1.38110451419000E+0001  -1.38154293659000E+0001  
-1.38198116863000E+0001  -1.38241921004000E+0001  -1.38285706055000E+0001  -1.38329471988000E+0001  -1.38373218776000E+0001  
-1.38416946389000E+0001  -1.38460654802000E+0001  -1.38504343986000E+0001  -1.38548013913000E+0001  -1.38591664555000E+0001  
-1.38635295885000E+0001  -1.38678907876000E+0001  -1.38722500499000E+0001  -1.38766073726000E+0001  -1.38809627529000E+0001  
-1.38853161882000E+0001  -1.38896676756000E+0001  -1.38940172121000E+0001  -1.38983647952000E+0001  -1.39027104220000E+0001  
-1.39070540897000E+0001  -1.39113957955000E+0001  -1.39157355366000E+0001  -1.39200733102000E+0001  -1.39244091134000E+0001  
-1.39287429437000E+0001  -1.39330747979000E+0001  -1.39374046735000E+0001  -1.39417325674000E+0001  -1.39460584772000E+0001  
-1.39503823996000E+0001  -1.39547043321000E+0001  -1.39590242718000E+0001  -1.39633422158000E+0001  -1.39676581615000E+0001  
-1.39719721058000E+0001  -1.39762840461000E+0001  -1.39805939793000E+0001  -1.39849019029000E+0001  -1.39892078138000E+0001  
-1.39935117094000E+0001  -1.39978135866000E+0001  -1.40021134428000E+0001  -1.40064112750000E+0001  -1.40107070804000E+0001  
-1.40150008562000E+0001  -1.40192925996000E+0001  -1.40235823075000E+0001  -1.40278699774000E+0001  -1.40321556061000E+0001  
-1.40364391910000E+0001  -1.40407207292000E+0001  -1.40450002179000E+0001  -1.40492776540000E+0001  -1.40535530347000E+0001  
-1.40578263574000E+0001  -1.40620976191000E+0001  -1.40663668168000E+0001  -1.40706339478000E+0001  -1.40748990091000E+0001  
-1.40791619978000E+0001  -1.40834229113000E+0001  -1.40876817464000E+0001  -1.40919385004000E+0001  -1.40961931704000E+0001  
-1.41004457535000E+0001  -1.41046962467000E+0001  -1.41089446473000E+0001  -1.41131909524000E+0001  -1.41174351590000E+0001  
-1.41216772643000E+0001  -1.41259172652000E+0001  -1.41301551592000E+0001  -1.41343909431000E+0001  -1.41386246140000E+0001  
-1.41428561692000E+0001  -1.41470856056000E+0001  -1.41513129204000E+0001  -1.41555381106000E+0001  -1.41597611734000E+0001  
-1.41639821059000E+0001  -1.41682009051000E+0001  -1.41724175682000E+0001  -1.41766320921000E+0001  -1.41808444740000E+0001  
-1.41850547111000E+0001  -1.41892628002000E+0001  -1.41934687387000E+0001  -1.41976725233000E+0001  -1.42018741514000E+0001  
-1.42060736199000E+0001  -1.42102709260000E+0001  -1.42144660667000E+0001  -1.42186590391000E+0001  -1.42228498400000E+0001  
-1.42270384668000E+0001  -1.42312249166000E+0001  -1.42354091861000E+0001  -1.42395912728000E+0001  -1.42437711732000E+0001  
-1.42479488849000E+0001  -1.42521244046000E+0001  -1.42562977296000E+0001  -1.42604688567000E+0001  -1.42646377832000E+0001  
-1.42688045058000E+0001  -1.42729690219000E+0001  -1.42771313284000E+0001  -1.42812914223000E+0001  -1.42854493007000E+0001  
-1.42896049606000E+0001  -1.42937583990000E+0001  -1.42979096129000E+0001  -1.43020585996000E+0001  -1.43062053558000E+0001  
-1.43103498786000E+0001  -1.43144921652000E+0001  -1.43186322125000E+0001  -1.43227700174000E+0001  -1.43269055772000E+0001  
-1.43310388886000E+0001  -1.43351699488000E+0001  -1.43392987549000E+0001  -1.43434253036000E+0001  -1.43475495922000E+0001  
-1.43516716176000E+0001  -1.43557913769000E+0001  -1.43599088669000E+0001  -1.43640240848000E+0001  -1.43681370275000E+0001  
-1.43722476919000E+0001  -1.43763560752000E+0001  -1.43804621745000E+0001  -1.43845659863000E+0001  -1.43886675080000E+0001  
-1.43927667366000E+0001  -1.43968636689000E+0001  -1.44009583019000E+0001  -1.44050506327000E+0001  -1.44091406582000E+0001  
-1.44132283753000E+0001  -1.44173137813000E+0001  -1.44213968728000E+0001  -1.44254776470000E+0001  -1.44295561008000E+0001  
-1.44336322312000E+0001  -1.44377060349000E+0001  -1.44417775095000E+0001  -1.44458466513000E+0001  -1.44499134576000E+0001  
-1.44539779254000E+0001  -1.44580400514000E+0001  -1.44620998329000E+0001  -1.44661572665000E+0001  -1.44702123495000E+0001  
-1.44742650785000E+0001  -1.44783154507000E+0001  -1.44823634631000E+0001  -1.44864091125000E+0001  -1.44904523957000E+0001  
-1.44944933101000E+0001  -1.44985318521000E+0001  -1.45025680191000E+0001  -1.45066018077000E+0001  -1.45106332151000E+0001  
-1.45146622380000E+0001  -1.45186888734000E+0001  -1.45227131183000E+0001  -1.45267349697000E+0001  -1.45307544244000E+0001  
-1.45347714794000E+0001  -1.45387861314000E+0001  -1.45427983777000E+0001  -1.45468082150000E+0001  -1.45508156401000E+0001  
-1.45548206503000E+0001  -1.45588232421000E+0001  -1.45628234126000E+0001  -1.45668211587000E+0001  -1.45708164773000E+0001  
-1.45748093653000E+0001  -1.45787998197000E+0001  -1.45827878373000E+0001  -1.45867734149000E+0001  -1.45907565496000E+0001  
-1.45947372383000E+0001  -1.45987154777000E+0001  -1.46026912649000E+0001  -1.46066645966000E+0001  -1.46106354699000E+0001  
-1.46146038817000E+0001  -1.46185698285000E+0001  -1.46225333077000E+0001  -1.46264943158000E+0001  -1.46304528499000E+0001  
-1.46344089067000E+0001  -1.46383624834000E+0001  -1.46423135765000E+0001  -1.46462621830000E+0001  -1.46502083000000E+0001  
-1.46541519240000E+0001  -1.46580930522000E+0001  -1.46620316813000E+0001  -1.46659678081000E+0001  -1.46699014295000E+0001  
-1.46738325426000E+0001  -1.46777611440000E+0001  -1.46816872306000E+0001  -1.46856107994000E+0001  -1.46895318469000E+0001  
-1.46934503705000E+0001  -1.46973663665000E+0001  -1.47012798322000E+0001  -1.47051907641000E+0001  -1.47090991593000E+0001  
-1.47130050145000E+0001  -1.47169083265000E+0001  -1.47208090924000E+0001  -1.47247073087000E+0001  -1.47286029726000E+0001  
-1.47324960806000E+0001  -1.47363866297000E+0001  -1.47402746167000E+0001  -1.47441600384000E+0001  -1.47480428917000E+0001  
-1.47519231734000E+0001  -1.47558008802000E+0001  -1.47596760093000E+0001  -1.47635485571000E+0001  -1.47674185206000E+0001  
-1.47712858965000E+0001  -1.47751506818000E+0001  -1.47790128732000E+0001  -1.47828724675000E+0001  -1.47867294617000E+0001  
-1.47905838523000E+0001  -1.47944356364000E+0001  -1.47982848107000E+0001  -1.48021313718000E+0001  -1.48059753169000E+0001  
-1.48098166424000E+0001  -1.48136553453000E+0001  -1.48174914224000E+0001  -1.48213248705000E+0001  -1.48251556863000E+0001  
-1.48289838667000E+0001  -1.48328094084000E+0001  -1.48366323083000E+0001  -1.48404525631000E+0001  -1.48442701696000E+0001  
-1.48480851245000E+0001  -1.48518974248000E+0001  -1.48557070670000E+0001  -1.48595140482000E+0001  -1.48633183649000E+0001  
-1.48671200139000E+0001  -1.48709189921000E+0001  -1.48747152962000E+0001  -1.48785089230000E+0001  -1.48822998692000E+0001  
-1.48860881316000E+0001  -1.48898737070000E+0001  -1.48936565923000E+0001  -1.48974367838000E+0001  -1.49012142788000E+0001  
-1.49049890737000E+0001  -1.49087611653000E+0001  -1.49125305506000E+0001  -1.49162972261000E+0001  -1.49200611884000E+0001  
-1.49238224347000E+0001  -1.49275809614000E+0001  -1.49313367654000E+0001  -1.49350898434000E+0001  -1.49388401921000E+0001  
-1.49425878082000E+0001  -1.49463326886000E+0001  -1.49500748300000E+0001  -1.49538142290000E+0001  -1.49575508823000E+0001  
-1.49612847869000E+0001  -1.49650159394000E+0001  -1.49687443363000E+0001  -1.49724699747000E+0001  -1.49761928509000E+0001  
-1.49799129620000E+0001  -1.49836303046000E+0001  -1.49873448754000E+0001  -1.49910566710000E+0001  -1.49947656883000E+0001  
-1.49984719239000E+0001  -1.50021753747000E+0001  -1.50058760371000E+0001  -1.50095739081000E+0001  -1.50132689840000E+0001  
-1.50169612619000E+0001  -1.50206507385000E+0001  -1.50243374102000E+0001  -1.50280212739000E+0001  -1.50317023263000E+0001  
-1.50353805641000E+0001  -1.50390559840000E+0001  -1.50427285824000E+0001  -1.50463983564000E+0001  -1.50500653025000E+0001  
-1.50537294174000E+0001  -1.50573906978000E+0001  -1.50610491403000E+0001  -1.50647047418000E+0001  -1.50683574987000E+0001  
-1.50720074079000E+0001  -1.50756544658000E+0001  -1.50792986694000E+0001  -1.50829400153000E+0001  -1.50865785000000E+0001  
-1.50902141202000E+0001  -1.50938468727000E+0001  -1.50974767541000E+0001  -1.51011037610000E+0001  -1.51047278902000E+0001  
-1.51083491383000E+0001  -1.51119675019000E+0001  -1.51155829776000E+0001  -1.51191955624000E+0001  -1.51228052525000E+0001  
-1.51264120449000E+0001  -1.51300159360000E+0001  -1.51336169224000E+0001  -1.51372150012000E+0001  -1.51408101685000E+0001  
-1.51444024213000E+0001  -1.51479917561000E+0001  -1.51515781696000E+0001  -1.51551616583000E+0001  -1.51587422189000E+0001  
-1.51623198482000E+0001  -1.51658945427000E+0001  -1.51694662989000E+0001  -1.51730351137000E+0001  -1.51766009835000E+0001  
-1.51801639050000E+0001  -1.51837238748000E+0001  -1.51872808897000E+0001  -1.51908349461000E+0001  -1.51943860406000E+0001  
-1.51979341700000E+0001  -1.52014793308000E+0001  -1.52050215196000E+0001  -1.52085607331000E+0001  -1.52120969679000E+0001  
-1.52156302204000E+0001  -1.52191604875000E+0001  -1.52226877656000E+0001  -1.52262120514000E+0001  -1.52297333415000E+0001  
-1.52332516324000E+0001  -1.52367669209000E+0001  -1.52402792034000E+0001  -1.52437884765000E+0001  -1.52472947368000E+0001  
-1.52507979811000E+0001  -1.52542982057000E+0001  -1.52577954074000E+0001  -1.52612895827000E+0001  -1.52647807282000E+0001  
-1.52682688405000E+0001  -1.52717539160000E+0001  -1.52752359516000E+0001  -1.52787149436000E+0001  -1.52821908887000E+0001  
-1.52856637834000E+0001  -1.52891336245000E+0001  -1.52926004082000E+0001  -1.52960641313000E+0001  -1.52995247904000E+0001  
-1.53029823819000E+0001  -1.53064369024000E+0001  -1.53098883486000E+0001  -1.53133367171000E+0001  -1.53167820041000E+0001  
-1.53202242065000E+0001  -1.53236633207000E+0001  -1.53270993434000E+0001  -1.53305322710000E+0001  -1.53339621001000E+0001  
-1.53373888272000E+0001  -1.53408124489000E+0001  -1.53442329617000E+0001  -1.53476503622000E+0001  -1.53510646468000E+0001  
-1.53544758123000E+0001  -1.53578838550000E+0001  -1.53612887716000E+0001  -1.53646905584000E+0001  -1.53680892122000E+0001  
-1.53714847295000E+0001  -1.53748771066000E+0001  -1.53782663403000E+0001  -1.53816524269000E+0001  -1.53850353631000E+0001  
-1.53884151453000E+0001  -1.53917917700000E+0001  -1.53951652338000E+0001  -1.53985355333000E+0001  -1.54019026649000E+0001  
-1.54052666251000E+0001  -1.54086274103000E+0001  -1.54119850173000E+0001  -1.54153394425000E+0001  -1.54186906822000E+0001  
-1.54220387331000E+0001  -1.54253835917000E+0001  -1.54287252545000E+0001  -1.54320637180000E+0001  -1.54353989786000E+0001  
-1.54387310329000E+0001  -1.54420598772000E+0001  -1.54453855084000E+0001  -1.54487079225000E+0001  -1.54520271164000E+0001  
-1.54553430864000E+0001  -1.54586558289000E+0001  -1.54619653406000E+0001  -1.54652716177000E+0001  -1.54685746570000E+0001  
-1.54718744548000E+0001  -1.54751710076000E+0001  -1.54784643118000E+0001  -1.54817543640000E+0001  -1.54850411607000E+0001  
-1.54883246983000E+0001  -1.54916049732000E+0001  -1.54948819819000E+0001  -1.54981557209000E+0001  -1.55014261868000E+0001  
-1.55046933757000E+0001  -1.55079572844000E+0001  -1.55112179093000E+0001  -1.55144752468000E+0001  -1.55177292933000E+0001  
-1.55209800452000E+0001  -1.55242274992000E+0001  -1.55274716516000E+0001  -1.55307124987000E+0001  -1.55339500373000E+0001  
-1.55371842636000E+0001  -1.55404151740000E+0001  -1.55436427652000E+0001  -1.55468670332000E+0001  -1.55500879751000E+0001  
-1.55533055866000E+0001  -1.55565198647000E+0001  -1.55597308055000E+0001  -1.55629384055000E+0001  -1.55661426612000E+0001  
-1.55693435691000E+0001  -1.55725411255000E+0001  -1.55757353268000E+0001  -1.55789261695000E+0001  -1.55821136500000E+0001  
-1.55852977648000E+0001  -1.55884785101000E+0001  -1.55916558825000E+0001  -1.55948298784000E+0001  -1.55980004942000E+0001  
-1.56011677263000E+0001  -1.56043315710000E+0001  -1.56074920248000E+0001  -1.56106490843000E+0001  -1.56138027455000E+0001  
-1.56169530051000E+0001  -1.56200998595000E+0001  -1.56232433048000E+0001  -1.56263833378000E+0001  -1.56295199547000E+0001  
-1.56326531520000E+0001  -1.56357829259000E+0001  -1.56389092728000E+0001  -1.56420321892000E+0001  -1.56451516716000E+0001  
-1.56482677160000E+0001  -1.56513803194000E+0001  -1.56544894776000E+0001  -1.56575951872000E+0001  -1.56606974447000E+0001  
-1.56637962463000E+0001  -1.56668915884000E+0001  -1.56699834674000E+0001  -1.56730718796000E+0001  -1.56761568215000E+0001  
-1.56792382895000E+0001  -1.56823162799000E+0001  -1.56853907889000E+0001  -1.56884618131000E+0001  -1.56915293488000E+0001  
-1.56945933923000E+0001  -1.56976539401000E+0001  -1.57007109883000E+0001  -1.57037645335000E+0001  -1.57068145720000E+0001  
-1.57098611000000E+0001  -1.57129041140000E+0001  -1.57159436103000E+0001  -1.57189795854000E+0001  -1.57220120353000E+0001  
-1.57250409567000E+0001  -1.57280663457000E+0001  -1.57310881988000E+0001  -1.57341065122000E+0001  -1.57371212823000E+0001  
-1.57401325055000E+0001  -1.57431401782000E+0001  -1.57461442964000E+0001  -1.57491448567000E+0001  -1.57521418553000E+0001  
-1.57551352888000E+0001  -1.57581251531000E+0001  -1.57611114448000E+0001  -1.57640941603000E+0001  -1.57670732956000E+0001  
-1.57700488473000E+0001  -1.57730208116000E+0001  -1.57759891849000E+0001  -1.57789539633000E+0001  -1.57819151434000E+0001  
-1.57848727214000E+0001  -1.57878266934000E+0001  -1.57907770561000E+0001  -1.57937238054000E+0001  -1.57966669380000E+0001  
-1.57996064499000E+0001  -1.58025423374000E+0001  -1.58054745969000E+0001  -1.58084032248000E+0001  -1.58113282172000E+0001  
-1.58142495705000E+0001  -1.58171672811000E+0001  -1.58200813450000E+0001  -1.58229917587000E+0001  -1.58258985185000E+0001  
-1.58288016205000E+0001  -1.58317010613000E+0001  -1.58345968367000E+0001  -1.58374889435000E+0001  -1.58403773777000E+0001  
-1.58432621356000E+0001  -1.58461432134000E+0001  -1.58490206076000E+0001  -1.58518943144000E+0001  -1.58547643300000E+0001  
-1.58576306505000E+0001  -1.58604932725000E+0001  -1.58633521920000E+0001  -1.58662074055000E+0001  -1.58690589092000E+0001  
-1.58719066991000E+0001  -1.58747507717000E+0001  -1.58775911233000E+0001  -1.58804277501000E+0001  -1.58832606482000E+0001  
-1.58860898141000E+0001  -1.58889152439000E+0001  -1.58917369338000E+0001  -1.58945548801000E+0001  -1.58973690791000E+0001  
-1.59001795271000E+0001  -1.59029862201000E+0001  -1.59057891547000E+0001  -1.59085883267000E+0001  -1.59113837327000E+0001  
-1.59141753688000E+0001  -1.59169632313000E+0001  -1.59197473162000E+0001  -1.59225276199000E+0001  -1.59253041388000E+0001  
-1.59280768688000E+0001  -1.59308458063000E+0001  -1.59336109474000E+0001  -1.59363722886000E+0001  -1.59391298260000E+0001  
-1.59418835556000E+0001  -1.59446334739000E+0001  -1.59473795769000E+0001  -1.59501218609000E+0001  -1.59528603223000E+0001  
-1.59555949568000E+0001  -1.59583257612000E+0001  -1.59610527314000E+0001  -1.59637758636000E+0001  -1.59664951541000E+0001  
-1.59692105990000E+0001  -1.59719221946000E+0001  -1.59746299370000E+0001  -1.59773338226000E+0001  -1.59800338473000E+0001  
-1.59827300076000E+0001  -1.59854222993000E+0001  -1.59881107190000E+0001  -1.59907952626000E+0001  -1.59934759265000E+0001  
-1.59961527067000E+0001  -1.59988255996000E+0001  -1.60014946011000E+0001  -1.60041597077000E+0001  -1.60068209152000E+0001  
-1.60094782202000E+0001  -1.60121316185000E+0001  -1.60147811064000E+0001  -1.60174266803000E+0001  -1.60200683361000E+0001  
-1.60227060700000E+0001  -1.60253398784000E+0001  -1.60279697570000E+0001  -1.60305957024000E+0001  -1.60332177106000E+0001  
-1.60358357778000E+0001  -1.60384499000000E+0001  -1.60410600737000E+0001  -1.60436662947000E+0001  -1.60462685592000E+0001  
-1.60488668637000E+0001  -1.60514612039000E+0001  -1.60540515762000E+0001  -1.60566379767000E+0001  -1.60592204016000E+0001  
-1.60617988470000E+0001  -1.60643733089000E+0001  -1.60669437837000E+0001  -1.60695102673000E+0001  -1.60720727560000E+0001  
-1.60746312459000E+0001  -1.60771857331000E+0001  -1.60797362137000E+0001  -1.60822826839000E+0001  -1.60848251398000E+0001  
-1.60873635776000E+0001  -1.60898979933000E+0001  -1.60924283832000E+0001  -1.60949547431000E+0001  -1.60974770696000E+0001  
-1.60999953583000E+0001  -1.61025096057000E+0001  -1.61050198078000E+0001  -1.61075259606000E+0001  -1.61100280604000E+0001  
-1.61125261032000E+0001  -1.61150200851000E+0001  -1.61175100023000E+0001  -1.61199958508000E+0001  -1.61224776268000E+0001  
-1.61249553263000E+0001  -1.61274289455000E+0001  -1.61298984804000E+0001  -1.61323639273000E+0001  -1.61348252819000E+0001  
-1.61372825408000E+0001  -1.61397356997000E+0001  -1.61421847549000E+0001  -1.61446297024000E+0001  -1.61470705383000E+0001  
-1.61495072587000E+0001  -1.61519398598000E+0001  -1.61543683374000E+0001  -1.61567926878000E+0001  -1.61592129070000E+0001  
-1.61616289911000E+0001  -1.61640409362000E+0001  -1.61664487384000E+0001  -1.61688523937000E+0001  -1.61712518982000E+0001  
-1.61736472480000E+0001  -1.61760384392000E+0001  -1.61784254677000E+0001  -1.61808083297000E+0001  -1.61831870212000E+0001  
-1.61855615384000E+0001  -1.61879318771000E+0001  -1.61902980336000E+0001  -1.61926600040000E+0001  -1.61950177842000E+0001  
-1.61973713702000E+0001  -1.61997207582000E+0001  -1.62020659441000E+0001  -1.62044069240000E+0001  -1.62067436941000E+0001  
-1.62090762503000E+0001  -1.62114045888000E+0001  -1.62137287053000E+0001  -1.62160485963000E+0001  -1.62183642574000E+0001  
-1.62206756849000E+0001  -1.62229828748000E+0001  -1.62252858230000E+0001  -1.62275845257000E+0001  -1.62298789789000E+0001  
-1.62321691786000E+0001  -1.62344551209000E+0001  -1.62367368016000E+0001  -1.62390142169000E+0001  -1.62412873629000E+0001  
-1.62435562354000E+0001  -1.62458208307000E+0001  -1.62480811446000E+0001  -1.62503371732000E+0001  -1.62525889123000E+0001  
-1.62548363583000E+0001  -1.62570795070000E+0001  -1.62593183543000E+0001  -1.62615528965000E+0001  -1.62637831293000E+0001  
-1.62660090490000E+0001  -1.62682306514000E+0001  -1.62704479325000E+0001  -1.62726608883000E+0001  -1.62748695150000E+0001  
-1.62770738083000E+0001  -1.62792737644000E+0001  -1.62814693793000E+0001  -1.62836606488000E+0001  -1.62858475691000E+0001  
-1.62880301361000E+0001  -1.62902083458000E+0001  -1.62923821941000E+0001  -1.62945516772000E+0001  -1.62967167908000E+0001  
-1.62988775311000E+0001  -1.63010338940000E+0001  -1.63031858755000E+0001  -1.63053334715000E+0001  -1.63074766781000E+0001  
-1.63096154912000E+0001  -1.63117499068000E+0001  -1.63138799208000E+0001  -1.63160055291000E+0001  -1.63181267279000E+0001  
-1.63202435131000E+0001  -1.63223558804000E+0001  -1.63244638262000E+0001  -1.63265673461000E+0001  -1.63286664362000E+0001  
-1.63307610925000E+0001  -1.63328513108000E+0001  -1.63349370872000E+0001  -1.63370184175000E+0001  -1.63390952980000E+0001  
-1.63411677241000E+0001  -1.63432356921000E+0001  -1.63452991981000E+0001  -1.63473582376000E+0001  -1.63494128069000E+0001  
-1.63514629018000E+0001  -1.63535085182000E+0001  -1.63555496521000E+0001  -1.63575862995000E+0001  -1.63596184561000E+0001  
-1.63616461182000E+0001  -1.63636692814000E+0001  -1.63656879417000E+0001  -1.63677020951000E+0001  -1.63697117375000E+0001  
-1.63717168648000E+0001  -1.63737174731000E+0001  -1.63757135580000E+0001  -1.63777051157000E+0001  -1.63796921419000E+0001  
-1.63816746326000E+0001  -1.63836525838000E+0001  -1.63856259913000E+0001  -1.63875948512000E+0001  -1.63895591592000E+0001  
-1.63915189112000E+0001  -1.63934741032000E+0001  -1.63954247311000E+0001  -1.63973707908000E+0001  -1.63993122781000E+0001  
-1.64012491890000E+0001  -1.64031815195000E+0001  -1.64051092653000E+0001  -1.64070324225000E+0001  -1.64089509866000E+0001  
-1.64108649540000E+0001  -1.64127743203000E+0001  -1.64146790813000E+0001  -1.64165792332000E+0001  -1.64184747716000E+0001  
-1.64203656926000E+0001  -1.64222519918000E+0001  -1.64241336654000E+0001  -1.64260107092000E+0001  -1.64278831188000E+0001  
-1.64297508904000E+0001  -1.64316140198000E+0001  -1.64334725028000E+0001  -1.64353263353000E+0001  -1.64371755131000E+0001  
-1.64390200322000E+0001  -1.64408598884000E+0001  -1.64426950776000E+0001  -1.64445255955000E+0001  -1.64463514382000E+0001  
-1.64481726014000E+0001  -1.64499890811000E+0001  -1.64518008730000E+0001  -1.64536079731000E+0001  -1.64554103771000E+0001  
-1.64572080809000E+0001  -1.64590010804000E+0001  -1.64607893714000E+0001  -1.64625729497000E+0001  -1.64643518113000E+0001  
-1.64661259520000E+0001  -1.64678953675000E+0001  -1.64696600537000E+0001  -1.64714200067000E+0001  -1.64731752219000E+0001  
-1.64749256954000E+0001  -1.64766714229000E+0001  -1.64784124004000E+0001  -1.64801486236000E+0001  -1.64818800884000E+0001  
-1.64836067906000E+0001  -1.64853287260000E+0001  -1.64870458905000E+0001  -1.64887582798000E+0001  -1.64904658898000E+0001  
-1.64921687163000E+0001  -1.64938667552000E+0001  -1.64955600021000E+0001  -1.64972484531000E+0001  -1.64989321039000E+0001  
-1.65006109501000E+0001  -1.65022849877000E+0001  -1.65039542127000E+0001  -1.65056186205000E+0001  -1.65072782072000E+0001  
-1.65089329684000E+0001  -1.65105829001000E+0001  -1.65122279980000E+0001  -1.65138682579000E+0001  -1.65155036756000E+0001  
-1.65171342469000E+0001  -1.65187599676000E+0001  -1.65203808336000E+0001  -1.65219968404000E+0001  -1.65236079840000E+0001  
-1.65252142601000E+0001  -1.65268156646000E+0001  -1.65284121932000E+0001  -1.65300038418000E+0001  -1.65315906060000E+0001  
-1.65331724815000E+0001  -1.65347494645000E+0001  -1.65363215504000E+0001  -1.65378887350000E+0001  -1.65394510143000E+0001  
-1.65410083839000E+0001  -1.65425608395000E+0001  -1.65441083771000E+0001  -1.65456509922000E+0001  -1.65471886808000E+0001  
-1.65487214386000E+0001  -1.65502492612000E+0001  -1.65517721446000E+0001  -1.65532900844000E+0001  -1.65548030763000E+0001  
-1.65563111161000E+0001  -1.65578141997000E+0001  -1.65593123229000E+0001  -1.65608054812000E+0001  -1.65622936704000E+0001  
-1.65637768862000E+0001  -1.65652551246000E+0001  -1.65667283812000E+0001  -1.65681966517000E+0001  -1.65696599318000E+0001  
-1.65711182174000E+0001  -1.65725715041000E+0001  -1.65740197876000E+0001  -1.65754630639000E+0001  -1.65769013285000E+0001  
-1.65783345771000E+0001  -1.65797628055000E+0001  -1.65811860095000E+0001  -1.65826041848000E+0001  -1.65840173269000E+0001  
-1.65854254318000E+0001  -1.65868284953000E+0001  -1.65882265128000E+0001  -1.65896194802000E+0001  -1.65910073931000E+0001  
-1.65923902474000E+0001  -1.65937680387000E+0001  -1.65951407627000E+0001  -1.65965084151000E+0001  -1.65978709917000E+0001  
-1.65992284881000E+0001  -1.66005809001000E+0001  -1.66019282233000E+0001  -1.66032704536000E+0001  -1.66046075865000E+0001  
-1.66059396177000E+0001  -1.66072665430000E+0001  -1.66085883581000E+0001  -1.66099050585000E+0001  -1.66112166401000E+0001  
-1.66125230987000E+0001  -1.66138244296000E+0001  -1.66151206288000E+0001  -1.66164116918000E+0001  -1.66176976145000E+0001  
-1.66189783924000E+0001  -1.66202540212000E+0001  -1.66215244967000E+0001  -1.66227898145000E+0001  -1.66240499703000E+0001  
-1.66253049597000E+0001  -1.66265547785000E+0001  -1.66277994222000E+0001  -1.66290388867000E+0001  -1.66302731673000E+0001  
-1.66315022600000E+0001  -1.66327261605000E+0001  -1.66339448643000E+0001  -1.66351583670000E+0001  -1.66363666643000E+0001  
-1.66375697521000E+0001  -1.66387676257000E+0001  -1.66399602810000E+0001  -1.66411477137000E+0001  -1.66423299191000E+0001  
-1.66435068933000E+0001  -1.66446786316000E+0001  -1.66458451299000E+0001  -1.66470063836000E+0001  -1.66481623884000E+0001  
-1.66493131403000E+0001  -1.66504586344000E+0001  -1.66515988668000E+0001  -1.66527338328000E+0001  -1.66538635282000E+0001  
-1.66549879486000E+0001  -1.66561070897000E+0001  -1.66572209471000E+0001  -1.66583295163000E+0001  -1.66594327931000E+0001  
-1.66605307730000E+0001  -1.66616234518000E+0001  -1.66627108249000E+0001  -1.66637928881000E+0001  -1.66648696368000E+0001  
-1.66659410670000E+0001  -1.66670071739000E+0001  -1.66680679536000E+0001  -1.66691234011000E+0001  -1.66701735125000E+0001  
-1.66712182831000E+0001  -1.66722577089000E+0001  -1.66732917851000E+0001  -1.66743205075000E+0001  -1.66753438717000E+0001  
-1.66763618732000E+0001  -1.66773745077000E+0001  -1.66783817709000E+0001  -1.66793836581000E+0001  -1.66803801652000E+0001  
-1.66813712876000E+0001  -1.66823570211000E+0001  -1.66833373610000E+0001  -1.66843123032000E+0001  -1.66852818430000E+0001  
-1.66862459761000E+0001  -1.66872046982000E+0001  -1.66881580049000E+0001  -1.66891058915000E+0001  -1.66900483538000E+0001  
-1.66909853874000E+0001  -1.66919169878000E+0001  -1.66928431507000E+0001  -1.66937638714000E+0001  -1.66946791456000E+0001  
-1.66955889690000E+0001  -1.66964933372000E+0001  -1.66973922455000E+0001  -1.66982856897000E+0001  -1.66991736653000E+0001  
-1.67000561677000E+0001  -1.67009331928000E+0001  -1.67018047358000E+0001  -1.67026707927000E+0001  -1.67035313585000E+0001  
-1.67043864293000E+0001  -1.67052360003000E+0001  -1.67060800671000E+0001  -1.67069186252000E+0001  -1.67077516705000E+0001  
-1.67085791981000E+0001  -1.67094012039000E+0001  -1.67102176832000E+0001  -1.67110286316000E+0001  -1.67118340448000E+0001  
-1.67126339181000E+0001  -1.67134282472000E+0001  -1.67142170276000E+0001  -1.67150002548000E+0001  -1.67157779245000E+0001  
-1.67165500320000E+0001  -1.67173165729000E+0001  -1.67180775427000E+0001  -1.67188329370000E+0001  -1.67195827514000E+0001  
-1.67203269812000E+0001  -1.67210656222000E+0001  -1.67217986698000E+0001  -1.67225261193000E+0001  -1.67232479665000E+0001  
-1.67239642069000E+0001  -1.67246748359000E+0001  -1.67253798491000E+0001  -1.67260792419000E+0001  -1.67267730098000E+0001  
-1.67274611486000E+0001  -1.67281436534000E+0001  -1.67288205201000E+0001  -1.67294917438000E+0001  -1.67301573203000E+0001  
-1.67308172450000E+0001  -1.67314715134000E+0001  -1.67321201210000E+0001  -1.67327630634000E+0001  -1.67334003359000E+0001  
-1.67340319340000E+0001  -1.67346578534000E+0001  -1.67352780895000E+0001  -1.67358926377000E+0001  -1.67365014934000E+0001  
-1.67371046524000E+0001  -1.67377021100000E+0001  -1.67382938616000E+0001  -1.67388799029000E+0001  -1.67394602290000E+0001  
-1.67400348359000E+0001  -1.67406037187000E+0001  -1.67411668729000E+0001  -1.67417242942000E+0001  -1.67422759779000E+0001  
-1.67428219194000E+0001  -1.67433621143000E+0001  -1.67438965580000E+0001  -1.67444252461000E+0001  -1.67449481737000E+0001  
-1.67454653367000E+0001  -1.67459767303000E+0001  -1.67464823500000E+0001  -1.67469821914000E+0001  -1.67474762497000E+0001  
-1.67479645206000E+0001  -1.67484469995000E+0001  -1.67489236817000E+0001  -1.67493945627000E+0001  -1.67498596380000E+0001  
-1.67503189031000E+0001  -1.67507723534000E+0001  -1.67512199842000E+0001  -1.67516617911000E+0001  -1.67520977695000E+0001  
-1.67525279149000E+0001  -1.67529522226000E+0001  -1.67533706882000E+0001  -1.67537833071000E+0001  -1.67541900745000E+0001  
-1.67545909861000E+0001  -1.67549860372000E+0001  -1.67553752233000E+0001  -1.67557585396000E+0001  -1.67561359820000E+0001  
-1.67565075454000E+0001  -1.67568732255000E+0001  -1.67572330178000E+0001  -1.67575869175000E+0001  -1.67579349200000E+0001  
-1.67582770210000E+0001  -1.67586132155000E+0001  -1.67589434993000E+0001  -1.67592678676000E+0001  -1.67595863159000E+0001  
-1.67598988395000E+0001  -1.67602054339000E+0001  -1.67605060945000E+0001  -1.67608008166000E+0001  -1.67610895956000E+0001  
-1.67613724272000E+0001  -1.67616493064000E+0001  -1.67619202288000E+0001  -1.67621851898000E+0001  -1.67624441846000E+0001  
-1.67626972089000E+0001  -1.67629442577000E+0001  -1.67631853268000E+0001  -1.67634204113000E+0001  -1.67636495068000E+0001  
-1.67638726086000E+0001  -1.67640897119000E+0001  -1.67643008122000E+0001  -1.67645059051000E+0001  -1.67647049857000E+0001  
-1.67648980494000E+0001  -1.67650850916000E+0001  -1.67652661078000E+0001  -1.67654410932000E+0001  -1.67656100432000E+0001  
-1.67657729533000E+0001  -1.67659298188000E+0001  -1.67660806349000E+0001  -1.67662253971000E+0001  -1.67663641008000E+0001  
-1.67664967413000E+0001  -1.67666233141000E+0001  -1.67667438144000E+0001  -1.67668582374000E+0001  -1.67669665788000E+0001  
-1.67670688338000E+0001  -1.67671649976000E+0001  -1.67672550657000E+0001  -1.67673390337000E+0001  -1.67674168963000E+0001  
-1.67674886495000E+0001  -1.67675542883000E+0001  -1.67676138080000E+0001  -1.67676672042000E+0001  -1.67677144719000E+0001  
-1.67677556068000E+0001  -1.67677906039000E+0001  -1.67678194587000E+0001  -1.67678421667000E+0001  -1.67678587228000E+0001  
-1.67678691227000E+0001  -1.67678733615000E+0001  -1.67678714348000E+0001  -1.67678633376000E+0001  -1.67678490653000E+0001  
-1.67678286134000E+0001  -1.67678019771000E+0001  -1.67677691517000E+0001  -1.67677301326000E+0001  -1.67676849148000E+0001  
-1.67676334942000E+0001  -1.67675758656000E+0001  -1.67675120245000E+0001  -1.67674419662000E+0001  -1.67673656859000E+0001  
-1.67672831792000E+0001  -1.67671944410000E+0001  -1.67670994669000E+0001  -1.67669982521000E+0001  -1.67668907920000E+0001  
-1.67667770816000E+0001  -1.67666571165000E+0001  -1.67665308919000E+0001  -1.67663984029000E+0001  -1.67662596452000E+0001  
-1.67661146138000E+0001  -1.67659633040000E+0001  -1.67658057112000E+0001  -1.67656418305000E+0001  -1.67654716573000E+0001  
-1.67652951870000E+0001  -1.67651124146000E+0001  -1.67649233357000E+0001  -1.67647279453000E+0001  -1.67645262389000E+0001  
-1.67643182115000E+0001  -1.67641038586000E+0001  -1.67638831754000E+0001  -1.67636561572000E+0001  -1.67634227991000E+0001  
-1.67631830968000E+0001  -1.67629370450000E+0001  -1.67626846393000E+0001  -1.67624258748000E+0001  -1.67621607470000E+0001  
-1.67618892508000E+0001  -1.67616113820000E+0001  -1.67613271352000E+0001  -1.67610365061000E+0001  -1.67607394897000E+0001  
-1.67604360815000E+0001  -1.67601262766000E+0001  -1.67598100702000E+0001  -1.67594874576000E+0001  -1.67591584341000E+0001  
-1.67588229949000E+0001  -1.67584811352000E+0001  -1.67581328503000E+0001  -1.67577781354000E+0001  -1.67574169857000E+0001  
-1.67570493965000E+0001  -1.67566753631000E+0001  -1.67562948805000E+0001  -1.67559079442000E+0001  -1.67555145492000E+0001  
-1.67551146909000E+0001  -1.67547083644000E+0001  -1.67542955650000E+0001  -1.67538762880000E+0001  -1.67534505283000E+0001  
-1.67530182814000E+0001  -1.67525795426000E+0001  -1.67521343068000E+0001  -1.67516825694000E+0001  -1.67512243256000E+0001  
-1.67507595707000E+0001  -1.67502882997000E+0001  -1.67498105080000E+0001  -1.67493261907000E+0001  -1.67488353430000E+0001  
-1.67483379601000E+0001  -1.67478340373000E+0001  -1.67473235697000E+0001  -1.67468065527000E+0001  -1.67462829811000E+0001  
-1.67457528504000E+0001  -1.67452161557000E+0001  -1.67446728922000E+0001  -1.67441230552000E+0001  -1.67435666397000E+0001  
-1.67430036410000E+0001  -1.67424340543000E+0001  -1.67418578747000E+0001  -1.67412750975000E+0001  -1.67406857177000E+0001  
-1.67400897308000E+0001  -1.67394871316000E+0001  -1.67388779154000E+0001  -1.67382620775000E+0001  -1.67376396129000E+0001  
-1.67370105171000E+0001  -1.67363747848000E+0001  -1.67357324115000E+0001  -1.67350833923000E+0001  -1.67344277223000E+0001  
-1.67337653967000E+0001  -1.67330964107000E+0001  -1.67324207594000E+0001  -1.67317384379000E+0001  -1.67310494415000E+0001  
-1.67303537653000E+0001  -1.67296514045000E+0001  -1.67289423542000E+0001  -1.67282266095000E+0001  -1.67275041657000E+0001  
-1.67267750178000E+0001  -1.67260391610000E+0001  -1.67252965905000E+0001  -1.67245473014000E+0001  -1.67237912888000E+0001  
-1.67230285478000E+0001  -1.67222590737000E+0001  -1.67214828615000E+0001  -1.67206999064000E+0001  -1.67199102036000E+0001  
-1.67191137482000E+0001  -1.67183105352000E+0001  -1.67175005598000E+0001  -1.67166838172000E+0001  -1.67158603025000E+0001  
-1.67150300106000E+0001  -1.67141929370000E+0001  -1.67133490765000E+0001  -1.67124984246000E+0001  -1.67116409760000E+0001  
-1.67107767261000E+0001  -1.67099056699000E+0001  -1.67090278025000E+0001  -1.67081431191000E+0001  -1.67072516147000E+0001  
-1.67063532845000E+0001  -1.67054481236000E+0001  -1.67045361271000E+0001  -1.67036172900000E+0001  -1.67026916074000E+0001  
-1.67017590747000E+0001  -1.67008196867000E+0001  -1.66998734385000E+0001  -1.66989203254000E+0001  -1.66979603424000E+0001  
-1.66969934846000E+0001  -1.66960197470000E+0001  -1.66950391247000E+0001  -1.66940516130000E+0001  -1.66930572068000E+0001  
-1.66920559011000E+0001  -1.66910476913000E+0001  -1.66900325722000E+0001  -1.66890105390000E+0001  -1.66879815867000E+0001  
-1.66869457106000E+0001  -1.66859029054000E+0001  -1.66848531665000E+0001  -1.66837964889000E+0001  -1.66827328676000E+0001  
-1.66816622977000E+0001  -1.66805847742000E+0001  -1.66795002923000E+0001  -1.66784088471000E+0001  -1.66773104335000E+0001  
-1.66762050466000E+0001  -1.66750926816000E+0001  -1.66739733334000E+0001  -1.66728469971000E+0001  -1.66717136678000E+0001  
-1.66705733405000E+0001  -1.66694260103000E+0001  -1.66682716723000E+0001  -1.66671103214000E+0001  -1.66659419528000E+0001  
-1.66647665614000E+0001  -1.66635841424000E+0001  -1.66623946908000E+0001  -1.66611982016000E+0001  -1.66599946698000E+0001  
-1.66587840906000E+0001  -1.66575664589000E+0001  -1.66563417697000E+0001  -1.66551100183000E+0001  -1.66538711994000E+0001  
-1.66526253083000E+0001  -1.66513723398000E+0001  -1.66501122890000E+0001  -1.66488451511000E+0001  -1.66475709209000E+0001  
-1.66462895935000E+0001  -1.66450011641000E+0001  -1.66437056275000E+0001  -1.66424029787000E+0001  -1.66410932128000E+0001  
-1.66397763248000E+0001  -1.66384523098000E+0001  -1.66371211627000E+0001  -1.66357828786000E+0001  -1.66344374525000E+0001  
-1.66330848793000E+0001  -1.66317251541000E+0001  -1.66303582719000E+0001  -1.66289842278000E+0001  -1.66276030166000E+0001  
-1.66262146334000E+0001  -1.66248190732000E+0001  -1.66234163310000E+0001  -1.66220064018000E+0001  -1.66205892806000E+0001  
-1.66191649624000E+0001  -1.66177334421000E+0001  -1.66162947149000E+0001  -1.66148487756000E+0001  -1.66133956192000E+0001  
-1.66119352408000E+0001  -1.66104676353000E+0001  -1.66089927977000E+0001  -1.66075107229000E+0001  -1.66060214060000E+0001  
-1.66045248420000E+0001  -1.66030210257000E+0001  -1.66015099524000E+0001  -1.65999916166000E+0001  -1.65984660137000E+0001  
-1.65969331383000E+0001  -1.65953929858000E+0001  -1.65938455509000E+0001  -1.65922908286000E+0001  -1.65907288138000E+0001  
-1.65891595017000E+0001  -1.65875828870000E+0001  -1.65859989647000E+0001  -1.65844077298000E+0001  -1.65828091773000E+0001  
-1.65812033022000E+0001  -1.65795900993000E+0001  -1.65779695637000E+0001  -1.65763416902000E+0001  -1.65747064739000E+0001  
-1.65730639096000E+0001  -1.65714139925000E+0001  -1.65697567172000E+0001  -1.65680920787000E+0001  -1.65664200723000E+0001  
-1.65647406926000E+0001  -1.65630539347000E+0001  -1.65613597933000E+0001  -1.65596582636000E+0001  -1.65579493404000E+0001  
-1.65562330188000E+0001  -1.65545092935000E+0001  -1.65527781595000E+0001  -1.65510396117000E+0001  -1.65492936452000E+0001  
-1.65475402549000E+0001  -1.65457794354000E+0001  -1.65440111820000E+0001  -1.65422354894000E+0001  -1.65404523526000E+0001  
-1.65386617665000E+0001  -1.65368637259000E+0001  -1.65350582261000E+0001  -1.65332452616000E+0001  -1.65314248274000E+0001  
-1.65295969185000E+0001  -1.65277615298000E+0001  -1.65259186562000E+0001  -1.65240682925000E+0001  -1.65222104337000E+0001  
-1.65203450746000E+0001  -1.65184722103000E+0001  -1.65165918356000E+0001  -1.65147039454000E+0001  -1.65128085346000E+0001  
-1.65109055978000E+0001  -1.65089951304000E+0001  -1.65070771270000E+0001  -1.65051515826000E+0001  -1.65032184920000E+0001  
-1.65012778499000E+0001  -1.64993296517000E+0001  -1.64973738918000E+0001  -1.64954105653000E+0001  -1.64934396669000E+0001  
-1.64914611919000E+0001  -1.64894751347000E+0001  -1.64874814904000E+0001  -1.64854802539000E+0001  -1.64834714199000E+0001  
-1.64814549835000E+0001  -1.64794309394000E+0001  -1.64773992826000E+0001  -1.64753600078000E+0001  -1.64733131099000E+0001  
-1.64712585840000E+0001  -1.64691964246000E+0001  -1.64671266268000E+0001  -1.64650491854000E+0001  -1.64629640953000E+0001  
-1.64608713512000E+0001  -1.64587709480000E+0001  -1.64566628808000E+0001  -1.64545471441000E+0001  -1.64524237329000E+0001  
-1.64502926422000E+0001  -1.64481538666000E+0001  -1.64460074011000E+0001  -1.64438532405000E+0001  -1.64416913796000E+0001  
-1.64395218133000E+0001  -1.64373445363000E+0001  -1.64351595436000E+0001  -1.64329668300000E+0001  -1.64307663903000E+0001  
-1.64285582194000E+0001  -1.64263423120000E+0001  -1.64241186631000E+0001  -1.64218872673000E+0001  -1.64196481197000E+0001  
-1.64174012148000E+0001  -1.64151465478000E+0001  -1.64128841132000E+0001  -1.64106139061000E+0001  -1.64083359210000E+0001  
-1.64060501529000E+0001  -1.64037565966000E+0001  -1.64014552469000E+0001  -1.63991460987000E+0001  -1.63968291467000E+0001  
-1.63945043856000E+0001  -1.63921718106000E+0001  -1.63898314161000E+0001  -1.63874831971000E+0001  -1.63851271483000E+0001  
-1.63827632646000E+0001  -1.63803915408000E+0001  -1.63780119716000E+0001  -1.63756245519000E+0001  -1.63732292765000E+0001  
-1.63708261401000E+0001  -1.63684151374000E+0001  -1.63659962635000E+0001  -1.63635695130000E+0001  -1.63611348806000E+0001  
-1.63586923614000E+0001  -1.63562419498000E+0001  -1.63537836408000E+0001  -1.63513174291000E+0001  -1.63488433096000E+0001  
-1.63463612770000E+0001  -1.63438713260000E+0001  -1.63413734514000E+0001  -1.63388676481000E+0001  -1.63363539108000E+0001  
-1.63338322343000E+0001  -1.63313026133000E+0001  -1.63287650425000E+0001  -1.63262195170000E+0001  -1.63236660312000E+0001  
-1.63211045800000E+0001  -1.63185351581000E+0001  -1.63159577604000E+0001  -1.63133723815000E+0001  -1.63107790163000E+0001  
-1.63081776595000E+0001  -1.63055683057000E+0001  -1.63029509499000E+0001  -1.63003255868000E+0001  -1.62976922111000E+0001  
-1.62950508174000E+0001  -1.62924014007000E+0001  -1.62897439555000E+0001  -1.62870784768000E+0001  -1.62844049592000E+0001  
-1.62817233974000E+0001  -1.62790337862000E+0001  -1.62763361204000E+0001  -1.62736303947000E+0001  -1.62709166037000E+0001  
-1.62681947422000E+0001  -1.62654648051000E+0001  -1.62627267869000E+0001  -1.62599806824000E+0001  -1.62572264864000E+0001  
-1.62544641936000E+0001  -1.62516937986000E+0001  -1.62489152962000E+0001  -1.62461286812000E+0001  -1.62433339483000E+0001  
-1.62405310921000E+0001  -1.62377201074000E+0001  -1.62349009890000E+0001  -1.62320737313000E+0001  -1.62292383294000E+0001  
-1.62263947778000E+0001  -1.62235430712000E+0001  -1.62206832044000E+0001  -1.62178151720000E+0001  -1.62149389688000E+0001  
-1.62120545894000E+0001  -1.62091620286000E+0001  -1.62062612810000E+0001  -1.62033523413000E+0001  -1.62004352045000E+0001  
-1.61975098648000E+0001  -1.61945763172000E+0001  -1.61916345563000E+0001  -1.61886845769000E+0001  -1.61857263736000E+0001  
-1.61827599410000E+0001  -1.61797852739000E+0001  -1.61768023670000E+0001  -1.61738112150000E+0001  -1.61708118124000E+0001  
-1.61678041540000E+0001  -1.61647882345000E+0001  -1.61617640485000E+0001  -1.61587315909000E+0001  -1.61556908560000E+0001  
-1.61526418387000E+0001  -1.61495845338000E+0001  -1.61465189357000E+0001  -1.61434450391000E+0001  -1.61403628389000E+0001  
-1.61372723294000E+0001  -1.61341735055000E+0001  -1.61310663620000E+0001  -1.61279508932000E+0001  -1.61248270940000E+0001  
-1.61216949592000E+0001  -1.61185544830000E+0001  -1.61154056603000E+0001  -1.61122484858000E+0001  -1.61090829541000E+0001  
-1.61059090599000E+0001  -1.61027267977000E+0001  -1.60995361623000E+0001  -1.60963371484000E+0001  -1.60931297504000E+0001  
-1.60899139631000E+0001  -1.60866897810000E+0001  -1.60834571990000E+0001  -1.60802162115000E+0001  -1.60769668132000E+0001  
-1.60737089989000E+0001  -1.60704427629000E+0001  -1.60671681001000E+0001  -1.60638850051000E+0001  -1.60605934723000E+0001  
-1.60572934965000E+0001  -1.60539850724000E+0001  -1.60506681946000E+0001  -1.60473428575000E+0001  -1.60440090560000E+0001  
-1.60406667845000E+0001  -1.60373160378000E+0001  -1.60339568103000E+0001  -1.60305890969000E+0001  -1.60272128918000E+0001  
-1.60238281900000E+0001  -1.60204349861000E+0001  -1.60170332744000E+0001  -1.60136230498000E+0001  -1.60102043067000E+0001  
-1.60067770398000E+0001  -1.60033412438000E+0001  -1.59998969130000E+0001  -1.59964440422000E+0001  -1.59929826261000E+0001  
-1.59895126591000E+0001  -1.59860341358000E+0001  -1.59825470510000E+0001  -1.59790513990000E+0001  -1.59755471747000E+0001  
-1.59720343724000E+0001  -1.59685129868000E+0001  -1.59649830126000E+0001  -1.59614444442000E+0001  -1.59578972763000E+0001  
-1.59543415034000E+0001  -1.59507771202000E+0001  -1.59472041212000E+0001  -1.59436225007000E+0001  -1.59400322538000E+0001  
-1.59364333748000E+0001  -1.59328258581000E+0001  -1.59292096987000E+0001  -1.59255848907000E+0001  -1.59219514290000E+0001  
-1.59183093080000E+0001  -1.59146585224000E+0001  -1.59109990665000E+0001  -1.59073309352000E+0001  -1.59036541228000E+0001  
-1.58999686239000E+0001  -1.58962744332000E+0001  -1.58925715450000E+0001  -1.58888599542000E+0001  -1.58851396552000E+0001  
-1.58814106424000E+0001  -1.58776729103000E+0001  -1.58739264538000E+0001  -1.58701712672000E+0001  -1.58664073449000E+0001  
-1.58626346819000E+0001  -1.58588532723000E+0001  -1.58550631109000E+0001  -1.58512641921000E+0001  -1.58474565104000E+0001  
-1.58436400606000E+0001  -1.58398148369000E+0001  -1.58359808340000E+0001  -1.58321380464000E+0001  -1.58282864686000E+0001  
-1.58244260952000E+0001  -1.58205569208000E+0001  -1.58166789396000E+0001  -1.58127921465000E+0001  -1.58088965357000E+0001  
-1.58049921018000E+0001  -1.58010788396000E+0001  -1.57971567433000E+0001  -1.57932258075000E+0001  -1.57892860268000E+0001  
-1.57853373955000E+0001  -1.57813799082000E+0001  -1.57774135597000E+0001  -1.57734383440000E+0001  -1.57694542561000E+0001  
-1.57654612900000E+0001  -1.57614594406000E+0001  -1.57574487023000E+0001  -1.57534290695000E+0001  -1.57494005368000E+0001  
-1.57453630987000E+0001  -1.57413167495000E+0001  -1.57372614841000E+0001  -1.57331972965000E+0001  -1.57291241816000E+0001  
-1.57250421335000E+0001  -1.57209511471000E+0001  -1.57168512166000E+0001  -1.57127423366000E+0001  -1.57086245015000E+0001  
-1.57044977059000E+0001  -1.57003619441000E+0001  -1.56962172107000E+0001  -1.56920635003000E+0001  -1.56879008071000E+0001  
-1.56837291259000E+0001  -1.56795484508000E+0001  -1.56753587765000E+0001  -1.56711600973000E+0001  -1.56669524080000E+0001  
-1.56627357028000E+0001  -1.56585099761000E+0001  -1.56542752226000E+0001  -1.56500314366000E+0001  -1.56457786125000E+0001  
-1.56415167449000E+0001  -1.56372458284000E+0001  -1.56329658571000E+0001  -1.56286768256000E+0001  -1.56243787283000E+0001  
-1.56200715598000E+0001  -1.56157553146000E+0001  -1.56114299868000E+0001  -1.56070955712000E+0001  -1.56027520621000E+0001  
-1.55983994539000E+0001  -1.55940377412000E+0001  -1.55896669181000E+0001  -1.55852869794000E+0001  -1.55808979194000E+0001  
-1.55764997324000E+0001  -1.55720924131000E+0001  -1.55676759559000E+0001  -1.55632503550000E+0001  -1.55588156050000E+0001  
-1.55543717003000E+0001  -1.55499186353000E+0001  -1.55454564043000E+0001  -1.55409850021000E+0001  -1.55365044227000E+0001  
-1.55320146608000E+0001  -1.55275157106000E+0001  -1.55230075667000E+0001  -1.55184902235000E+0001  -1.55139636754000E+0001  
-1.55094279167000E+0001  -1.55048829419000E+0001  -1.55003287454000E+0001  -1.54957653214000E+0001  -1.54911926648000E+0001  
-1.54866107696000E+0001  -1.54820196302000E+0001  -1.54774192413000E+0001  -1.54728095971000E+0001  -1.54681906919000E+0001  
-1.54635625203000E+0001  -1.54589250766000E+0001  -1.54542783552000E+0001  -1.54496223504000E+0001  -1.54449570568000E+0001  
-1.54402824687000E+0001  -1.54355985803000E+0001  -1.54309053862000E+0001  -1.54262028809000E+0001  -1.54214910584000E+0001  
-1.54167699133000E+0001  -1.54120394400000E+0001  -1.54072996330000E+0001  -1.54025504864000E+0001  -1.53977919948000E+0001  
-1.53930241524000E+0001  -1.53882469537000E+0001  -1.53834603929000E+0001  -1.53786644647000E+0001  -1.53738591632000E+0001  
-1.53690444826000E+0001  -1.53642204178000E+0001  -1.53593869627000E+0001  -1.53545441119000E+0001  -1.53496918596000E+0001  
-1.53448302002000E+0001  -1.53399591282000E+0001  -1.53350786378000E+0001  -1.53301887235000E+0001  -1.53252893794000E+0001  
-1.53203806001000E+0001  -1.53154623799000E+0001  -1.53105347129000E+0001  -1.53055975939000E+0001  -1.53006510169000E+0001  
-1.52956949764000E+0001  -1.52907294666000E+0001  -1.52857544819000E+0001  -1.52807700168000E+0001  -1.52757760653000E+0001  
-1.52707726222000E+0001  -1.52657596814000E+0001  -1.52607372374000E+0001  -1.52557052846000E+0001  -1.52506638171000E+0001  
-1.52456128297000E+0001  -1.52405523162000E+0001  -1.52354822713000E+0001  -1.52304026890000E+0001  -1.52253135638000E+0001  
-1.52202148902000E+0001  -1.52151066622000E+0001  -1.52099888743000E+0001  -1.52048615206000E+0001  -1.51997245958000E+0001  
