DATE: 2007-10-12 CONTRIBUTOR: G. Ziegenhain, gerolf@ziegenhain.com CITATION: Zhou et al, Acta Mater, 49, 4005 (2001)
#-> LAMMPS Potential File in DYNAMO 86 setfl Format <-#
# Zhou W Acta mater(2001)49:4005
1 W
10001 0.04017247983432866570 10001 0.00078917108289171083 7.89250000000000007105
1 183.84000000000000341061 3.15700000000000002842 BCC
0.00000000000000088818
-0.01797161363460762426
-0.03589925929509425045
-0.05378299136546473708
-0.07162286422973192235
-0.08941893227190104987
-0.10717124987598024288
-0.12487987142597611889
-0.14254485130589975017
-0.16016624389975764320
-0.17774410359155756733
-0.19527848476530473842
-0.21276944180501197734
-0.23021702909468594322
-0.24762130101833249030
-0.26498231195995958220
-0.28230011630357770835
-0.29957476843319363891
-0.31680632273281406075
-0.33399483358644743713
-0.35114035537810334153
-0.36824294249178940452
-0.38530264931151136931
-0.40231953022127731057
-0.41929363960509824505
-0.43622503184698113721
-0.45311376133093161922
-0.46995988244095787678
-0.48676344956107148176
-0.50352451707527767777
-0.52024313936758281862
-0.53691937082199714393
-0.55355326582253028267
-0.57014487875318575760
-0.58669426399797464100
-0.60320147594090378629
-0.61966656896598237836
-0.63608959745721649348
-0.65247061579861564962
-0.66880967837418547894
-0.68510683956793672067
-0.70136215376387589515
-0.71757567534601107706
-0.73374745869835134027
-0.74987755820490109571
-0.76596602824967296996
-0.78201292321667248419
-0.79801829748990837921
-0.81398220545338528797
-0.82990470149111639220
-0.84578583998710732406
-0.86162567532536538106
-0.87742426188989663949
-0.89318165406471361489
-0.90889790623382205048
-0.92457307278122935479
-0.94020720809094382453
-0.95580036654697353438
-0.97135260253332689206
-0.98686397043401130613
-1.00233452463303374103
-1.01776431951440393675
-1.03315340946213019002
-1.04850184886021802200
-1.06380969209267584041
-1.07907699354351360732
-1.09430380759673862023
-1.10949018863635817667
-1.12463619104637846391
-1.13974186921081122037
-1.15480727751366174516
-1.16983247033893955624
-1.18481750207065017477
-1.19976242709280422893
-1.21466729978940768397
-1.22953217454447050194
-1.24435710574199775991
-1.25914214776600008605
-1.27388735500048477789
-1.28859278182945979907
-1.30325848263693178097
-1.31788451180690890929
-1.33247092372340092403
-1.34701777277041556680
-1.36152511333195791465
-1.37599299979203859579
-1.39042148653466535180
-1.40481062794384548020
-1.41916047840358583443
-1.43347109229789637652
-1.44774252401078529218
-1.46197482792625832460
-1.47616805842832454765
-1.49032226990099125885
-1.50443751672826864230
-1.51851385329416288528
-1.53255133398268150735
-1.54655001317783180603
-1.56050994526362463155
-1.57443118462406661529
-1.58831378564316350044
-1.60215780270492635928
-1.61596329019336160115
-1.62973030249247718970
-1.64345889398628242084
-1.65714911905878170550
-1.67080103209398722619
-1.68441468747590517019
-1.69799013958854305706
-1.71152744281590774023
-1.72502665154201073605
-1.73848782015085689956
-1.75191100302645574871
-1.76529625455281302671
-1.77864362911393869560
-1.79195318109384071903
-1.80522496487652750474
-1.81845903484600568412
-1.83165544538628055626
-1.84481425088136630208
-1.85793550571526688842
-1.87101926427199116709
-1.88406558093554554745
-1.89707451008994132380
-1.91004610611918335117
-1.92298042340727937116
-1.93587751633824045605
-1.94873743929607301517
-1.96156024666478390195
-1.97434599282838174616
-1.98709473217087406738
-1.99980651907627038355
-2.01248140792857821424
-2.02511945311180330265
-2.03772070900995494469
-2.05028523000704199220
-2.06281307048707152063
-2.07530428483405193774
-2.08775892743199076307
-2.10017705266489640437
-2.11255871491677549301
-2.12490396857163776900
-2.13721286801349030782
-2.14948546762634107310
-2.16172182179419758441
-2.17392198490106824948
-2.18608601133096058788
-2.19821395546788300734
-2.21030587169584524787
-2.22236181439885216449
-2.23438183796091216493
-2.24636599676603410103
-2.25831434519822682461
-2.27022693764149696705
-2.28210382847985293608
-2.29394507209730003083
-2.30575072287785154401
-2.31752083520551099838
-2.32925546346428724576
-2.34095466203819047024
-2.35261848531122641504
-2.36424698766740393197
-2.37584022349072832014
-2.38739824716521154002
-2.39892111307486066707
-2.41040887560368233267
-2.42186158913568316819
-2.43327930805487380184
-2.44466208674526219724
-2.45600997959085409761
-2.46732304097565879886
-2.47860132528368470872
-2.48984488689893934676
-2.50105378020542978845
-2.51222805958716532970
-2.52336777942815215781
-2.53447299411240045686
-2.54554375802391641415
-2.55658012554670843741
-2.56758215106478449030
-2.57854988896215386873
-2.58948339362282187182
-2.60038271943079868365
-2.61124792077009049152
-2.62207905202470659134
-2.63287616757865539086
-2.64363932181594307735
-2.65436856912057805857
-2.66506396387656874225
-2.67572556046792442430
-2.68635341327865084793
-2.69694757669275642087
-2.70750810509424821859
-2.71803505286713731337
-2.72852847439542944841
-2.73898842406313169917
-2.74941495625425336158
-2.75980812535280328746
-2.77016798574278766409
-2.78049459180821356696
-2.79078799793309206834
-2.80104825850142979959
-2.81127542789723383621
-2.82146956050451080955
-2.83163071070727268008
-2.84175893288952474691
-2.85185428143527497369
-2.86191681072853265633
-2.87194657515330309394
-2.88194362909359735880
-2.89190802693342075003
-2.90183982305678433988
-2.91173907184769253931
-2.92160582769015553239
-2.93144014496817995052
-2.94124207806577464552
-2.95101168136694802513
-2.96074900925570716481
-2.97045411611605958413
-2.98012705633201546718
-2.98976788428757966898
-2.99937665436676015318
-3.00895342095356932433
-3.01849823843201114926
-3.02801116118609403571
-3.03749224359982550325
-3.04694154005721529188
-3.05635910494227092116
-3.06574499263899813428
-3.07509925753140800353
-3.08442195400350716028
-3.09371313643930401227
-3.10297285922280430270
-3.11220117673801821567
-3.12139814336895415892
-3.13056381349961831972
-3.13969824151401866175
-3.14880148179616314863
-3.15787358873006285265
-3.16691461669972040838
-3.17592462008914777627
-3.18490365328235291997
-3.19385177066334158269
-3.20276902661612217216
-3.21165547552470354020
-3.22051117177309320638
-3.22933616974529913435
-3.23813052382532884366
-3.24689428839719163022
-3.25562751784489412543
-3.26433026655244429293
-3.27300258890385098454
-3.28164453928312038755
-3.29025617207426313016
-3.29883754166128451146
-3.30738870242819382739
-3.31590970875900037385
-3.32440061503770900586
-3.33286147564832857526
-3.34129234497486926614
-3.34969327740133637761
-3.35806432731174009376
-3.36640554909008482554
-3.37471699712038253338
-3.38299872578663940459
-3.39125078947286251463
-3.39947324256306115942
-3.40766613944124374669
-3.41582953449141735192
-3.42396348209758860648
-3.43206803664376680629
-3.44014325251396035910
-3.44818918409217767262
-3.45620588576242360190
-3.46419341190870966329
-3.47215181691504160000
-3.48008115516542781975
-3.48798148104387628621
-3.49585284893439585119
-3.50369531322099447834
-3.51150892828767746678
-3.51929374851845633287
-3.52704982829733681982
-3.53477722200832733535
-3.54247598403543539902
-3.55014616876267119494
-3.55778783057403957812
-3.56540102385354940040
-3.57298580298520906950
-3.58054222235302699318
-3.58807033634101069097
-3.59557019933316812654
-3.60304186571350726354
-3.61048538986603650969
-3.61790082617476160820
-3.62528822902369274317
-3.63264765279683743415
-3.63997915187820408889
-3.64728278065179845058
-3.65455859350163114740
-3.66180664481170836666
-3.66902698896603984835
-3.67621968034863044750
-3.68338477334349123637
-3.69052232233462884636
-3.69763238170605124111
-3.70471500584176505200
-3.71177024912578090721
-3.71879816594210588221
-3.72579881067474660838
-3.73277223770771238165
-3.73971850142500983338
-3.74663765621064870359
-3.75352975644863517957
-3.76039485652297766904
-3.76723301081768546794
-3.77404427371676520764
-3.78082869960422440769
-3.78758634286407236402
-3.79431725788031570801
-3.80102149903696417965
-3.80769912071802263398
-3.81435017730750258735
-3.82097472318941022706
-3.82757281274775218449
-3.83414450036653864373
-3.84068984042977756843
-3.84720888732147514588
-3.85370169542564022791
-3.86016831912628122225
-3.86660881280740564847
-3.87302323085302102612
-3.87941162764713487476
-3.88577405757375649031
-3.89211057501689428051
-3.89842123436055310037
-3.90470608998874446627
-3.91096519628547500957
-3.91719860763475224985
-3.92340637842058370666
-3.92958856302697823182
-3.93574521583794423307
-3.94187639123748789771
-3.94798214360961807756
-3.95406252733834318036
-3.96011759680767116976
-3.96614740640160956531
-3.97215201050416588657
-3.97813146349934898538
-3.98408581977116593720
-3.99001513370362514976
-3.99591945968073458673
-4.00179885208650265582
-4.00765336530493687661
-4.01348305372004343639
-4.01928797171583429559
-4.02506817367631342108
-4.03082371398549010877
-4.03655464702737365457
-4.04226102718597068986
-4.04794290884528873420
-4.05360034638933619533
-4.05923339420212148099
-4.06484210666765211073
-4.07042653816993738047
-4.07598674309298214524
-4.08152277582079747731
-4.08703469073739000805
-4.09252254222676636886
-4.09798638467293763199
-4.10342627245990954066
-4.10884225997169050260
-4.11423440159228626101
-4.11960275170570877634
-4.12494736469596379180
-4.13026829494706060331
-4.13556559684300495405
-4.14083932476780613996
-4.14608953310547256876
-4.15131627624000998367
-4.15651960855542945694
-4.16169958443573584361
-4.16685625826494021595
-4.17198968442704742898
-4.17709991730606766680
-4.18218701128600844896
-4.18725102075087729503
-4.19229200008468083638
-4.19731000367143014529
-4.20230508589513007678
-4.20727730113979081494
-4.21222670378941899116
-4.21715334822802301318
-4.22205728883961040054
-4.22693858000818867282
-4.23179727611776890228
-4.23663343155235594395
-4.24144710069595731738
-4.24623833793258231850
-4.25100719764623935504
-4.25575373422093594655
-4.26047800204067961261
-4.26518005548947787275
-4.26985994895133913474
-4.27451773681027180629
-4.27915347345028340698
-4.28376721325538234453
-4.28835901060957613851
-4.29292891989687319665
-4.29747699550127926216
-4.30200329180680629548
-4.30650786319745915165
-4.31099076405724623839
-4.31545204877017596345
-4.31989177172025584639
-4.32430998729149518311
-4.32870674986789971683
-4.33308211383347963164
-4.33743613357224155891
-4.34176886346819390639
-4.34608035790534330545
-4.35037067126769994019
-4.35463985793927044199
-4.35888797230406233041
-4.36311506874608401318
-4.36732120164934478623
-4.37150642539785039276
-4.37567079437560924049
-4.37981436296663151353
-4.38393718555492206690
-4.38803931652449108469
-4.39212081025934342193
-4.39618172114349103907
-4.40022210356094056749
-4.40424201189569952675
-4.40824150053177366004
-4.41222062385317492783
-4.41617943624390818513
-4.42011799208798272787
-4.42403634576940696377
-4.42793455167218841240
-4.43181266418033459331
-4.43567073767785302607
-4.43950882654875211841
-4.44332698517704116625
-4.44712526794672680097
-4.45090372924181565395
-4.45466242344631790928
-4.45840140494424108653
-4.46212072811959181706
-4.46582044735637939681
-4.46950061703861134532
-4.47316129155029607034
-4.47680252527543931507
-4.48042437259805215177
-4.48402688790214121184
-4.48761012557171490300
-4.49117413999077896847
-4.49471898554334359233
-4.49824471661341718232
-4.50175138758500548164
-4.50523905284211689803
-4.50870776676876161559
-4.51215758374894537752
-4.51558855816667659155
-4.51900074440596277725
-4.52239419685081323053
-4.52576896988523547094
-4.52912511789323612987
-4.53246269525882450324
-4.53578175636600899878
-4.53908235559879535970
-4.54236454734119288190
-4.54562838597720997313
-4.54887392589085415295
-4.55210122146613205274
-4.55531032708705474477
-4.55850129713762708406
-4.56167418600185925470
-4.56482904806375699991
-4.56796593770732961559
-4.57108490931658550949
-4.57418601727553131298
-4.57726931596817543380
-4.58033485977852627968
-4.58338270309059225838
-4.58641290028837911308
-4.58942550575589791606
-4.59242057387715352235
-4.59539815903615611603
-4.59835831561691232849
-4.60130109800343056747
-4.60422656057971924071
-4.60713475772978586775
-4.61002574383763707999
-4.61289957328728306152
-4.61575630046273044371
-4.61859597974798763431
-4.62141866552706215288
-4.62422441218396329532
-4.62701327410269680485
-4.62978530566727197737
-4.63254056126169722063
-4.63527909526998005418
-4.63800096207612710941
-4.64070621606414679405
-4.64339491161804929220
-4.64606710312184034706
-4.64872284495952747818
-4.65136219151512086967
-4.65398519717262626472
-4.65659191631605384742
-4.65918240332940936099
-4.66175671259670032498
-4.66431489850193781166
-4.66685701542912845241
-4.66938311776227799044
-4.67189325988539660983
-4.67438749618249183015
-4.67686588103757028279
-4.67932846883464215182
-4.68177531395771495681
-4.68420647079079532915
-4.68662199371789167657
-4.68902193712301240680
-4.69140635539016503941
-4.69377530290335887031
-4.69612883404659786635
-4.69846700320389398797
-4.70078986475925564292
-4.70309747309668679804
-4.70538988260019852561
-4.70766714765379834517
-4.70992932264149377630
-4.71217646194729233855
-4.71440861995520243966
-4.71662585104923159918
-4.71882820961338822485
-4.72101575003167983624
-4.72318852668811484108
-4.72534659396670253528
-4.72749000625144777388
-4.72961881792635985278
-4.73173308337544895608
-4.73383285698271905062
-4.73591819313217943233
-4.73798914620784028529
-4.74004577059370824088
-4.74208812067378993049
-4.74411625083209376186
-4.74613021545262903089
-4.74813006891940325715
-4.75011586561642307203
-4.75208765992769777142
-4.75404550623723487490
-4.75598945892904190202
-4.75791957238712726053
-4.75983590099549846997
-4.76173849913816482626
-4.76362742119913296079
-4.76550272156241039312
-4.76736445461200641915
-4.76921267473192855846
-4.77104743630618433059
-4.77286879371878125511
-4.77467680135372862793
-4.77647151359503308043
-4.77825298482670302036
-4.78002126943274774362
-4.78177642179717299342
-4.78351849630398806568
-4.78524754733720047994
-4.78696362928081775578
-4.78866679651884918911
-4.79035710343530141131
-4.79203460441418194193
-4.79369935383950096508
-4.79535140609526422395
-4.79699081556547923810
-4.79861763663415707981
-4.80023192368530349228
-4.80183373110292688324
-4.80342311327103388408
-4.80500012457363379070
-4.80656481939473589904
-4.80811725211834506410
-4.80965747712847147000
-4.81118554880912085991
-4.81270152154430430613
-4.81420544971802666367
-4.81569738771429900481
-4.81717738991712707275
-4.81864551071051927522
-4.82010180447848313179
-4.82154632560502616201
-4.82297912847415854998
-4.82440026746988692707
-4.82580979697621792468
-4.82720777137716261507
-4.82859424505672585326
-4.82996927239891604700
-4.83133290778774249219
-4.83268520560721270840
-4.83402622024133510337
-4.83535600607411630847
-4.83667461748956473144
-4.83798210887168878003
-4.83927853460449686196
-4.84056394907199472044
-4.84183840665819253957
-4.84310196174709783890
-4.84435466872271813799
-4.84559658196906006822
-4.84682775587013381369
-4.84804824480994778213
-4.84925810317250594039
-4.85045738534182024893
-4.85164614570189822729
-4.85282443863674561868
-4.85399231853037083084
-4.85514983976678493605
-4.85629705672999190114
-4.85743402380400191021
-4.85856079537282070646
-4.85967742582045936217
-4.86078396953092539690
-4.86188048088822277748
-4.86296701427636435255
-4.86404362407935497714
-4.86511036468120394716
-4.86616729046591878216
-4.86721445581750700171
-4.86825191511997878990
-4.86927972275733900176
-4.87029793311359693320
-4.87130660057276188013
-4.87230577951883869758
-4.87329552433583668147
-4.87427588940776601589
-4.87524692911863155587
-4.87620869785244348549
-4.87716124999320754796
-4.87810463992493392738
-4.87903892203162925512
-4.87996415069730105074
-4.88088038030595772199
-4.88178766524160767659
-4.88268605988826021047
-4.88357561862992017865
-4.88445639585059598886
-4.88532844593429871338
-4.88619182326503320724
-4.88704658222680876634
-4.88789277720363202206
-4.88873046257951315852
-4.88955969273845791889
-4.89038052206447471093
-4.89119300494157283055
-4.89199719575375890912
-4.89279314888504135439
-4.89358091871942768591
-4.89436055964092719961
-4.89513212603354563868
-4.89589567228129141085
-4.89665125276817470024
-4.89739892187820125002
-4.89813873399538124431
-4.89887074350371864995
-4.89959500478722542738
-4.90031157222990643163
-4.90102050021577273498
-4.90172184312882919244
-4.90241565535308598811
-4.90310199127255064155
-4.90378090527122889597
-4.90445245173313182363
-4.90511668504226605592
-4.90577365958264000056
-4.90642342973825940078
-4.90706604989313532883
-4.90770157443127352792
-4.90833005773668418215
-4.90895155419337125835
-4.90956611818534760516
-4.91017380409661807761
-4.91077466631119019524
-4.91136875921307503035
-4.91195613718627654976
-4.91253685461480582575
-4.91311096588266860152
-4.91367852537387506118
-4.91423958747243183609
-4.91479420656234644582
-4.91534243702762640993
-4.91588433325228191251
-4.91641994962031958494
-4.91694934051574605860
-4.91747256032257240577
-4.91798966342480436964
-4.91850070420644946978
-4.91900573705151611392
-4.91950481634401448616
-4.91999799646794855335
-4.92048533180733027592
-4.92096687674616362074
-4.92144268566846054824
-4.92191281295822591346
-4.92237731299946901231
-4.92283624017619736435
-4.92328964887241937731
-4.92373759347214168258
-4.92418012835937357607
-4.92461730791812346553
-4.92504918653239887050
-4.92547581858620642237
-4.92589725846355452887
-4.92631356054845248593
-4.92672477922490781310
-4.92713096887692625359
-4.92753218388851887966
-4.92792847864369232269
-4.92831990752645410225
-4.92870652492081173790
-4.92908838521077452555
-4.92946554278035087293
-4.92983805201354652326
-4.93020596729436988426
-4.93056934300683025185
-4.93092823353493514560
-4.93128269326269119688
-4.93163277657410947796
-4.93197853785319395570
-4.93232003148395481418
-4.93265731185040046114
-4.93299043333653752796
-4.93331945032637442239
-4.93364441720391955215
-4.93396538835317954863
-4.93428241815816370774
-4.93459556100287954905
-4.93490487127133548029
-4.93521040334753724466
-4.93551221161549591443
-4.93581035045921723281
-4.93610487426271049571
-4.93639583740998233452
-4.93668329428504204515
-4.93696729927189714715
-4.93724790675455427191
-4.93752517111702360353
-4.93779914674331177338
-4.93806988801742630102
-4.93833744932337470601
-4.93860188504516717245
-4.93886324956681121989
-4.93912159727231259154
-4.93937698254568147149
-4.93962945977092449112
-4.93987908333205005817
-4.94012590761306569220
-4.94036998699797980095
-4.94061137587080079214
-4.94085012861553707353
-4.94108629961619261195
-4.94131994325678114421
-4.94155111392130663717
-4.94177986599377749855
-4.94200625385820391244
-4.94223033189859073389
-4.94245215449894903514
-4.94267177604328367124
-4.94288925091560482628
-4.94310463349992001980
-4.94331797818023677138
-4.94352933934056171239
-4.94373877136490502693
-4.94394632863727512273
-4.94415206554167596664
-4.94435603646212040729
-4.94455829578261418789
-4.94475889788716482798
-4.94495789715977895895
-4.94515534798446854126
-4.94535130474523842992
-4.94554582182609703267
-4.94573895361105275725
-4.94593075448411312323
-4.94612127882928653833
-4.94631103971666785668
-4.94649916011485402123
-4.94668610119885610032
-4.94687186034535919532
-4.94705643493104130215
-4.94723982233258485763
-4.94742201992666874588
-4.94760302508997718007
-4.94778283519918815614
-4.94796144763098411090
-4.94813885976204570483
-4.94831506896905448656
-4.94849007262869111656
-4.94866386811763536713
-4.94883645281256878690
-4.94900782409017381269
-4.94917797932713021680
-4.94934691590011865969
-4.94951463118582069001
-4.94968112256091608003
-4.94984638740208726659
-4.95001042308601579833
-4.95017322698938055936
-4.95033479648886398650
-4.95049512896114585203
-4.95065422178290770461
-4.95081207233083109287
-4.95096867798159756546
-4.95112403611188511832
-4.95127814409837796461
-4.95143099931775587663
-4.95158259914669862667
-4.95173294096188865154
-4.95188202214000661172
-4.95202984005773405585
-4.95217639209174986803
-4.95232167561873648509
-4.95246568801537634386
-4.95260842665834655207
-4.95274988892433221110
-4.95289007219001220506
-4.95302897383206719439
-4.95316659122717872776
-4.95330292175202657745
-4.95343796278329495664
-4.95357171169766186125
-4.95370416587180883994
-4.95383532268241655316
-4.95396517950616743775
-4.95409373371974126599
-4.95422098269981958651
-4.95434692382308305980
-4.95447155446621234631
-4.95459487200588810651
-4.95471687381879277723
-4.95483755728160613074
-4.95495691977100971570
-4.95507495866368419257
-4.95519167133631022182
-4.95530705516556935208
-4.95542110752814135566
-4.95553382580070955754
-4.95564520735995195366
-4.95575524958255186903
-4.95586394984518996409
-4.95597130552454689933
-4.95607731399730244704
-4.95618197264013904402
-4.95628527882973646257
-4.95638722994277713951
-4.95648782335594084714
-4.95658705644590913408
-4.95668492658936266082
-4.95678143116298297599
-4.95687656754344985188
-4.95697033310744572532
-4.95706272523165036858
-4.95715374129274533033
-4.95724337866741127101
-4.95733163473232885110
-4.95741850686418050742
-4.95750399243964601226
-4.95758808883540602608
-4.95767079342814209753
-4.95775210359453488707
-4.95783201671126594334
-4.95791053015501503864
-4.95798764130246460979
-4.95806334753029531726
-4.95813764621518782150
-4.95821053473382189480
-4.95828201046288086218
-4.95835207077904360773
-4.95842071305899256828
-4.95848793467940751611
-4.95855373301696999988
-4.95861810544836068004
-4.95868104935026110525
-4.95874256209935282413
-4.95880264107231472082
-4.95886128364583012029
-4.95891848719657701849
-4.95897424910123962860
-4.95902856673649683472
-4.95908143747903018550
-4.95913285870552122958
-4.95918282779264973925
-4.95923134211709726316
-4.95927839905554534994
-4.95932399598467377189
-4.95936813028116585400
-4.95941079932169870403
-4.95945200048295653517
-4.95949173114161911968
-4.95952998867436711805
-4.95956677045788207892
-4.95960207386884466274
-4.95963589628393552999
-4.95966823507983711750
-4.95969908763322830936
-4.95972845132079243058
-4.95975632351920747709
-4.95978270160515677389
-4.95980758295532098145
-4.95983096494637987206
-4.95985284495501588253
-4.95987322035790878516
-4.95989208853173924041
-4.95990944685319057328
-4.95992529269894077970
-4.95993962344567229650
-4.95995243647006756049
-4.95996372914880367944
-4.95997349885856575469
-4.95998174297603178218
-4.95998845887788419873
-4.95999364394080366480
-4.95999729554147084087
-4.95999941105656727558
-4.95999998786277362939
-4.95999902333677056276
-4.95999651485523873617
-4.95999245979486058644
-4.95998685553231588585
-4.95997969944428529487
-4.95997098890745125033
-4.95996072129849352450
-4.95994889399409277786
-4.95993550437093144723
-4.95992054980568930489
-4.95990402767504701131
-4.95988593535568700332
-4.95986627022428905320
-4.95984502965753382142
-4.95982221103210374480
-4.95979781172467859562
-4.95977182911194081072
-4.95974426057056838602
-4.95971510347724553469
-4.95968435520865025268
-4.95965201314146586498
-4.95961807465237392023
-4.95958253711805241437
-4.95954539791518467240
-4.95950665442044957842
-4.95946630401053045745
-4.95942434406210619358
-4.95938077195186011181
-4.95933558505647109627
-4.95928878075262158376
-4.95924035641699134658
-4.95919030942626104519
-4.95913863715711311642
-4.95908533698622822072
-4.95903040629028613040
-4.95897384244596928227
-4.95891564282995656043
-4.95885580481893128990
-4.95879432578957324296
-4.95873120311856308007
-4.95866643418258323806
-4.95860001635831348921
-4.95853194702243449399
-4.95846222355162868922
-4.95839084332257495902
-4.95831780371195574020
-4.95824310209645169323
-4.95816673585274347857
-4.95808870235751353306
-4.95800899898743985261
-4.95792762311920576224
-4.95784457212949192240
-4.95775984339497899356
-4.95767343429234852437
-4.95758534219827939893
-4.95749556448945494225
-4.95740409854255581479
-4.95731094173426090066
-4.95721609144125352486
-4.95711954504021434786
-4.95702129990782314195
-4.95692135342076145577
-4.95681970295570994978
-4.95671634588935017263
-4.95661127959836278478
-4.95650450145942933489
-4.95639600884923048341
-4.95628579914444600263
-4.95617386972175832938
-4.95606021795784812412
-4.95594484122939515913
-4.95582773691308187125
-4.95570890238558980911
-4.95558833502359785683
-4.95546603220378845123
-4.95534199130284225276
-4.95521620969743814555
-4.95508868476426123095
-4.95495941387998950489
-4.95482839442130451602
-4.95469562376488781297
-4.95456109928741916804
-4.95442481836558101804
-4.95428677837605313528
-4.95414697669551706838
-4.95400541070065347782
-4.95386207776814391224
-4.95371697527466903210
-4.95357010059690949788
-4.95342145111154685821
-4.95327102419526177357
-4.95311881722473490441
-4.95296482757664691121
-4.95280905262767934261
-4.95265148975451374724
-4.95249213633382989741
-4.95233098974230934175
-4.95216804735663362891
-4.95200330655348253117
-4.95183676470953759718
-4.95166841920148037559
-4.95149826740598975050
-4.95132630669974993509
-4.95115253445943892530
-4.95097694806173915794
-4.95079954488333218166
-4.95062032230089688056
-4.95043927769111569148
-4.95025640843067016306
-4.95007171189623917940
-4.94988518546450606550
-4.94969682651214970548
-4.94950663241585253616
-4.94931460055229521799
-4.94912072829815752328
-4.94892501303012188885
-4.94872745212486986333
-4.94852804295908033083
-4.94832678290943572819
-4.94812366935261582768
-4.94791869966530217795
-4.94771187122417543947
-4.94750318140591804905
-4.94729262758720977899
-4.94708020714473217794
-4.94686591745516501817
-4.94664975589519073651
-4.94643171984148821707
-4.94621180667074078485
-4.94599001375962821214
-4.94576633848483204758
-4.94554077822303206347
-4.94531333035091069661
-4.94508399224514683112
-4.94485276128242379201
-4.94461963483942223974
-4.94438461029282194659
-4.94414768501930446121
-4.94570004355543613173
-4.94549579794808469302
-4.94529049292318845232
-4.94508413305700855744
-4.94487672290561608435
-4.94466826700499240133
-4.94445876987113486223
-4.94424823600015450609
-4.94403666986837819763
-4.94382407593244899147
-4.94361045862942738438
-4.94339582237688635047
-4.94318017157301614617
-4.94296351059671579264
-4.94274584380769432812
-4.94252717554656673116
-4.94230751013494895574
-4.94208685187555651908
-4.94186520505229687217
-4.94164257393036532306
-4.94141896275633829561
-4.94119437575826658815
-4.94096881714577040867
-4.94074229111012996896
-4.94051480182437785516
-4.94028635344338873381
-4.94005695010397261058
-4.93982659592496453627
-4.93959529500731342466
-4.93936305143417175856
-4.93912986927098618395
-4.93889575256558099881
-4.93866070534825141181
-4.93842473163184436658
-4.93818783541185535313
-4.93795002066650212669
-4.93771129135681974276
-4.93747165142674049321
-4.93723110480318450044
-4.93698965539613610076
-4.93674730709873355039
-4.93650406378734984969
-4.93625992932167800831
-4.93601490754480831669
-4.93576900228331627574
-4.93552221734733986835
-4.93527455653066216001
-4.93502602361079034665
-4.93477662234904013161
-4.93452635649060677991
-4.93427522976465304794
-4.93402324588438290220
-4.93377040854712323181
-4.93351672143439579088
-4.93326218821200157549
-4.93300681253009187799
-4.93275059802324911118
-4.93249354831055963899
-4.93223566699569015981
-4.93197695766696586617
-4.93171742389744149904
-4.93145706924497595480
-4.93119589725230689226
-4.93093391144712711593
-4.93067111534215474222
-4.93040751243520158908
-4.93014310620925577666
-4.92987790013254567612
-4.92961189765861274026
-4.92934510222638522237
-4.92907751726024478955
-4.92880914617010112977
-4.92853999235145945335
-4.92827005918548888275
-4.92799935003909439502
-4.92772786826498432333
-4.92745561720173608222
-4.92718260017387077454
-4.92690882049191269942
-4.92663428145246218293
-4.92635898633826130322
-4.92608293841825695125
-4.92580614094767366140
-4.92552859716807223123
-4.92525031030741899940
-4.92497128358015157090
-4.92469152018724098951
-4.92441102331625568667
-4.92412979614142987117
-4.92384784182372126082
-4.92356516351087858396
-4.92328176433750286378
-4.92299764742510959081
-4.92271281588219178360
-4.92242727280428304937
-4.92214102127401442743
-4.92185406436118189077
-4.92156640512280141309
-4.92127804660317380581
-4.92098899183394333789
-4.92069924383415724378
-4.92040880561032523133
-4.92011768015647987795
-4.91982587045423347405
-4.91953337947283753095
-4.91924021016924317706
-4.91894636548815711308
-4.91865184836209667907
-4.91835666171145202696
-4.91806080844454118761
-4.91776429145766602602
-4.91746711363516819659
-4.91716927784948776292
-4.91687078696121648846
-4.91657164381915379181
-4.91627185126036270191
-4.91597141211022581331
-4.91567032918249680051
-4.91536860527935548504
-4.91506624319146467883
-4.91476324569802169862
-4.91445961556681076843
-4.91415535555425897485
-4.91385046840548689318
-4.91354495685436187813
-4.91323882362354957820
-4.91293207142456811454
-4.91262470295783604257
-4.91231672091272919545
-4.91200812796762686929
-4.91169892678996600210
-4.91138912003628824721
-4.91107871035229504031
-4.91076770037289289661
-4.91045609272224847786
-4.91014389001383300126
-4.90983109485047553022
-4.90951770982440738322
-4.90920373751731808909
-4.90888918050039624319
-4.90857404133438368632
-4.90825832256961813727
-4.90794202674608648351
-4.90762515639346919016
-4.90730771403118737339
-4.90698970216845076209
-4.90667112330430477130
-4.90635197992767579933
-4.90603227451741830123
-4.90571200954236186220
-4.90539118746135294202
-4.90506981072330638938
-4.90474788176724452171
-4.90442540302235041594
-4.90410237690800165922
-4.90377880583382452784
-4.90345469219973484343
-4.90313003839597971734
-4.90280484680318551227
-4.90247911979239958669
-4.90215285972513470369
-4.90182606895341166364
-4.90149874981979838395
-4.90117090465746141348
-4.90084253579020057145
-4.90051364553249513278
-4.90018423618954468424
-4.89985431005731264520
-4.89952386942256445934
-4.89919291656291289172
-4.89886145374685799680
-4.89852948323382619833
-4.89819700727421381004
-4.89786402810942700370
-4.89753054797191911263
-4.89719656908523770511
-4.89686209366405833521
-4.89652712391422362259
-4.89619166203279032601
-4.89585571020805954134
-4.89551927061962555143
-4.89518234543840424777
-4.89484493682667931580
-4.89450704693813865021
-4.89416867791791343478
-4.89382983190261455775
-4.89349051102037169159
-4.89315071739087148472
-4.89281045312539486503
-4.89246972032685434328
-4.89212852108983042854
-4.89178685750060893156
-4.89144473163722182107
-4.89110214556947475728
-4.89075910135899327713
-4.89041560105925388058
-4.89007164671562044589
-4.88972724036538242132
-4.88938238403778679952
-4.88903707975407808561
-4.88869132952752849519
-4.88834513536347881058
-4.88799849925937035522
-4.88765142320477785631
-4.88730390918144941281
-4.88695595916333669351
-4.88660757511662868779
-4.88625875899978989736
-4.88590951276358964606
-4.88555983835114293612
-4.88520973769793354080
-4.88485921273185841329
-4.88450826537325166754
-4.88415689753492276992
-4.88380511112219295455
-4.88345290803291653958
-4.88310029015752622428
-4.88274725937905795803
-4.88239381757318557931
-4.88203996660825190190
-4.88168570834530157754
-4.88133104463811484663
-4.88097597733323329550
-4.88062050826999893616
-4.88026463928057907538
-4.87990837219000272995
-4.87955170881618549572
-4.87919465096996773923
-4.87883720045514035490
-4.87847935906847585130
-4.87812112859975943735
-4.87776251083182099677
-4.87740350754056262161
-4.87704412049498969850
-4.87668435145723933033
-4.87632420218261408706
-4.87596367441960687472
-4.87560276990993113344
-4.87524149038855281191
-4.87487983758371790088
-4.87451781321698174310
-4.87415541900323479041
-4.87379265665073457825
-4.87342952786113592367
-4.87306603432951312982
-4.87270217774439640124
-4.87233795978779227198
-4.87197338213521469186
-4.87160844645571433631
-4.87124315441190525178
-4.87087750765999150104
-4.87051150784979380859
-4.87014515662478153502
-4.86977845562209310515
-4.86941140647256887064
-4.86904401080077509079
-4.86867627022502968970
-4.86830818635743156619
-4.86793976080388812733
-4.86757099516413571649
-4.86720189103177069967
-4.86683244999427699895
-4.86646267363304563247
-4.86609256352340846519
-4.86572212123465597244
-4.86535134833007187893
-4.86498024636694825773
-4.86460881689662105742
-4.86423706146448786569
-4.86386498161003544283
-4.86349257886686725527
-4.86311985476272479190
-4.86274681081951243300
-4.86237344855332764837
-4.86199976947447698450
-4.86162577508750448629
-4.86125146689122100696
-4.86087684637871841886
-4.86050191503740069976
-4.86012667434900791363
-4.85975112578963486243
-4.85937527082976039594
-4.85899911093426695174
-4.85862264756246808872
-4.85824588216812713881
-4.85786881619948562872
-4.85749145109928015529
-4.85711378830477080726
-4.85673582924776336966
-4.85635757535462975198
-4.85597902804633196894
-4.85560018873844345677
-4.85522105884117571861
-4.85484163975939608804
-4.85446193289265170989
-4.85408193963519352110
-4.85370166137599223788
-4.85332109949876944199
-4.85294025538201267977
-4.85255913039899944295
-4.85217772591781759672
-4.85179604330139024881
-4.85141408390749084845
-4.85103184908877338444
-4.85064934019278481969
-4.85026655856199351291
-4.84988350553380342944
-4.84950018244058256300
-4.84911659060967625834
-4.84873273136343474476
-4.84834860601922734702
-4.84796421588946913062
-4.84757956228163777723
-4.84719464649829312464
-4.84680946983710114750
-4.84642403359085172099
-4.84603833904747816064
-4.84565238749007676233
-4.84526618019693255945
-4.84487971844152998102
-4.84449300349257772069
-4.84410603661403094122
-4.84371881906510370897
-4.84333135210029563922
-4.84294363696940610708
-4.84255567491755378740
-4.84216746718520152371
-4.84177901500816787461
-4.84139031961765109457
-4.84100138224024423295
-4.84061220409796000297
-4.84022278640824232809
-4.83983313038398854644
-4.83944323723356895073
-4.83905310816084366365
-4.83866274436518040147
-4.83827214704147579027
-4.83788131738016780048
-4.83749025656726150402
-4.83709896578434062064
-4.83670744620858883422
-4.83631569901280666812
-4.83592372536543102512
-4.83553152643054851012
-4.83513910336791763456
-4.83474645733298391548
-4.83435358947689852727
-4.83396050094653428886
-4.83356719288450609184
-4.83317366642918244679
-4.83277992271470946406
-4.83238596287102328830
-4.83199178802386608567
-4.83159739929480913645
-4.83120279780126260505
-4.83080798465649774442
-4.83041296096965933060
-4.83001772784578520259
-4.82962228638582224960
-4.82922663768664151007
-4.82883078284105593525
-4.82843472293783548821
-4.82803845906172490743
-4.82764199229345880582
-4.82724532370977854612
-4.82684845438344733992
-4.82645138538326445854
-4.82605411777408832563
-4.82565665261684095810
-4.82525899096853461145
-4.82486113388228066157
-4.82446308240730736827
-4.82406483758897586256
-4.82366640046879524562
-4.82326777208443591149
-4.82286895346974908705
-4.82246994565477749006
-4.82207074966577309283
-4.82167136652521310936
-4.82127179725181331804
-4.82087204286054138436
-4.82047210436263551259
-4.82007198276561688033
-4.81967167907330473753
-4.81927119428583328187
-4.81887052939966142873
-4.81846968540759057475
-4.81806866329878236144
-4.81766746405876578052
-4.81726608866945671394
-4.81686453810917125651
-4.81646281335263815038
-4.81606091537101477229
-4.81565884513190223259
-4.81525660359935603338
-4.81485419173390383207
-4.81445161049255521135
-4.81404886082882121912
-4.81364594369272058572
-4.81324286003080104024
-4.81283961078614819229
-4.81243619689840151921
-4.81203261930376591238
-4.81162887893502588810
-4.81122497672156068660
-4.81082091358935581837
-4.81041669046101727503
-4.81001230825578218742
-4.80960776788953836558
-4.80920307027482962781
-4.80879821632087267602
-4.80839320693357308301
-4.80798804301553239782
-4.80758272546606413300
-4.80717725518120797545
-4.80677163305373778002
-4.80636585997318110941
-4.80595993682582545148
-4.80555386449473509458
-4.80514764385976178573
-4.80474127579755805328
-4.80433476118158875323
-4.80392810088214261555
-4.80352129576635000774
-4.80311434669818737575
-4.80270725453849411934
-4.80230002014498591478
-4.80189264437226359661
-4.80148512807182559214
-4.80107747209208213235
-4.80066967727836679813
-4.80026174447294629033
-4.79985367451503286418
-4.79944546824079854019
-4.79903712648338665048
-4.79862865007291805597
-4.79822003983651157455
-4.79781129659828664558
-4.79740242117938198163
-4.79699341439796533848
-4.79658427706923973233
-4.79617501000546297973
-4.79576561401595302669
-4.79535608990710393584
-4.79494643848239032735
-4.79453666054238691885
-4.79412675688477474267
-4.79371672830435269219
-4.79330657559304729176
-4.79289629953992779576
-4.79248590093121507039
-4.79207538055029136359
-4.79166473917771185143
-4.79125397759121707253
-4.79084309656574092173
-4.79043209687342574910
-4.79002097928362502444
-4.78960974456292376544
-4.78919839347514297856
-4.78878692678135209349
-4.78837534523987873314
-4.78796364960631937180
-4.78755184063354999324
-4.78713991907173852525
-4.78672788566834928048
-4.78631574116816160824
-4.78590348631327078266
-4.78549112184310754259
-4.78507864849443986799
-4.78466606700139074348
-4.78425337809544082290
-4.78384058250544352831
-4.78342768095763570813
-4.78301467417564207807
-4.78260156288048943196
-4.78218834779061729989
-4.78177502962188505364
-4.78136160908758078847
-4.78094808689843553395
-4.78053446376262947126
-4.78012074038580170310
-4.77970691747106180003
-4.77929299571899690591
-4.77887897582768417237
-4.77846485849269608792
-4.77805064440711557694
-4.77763633426153955241
-4.77722192874409223862
-4.77680742854043316470
-4.77639283433376693466
-4.77597814680485033279
-4.77556336663200653447
-4.77514849449112777080
-4.77473353105568776300
-4.77431847699675415697
-4.77390333298299029963
-4.77348809968067122611
-4.77307277775368632433
-4.77265736786355532217
-4.77224187066943006386
-4.77182628682810872078
-4.77141061699404112062
-4.77099486181933851725
-4.77057902195378602528
-4.77016309804484617274
-4.76974709073766778289
-4.76933100067509840869
-4.76891482849769143826
-4.76849857484371231209
-4.76808224034914918121
-4.76766582564772356534
-4.76724933137089301738
-4.76683275814786444613
-4.76641610660560122170
-4.76599937736883205730
-4.76558257106005456194
-4.76516568829955211584
-4.76474872970539564676
-4.76433169589345428818
-4.76391458747740159652
-4.76349740506872620927
-4.76308014927673895045
-4.76266282070857993602
-4.76224541996922923204
-4.76182794766151129551
-4.76141040438610474439
-4.76099279074155390390
-4.76057510732426791833
-4.76015735472853673826
-4.75973953354653733783
-4.75932164436833904375
-4.75890368778191064081
-4.75848566437313280630
-4.75806757472580343915
-4.75764941942164298894
-4.75723119904030422589
-4.75681291415938378719
-4.75639456535441951246
-4.75597615319890820729
-4.75555767826431008416
-4.75513914112005320334
-4.75472054233354413100
-4.75430188247017326830
-4.75388316209332639772
-4.75346438176438557122
-4.75304554204274243290
-4.75262664348580265994
-4.75220768664899217981
-4.75178867208576871661
-4.75136960034762356742
-4.75095047198409314859
-4.75053128754276254853
-4.75011204756927796211
-4.74969275260734669075
-4.74927340319875135322
-4.74885399988335166199
-4.74843454319909330508
-4.74801503368201682775
-4.74759547186625940896
-4.74717585828406818393
-4.74675619346580379698
-4.74633647793994573050
-4.74591671223310473948
-4.74549689687002018701
-4.74507703237357958415
-4.74465711926481237271
-4.74423715806290768882
-4.74381714928521081021
-4.74339709344724091977
-4.74297699106268844105
-4.74255684264342658452
-4.74213664869951401215
-4.74171640973920816009
-4.74129612626896523864
-4.74087579879344911404
-4.74045542781553930212
-4.74003501383633363275
-4.73961455735516068444
-4.73919405886957889606
-4.73877351887538811326
-4.73835293786663491744
-4.73793231633561973126
-4.73751165477289948313
-4.73709095366729648902
-4.73667021350590822237
-4.73624943477410642600
-4.73582861795554688200
-4.73540776353217829353
-4.73498687198424406120
-4.73456594379028938846
-4.73414497942717016343
-4.73372397937005384705
-4.73330294409243368392
-4.73288187406612603780
-4.73246076976128016156
-4.73203963164638619077
-4.73161846018827869642
-4.73119725585214023766
-4.73077601910151557263
-4.73035475039830810573
-4.72993345020278965762
-4.72951211897360757064
-4.72909075716779092602
-4.72866936524075232029
-4.72824794364629763521
-4.72782649283662959050
-4.72740501326235573742
-4.72698350537248934700
-4.72656196961446362081
-4.72614040643412725018
-4.72571881627575685059
-4.72529719958206229080
-4.72487555679418935739
-4.72445388835172508379
-4.72403219469270840847
-4.72361047625362928670
-4.72318873346943934877
-4.72276696677355367626
-4.72234517659785879573
-4.72192336337271711955
-4.72150152752697138681
-4.72107966948795265694
-4.72065778968148208605
-4.72023588853188069692
-4.71981396646197204348
-4.71939202389308487540
-4.71897006124506557256
-4.71854807893627636872
-4.71812607738360512144
-4.71770405700246797664
-4.71728201820681736223
-4.71685996140914109986
-4.71643788702047839223
-4.71601579545041360575
-4.71559368710708604056
-4.71517156239719881228
-4.71474942172601796386
-4.71432726549738045918
-4.71390509411369862391
-4.71348290797596458646
-4.71306070748375915969
-4.71263849303525006462
-4.71221626502720258856
-4.71179402385498136141
-4.71137176991255834935
-4.71094950359251374294
-4.71052722528604483898
-4.71010493538296692861
-4.70968263427172217916
-4.70926032233938318683
-4.70883799997165386486
-4.70841566755288187807
-4.70799332546605509009
-4.70757097409281488609
-4.70714861381345262004
-4.70672624500692027283
-4.70630386805083222868
-4.70588148332147060415
-4.70545909119379057728
-4.70503669204142482840
-4.70461428623668798110
-4.70419187415058104307
-4.70376945615279584700
-4.70334703261171949151
-4.70292460389444055835
-4.70250217036675355331
-4.70207973239315890623
-4.70165729033687362914
-4.70123484455983220442
-4.70081239542269280207
-4.70038994328483994423
-4.69996748850439072243
-4.69954503143819657396
-4.69912257244185394001
-4.69870011186969982475
-4.69827765007482156534
-4.69785518740906393731
-4.69743272422302471369
-4.69701026086606621135
-4.69658779768631973184
-4.69616533503068289690
-4.69574287324483385930
-4.69532041267322597378
-4.69489795365910111968
-4.69447549654448348377
-4.69405304167019465922
-4.69363058937585009289
-4.69320813999986707898
-4.69278569387946564717
-4.69236325135067744441
-4.69194081274834662310
-4.69151837840613428199
-4.69109594865652201889
-4.69067352383081725975
-4.69025110425915769952
-4.68982869027051485489
-4.68940628219269584065
-4.68898388035235136329
-4.68856148507497749733
-4.68813909668492012628
-4.68771671550537583073
-4.68729434185840343474
-4.68687197606492045310
-4.68644961844470930856
-4.68602726931642354913
-4.68560492899758962437
-4.68518259780460955000
-4.68476027605276890142
-4.68433796405623770198
-4.68391566212807131109
-4.68349337058022197056
-4.68307108972353614007
-4.68264881986776249079
-4.68222656132154835262
-4.68180431439245658964
-4.68138207938695583010
-4.68095985661043112458
-4.68053764636718749870
-4.68011544896045172948
-4.67969326469237856259
-4.67927109386405071234
-4.67884893677548685531
-4.67842679372564074214
-4.67800466501240830297
-4.67758255093263031199
-4.67716045178209682831
-4.67673836785554719597
-4.67631629944667803755
-4.67589424684814591870
-4.67547221035156823632
-4.67505019024752943579
-4.67462818682558367556
-4.67420620037425749160
-4.67378423118105601475
-4.67336227953246385880
-4.67294034571394778510
-4.67251843000996469613
-4.67209653270395897096
-4.67167465407837223523
-4.67125279441464158481
-4.67083095399320669117
-4.67040913309350980143
-4.66998733199400195559
-4.66956555097214476291
-4.66914379030441573093
-4.66872205026630915370
-4.66830033113234144082
-4.66787863317605200564
-4.66745695667000948248
-4.66703530188581350302
-4.66661366909409736081
-4.66619205856453334036
-4.66577047056583449347
-4.66534890536575819198
-4.66492736323110879226
-4.66450584442774029981
-4.66408434922056347460
-4.66366287787354494299
-4.66324143064971252670
-4.66282000781115524290
-4.66239860961903129777
-4.66197723633356808648
-4.66155588821406752231
-4.66113456551890337209
-4.66071326850553369070
-4.66029199743049726834
-4.65987075254941718327
-4.65944953411700613088
-4.65902834238706908820
-4.65860717761250597846
-4.65818604004531344742
-4.65776492993658930430
-4.65734384753653607447
-4.65692279309446366398
-4.65650176685879024774
-4.65608076907704759861
-4.65565979999588375193
-4.65523885986106744639
-4.65481794891748634768
-4.65439706740915415395
-4.65397621557921326030
-4.65355539366993653516
-4.65313460192272998484
-4.65271384057813630619
-4.65229310987583755121
-4.65187241005465956789
-4.65145174135257200021
-4.65103110400669450541
-4.65061049825329497764
-4.65018992432779665336
-4.64976938246478077588
-4.64934887289798570720
-4.64892839586031492161
-4.64850795158383522931
-4.64808754029978210554
-4.64766716223856057866
-4.64724681762975144750
-4.64682650670210950494
-4.64640622968357153155
-4.64598598680125363103
-4.64556577828145655928
-4.64514560434967016533
-4.64472546523057250312
-4.64430536114803693692
-4.64388529232512947686
-4.64346525898411499611
-4.64304526134646078361
-4.64262529963283476775
-4.64220537406311350992
-4.64178548485638220455
-4.64136563223093645547
-4.64094581640428494040
-4.64052603759315740461
-4.64010629601349666729
-4.63968659188047283237
-4.63926692540847707136
-4.63884729681113050503
-4.63842770630128065079
-4.63800815409101030440
-4.63758864039163576365
-4.63716916541371038107
-4.63674972936702634030
-4.63633033246062176147
-4.63591097490277626036
-4.63549165690101805382
-4.63507237866212573607
-4.63465314039213005515
-4.63423394229631657737
-4.63381478457922746372
-4.63339566744466591075
-4.63297659109569792690
-4.63255755573465233255
-4.63213856156312697721
-4.63171960878198696321
-4.63130069759137263929
-4.63088182819069693608
-4.63046300077864891875
-4.63004421555320000436
-4.62962547271159863271
-4.62920677245038181269
-4.62878811496537068138
-4.62836950045167405676
-4.62795092910369554318
-4.62753240111512731403
-4.62711391667896165814
-4.62669547598748653883
-4.62627707923229092302
-4.62585872660426744574
-4.62544041829361241014
-4.62502215448983022839
-4.62460393538173430983
-4.62418576115745150190
-4.62376763200442120194
-4.62334954810939979808
-4.62293150965846244560
-4.62251351683700484330
-4.62209556982974767436
-4.62167766882073483004
-4.62125981399333785049
-4.62084200553026036573
-4.62042424361353631923
-4.62000652842453263247
-4.61958886014395631037
-4.61917123895185000038
-4.61875366502759732157
-4.61833613854992641734
-4.61791865969691084359
-4.61750122864596868055
-4.61708384557387052638
-4.61666651065673594445
-4.61624922407003968061
-4.61583198598861255135
-4.61541479658664233199
-4.61499765603767642119
-4.61458056451462717007
-4.61416352218976832944
-4.61374652923474037891
-4.61332958582055407959
-4.61291269211758692137
-4.61249584829559200472
-4.61207905452369626431
-4.61166231097040490994
-4.61124561780359787377
-4.61082897519053869217
-4.61041238329787361749
-4.60999584229163161808
-4.60957935233723148372
-4.60916291359947738471
-4.60874652624256775368
-4.60833019043008995652
-4.60791390632502917413
-4.60749767408976662608
-4.60708149388608045882
-4.60666536587515196288
-4.60624929021756379655
-4.60583326707330265037
-4.60541729660176279992
-4.60500137896174521757
-4.60458551431146467792
-4.60416970280854442876
-4.60375394461002329649
-4.60333823987235835062
-4.60292258875141957475
-4.60250699140250318919
-4.60209144798032188106
-4.60167595863901457420
-4.60126052353214642920
-4.60084514281270706704
-4.60042981663311856266
-4.60001454514523189232
-4.59959932850033315077
-4.59918416684913999859
-4.59876906034181054395
-4.59835400912793890171
-4.59793901335656052254
-4.59752407317615219284
-4.59710918873463647571
-4.59669436017937815819
-4.59627958765719224488
-4.59586487131434306974
-4.59545021129654696068
-4.59503560774896957497
-4.59462106081623478104
-4.59420657064242021761
-4.59379213737106439908
-4.59337776114516405102
-4.59296344210717855105
-4.59254918039902904070
-4.59213497616210375440
-4.59172082953725801957
-4.59130674066481425655
-4.59089270968456464317
-4.59047873673577644382
-4.59006482195718756856
-4.58965096548701456669
-4.58923716746294818591
-4.58882342802215958955
-4.58840974730129946835
-4.58799612543650336960
-4.58758256256338725620
-4.58716905881705461212
-4.58675561433209644235
-4.58634222924259038479
-4.58592890368210870378
-4.58551563778371118474
-4.58510243167995490410
-4.58468928550289067658
-4.58427619938406660793
-4.58386317345453075944
-4.58345020784482937160
-4.58303730268501308132
-4.58262445810463248108
-4.58221167423274700070
-4.58179895119792046643
-4.58138628912822820638
-4.58097368815124994512
-4.58056114839408134998
-4.58014866998332959014
-4.57973625304511777756
-4.57932389770508230242
-4.57891160408837993856
-4.57849937231968517892
-4.57808720252319556465
-4.57767509482262724418
-4.57726304934122385504
-4.57685106620175208292
-4.57643914552650699079
-4.57602728743731201888
-4.57561549205551898467
-4.57520375950201341197
-4.57479208989721364276
-4.57438048336106906078
-4.57396894001306808519
-4.57355745997223728239
-4.57314604335714047778
-4.57273469028588408491
-4.57232340087611088819
-4.57191217524501425373
-4.57150101350932747124
-4.57108991578533263578
-4.57067888218885709506
-4.57026791283528055487
-4.56985700783953063819
-4.56944616731608821425
-4.56903539137898828670
-4.56862468014181999365
-4.56821403371772660762
-4.56780345221941441736
-4.56739293575914384604
-4.56698248444873833307
-4.56657209839958433406
-4.56616177772262865631
-4.56575152252838467604
-4.56534133292693233841
-4.56493120902791904570
-4.56452115094055965727
-4.56411115877364093052
-4.56370123263552063264
-4.56329137263413020520
-4.56288157887697476411
-4.56247185147113487602
-4.56206219052327011099
-4.56165259613961548979
-4.56124306842598947753
-4.56083360748778954274
-4.56042421342999482192
-4.56001488635716967224
-4.55960562637346455972
-4.55919643358261428290
-4.55878730808794241369
-4.55837824999236129742
-4.55796925939837471731
-4.55756033640807700635
-4.55715148112315482365
-4.55674269364489159528
-4.55633397407416484981
-4.55592532251144977096
-4.55551673905681653309
-4.55510822380993918301
-4.55469977687009119904
-4.55429139833614549104
-4.55388308830658150583
-4.55347484687948167448
-4.55306667415253318865
-4.55265857022303332968
-4.55225053518788325135
-4.55184256914359774981
-4.55143467218630082272
-4.55102684441172922192
-4.55061908591522890077
-4.55021139679176656045
-4.54980377713591899180
-4.54939622704188373348
-4.54898874660347463106
-4.54858133591412450158
-4.54817399506688779809
-4.54776672415444060960
-4.54735952326908066112
-4.54695239250273175458
-4.54654533194694110421
-4.54613834169288288933
-4.54573142183136003069
-4.54532457245280330227
-4.54491779364727399582
-4.54451108550446392087
-4.54410444811369806928
-4.54369788156393372702
-4.54329138594376402693
-4.54288496134141794869
-4.54247860784476209517
-4.54207232554129802793
-4.54166611451817026079
-4.54125997486216181898
-4.54085390665969779178
-4.54044790999684533261
-4.54004198495931721169
-4.53963613163246915150
-4.53923035010130337952
-4.53882464045047040457
-4.53841900276426812866
-4.53801343712664273511
-4.53760794362119401768
-4.53720252233117093965
-4.53679717333947518654
-4.53639189672866205427
-4.53598669258094489010
-4.53558156097818976349
-4.53517650200191990706
-4.53477151573331838108
-4.53436660225322540896
-4.53396176164214548265
-4.53355699398023936908
-4.53315229934733299189
-4.53274767782291565510
-4.53234312948614181948
-4.53193865441583021436
-4.53153425269046650214
-4.53112992438820505470
-4.53072566958686806515
-4.53032148836394821245
-4.52991738079660866134
-4.52951334696168306237
-4.52910938693568176916
-4.52870550079478562111
-4.52830168861485127252
-4.52789795047141208073
-4.52749428643967810615
-4.52709069659453700041
-4.52668718101055667091
-4.52628373976198350448
-4.52588037292274592005
-4.52547708056645436869
-4.52507386276640222178
-4.52467071959556665917
-4.52426765112661044554
-4.52386465743188104227
-4.52346173858341593643
-4.52305889465293731178
-4.52265612571185826596
-4.52225343183128103419
-4.52185081308199876560
-4.52144826953449818774
-4.52104580125895694209
-4.52064340832524713676
-4.52024109080293445828
-4.51983884876128350072
-4.51943668226925243658
-4.51903459139549923407
-4.51863257620837899253
-4.51823063677594660703
-4.51782877316595943284
-4.51742698544587373277
-4.51702527368284822984
-4.51662363794374766002
-4.51622207829513655497
-4.51582059480329078838
-4.51541918753418602961
-4.51501785655350840187
-4.51461660192665181768
-4.51421542371871886701
-4.51381432199451904097
-4.51341329681857761358
-4.51301234825512764814
-4.51261147636811621453
-4.51221068122120350097
-4.51180996287776370224
-4.51140932140088590785
-4.51100875685337587839
-4.51060826929775604555
-4.51020785879626728843
-4.50980752541086804541
-4.50940726920323697868
-4.50900709023477475057
-4.50860698856659958267
-4.50820696425955524944
-4.50780701737420663733
-4.50740714797084507381
-4.50700735610948388654
-4.50660764184986373238
-4.50620800525145170923
-4.50580844637344135606
-4.50540896527475531741
-4.50500956201404445522
-4.50461023664969051339
-4.50421098923980611772
-4.50381181984223566417
-4.50341272851455354242
-4.50301371531407035320
-4.50261478029783024368
-4.50221592352261090753
-4.50181714504492624940
-4.50141844492102904951
-4.50101982320690741091
-4.50062127995828653582
-4.50022281523063316655
-4.49982442907915380914
-4.49942612155879384517
-4.49902789272424019629
-4.49862974262992398877
-4.49823167133001877716
-4.49783367887844143240
-4.49743576532885391828
-4.49703793073466329133
-4.49664017514902258910
-4.49624249862483438278
-4.49584490121474633639
-4.49544738297115564762
-4.49504994394620993603
-4.49465258419180457850
-4.49425530375958803830
-4.49385810270096186514
-4.49346098106707625419
-4.49306393890883803977
-4.49266697627690714256
-4.49227009322169656969
-4.49187328979337952006
-4.49147656604187961449
-4.49107992201688244194
-4.49068335776783023050
-4.49028687334392184738
-4.48989046879411723978
-4.48949414416713654674
-4.48909789951146187548
-4.48870173487533463685
-4.48830565030675909810
-4.48790964585350415916
-4.48751372156310157635
-4.48711787748284773869
-4.48672211365980455611
-4.48632643014079945942
-4.48593082697242895307
-4.48553530420105328602
-4.48513986187280355722
-4.48474450003357905103
-4.48434921872904901363
-4.48395401800465265296
-4.48355889790560091512
-4.48316385847687737254
-4.48276889976323467124
-4.48237402180920252448
-4.48197922465908327183
-4.48158450835695276737
-4.48118987294666482057
-4.48079531847184586724
-4.48040084497590118673
-4.48000645250201401382
-4.47961214109314465048
-4.47921791079203224228
-4.47882376164119566653
-4.47842969368293442045
-4.47803570695932862122
-4.47764180151223811777
-4.47724797738330870800
-4.47685423461396680977
-4.47646057324542123723
-4.47606699331866764169
-4.47567349487448584711
-4.47528007795343985009
-4.47488674259588137261
-4.47449348884194897380
-4.47410031673156893817
-4.47370722630445438739
-4.47331421760010794486
-4.47292129065782351205
-4.47252844551668360396
-4.47213568221556201365
-4.47174300079312381229
-4.47135040128782446089
-4.47095788373791691583
-4.47056544818144363518
-4.47017309465624190778
-4.46978082319994562965
-4.46938863384998175121
-4.46899652664357294185
-4.46860450161774203082
-4.46821255880930490179
-4.46782069825487848647
-4.46742891999087632371
-4.46703722405351211222
-4.46664561047879882238
-4.46625407930254958444
-4.46586263056038035302
-4.46547126428770635442
-4.46507998051974475118
-4.46468877929151997108
-4.46429766063785393726
-4.46390662459337672630
-4.46351567119252301552
-4.46312480046953030666
-4.46273401245844425489
-4.46234330719311511615
-4.46195268470720218801
-4.46156214503417114514
-4.46117168820729670387
-4.46078131425966262213
-4.46039102322416081137
-4.46000081513349577733
-4.45961069002017929108
-4.45922064791653838256
-4.45883068885470734699
-4.45844081286663751484
-4.45805101998408925823
-4.45766131023863998450
-4.45727168366167791902
-4.45688214028440921055
-4.45649268013785349041
-4.45610330325284742514
-4.45571400966004116384
-4.45532479938990544355
-4.45493567247272803655
-4.45454662893861375039
-4.45415766881748620420
-4.45376879213908782873
-4.45337999893298341902
-4.45299128922855569357
-4.45260266305500884698
-4.45221412044136943820
-4.45182566141648550229
-4.45143728600902655046
-4.45104899424748801096
-4.45066078616018767633
-4.45027266177526570345
-4.44988462112069083076
-4.44949666422425416101
-4.44910879111357360216
-4.44872100181609386738
-4.44833329635908647504
-4.44794567476965063690
-4.44755813707471325813
-4.44717068330102982543
-4.44678331347518529526
-4.44639602762359498200
-4.44600882577250100525
-4.44562170794798117157
-4.44523467417594186912
-4.44484772448211984397
-4.44446085889208752917
-4.44407407743124682753
-4.44368738012483532884
-4.44330076699792275718
-4.44291423807541541180
-4.44252779338205261439
-4.44214143294240848547
-4.44175515678089638527
-4.44136896492176092011
-4.44098285738908771236
-4.44059683420679984778
-4.44021089539865521090
-4.43982504098825359051
-4.43943927099902957423
-4.43905358545426320660
-4.43866798437706755465
-4.43828246779040114234
-4.43789703571706173335
-4.43751168817968721925
-4.43712642520076094854
-4.43674124680260373310
-4.43635615300738361810
-4.43597114383710966479
-4.43558621931363550317
-4.43520137945865933204
-4.43481662429372391898
-4.43443195384021571215
-4.43404736811937105756
-4.43366286715226820547
-4.43327845095983441581
-4.43289411956284329364
-4.43250987298191745367
-4.43212571123752585578
-4.43174163434998735767
-4.43135764233946982671
-4.43097373522599013995
-4.43058991302941596047
-4.43020617576946307281
-4.42982252346570248847
-4.42943895613755422858
-4.42905547380428910031
-4.42867207648503136141
-4.42828876419875960835
-4.42790553696430322361
-4.42752239480034681662
-4.42713933772542844736
-4.42675636575794051453
-4.42637347891613330830
-4.42599067721810790488
-4.42560796068182504825
-4.42522532932510070935
-4.42484278316560786237
-4.42446032222087648478
-4.42407794650829533367
-4.42369565604511016943
-4.42331345084842464388
-4.42293133093520474119
-4.42254929632227256064
-4.42216734702631253384
-4.42178548306386787203
-4.42140370445134323063
-4.42102201120500382103
-4.42064040334097985152
-4.42025888087525853365
-4.41987744382369207585
-4.41949609220199768345
-4.41911482602575311773
-4.41873364531040202507
-4.41835255007124860782
-4.41797154032346739427
-4.41759061608209258054
-4.41720977736202780051
-4.41682902417804079676
-4.41644835654476519693
-4.41606777447670317827
-4.41568727798822280306
-4.41530686709356068320
-4.41492654180681931564
-4.41454630214197241145
-4.41416614811286134312
-4.41378607973319603275
-4.41340609701655672836
-4.41302619997639400395
-4.41264638862602698310
-4.41226666297865044442
-4.41188702304732416337
-4.41150746884498445866
-4.41112800038443708672
-4.41074861767836079451
-4.41036932073930820764
-4.40999010957970494218
-4.40961098421184871654
-4.40923194464791290414
-4.40885299089994386890
-4.40847412297986540608
-4.40809534089947430147
-4.40771664467044299585
-4.40733803430432136139
-4.40695950981253403711
-4.40658107120638309340
-4.40620271849704892020
-4.40582445169558667430
-4.40544627081293249660
-4.40506817585989995933
-4.40469016684717917798
-4.40431224378534214026
-4.40393440668483826528
-4.40355665555599884442
-4.40317899040903348862
-4.40280141125403279290
-4.40242391810096922455
-4.40204651095969623498
-4.40166918983994737147
-4.40129195475134071813
-4.40091480570337356681
-4.40053774270543129887
-4.40016076576677583887
-4.39978387489655808906
-4.39940707010380904762
-4.39903035139744780224
-4.39865371878627353652
-4.39827717227897441177
-4.39790071188412134973
-4.39752433761017247349
-4.39714804946547044295
-4.39677184745824600753
-4.39639573159661534163
-4.39601970188858182098
-4.39564375834203868720
-4.39526790096476283054
-4.39489212976442278347
-4.39451644474857339162
-4.39414084592466114287
-4.39376533330001795008
-4.39338990688186825651
-4.39301456667732459493
-4.39263931269339114039
-4.39226414493696282193
-4.39188906341482443452
-4.39151406813365063897
-4.39113915910001306742
-4.39076433632036788879
-4.39038959980107001968
-4.39001494954836424256
-4.38964038556838698213
-4.38926590786717163439
-4.38889151645064146123
-4.38851721132461491948
-4.38814299249480832543
-4.38776885996682608493
-4.38739481374617312781
-4.38702085383824691434
-4.38664698024834098788
-4.38627319298164497496
-4.38589949204324636156
-4.38552587743812694043
-4.38515234917116636382
-4.38477890724714125525
-4.38440555167072609777
-4.38403228244649412204
-4.38365909957891553006
-4.38328600307235838329
-4.38291299293109304358
-4.38254006915928506771
-4.38216723176100142467
-4.38179448074020871928
-4.38142181610077496856
-4.38104923784646516083
-4.38067674598094836114
-4.38030434050779504673
-4.37993202143047355435
-4.37955978875235629744
-4.37918764247671798984
-4.37881558260673475758
-4.37844360914548680341
-4.37807172209595396595
-4.37769992146102371322
-4.37732820724348403729
-4.37695657944602700695
-4.37658503807125054408
-4.37621358312165575910
-4.37584221459964783918
-4.37547093250753782456
-4.37509973684754349676
-4.37472862762178671403
-4.37435760483229518769
-4.37398666848100248217
-4.37361581856975067950
-4.37324505510028682664
-4.37287437807426737635
-4.37250378749325196992
-4.37213328335871231900
-4.37176286567202687650
-4.37139253443448083658
-4.37102228964727057559
-4.37065213131149832293
-4.37028205942817926655
-4.36991207399823355928
-4.36954217502249431249
-4.36917236250170493150
-4.36880263643651645111
-4.36843299682749375279
-4.36806344367511023563
-4.36769397697975048089
-4.36732459674171202835
-4.36695530296120359992
-4.36658609563834509970
-4.36621697477316939029
-4.36584794036562229280
-4.36547899241556258687
-4.36511013092275934611
-4.36474135588690081988
-4.36437266730758288702
-4.36400406518431793756
-4.36363554951653398462
-4.36326712030357111161
-4.36289877754468680138
-4.36253052123904971893
-4.36216235138574770502
-4.36179426798378244712
-4.36142627103207125572
-4.36105836052944884074
-4.36069053647466375878
-4.36032279886638374222
-4.35995514770319392284
-4.35958758298359327910
-4.35922010470600174159
-4.35885271286875397578
-4.35848540747010559926
-4.35811818850822785265
-4.35775105598121204054
-4.35738400988706775507
-4.35701705022372376419
-4.35665017698902712340
-4.35628339018074672850
-4.35591668979656798655
-4.35555007583409992122
-4.35518354829086895563
-4.35481710716432335317
-4.35445075245183321755
-4.35408448415068782822
-4.35371830225809741677
-4.35335220677119494326
-4.35298619768703698441
-4.35262027500259929269
-4.35225443871478034907
-4.35188868882040313935
-4.35152302531621071324
-4.35115744819887151351
-4.35079195746497582320
-4.35042655311103931837
-4.35006123513349773901
-4.34969600352871577087
-4.34933085829297816360
-4.34896579942249772444
-4.34860082691340998906
-4.34823594076177410983
-4.34787114096357729665
-4.34750642751473215242
-4.34714180041107489672
-4.34677725964836891848
-4.34641280522230388783
-4.34604843712849664428
-4.34568415536248853215
-4.34531995991975072968
-4.34495585079567803177
-4.34459182798559684358
-4.34422789148475629872
-4.34386404128833891747
-4.34350027739145083672
-4.34313659978912891546
-4.34277300847633718206
-4.34240950344796949878
-4.34204608469884778543
-4.34168275222372468392
-4.34131950601728178185
-4.34095634607412872441
-4.34059327238880499067
-4.34023028495578611086
-4.33986738376946945550
-4.33950456882418844629
-4.33914184011420545062
-4.33877919763371444617
-4.33841664137684190905
-4.33805417133764326110
-4.33769178751010642259
-4.33732948988815358859
-4.33696727846563589992
-4.33660515323633877216
-4.33624311419398011935
-4.33588116133220857762
-4.33551929464461061059
-4.33515751412469985127
-4.33479581976592776016
-4.33443421156167829622
-4.33407268950526880502
-4.33371125358995268328
-4.33334990380891404982
-4.33298864015527485094
-4.33262746262209041959
-4.33226637120235125167
-4.33190536588898300607
-4.33154444667484828102
-4.33118361355274128499
-4.33082286651539671851
-4.33046220555548266873
-4.33010163066560238576
-4.32974114183829961178
-4.32938073906605236374
-4.32902042234127293341
-4.32866019165631588095
-4.32830004700346915314
-4.32793998837495941245
-4.32758001576295203705
-4.32722012915954845624
-4.32686032855678792686
-4.32650061394665108594
-4.32614098532105462169
-4.32578144267185571437
-4.32542198599084581900
-4.32506261526976132359
-4.32470333050027555544
-4.32434413167399966937
-4.32398501878248797681
-4.32362599181723084030
-4.32326705076966266716
-4.32290819563115391588
-4.32254942639302086604
-4.32219074304651407203
-4.32183214558282990936
-4.32147363399310524557
-4.32111520826841566389
-4.32075686839978079234
-4.32039861437815986278
-4.32004044619445615183
-4.31968236383951342816
-4.31932436730411772885
-4.31896645657899735937
-4.31860863165482555814
-4.31825089252221605562
-4.31789323917172396250
-4.31753567159385376328
-4.31717818977904510547
-4.31682079371768701037
-4.31646348340011254408
-4.31610625881659348835
-4.31574911995735188697
-4.31539206681254938758
-4.31503509937229434712
-4.31467821762664005547
-4.31432142156558384727
-4.31396471117906799009
-4.31360808645698057262
-4.31325154738915372832
-4.31289509396536718810
-4.31253872617534650402
-4.31218244400876038469
-4.31182624745522691256
-4.31147013650430821485
-4.31111411114551401624
-4.31075817136829986254
-4.31040231716206889701
-4.31004654851617274858
-4.30969086541990620276
-4.30933526786251608343
-4.30897975583319237103
-4.30862432932107619621
-4.30826898831525539890
-4.30791373280476541652
-4.30755856277859017212
-4.30720347822566207441
-4.30684847913486290594
-4.30649356549502293490
-4.30613873729492002695
-4.30578399452328142161
-4.30542933716878728490
-4.30507476522006182762
-4.30472027866568129895
-4.30436587749417309823
-4.30401156169401311047
-4.30365733125362659450
-4.30330318616138995935
-4.30294912640563254058
-4.30259515197462949487
-4.30224126285661156999
-4.30188745903975533480
-4.30153374051219294927
-4.30118010726200772353
-4.30082655927722967704
-4.30047309654584619665
-4.30011971905579315489
-4.29976642679496023902
-4.29941321975118651011
-4.29906009791226573213
-4.29870706126594548380
-4.29835410979992094127
-4.29800124350184553634
-4.29764846235932118645
-4.29729576635990628830
-4.29694315549110950059
-4.29659062974039596128
-4.29623818909518195852
-4.29588583354283848337
-4.29553356307069034159
-4.29518137766601793004
-4.29482927731605101940
-4.29447726200798030050
-4.29412533172894494982
-4.29377348646604239946
-4.29342172620632478441
-4.29307005093679716623
-4.29271846064442286206
-4.29236695531611722743
-4.29201553493875298528
-4.29166419949915756149
-4.29131294898411486116
-4.29096178338036349231
-4.29061070267459943040
-4.29025970685347424194
-4.28990879590359686091
-4.28955796981153003600
-4.28920722856379654786
-4.28885657214687210370
-4.28850600054719244270
-4.28815551375115244781
-4.28780511174509726402
-4.28745479451533562099
-4.28710456204813006309
-4.28675441432970405486
-4.28640435134623754010
-4.28605437308386605366
-4.28570447952868693875
-4.28535467066675312964
-4.28500494648407848075
-4.28465530696663332577
-4.28430575210034714217
-4.28395628187110766305
-4.28360689626476354164
-4.28325759526712079861
-4.28290837886394637479
-4.28255924704096457845
-4.28221019978385974980
-4.28186123707827626106
-4.28151235890982118093
-4.28116356526405539284
-4.28081485612650691763
-4.28046623148265759085
-4.28011769131795283272
-4.27976923561779987182
-4.27942086436756419232
-4.27907257755257308673
-4.27872437515811565589
-4.27837625716943836807
-4.27802822357175305257
-4.27768027435023245886
-4.27733240949000936837
-4.27698462897617659451
-4.27663693279379497625
-4.27628932092787827912
-4.27594179336341095876
-4.27559435008533395006
-4.27524699107855177260
-4.27489971632793341882
-4.27455252581830791314
-4.27420541953446875283
-4.27385839746117035531
-4.27351145958313161088
-4.27316460588503588269
-4.27281783635152567769
-4.27247115096721064020
-4.27212454971666133474
-4.27177803258441457501
-4.27143159955496809488
-4.27108525061278587742
-4.27073898574229371405
-4.27039280492788364541
-4.27004670815391040861
-4.26970069540469410185
-4.26935476666451929617
-4.26900892191763414729
-4.26866316114825306016
-4.26831748434055313624
-4.26797189147868039072
-4.26762638254674087079
-4.26728095752880953739
-4.26693561640892671250
-4.26659035917109719094
-4.26624518579929024042
-4.26590009627744315424
-4.26555509058945681033
-4.26521016871920188862
-4.26486533065050998914
-4.26452057636718340206
-4.26417590585298977857
-4.26383131909166035456
-4.26348681606689794421
-4.26314239676236717003
-4.26279806116170334462
-4.26245380924850447713
-4.26210964100634193130
-4.26176555641874887925
-4.26142155546922740683
-4.26107763814125029000
-4.26073380441825033671
-4.26039005428363637407
-4.26004638772077903752
-4.25970280471302054082
-4.25935930524367023509
-4.25901588929600372069
-4.25867255685326817627
-4.25832930789867525334
-4.25798614241540995806
-4.25764306038662088127
-4.25730006179542908029
-4.25695714662492186164
-4.25661431485815811016
-4.25627156647816473622
-4.25592890146793667583
-4.25558631981043866688
-4.25524382148860613739
-4.25490140648534342915
-4.25455907478352379769
-4.25421682636599030047
-4.25387466121555757326
-4.25353257931501005373
-4.25319058064709842881
-4.25284866519454851641
-4.25250683294005504820
-4.25216508386627989324
-4.25182341795586005162
-4.25148183519140143716
-4.25114033555547976562
-4.25079891903064233105
-4.25045758559940889398
-4.25011633524426724051
-4.24977516794767851138
-4.24943408369207720199
-4.24909308245986316876
-4.24875216423341228733
-4.24841132899507201159
-4.24807057672716137375
-4.24772990741196831976
-4.24738932103175681476
-4.24704881756876062582
-4.24670839700518509829
-4.24636805932320982038
-4.24602780450498507037
-4.24568763253263536939
-4.24534754338825504050
-4.24500753705391442594
-4.24466761351165544625
-4.24432777274349071206
-4.24398801473140796503
-4.24364833945736918963
-4.24330874690330706045
-4.24296923705112849490
-4.24262980988271376503
-4.24229046537991827392
-4.24195120352456722657
-4.24161202429846273532
-4.24127292768338115536
-4.24093391366106953200
-4.24059498221325181788
-4.24025613332162532032
-4.23991736696786070127
-4.23957868313360464185
-4.23924008180047540151
-4.23890156295006903520
-4.23856312656395406435
-4.23822477262367414141
-4.23788650111074893800
-4.23754831200667059221
-4.23721020529290814949
-4.23687218095090578629
-4.23653423896208103372
-4.23619637930782921842
-4.23585860196951990986
-4.23552090692849692033
-4.23518329416608185767
-4.23484576366356968435
-4.23450831540223493477
-4.23417094936332283339
-4.23383366552805906480
-4.23349646387764178002
-4.23315934439324781380
-4.23282230705602913190
-4.23248535184711549562
-4.23214847874761090907
-4.23181168773859717191
-4.23147497880113210300
-4.23113835191625042853
-4.23080180706496378207
-4.23046534422826159272
-4.23012896338710842059
-4.22979266452244750951
-4.22945644761519812249
-4.22912031264625731808
-4.22878425959650083854
-4.22844828844677689261
-4.22811239917791859000
-4.22777659177073239505
-4.22744086620599901494
-4.22710522246448583417
-4.22676966052693092735
-4.22643418037405371734
-4.22609878198654875803
-4.22576346534509106334
-4.22542823043033344277
-4.22509307722290738951
-4.22475800570342308049
-4.22442301585246671181
-4.22408810765060671599
-4.22375328107838665659
-4.22341853611633233356
-4.22308387274494467789
-4.22274929094470596880
-4.22241479069607894559
-4.22208037197950147856
-4.22174603477539456264
-4.22141177906415254739
-4.22107760482615823605
-4.22074351204176601016
-4.22040950069131248767
-4.22007557075511563482
-4.21974172221347032519
-4.21940795504665366877
-4.21907426923491968296
-4.21874066475850373337
-4.21840714159762342206
-4.21807369973247414663
-4.21774033914323087657
-4.21740705981005081782
-4.21707386171307074818
-4.21674074483240790556
-4.21640770914815732340
-4.21607475464040071245
-4.21574188128919580265
-4.21540908907458256039
-4.21507637797657963574
-4.21474374797519146796
-4.21441119905039851545
-4.21407873118216613761
-4.21374634435043660119
-4.21341403853513796207
-4.21308181371617784805
-4.21274966987344345881
-4.21241760698680600683
-4.21208562503611716465
-4.21175372400120995309
-4.21142190386189962936
-4.21109016459798546350
-4.21075850618924363289
-4.21042692861543610405
-4.21009543185630530360
-4.20976401589157678274
-4.20943268070095744093
-4.20910142626413641409
-4.20877025256078685089
-4.20843915957056147192
-4.20810814727309878691
-4.20777721564801598930
-4.20744636467491606169
-4.20711559433338422309
-4.20678490460298704079
-4.20645429546327598302
-4.20612376689378297812
-4.20579331887402574353
-4.20546295138350156861
-4.20513266440169619642
-4.20480245790807405371
-4.20447233188208358001
-4.20414228630315722768
-4.20381232115071235000
-4.20348243640414764855
-4.20315263204284672582
-4.20282290804617630897
-4.20249326439348802609
-4.20216370106411396534
-4.20183421803737466860
-4.20150481529257202595
-4.20117549280899194031
-4.20084625056590432735
-4.20051708854256578007
-4.20018800671821335158
-4.19985900507207254861
-4.19953008358334844985
-4.19920124223123458762
-4.19887248099490850706
-4.19854379985352998972
-4.19821519878624638267
-4.19788667777218726940
-4.19755823679046891073
-4.19722987582019246844
-4.19690159484044222893
-4.19657339383028826774
-4.19624527276878822590
-4.19591723163498020455
-4.19558927040789253482
-4.19526138906653489613
-4.19493358758990453339
-4.19460586595698448065
-4.19427822414674178475
-4.19395066213812750533
-4.19362317991008382023
-4.19329577744153336738
-4.19296845471138546202
-4.19264121169853876125
-4.19231404838187415862
-4.19198696474025922498
-4.19165996075254909670
-4.19133303639758203474
-4.19100619165418653012
-4.19067942650117508663
-4.19035274091734422086
-4.19002613488148156762
-4.18969960837235788631
-4.18937316136873150185
-4.18904679384934652830
-4.18872050579293553341
-4.18839429717821598587
-4.18806816798389291989
-4.18774211818865715884
-4.18741614777118886792
-4.18709025671015133696
-4.18676444498419808582
-4.18643871257196931168
-4.18611305945209188906
-4.18578748560317759342
-4.18546199100382931846
-4.18513657563263574701
-4.18481123946817135106
-4.18448598248900083263
-4.18416080467367379470
-4.18383570600072918211
-4.18351068644869439339
-4.18318574599607995168
-4.18286088462139016286
-4.18253610230311245743
-4.18221139901972538411
-4.18188677474969416892
-4.18156222947146982705
-4.18123776316349449189
-4.18091337580419875053
-4.18058906737199809101
-4.18026483784529911958
-4.17994068720249778437
-4.17961661542197226993
-4.17929262248209631991
-4.17896870836122769077
-4.17864487303771525717
-4.17832111648989457109
-4.17799743869609141456
-4.17767383963461913510
-4.17735031928377864574
-4.17702687762186464226
-4.17670351462715405688
-4.17638023027791760455
-4.17605702455241356574
-4.17573389742888778642
-4.17541084888557811894
-4.17508787890070998117
-4.17476498745249635647
-4.17444217451914223460
-4.17411944007884194718
-4.17379678410977650316
-4.17347420659011980604
-4.17315170749803243666
-4.17282928681166520590
-4.17250694450915915468
-4.17218468056864644211
-4.17186249496824590466
-4.17154038768606838516
-4.17121835870021318016
-4.17089640798876981620
-4.17057453552981893807
-4.17025274130142964424
-4.16993102528166215137
-4.16960938744856690619
-4.16928782778018369726
-4.16896634625454165501
-4.16864494284966280446
-4.16832361754355851247
-4.16800237031422859957
-4.16768120113966666906
-4.16736010999785388975
-4.16703909686676343682
-4.16671816172435871550
-4.16639730454859336106
-4.16607652531741301516
-4.16575582400875266131
-4.16543520060053928944
-4.16511465507068923131
-4.16479418739711171327
-4.16447379755770530352
-4.16415348553035880030
-4.16383325129295656097
-4.16351309482336784384
-4.16319301609945924270
-4.16287301509908314046
-4.16255309180008570280
-4.16223324618030510180
-4.16191347821757062775
-4.16159378788970091279
-4.16127417517450748363
-4.16095464004979564976
-4.16063518249335828614
-4.16031580248298293867
-4.15999649999644649512
-4.15967727501151962599
-4.15935812750596412002
-4.15903905745753199596
-4.15872006484396994352
-4.15840114964301399425
-4.15808231183239485063
-4.15776355138983344517
-4.15744486829304182862
-4.15712626251972672264
-4.15680773404758330258
-4.15648928285430496743
-4.15617090891757179349
-4.15585261221505852802
-4.15553439272443192465
-4.15521625042335074340
-4.15489818528946663889
-4.15458019730042593665
-4.15426228643386075134
-4.15394445266740497402
-4.15362669597867828486
-4.15330901634529592314
-4.15299141374486424638
-4.15267388815498517118
-4.15235643955325084420
-4.15203906791724719483
-4.15172177322455304704
-4.15140455545274011939
-4.15108741457937302499
-4.15077035058201104789
-4.15045336343820370217
-4.15013645312549606103
-4.14981961962142431588
-4.14950286290352021723
-4.14918618294930752199
-4.14886957973630288166
-4.14855305324201761863
-4.14823660344395683808
-4.14792023031961587520
-4.14760393384648740067
-4.14728771400205609154
-4.14697157076379863128
-4.14665550410918815061
-4.14633951401569067485
-4.14602360046076423572
-4.14570776342186420038
-4.14539200287643616605
-4.14507631880191951268
-4.14476071117575095570
-4.14444517997536010512
-4.14412972517816680096
-4.14381434676158999508
-4.14349904470304064574
-4.14318381897992171758
-4.14286866956963528708
-4.14255359644957277254
-4.14223859959712203960
-4.14192367898966562478
-4.14160883460457984739
-4.14129406641923480947
-4.14097937441099706035
-4.14066475855722337940
-4.14035021883527143416
-4.14003575522248823404
-4.13972136769621545938
-4.13940705623379212597
-4.13909282081255280872
-4.13877866140982320076
-4.13846457800292633067
-4.13815057056917723344
-4.13783663908588827951
-4.13752278353036562208
-4.13720900387991363800
-4.13689530011182604596
-4.13658167220339478831
-4.13626812013190736650
-4.13595464387464328837
-4.13564124340888383813
-4.13532791871189520094
-4.13501466976094889105
-4.13470149653330487638
-4.13438839900622223666
-4.13407537715695294622
-4.13376243096274631483
-4.13344956040084632320
-4.13313676544848984662
-4.13282404608291464854
-4.13251140228134961063
-4.13219883402102006187
-4.13188634127914777849
-4.13157392403295009586
-4.13126158225963902026
-4.13094931593642300527
-4.13063712504050695173
-4.13032500954909043145
-4.13001296943936946349
-4.12970100468853562603
-4.12938911527377605637
-4.12907730117227433908
-4.12876556236120961785
-4.12845389881775837182
-4.12814231051909086290
-4.12783079744237646480
-4.12751935956477744583
-4.12720799686345429791
-4.12689670931556307210
-4.12658549689825537854
-4.12627435958868105104
-4.12596329736398548249
-4.12565231020130784856
-4.12534139807778732489
-4.12503056097055864626
-4.12471979885675033017
-4.12440911171349089415
-4.12409849951790352662
-4.12378796224710875151
-4.12347749987822265183
-4.12316711238835953424
-4.12285679975462837632
-4.12254656195413637931
-4.12223639896398807991
-4.12192631076128179757
-4.12161629732311673990
-4.12130635862658500912
-4.12099649464877870741
-4.12068670536678460792
-4.12037699075768859558
-4.12006735079857211446
-4.11975778546651305589
-4.11944829473858664670
-4.11913887859186811369
-4.11882953700342557823
-4.11852026995032716172
-4.11821107740963654464
-4.11790195935841474295
-4.11759291577372277260
-4.11728394663261454411
-4.11697505191214485620
-4.11666623158936317850
-4.11635748564131898064
-4.11604881404505729137
-4.11574021677762225124
-4.11543169381605267176
-4.11512324513738825260
-4.11481487071866336436
-4.11450657053691326581
-4.11419834456916699850
-4.11389019279245360394
-4.11358211518379857097
-4.11327411172022827657
-4.11296618237876288049
-4.11265832713642165430
-4.11235054597022209322
-4.11204283885718080427
-4.11173520577430817724
-4.11142764669861815463
-4.11112016160711668533
-4.11081275047681415913
-4.11050541328471297220
-4.11019815000781640890
-4.10989096062312775359
-4.10958384510764318520
-4.10927680343836065902
-4.10896983559227813032
-4.10866294154638556080
-4.10835612127767824120
-4.10804937476314435685
-4.10774270197977298125
-4.10743610290455052336
-4.10712957751446339216
-4.10682312578649444390
-4.10651674769762387029
-4.10621044322483452760
-4.10590421234510394299
-4.10559805503540964366
-4.10529197127272915679
-4.10498596103403468049
-4.10468002429630107741
-4.10437416103649876931
-4.10406837123159817793
-4.10376265485856972504
-4.10345701189437939149
-4.10315144231599493452
-4.10284594610038055862
-4.10254052322450224466
-4.10223517366532064443
-4.10192989739979907426
-4.10162469440489729777
-4.10131956465757596675
-4.10101450813479218027
-4.10070952481350481378
-4.10040461467066918999
-4.10009977768324240799
-4.09979501382817712596
-4.09949032308242866662
-4.09918570542294968817
-4.09888116082669018425
-4.09857668927060370123
-4.09827229073163934459
-4.09796796518674799614
-4.09766371261287787320
-4.09735953298697541669
-4.09705542628599062027
-4.09675139248686903670
-4.09644743156655621874
-4.09614354350199860733
-4.09583972827014175522
-4.09553598584792855064
-4.09523231621230454635
-4.09492871934021174241
-4.09462519520859391520
-4.09432174379439306477
-4.09401836507455207936
-4.09371505902601207083
-4.09341182562571415104
-4.09310866485060032005
-4.09280557667761080154
-4.09250256108368493102
-4.09219961804576559672
-4.09189674754079124597
-4.09159394954570121428
-4.09129122403743483716
-4.09098857099293322648
-4.09068599038913394139
-4.09038348220297720559
-4.09008104641140324276
-4.08977868299134872387
-4.08947639191975476081
-4.08917417317355891271
-4.08887202672970229145
-4.08856995256512245618
-4.08826795065675874241
-4.08796602098155315019
-4.08766416351644146232
-4.08736237823836567884
-4.08706066512426602344
-4.08675902415108183163
-4.08645745529575243893
-4.08615595853521984537
-4.08585453384642516284
-4.08555318120630861500
-4.08525190059181220192
-4.08495069197987881182
-4.08464955534744778021
-4.08434849067146554802
-4.08404749792887322712
-4.08374657709661459393
-4.08344572815163520119
-4.08314495107087616077
-4.08284424583128657815
-4.08254361240980934156
-4.08224305078339178010
-4.08194256092898122290
-4.08164214282352499907
-4.08134179644397132591
-4.08104152176726753254
-4.08074131877036538896
-4.08044118743021311246
-4.08014112772376247307
-4.07984113962796612896
-4.07954122311977496196
-4.07924137817614429480
-4.07894160477402678566
-4.07864190289037775727
-4.07834227250215342053
-4.07804271358631176270
-4.07774322611980810649
-4.07744381007960310370
-4.07714446544265562977
-4.07684519218592722467
-4.07654599028637854019
-4.07624685972097378084
-4.07594780046667537476
-4.07564881250044841465
-4.07534989579925976955
-4.07505105034007542031
-4.07475227609986490052
-4.07445357305559863192
-4.07415494118424525993
-4.07385638046277698265
-4.07355789086816688638
-4.07325947237739161011
-4.07296112496742512832
-4.07266284861524408001
-4.07236464329782776872
-4.07206650899215549799
-4.07176844567520834772
-4.07147045332396917416
-4.07117253191542172175
-4.07087468142655151127
-4.07057690183434583986
-4.07027919311579200468
-4.06998155524787996740
-4.06968398820760057788
-4.06938649197194912688
-4.06908906651791646425
-4.06879171182250143346
-4.06849442786270110162
-4.06819721461551431219
-4.06790007205794168499
-4.06760300016698739256
-4.06730599891965294290
-4.06700906829294606126
-4.06671220826387447289
-4.06641541880944856757
-4.06611869990667784691
-4.06582205153257536523
-4.06552547366415684138
-4.06522896627843977058
-4.06493252935244075985
-4.06463616286318085713
-4.06433986678768377487
-4.06404364110297144919
-4.06374748578607114524
-4.06345140081401101639
-4.06315538616382188053
-4.06285944181253455554
-4.06256356773718341202
-4.06226776391480459694
-4.06197203032243692178
-4.06167636693711919804
-4.06138077373589556629
-4.06108525069580839073
-4.06078979779390625282
-4.06049441500723595766
-4.06019910231285052760
-4.05990385968780032044
-4.05960868710914368762
-4.05931358455393542783
-4.05901855199923566886
-4.05872358942210809118
-4.05842869679961548712
-4.05813387410882597806
-4.05783912132680590901
-4.05754443843062784225
-4.05724982539736522824
-4.05695528220409595832
-4.05666080882789437112
-4.05636640524584457523
-4.05607207143502712654
-4.05577780737253057453
-4.05548361303544080414
-4.05518948840084902940
-4.05489543344584824069
-4.05460144814753409293
-4.05430753248300490554
-4.05401368642935988618
-4.05371990996370534788
-4.05342620306314405099
-4.05313256570478586127
-4.05283899786574153268
-4.05254549952312537187
-4.05225207065405257367
-4.05195871123564277383
-4.05166542124501916078
-4.05137220065930314661
-4.05107904945562324883
-4.05078596761111064950
-4.05049295510289741884
-4.05020001190811829161
-4.04990713800391155530
-4.04961433336741816191
-4.04932159797578439253
-4.04902893180615386370
-4.04873633483567729741
-4.04844380704150808015
-4.04815134840080137479
-4.04785895889071412057
-4.04756663848840858577
-4.04727438717104970323
-4.04698220491580329394
-4.04669009169984228436
-4.04639804750033516001
-4.04610607229446195277
-4.04581416605940002995
-4.04552232877233386432
-4.04523056041044615228
-4.04493886095092669564
-4.04464723037096707259
-4.04435566864776063767
-4.04406417575850696267
-4.04377275168040561937
-4.04348139639066150863
-4.04319010986648219586
-4.04289889208507702278
-4.04260774302365977206
-4.04231666265944866723
-4.04202565096966193181
-4.04173470793152400660
-4.04144383352226288508
-4.04115302771910478441
-4.04086229049928746804
-4.04057162184004425853
-4.04028102171861647207
-4.03999049011224720118
-4.03970002699818220293
-4.03940963235367256345
-4.03911930615597203342
-4.03882904838233525169
-4.03853885901002573888
-4.03824873801630435111
-4.03795868537843904988
-4.03766870107370134946
-4.03737878507936365224
-4.03708893737270546609
-4.03679915793100718702
-4.03650944673155187559
-4.03621980375162969779
-4.03593022896853259596
-4.03564072235955517698
-4.03535128390199560044
-4.03506191357315735502
-4.03477261135034659389
-4.03448337721087302299
-4.03419421113204901275
-4.03390511309119315086
-4.03361608306562491322
-4.03332712103267088111
-4.03303822696965674766
-4.03274940085391619959
-4.03246064266278292365
-4.03217195237359860016
-4.03188332996370490946
-4.03159477541044886095
-4.03130628869118101676
-4.03101786978325726807
-4.03072951866403350607
-4.03044123531087361556
-4.03015301970114414587
-4.02986487181221253451
-4.02957679162145510077
-4.02928877910624727576
-4.02900083424397159604
-4.02871295701201415085
-4.02842514738776369398
-4.02813740534861253195
-4.02784973087195830033
-4.02756212393520396375
-4.02727458451575337506
-4.02698711259101571613
-4.02669970813840283341
-4.02641237113533456693
-4.02612510155923075672
-4.02583789938751657189
-4.02555076459762073426
-4.02526369716697907108
-4.02497669707302740960
-4.02468976429320601795
-4.02440289880496315789
-4.02411610058574709115
-4.02382936961301140855
-4.02354270586421680633
-4.02325610931682309257
-4.02296957994829718075
-4.02268311773610953708
-4.02239672265773684501
-4.02211039469065578800
-4.02182413381235015493
-4.02153794000030906375
-4.02125181323202252059
-4.02096575348498763702
-4.02067976073670330095
-4.02039383496467550572
-4.02010797614641290920
-4.01982218425942772200
-4.01953645928123837194
-4.01925080118936772777
-4.01896520996133954640
-4.01867968557468646651
-4.01839422800694290316
-4.01810883723564682413
-4.01782351323834419077
-4.01753825599258185264
-4.01725306547591198836
-4.01696794166589210562
-4.01668288454008415300
-4.01639789407605274363
-4.01611297025136959604
-4.01582811304360820515
-4.01554332243034917127
-4.01525859838917575928
-4.01497394089767656311
-4.01468934993344372941
-4.01440482547407473390
-4.01412036749717149320
-4.01383597598034214116
-4.01355165090119569982
-4.01326739223734829665
-4.01298319996642050000
-4.01269907406603731914
-4.01241501451382820420
-4.01213102128742704622
-4.01184709436447217712
-4.01156323372260725790
-4.01127943933948039046
-4.01099571119274411757
-4.01071204926005631108
-4.01042845351907839557
-4.01014492394747712467
-4.00986146052292546926
-4.00957806322309728841
-4.00929473202567532297
-4.00901146690834497832
-4.00872826784879610074
-4.00844513482472386556
-4.00816206781382877722
-4.00787906679381489283
-4.00759613174239337496
-4.00731326263727716253
-4.00703045945618629986
-4.00674772217684438402
-4.00646505077698034114
-4.00618244523432753823
-4.00589990552662555956
-4.00561743163161843029
-4.00533502352705195193
-4.00505268119068080779
-4.00477040460026412205
-4.00448819373356368345
-4.00420604856834749796
-4.00392396908238890063
-4.00364195525346566740
-4.00336000705936090327
-4.00307812447786215415
-4.00279630748676229501
-4.00251455606385952990
-4.00223287018695472739
-4.00195124983385763784
-4.00166969498238067615
-4.00138820561034069812
-4.00110678169556166495
-4.00082542321587020240
-4.00054413014910004165
-4.00026290247308846659
-3.99998174016567942246
-3.99970064320472085129
-3.99941961156806513600
-3.99913864523357176495
-3.99885774417910333511
-3.99857690838252821663
-3.99829613782172055281
-3.99801543247455937191
-3.99773479231892814312
-3.99745421733271610876
-3.99717370749381695205
-3.99689326278013146165
-3.99661288316956309075
-3.99633256864002150976
-3.99605231916942216230
-3.99577213473568670921
-3.99549201531673814358
-3.99521196089050878442
-3.99493197143493361523
-3.99465204692795428087
-3.99437218734751686711
-3.99409239267157323283
-3.99381266287808056603
-3.99353299794500093967
-3.99325339785030175577
-3.99297386257195618953
-3.99269439208794230112
-3.99241498637624303569
-3.99213564541484711157
-3.99185636918174902021
-3.99157715765494902627
-3.99129801081245005889
-3.99101892863226437314
-3.99073991109240644448
-3.99046095817089607749
-3.99018206984576195850
-3.98990324609503366204
-3.98962448689675053259
-3.98934579222895235873
-3.98906716206968869898
-3.98878859639701266460
-3.98851009518898402817
-3.98823165842366433864
-3.98795328607912624719
-3.98767497813344329316
-3.98739673456469612134
-3.98711855535097203784
-3.98684044047036012515
-3.98656238990096056796
-3.98628440362087310689
-3.98600648160820769661
-3.98572862384107784450
-3.98545083029760149884
-3.98517310095590415742
-3.98489543579411620300
-3.98461783479037334743
-3.98434029792281574345
-3.98406282516959109330
-3.98378541650885242831
-3.98350807191875722069
-3.98323079137746871581
-3.98295357486315682038
-3.98267642235399588202
-3.98239933382816557739
-3.98212230926385313268
-3.98184534863925065906
-3.98156845193255337634
-3.98129161912196671835
-3.98101485018569700713
-3.98073814510195944649
-3.98046150384897412522
-3.98018492640496690527
-3.97990841274816808948
-3.97963196285681508613
-3.97935557670915107664
-3.97907925428342323926
-3.97880299555788585764
-3.97852680051079987678
-3.97825066912042890621
-3.97797460136504543726
-3.97769859722292640214
-3.97742265667235317395
-3.97714677969161600757
-3.97687096625900826652
-3.97659521635282864338
-3.97631952995138515661
-3.97604390703298760101
-3.97576834757595376502
-3.97549285155860676610
-3.97521741895927593902
-3.97494204975629505938
-3.97466674392800412008
-3.97439150145275110759
-3.97411632230888756112
-3.97384120647477079302
-3.97356615392876477699
-3.97329116464923970398
-3.97301623861457064990
-3.97274137580313846385
-3.97246657619333110034
-3.97219183976354228705
-3.97191716649216886026
-3.97164255635761787033
-3.97136800933829947624
-3.97109352541262961012
-3.97081910455903130952
-3.97054474675593294108
-3.97027045198176820051
-3.96999622021497922120
-3.96972205143400991290
-3.96944794561731484350
-3.96917390274334991318
-3.96889992279058079205
-3.96862600573747670296
-3.96835215156251353008
-3.96807836024417381893
-3.96780463176094411182
-3.96753096609132116512
-3.96725736321380129112
-3.96698382310689412478
-3.96671034574910752468
-3.96643693111896267212
-3.96616357919498208062
-3.96589028995569581326
-3.96561706337963881808
-3.96534389944535492489
-3.96507079813139151625
-3.96479775941630174785
-3.96452478327864632490
-3.96425186969699172579
-3.96397901864991020204
-3.96370623011597844609
-3.96343350407378203215
-3.96316084050191186350
-3.96288823937896461658
-3.96261570068354140872
-3.96234322439425135087
-3.96207081048970932713
-3.96179845894853732702
-3.96152616974936044869
-3.96125394287081267208
-3.96098177829153375029
-3.96070967599016832139
-3.96043763594536812889
-3.96016565813579113353
-3.95989374254009973697
-3.95962188913696566672
-3.95935009790506375893
-3.95907836882307639925
-3.95880670186969352287
-3.95853509702360684130
-3.95826355426351916833
-3.95799207356813687042
-3.95772065491617297539
-3.95744929828634628421
-3.95717800365738403556
-3.95690677100801524446
-3.95663560031698002817
-3.95636449156302161256
-3.95609344472489077305
-3.95582245978134361408
-3.95555153671114334557
-3.95528067549305761830
-3.95500987610586340892
-3.95473913852834169091
-3.95446846273928009907
-3.95419784871747159727
-3.95392729644171847525
-3.95365680589082613139
-3.95338637704360662539
-3.95311600987888089875
-3.95284570437547255750
-3.95257546051221364536
-3.95230527826794242330
-3.95203515762150248136
-3.95176509855174540320
-3.95149510103752721335
-3.95122516505771192996
-3.95095529059116667980
-3.95068547761677013597
-3.95041572611340141563
-3.95014603605995162638
-3.94987640743531365217
-3.94960684021838881463
-3.94933733438808598493
-3.94906788992331625465
-3.94879850680300226173
-3.94852918500606886454
-3.94825992451144891504
-3.94799072529808281473
-3.94772158734491407373
-3.94745251063089686028
-3.94718349513498756309
-3.94691454083615234083
-3.94664564771336090487
-3.94637681574559096020
-3.94610804491182731724
-3.94583933519105878318
-3.94557068656228349113
-3.94530209900450223870
-3.94503357249672736984
-3.94476510701797211667
-3.94449670254725992535
-3.94422835906362001523
-3.94396007654608649062
-3.94369185497370144944
-3.94342369432551187458
-3.94315559458057318665
-3.94288755571794702348
-3.94261957771669857564
-3.94235166055590324774
-3.94208380421464177346
-3.94181600867199843918
-3.94154827390706907764
-3.94128059989895129789
-3.94101298662675203488
-3.94074543406958399672
-3.94047794220656566466
-3.94021051101682262541
-3.93994314047948757107
-3.93967583057369896693
-3.93940858127860149551
-3.93914139257334694477
-3.93887426443709198765
-3.93860719684900306703
-3.93834018978825151081
-3.93807324323401219957
-3.93780635716547067204
-3.93753953156181868422
-3.93727276640225243298
-3.93700606166597522062
-3.93673941733219656669
-3.93647283338013487253
-3.93620630978901298036
-3.93593984653805950558
-3.93567344360651194535
-3.93540710097361445818
-3.93514081861861342304
-3.93487459652076676520
-3.93460843465933685081
-3.93434233301359315149
-3.93407629156281091198
-3.93381031028627248247
-3.93354438916326687448
-3.93327852817308931677
-3.93301272729504303172
-3.93274698650843523851
-3.93248130579258070583
-3.93221568512680308416
-3.93195012449043002078
-3.93168462386279582432
-3.93141918322324368518
-3.93115380255111945829
-3.93088848182578054491
-3.93062322102658701084
-3.93035802013290780366
-3.93009287912411586774
-3.92982779797959436152
-3.92956277667873132842
-3.92929781520092014091
-3.92903291352556172100
-3.92876807163206587248
-3.92850328949984550775
-3.92823856710832153283
-3.92797390443692284734
-3.92770930146508367997
-3.92744475817224447667
-3.92718027453785367697
-3.92691585054136504951
-3.92665148616224080058
-3.92638718137994713331
-3.92612293617395913259
-3.92585875052375810057
-3.92559462440883200074
-3.92533055780867456974
-3.92506655070278753783
-3.92480260307067796433
-3.92453871489186090216
-3.92427488614585717741
-3.92401111681219427751
-3.92374740687040812759
-3.92348375630003909365
-3.92322016508063420304
-3.92295663319174936490
-3.92269316061294670561
-3.92242974732379146019
-3.92216639330386129814
-3.92190309853273655349
-3.92163986299000466573
-3.92137668665526195610
-3.92111356950810918676
-3.92085051152815466935
-3.92058751269501337688
-3.92032457298830827597
-3.92006169238766677410
-3.91979887087272427237
-3.91953610842312372142
-3.91927340501851295684
-3.91901076063854780784
-3.91874817526289032088
-3.91848564887121009193
-3.91822318144318204602
-3.91796077295848910182
-3.91769842339682083932
-3.91743613273787261164
-3.91717390096134776556
-3.91691172804695542098
-3.91664961397441269142
-3.91638755872344113129
-3.91612556227377250906
-3.91586362460514170181
-3.91560174569729335659
-3.91533992552997744951
-3.91507816408294972987
-3.91481646133597571691
-3.91455481726882448257
-3.91429323186127398060
-3.91403170509310838199
-3.91377023694411851906
-3.91350882739410188549
-3.91324747642286352445
-3.91298618401021425228
-3.91272495013597154667
-3.91246377477996087890
-3.91220265792201438160
-3.91194159954197040463
-3.91168059961967307103
-3.91141965813497627380
-3.91115877506773745864
-3.91089795039782295305
-3.91063718410510530177
-3.91037647616946371087
-3.91011582657078493597
-3.90985523528896106171
-3.90959470230389305456
-3.90933422759548676595
-3.90907381114365604091
-3.90881345292832094174
-3.90855315292940863614
-3.90829291112685295317
-3.90803272750059615959
-3.90777260203058363075
-3.90751253469677184427
-3.90725252547912127454
-3.90699257435759994550
-3.90673268131218343058
-3.90647284632285396455
-3.90621306936959911127
-3.90595335043241487227
-3.90569368949130479862
-3.90543408652627688227
-3.90517454151734799694
-3.90491505444454123364
-3.90465562528788590058
-3.90439625402741929960
-3.90413694064318450572
-3.90387768511523303161
-3.90361848742362171905
-3.90335934754841362704
-3.90310026546968158456
-3.90284124116750330558
-3.90258227462196272128
-3.90232336581315175650
-3.90206451472117032964
-3.90180572132612235592
-3.90154698560812063235
-3.90128830754728550545
-3.90102968712374176263
-3.90077112431762218492
-3.90051261910906843511
-3.90025417147822572872
-3.89999578140524905123
-3.89973744887029738493
-3.89947917385353948205
-3.89922095633514986801
-3.89896279629530884137
-3.89870469371420469429
-3.89844664857203371255
-3.89818866084899706692
-3.89793073052530303357
-3.89767285758116877048
-3.89741504199681543241
-3.89715728375247438819
-3.89689958282838055936
-3.89664193920477863742
-3.89638435286191775475
-3.89612682378005592554
-3.89586935193945782530
-3.89561193732039257043
-3.89535457990314037957
-3.89509727966798546817
-3.89484003659521871299
-3.89458285066514076078
-3.89432572185805536691
-3.89406865015427650079
-3.89381163553412257272
-3.89355467797792131890
-3.89329777746600491639
-3.89304093397871442406
-3.89278414749639756209
-3.89252741799940737977
-3.89227074546810580813
-3.89201412988285966321
-3.89175757122404553101
-3.89150106947204443841
-3.89124462460724629409
-3.89098823661004455943
-3.89073190546084424213
-3.89047563114005434670
-3.89021941362809142717
-3.88996325290537914299
-3.88970714895234737085
-3.88945110174943442516
-3.88919511127708439346
-3.88893917751574758057
-3.88868330044588406125
-3.88842748004795879524
-3.88817171630244295955
-3.88791600918981616886
-3.88766035869056469920
-3.88740476478518059977
-3.88714922745416524563
-3.88689374667802489682
-3.88663832243727425109
-3.88638295471243289114
-3.88612764348403016967
-3.88587238873259899208
-3.88561719043868247780
-3.88536204858282907537
-3.88510696314559433873
-3.88485193410754092724
-3.88459696144923860572
-3.88434204515126291213
-3.88408718519419871029
-3.88383238155863619312
-3.88357763422517221485
-3.88332294317441162335
-3.88306830838696592778
-3.88281372984345329868
-3.88255920752449901201
-3.88230474141073544914
-3.88205033148280120869
-3.88179597772134377109
-3.88154168010701550173
-3.88128743862047675961
-3.88103325324239589733
-3.88077912395344526431
-3.88052505073430653582
-3.88027103356566716030
