DATE: 2007-06-11 CONTRIBUTOR: MI Mendelev, mendelev@ameslab.gov CITATION: Mendelev and  Ackland, Phil Mag Lett 87, 349-359 (2007)
Sunday, Jun 10, 2007  The potential was taken from v3_10_hcp (in C:\SIMULATION.MD\Zr\Results\v3_10)
################################################
1  Zr  
10000   5.00000000000000E-0002  10000   7.60000000000000E-0004   7.60000000000000E+0000
40   9.12240000000000E+0001   3.22029900000000E+0000  hcp
0  -2.23606797700000E-0001  -3.16227766000000E-0001  -3.87298334600000E-0001  -4.47213595500000E-0001  
-5.00000000000000E-0001  -5.47722557500000E-0001  -5.91607978300000E-0001  -6.32455532000000E-0001  -6.70820393200000E-0001  
-7.07106781200000E-0001  -7.41619848700000E-0001  -7.74596669200000E-0001  -8.06225774800000E-0001  -8.36660026500000E-0001  
-8.66025403800000E-0001  -8.94427191000000E-0001  -9.21954445700000E-0001  -9.48683298100000E-0001  -9.74679434500000E-0001  
-1.00000000000000E+0000  -1.02469507660000E+0000  -1.04880884820000E+0000  -1.07238052950000E+0000  -1.09544511500000E+0000  
-1.11803398870000E+0000  -1.14017542510000E+0000  -1.16189500390000E+0000  -1.18321595660000E+0000  -1.20415945790000E+0000  
-1.22474487140000E+0000  -1.24498995980000E+0000  -1.26491106410000E+0000  -1.28452325790000E+0000  -1.30384048100000E+0000  
-1.32287565550000E+0000  -1.34164078650000E+0000  -1.36014705090000E+0000  -1.37840487520000E+0000  -1.39642400440000E+0000  
-1.41421356240000E+0000  -1.43178210630000E+0000  -1.44913767460000E+0000  -1.46628782990000E+0000  -1.48323969740000E+0000  
-1.50000000000000E+0000  -1.51657508880000E+0000  -1.53297097170000E+0000  -1.54919333850000E+0000  -1.56524758420000E+0000  
-1.58113883010000E+0000  -1.59687194230000E+0000  -1.61245154970000E+0000  -1.62788205960000E+0000  -1.64316767250000E+0000  
-1.65831239520000E+0000  -1.67332005310000E+0000  -1.68819430160000E+0000  -1.70293863660000E+0000  -1.71755640370000E+0000  
-1.73205080760000E+0000  -1.74642491970000E+0000  -1.76068168620000E+0000  -1.77482393490000E+0000  -1.78885438200000E+0000  
-1.80277563770000E+0000  -1.81659021250000E+0000  -1.83030052180000E+0000  -1.84390889150000E+0000  -1.85741756210000E+0000  
-1.87082869340000E+0000  -1.88414436810000E+0000  -1.89736659610000E+0000  -1.91049731750000E+0000  -1.92353840620000E+0000  
-1.93649167310000E+0000  -1.94935886900000E+0000  -1.96214168700000E+0000  -1.97484176580000E+0000  -1.98746069140000E+0000  
-2.00000000000000E+0000  -2.01246117970000E+0000  -2.02484567310000E+0000  -2.03715487870000E+0000  -2.04939015320000E+0000  
-2.06155281280000E+0000  -2.07364413530000E+0000  -2.08566536150000E+0000  -2.09761769630000E+0000  -2.10950231100000E+0000  
-2.12132034360000E+0000  -2.13307290080000E+0000  -2.14476105900000E+0000  -2.15638586530000E+0000  -2.16794833890000E+0000  
-2.17944947180000E+0000  -2.19089023000000E+0000  -2.20227155460000E+0000  -2.21359436210000E+0000  -2.22485954610000E+0000  
-2.23606797750000E+0000  -2.24722050540000E+0000  -2.25831795810000E+0000  -2.26936114360000E+0000  -2.28035085020000E+0000  
-2.29128784750000E+0000  -2.30217288660000E+0000  -2.31300670120000E+0000  -2.32379000770000E+0000  -2.33452350600000E+0000  
-2.34520787990000E+0000  -2.35584379790000E+0000  -2.36643191320000E+0000  -2.37697286480000E+0000  -2.38746727730000E+0000  
-2.39791576170000E+0000  -2.40831891580000E+0000  -2.41867732450000E+0000  -2.42899156030000E+0000  -2.43926218350000E+0000  
-2.44948974280000E+0000  -2.45967477520000E+0000  -2.46981780700000E+0000  -2.47991935350000E+0000  -2.48997991960000E+0000  
-2.50000000000000E+0000  -2.50998007960000E+0000  -2.51992063370000E+0000  -2.52982212810000E+0000  -2.53968501980000E+0000  
-2.54950975680000E+0000  -2.55929677840000E+0000  -2.56904651570000E+0000  -2.57875939160000E+0000  -2.58843582110000E+0000  
-2.59807621140000E+0000  -2.60768096210000E+0000  -2.61725046570000E+0000  -2.62678510730000E+0000  -2.63628526530000E+0000  
-2.64575131110000E+0000  -2.65518360950000E+0000  -2.66458251890000E+0000  -2.67394839140000E+0000  -2.68328157300000E+0000  
-2.69258240360000E+0000  -2.70185121720000E+0000  -2.71108834230000E+0000  -2.72029410170000E+0000  -2.72946881280000E+0000  
-2.73861278750000E+0000  -2.74772633280000E+0000  -2.75680975040000E+0000  -2.76586333720000E+0000  -2.77488738510000E+0000  
-2.78388218140000E+0000  -2.79284800880000E+0000  -2.80178514520000E+0000  -2.81069386450000E+0000  -2.81957443600000E+0000  
-2.82842712470000E+0000  -2.83725219180000E+0000  -2.84604989420000E+0000  -2.85482048470000E+0000  -2.86356421270000E+0000  
-2.87228132330000E+0000  -2.88097205820000E+0000  -2.88963665540000E+0000  -2.89827534920000E+0000  -2.90688837070000E+0000  
-2.91547594740000E+0000  -2.92403830340000E+0000  -2.93257565970000E+0000  -2.94108823400000E+0000  -2.94957624080000E+0000  
-2.95803989150000E+0000  -2.96647939480000E+0000  -2.97489495610000E+0000  -2.98328677800000E+0000  -2.99165506030000E+0000  
-3.00000000000000E+0000  -3.00832179130000E+0000  -3.01662062580000E+0000  -3.02489669250000E+0000  -3.03315017760000E+0000  
-3.04138126510000E+0000  -3.04959013640000E+0000  -3.05777697030000E+0000  -3.06594194340000E+0000  -3.07408522980000E+0000  
-3.08220700150000E+0000  -3.09030742810000E+0000  -3.09838667700000E+0000  -3.10644491340000E+0000  -3.11448230050000E+0000  
-3.12249899920000E+0000  -3.13049516850000E+0000  -3.13847096530000E+0000  -3.14642654450000E+0000  -3.15436205910000E+0000  
-3.16227766020000E+0000  -3.17017349680000E+0000  -3.17804971640000E+0000  -3.18590646440000E+0000  -3.19374388450000E+0000  
-3.20156211870000E+0000  -3.20936130720000E+0000  -3.21714158840000E+0000  -3.22490309930000E+0000  -3.23264597500000E+0000  
-3.24037034920000E+0000  -3.24807635380000E+0000  -3.25576411920000E+0000  -3.26343377440000E+0000  -3.27108544680000E+0000  
-3.27871926220000E+0000  -3.28633534500000E+0000  -3.29393381840000E+0000  -3.30151480380000E+0000  -3.30907842160000E+0000  
-3.31662479040000E+0000  -3.32415402770000E+0000  -3.33166624980000E+0000  -3.33916157140000E+0000  -3.34664010610000E+0000  
-3.35410196620000E+0000  -3.36154726280000E+0000  -3.36897610560000E+0000  -3.37638860320000E+0000  -3.38378486310000E+0000  
-3.39116499160000E+0000  -3.39852909360000E+0000  -3.40587727320000E+0000  -3.41320963320000E+0000  -3.42052627530000E+0000  
-3.42782730020000E+0000  -3.43511280750000E+0000  -3.44238289560000E+0000  -3.44963766210000E+0000  -3.45687720350000E+0000  
-3.46410161510000E+0000  -3.47131099150000E+0000  -3.47850542620000E+0000  -3.48568501160000E+0000  -3.49284983930000E+0000  
-3.50000000000000E+0000  -3.50713558340000E+0000  -3.51425667820000E+0000  -3.52136337230000E+0000  -3.52845575290000E+0000  
-3.53553390590000E+0000  -3.54259791680000E+0000  -3.54964786990000E+0000  -3.55668384880000E+0000  -3.56370593620000E+0000  
-3.57071421430000E+0000  -3.57770876400000E+0000  -3.58468966580000E+0000  -3.59165699920000E+0000  -3.59861084310000E+0000  
-3.60555127550000E+0000  -3.61247837360000E+0000  -3.61939221420000E+0000  -3.62629287290000E+0000  -3.63318042490000E+0000  
-3.64005494460000E+0000  -3.64691650580000E+0000  -3.65376518130000E+0000  -3.66060104350000E+0000  -3.66742416420000E+0000  
-3.67423461420000E+0000  -3.68103246390000E+0000  -3.68781778290000E+0000  -3.69459064040000E+0000  -3.70135110470000E+0000  
-3.70809924350000E+0000  -3.71483512420000E+0000  -3.72155881320000E+0000  -3.72827037650000E+0000  -3.73496987940000E+0000  
-3.74165738680000E+0000  -3.74833296280000E+0000  -3.75499667110000E+0000  -3.76164857480000E+0000  -3.76828873630000E+0000  
-3.77491721760000E+0000  -3.78153408020000E+0000  -3.78813938500000E+0000  -3.79473319220000E+0000  -3.80131556170000E+0000  
-3.80788655290000E+0000  -3.81444622460000E+0000  -3.82099463490000E+0000  -3.82753184180000E+0000  -3.83405790250000E+0000  
-3.84057287390000E+0000  -3.84707681230000E+0000  -3.85356977360000E+0000  -3.86005181310000E+0000  -3.86652298580000E+0000  
-3.87298334620000E+0000  -3.87943294830000E+0000  -3.88587184550000E+0000  -3.89230009120000E+0000  -3.89871773790000E+0000  
-3.90512483800000E+0000  -3.91152144310000E+0000  -3.91790760480000E+0000  -3.92428337410000E+0000  -3.93064880140000E+0000  
-3.93700393700000E+0000  -3.94334883060000E+0000  -3.94968353160000E+0000  -3.95600808900000E+0000  -3.96232255120000E+0000  
-3.96862696660000E+0000  -3.97492138290000E+0000  -3.98120584750000E+0000  -3.98748040750000E+0000  -3.99374510950000E+0000  
-4.00000000000000E+0000  -4.00624512480000E+0000  -4.01248052950000E+0000  -4.01870625950000E+0000  -4.02492235950000E+0000  
-4.03112887410000E+0000  -4.03732584760000E+0000  -4.04351332380000E+0000  -4.04969134630000E+0000  -4.05585995810000E+0000  
-4.06201920230000E+0000  -4.06816912140000E+0000  -4.07430975750000E+0000  -4.08044115260000E+0000  -4.08656334830000E+0000  
-4.09267638590000E+0000  -4.09878030640000E+0000  -4.10487515040000E+0000  -4.11096095820000E+0000  -4.11703777000000E+0000  
-4.12310562560000E+0000  -4.12916456440000E+0000  -4.13521462560000E+0000  -4.14125584820000E+0000  -4.14728827070000E+0000  
-4.15331193150000E+0000  -4.15932686860000E+0000  -4.16533311990000E+0000  -4.17133072290000E+0000  -4.17731971480000E+0000  
-4.18330013270000E+0000  -4.18927201310000E+0000  -4.19523539270000E+0000  -4.20119030750000E+0000  -4.20713679360000E+0000  
-4.21307488660000E+0000  -4.21900462190000E+0000  -4.22492603490000E+0000  -4.23083916030000E+0000  -4.23674403290000E+0000  
-4.24264068710000E+0000  -4.24852915720000E+0000  -4.25440947720000E+0000  -4.26028168080000E+0000  -4.26614580150000E+0000  
-4.27200187270000E+0000  -4.27784992720000E+0000  -4.28368999810000E+0000  -4.28952211790000E+0000  -4.29534631900000E+0000  
-4.30116263350000E+0000  -4.30697109350000E+0000  -4.31277173060000E+0000  -4.31856457630000E+0000  -4.32434966210000E+0000  
-4.33012701890000E+0000  -4.33589667770000E+0000  -4.34165866920000E+0000  -4.34741302390000E+0000  -4.35315977190000E+0000  
-4.35889894350000E+0000  -4.36463056860000E+0000  -4.37035467670000E+0000  -4.37607129740000E+0000  -4.38178046000000E+0000  
-4.38748219370000E+0000  -4.39317652730000E+0000  -4.39886348960000E+0000  -4.40454310910000E+0000  -4.41021541420000E+0000  
-4.41588043320000E+0000  -4.42153819390000E+0000  -4.42718872420000E+0000  -4.43283205190000E+0000  -4.43846820420000E+0000  
-4.44409720870000E+0000  -4.44971909230000E+0000  -4.45533388200000E+0000  -4.46094160460000E+0000  -4.46654228680000E+0000  
-4.47213595500000E+0000  -4.47772263540000E+0000  -4.48330235430000E+0000  -4.48887513750000E+0000  -4.49444101080000E+0000  
-4.50000000000000E+0000  -4.50555213040000E+0000  -4.51109742750000E+0000  -4.51663591630000E+0000  -4.52216762180000E+0000  
-4.52769256910000E+0000  -4.53321078270000E+0000  -4.53872228720000E+0000  -4.54422710700000E+0000  -4.54972526640000E+0000  
-4.55521678960000E+0000  -4.56070170040000E+0000  -4.56618002270000E+0000  -4.57165178030000E+0000  -4.57711699650000E+0000  
-4.58257569500000E+0000  -4.58802789880000E+0000  -4.59347363110000E+0000  -4.59891291500000E+0000  -4.60434577330000E+0000  
-4.60977222860000E+0000  -4.61519230370000E+0000  -4.62060602090000E+0000  -4.62601340250000E+0000  -4.63141447080000E+0000  
-4.63680924770000E+0000  -4.64219775540000E+0000  -4.64758001540000E+0000  -4.65295604970000E+0000  -4.65832587950000E+0000  
-4.66368952650000E+0000  -4.66904701200000E+0000  -4.67439835700000E+0000  -4.67974358270000E+0000  -4.68508271000000E+0000  
-4.69041575980000E+0000  -4.69574275270000E+0000  -4.70106370940000E+0000  -4.70637865030000E+0000  -4.71168759580000E+0000  
-4.71699056600000E+0000  -4.72228758120000E+0000  -4.72757866140000E+0000  -4.73286382650000E+0000  -4.73814309620000E+0000  
-4.74341649030000E+0000  -4.74868402820000E+0000  -4.75394572960000E+0000  -4.75920161370000E+0000  -4.76445169980000E+0000  
-4.76969600710000E+0000  -4.77493455450000E+0000  -4.78016736110000E+0000  -4.78539444560000E+0000  -4.79061582680000E+0000  
-4.79583152330000E+0000  -4.80104155370000E+0000  -4.80624593630000E+0000  -4.81144468950000E+0000  -4.81663783150000E+0000  
-4.82182538050000E+0000  -4.82700735450000E+0000  -4.83218377130000E+0000  -4.83735464900000E+0000  -4.84252000510000E+0000  
-4.84767985740000E+0000  -4.85283422340000E+0000  -4.85798312060000E+0000  -4.86312656630000E+0000  -4.86826457790000E+0000  
-4.87339717240000E+0000  -4.87852436710000E+0000  -4.88364617880000E+0000  -4.88876262460000E+0000  -4.89387372130000E+0000  
-4.89897948560000E+0000  -4.90407993410000E+0000  -4.90917508350000E+0000  -4.91426495010000E+0000  -4.91934955050000E+0000  
-4.92442890090000E+0000  -4.92950301750000E+0000  -4.93457191660000E+0000  -4.93963561410000E+0000  -4.94469412600000E+0000  
-4.94974746830000E+0000  -4.95479565670000E+0000  -4.95983870710000E+0000  -4.96487663490000E+0000  -4.96990945590000E+0000  
-4.97493718550000E+0000  -4.97995983920000E+0000  -4.98497743220000E+0000  -4.98998997990000E+0000  -4.99499749750000E+0000  
-5.00000000000000E+0000  -5.00499750250000E+0000  -5.00999002000000E+0000  -5.01497756720000E+0000  -5.01996015920000E+0000  
-5.02493781060000E+0000  -5.02991053600000E+0000  -5.03487835010000E+0000  -5.03984126730000E+0000  -5.04479930230000E+0000  
-5.04975246920000E+0000  -5.05470078240000E+0000  -5.05964425630000E+0000  -5.06458290480000E+0000  -5.06951674230000E+0000  
-5.07444578250000E+0000  -5.07937003970000E+0000  -5.08428952760000E+0000  -5.08920426000000E+0000  -5.09411425080000E+0000  
-5.09901951360000E+0000  -5.10392006210000E+0000  -5.10881590980000E+0000  -5.11370707020000E+0000  -5.11859355680000E+0000  
-5.12347538300000E+0000  -5.12835256200000E+0000  -5.13322510710000E+0000  -5.13809303150000E+0000  -5.14295634820000E+0000  
-5.14781507050000E+0000  -5.15266921120000E+0000  -5.15751878330000E+0000  -5.16236379970000E+0000  -5.16720427310000E+0000  
-5.17204021640000E+0000  -5.17687164220000E+0000  -5.18169856320000E+0000  -5.18652099200000E+0000  -5.19133894100000E+0000  
-5.19615242270000E+0000  -5.20096144960000E+0000  -5.20576603390000E+0000  -5.21056618800000E+0000  -5.21536192420000E+0000  
-5.22015325450000E+0000  -5.22494019100000E+0000  -5.22972274600000E+0000  -5.23450093130000E+0000  -5.23927475900000E+0000  
-5.24404424090000E+0000  -5.24880938880000E+0000  -5.25357021460000E+0000  -5.25832673010000E+0000  -5.26307894680000E+0000  
-5.26782687640000E+0000  -5.27257053060000E+0000  -5.27730992080000E+0000  -5.28204505850000E+0000  -5.28677595520000E+0000  
-5.29150262210000E+0000  -5.29622507070000E+0000  -5.30094331230000E+0000  -5.30565735800000E+0000  -5.31036721890000E+0000  
-5.31507290640000E+0000  -5.31977443130000E+0000  -5.32447180480000E+0000  -5.32916503780000E+0000  -5.33385414120000E+0000  
-5.33853912600000E+0000  -5.34322000300000E+0000  -5.34789678280000E+0000  -5.35256947640000E+0000  -5.35723809440000E+0000  
-5.36190264740000E+0000  -5.36656314600000E+0000  -5.37121960080000E+0000  -5.37587202230000E+0000  -5.38052042090000E+0000  
-5.38516480710000E+0000  -5.38980519130000E+0000  -5.39444158370000E+0000  -5.39907399470000E+0000  -5.40370243440000E+0000  
-5.40832691320000E+0000  -5.41294744110000E+0000  -5.41756402820000E+0000  -5.42217668470000E+0000  -5.42678542050000E+0000  
-5.43139024560000E+0000  -5.43599117000000E+0000  -5.44058820350000E+0000  -5.44518135600000E+0000  -5.44977063740000E+0000  
-5.45435605730000E+0000  -5.45893762560000E+0000  -5.46351535190000E+0000  -5.46808924580000E+0000  -5.47265931700000E+0000  
-5.47722557510000E+0000  -5.48178802950000E+0000  -5.48634668970000E+0000  -5.49090156530000E+0000  -5.49545266560000E+0000  
-5.50000000000000E+0000  -5.50454357780000E+0000  -5.50908340830000E+0000  -5.51361950080000E+0000  -5.51815186450000E+0000  
-5.52268050860000E+0000  -5.52720544220000E+0000  -5.53172667440000E+0000  -5.53624421430000E+0000  -5.54075807090000E+0000  
-5.54526825320000E+0000  -5.54977477020000E+0000  -5.55427763080000E+0000  -5.55877684390000E+0000  -5.56327241830000E+0000  
-5.56776436280000E+0000  -5.57225268630000E+0000  -5.57673739740000E+0000  -5.58121850500000E+0000  -5.58569601750000E+0000  
-5.59016994370000E+0000  -5.59464029230000E+0000  -5.59910707170000E+0000  -5.60357029040000E+0000  -5.60802995710000E+0000  
-5.61248608020000E+0000  -5.61693866800000E+0000  -5.62138772900000E+0000  -5.62583327160000E+0000  -5.63027530410000E+0000  
-5.63471383480000E+0000  -5.63914887190000E+0000  -5.64358042380000E+0000  -5.64800849860000E+0000  -5.65243310440000E+0000  
-5.65685424950000E+0000  -5.66127194190000E+0000  -5.66568618970000E+0000  -5.67009700090000E+0000  -5.67450438360000E+0000  
-5.67890834580000E+0000  -5.68330889540000E+0000  -5.68770604020000E+0000  -5.69209978830000E+0000  -5.69649014750000E+0000  
-5.70087712550000E+0000  -5.70526073020000E+0000  -5.70964096940000E+0000  -5.71401785090000E+0000  -5.71839138220000E+0000  
-5.72276157110000E+0000  -5.72712842530000E+0000  -5.73149195240000E+0000  -5.73585215990000E+0000  -5.74020905540000E+0000  
-5.74456264650000E+0000  -5.74891294070000E+0000  -5.75325994550000E+0000  -5.75760366820000E+0000  -5.76194411640000E+0000  
-5.76628129730000E+0000  -5.77061521850000E+0000  -5.77494588720000E+0000  -5.77927331070000E+0000  -5.78359749640000E+0000  
-5.78791845140000E+0000  -5.79223618300000E+0000  -5.79655069850000E+0000  -5.80086200490000E+0000  -5.80517010950000E+0000  
-5.80947501930000E+0000  -5.81377674150000E+0000  -5.81807528310000E+0000  -5.82237065120000E+0000  -5.82666285280000E+0000  
-5.83095189480000E+0000  -5.83523778440000E+0000  -5.83952052830000E+0000  -5.84380013350000E+0000  -5.84807660690000E+0000  
-5.85234995540000E+0000  -5.85662018570000E+0000  -5.86088730480000E+0000  -5.86515131940000E+0000  -5.86941223630000E+0000  
-5.87367006220000E+0000  -5.87792480390000E+0000  -5.88217646790000E+0000  -5.88642506110000E+0000  -5.89067059000000E+0000  
-5.89491306130000E+0000  -5.89915248150000E+0000  -5.90338885730000E+0000  -5.90762219510000E+0000  -5.91185250150000E+0000  
-5.91607978310000E+0000  -5.92030404620000E+0000  -5.92452529740000E+0000  -5.92874354310000E+0000  -5.93295878970000E+0000  
-5.93717104350000E+0000  -5.94138031100000E+0000  -5.94558659850000E+0000  -5.94978991230000E+0000  -5.95399025860000E+0000  
-5.95818764390000E+0000  -5.96238207430000E+0000  -5.96657355610000E+0000  -5.97076209540000E+0000  -5.97494769850000E+0000  
-5.97913037160000E+0000  -5.98331012070000E+0000  -5.98748695200000E+0000  -5.99166087160000E+0000  -5.99583188560000E+0000  
-6.00000000000000E+0000  -6.00416522090000E+0000  -6.00832755430000E+0000  -6.01248700620000E+0000  -6.01664358260000E+0000  
-6.02079728940000E+0000  -6.02494813260000E+0000  -6.02909611800000E+0000  -6.03324125160000E+0000  -6.03738353920000E+0000  
-6.04152298680000E+0000  -6.04565960010000E+0000  -6.04979338490000E+0000  -6.05392434710000E+0000  -6.05805249230000E+0000  
-6.06217782650000E+0000  -6.06630035520000E+0000  -6.07042008430000E+0000  -6.07453701940000E+0000  -6.07865116620000E+0000  
-6.08276253030000E+0000  -6.08687111740000E+0000  -6.09097693310000E+0000  -6.09507998310000E+0000  -6.09918027280000E+0000  
-6.10327780790000E+0000  -6.10737259380000E+0000  -6.11146463620000E+0000  -6.11555394060000E+0000  -6.11964051230000E+0000  
-6.12372435700000E+0000  -6.12780547990000E+0000  -6.13188388670000E+0000  -6.13595958270000E+0000  -6.14003257320000E+0000  
-6.14410286370000E+0000  -6.14817045960000E+0000  -6.15223536610000E+0000  -6.15629758860000E+0000  -6.16035713250000E+0000  
-6.16441400300000E+0000  -6.16846820530000E+0000  -6.17251974480000E+0000  -6.17656862670000E+0000  -6.18061485610000E+0000  
-6.18465843840000E+0000  -6.18869937870000E+0000  -6.19273768220000E+0000  -6.19677335390000E+0000  -6.20080639920000E+0000  
-6.20483682300000E+0000  -6.20886463050000E+0000  -6.21288982680000E+0000  -6.21691241690000E+0000  -6.22093240600000E+0000  
-6.22494979900000E+0000  -6.22896460100000E+0000  -6.23297681690000E+0000  -6.23698645180000E+0000  -6.24099351070000E+0000  
-6.24499799840000E+0000  -6.24899992000000E+0000  -6.25299928030000E+0000  -6.25699608440000E+0000  -6.26099033700000E+0000  
-6.26498204310000E+0000  -6.26897120750000E+0000  -6.27295783500000E+0000  -6.27694193060000E+0000  -6.28092349900000E+0000  
-6.28490254500000E+0000  -6.28887907340000E+0000  -6.29285308900000E+0000  -6.29682459660000E+0000  -6.30079360080000E+0000  
-6.30476010650000E+0000  -6.30872411820000E+0000  -6.31268564080000E+0000  -6.31664467890000E+0000  -6.32060123720000E+0000  
-6.32455532030000E+0000  -6.32850693290000E+0000  -6.33245607960000E+0000  -6.33640276500000E+0000  -6.34034699370000E+0000  
-6.34428877020000E+0000  -6.34822809920000E+0000  -6.35216498530000E+0000  -6.35609943280000E+0000  -6.36003144650000E+0000  
-6.36396103070000E+0000  -6.36788819000000E+0000  -6.37181292880000E+0000  -6.37573525170000E+0000  -6.37965516310000E+0000  
-6.38357266740000E+0000  -6.38748776910000E+0000  -6.39140047250000E+0000  -6.39531078210000E+0000  -6.39921870230000E+0000  
-6.40312423740000E+0000  -6.40702739190000E+0000  -6.41092816990000E+0000  -6.41482657600000E+0000  -6.41872261440000E+0000  
-6.42261628930000E+0000  -6.42650760520000E+0000  -6.43039656630000E+0000  -6.43428317690000E+0000  -6.43816744110000E+0000  
-6.44204936340000E+0000  -6.44592894780000E+0000  -6.44980619860000E+0000  -6.45368112010000E+0000  -6.45755371640000E+0000  
-6.46142399170000E+0000  -6.46529195010000E+0000  -6.46915759590000E+0000  -6.47302093310000E+0000  -6.47688196590000E+0000  
-6.48074069840000E+0000  -6.48459713470000E+0000  -6.48845127900000E+0000  -6.49230313530000E+0000  -6.49615270760000E+0000  
-6.50000000000000E+0000  -6.50384501660000E+0000  -6.50768776140000E+0000  -6.51152823840000E+0000  -6.51536645170000E+0000  
-6.51920240520000E+0000  -6.52303610290000E+0000  -6.52686754880000E+0000  -6.53069674690000E+0000  -6.53452370110000E+0000  
-6.53834841530000E+0000  -6.54217089350000E+0000  -6.54599113960000E+0000  -6.54980915750000E+0000  -6.55362495110000E+0000  
-6.55743852430000E+0000  -6.56124988090000E+0000  -6.56505902490000E+0000  -6.56886596000000E+0000  -6.57267069010000E+0000  
-6.57647321900000E+0000  -6.58027355050000E+0000  -6.58407168860000E+0000  -6.58786763680000E+0000  -6.59166139910000E+0000  
-6.59545297910000E+0000  -6.59924238080000E+0000  -6.60302960770000E+0000  -6.60681466370000E+0000  -6.61059755240000E+0000  
-6.61437827770000E+0000  -6.61815684310000E+0000  -6.62193325250000E+0000  -6.62570750940000E+0000  -6.62947961760000E+0000  
-6.63324958070000E+0000  -6.63701740240000E+0000  -6.64078308640000E+0000  -6.64454663620000E+0000  -6.64830805540000E+0000  
-6.65206734780000E+0000  -6.65582451690000E+0000  -6.65957956630000E+0000  -6.66333249960000E+0000  -6.66708332030000E+0000  
-6.67083203210000E+0000  -6.67457863840000E+0000  -6.67832314280000E+0000  -6.68206554890000E+0000  -6.68580586020000E+0000  
-6.68954408010000E+0000  -6.69328021230000E+0000  -6.69701426010000E+0000  -6.70074622710000E+0000  -6.70447611670000E+0000  
-6.70820393250000E+0000  -6.71192967780000E+0000  -6.71565335620000E+0000  -6.71937497090000E+0000  -6.72309452560000E+0000  
-6.72681202350000E+0000  -6.73052746820000E+0000  -6.73424086290000E+0000  -6.73795221120000E+0000  -6.74166151630000E+0000  
-6.74536878160000E+0000  -6.74907401060000E+0000  -6.75277720650000E+0000  -6.75647837260000E+0000  -6.76017751250000E+0000  
-6.76387462920000E+0000  -6.76756972630000E+0000  -6.77126280690000E+0000  -6.77495387440000E+0000  -6.77864293200000E+0000  
-6.78232998310000E+0000  -6.78601503090000E+0000  -6.78969807870000E+0000  -6.79337912970000E+0000  -6.79705818720000E+0000  
-6.80073525440000E+0000  -6.80441033450000E+0000  -6.80808343070000E+0000  -6.81175454640000E+0000  -6.81542368460000E+0000  
-6.81909084850000E+0000  -6.82275604140000E+0000  -6.82641926640000E+0000  -6.83008052660000E+0000  -6.83373982530000E+0000  
-6.83739716560000E+0000  -6.84105255060000E+0000  -6.84470598350000E+0000  -6.84835746730000E+0000  -6.85200700530000E+0000  
-6.85565460040000E+0000  -6.85930025590000E+0000  -6.86294397470000E+0000  -6.86658576000000E+0000  -6.87022561490000E+0000  
-6.87386354240000E+0000  -6.87749954560000E+0000  -6.88113362750000E+0000  -6.88476579120000E+0000  -6.88839603970000E+0000  
-6.89202437600000E+0000  -6.89565080320000E+0000  -6.89927532430000E+0000  -6.90289794220000E+0000  -6.90651865990000E+0000  
-6.91013748050000E+0000  -6.91375440700000E+0000  -6.91736944220000E+0000  -6.92098258920000E+0000  -6.92459385090000E+0000  
-6.92820323030000E+0000  -6.93181073020000E+0000  -6.93541635380000E+0000  -6.93902010370000E+0000  -6.94262198310000E+0000  
-6.94622199470000E+0000  -6.94982014160000E+0000  -6.95341642650000E+0000  -6.95701085240000E+0000  -6.96060342210000E+0000  
-6.96419413860000E+0000  -6.96778300470000E+0000  -6.97137002320000E+0000  -6.97495519700000E+0000  -6.97853852890000E+0000  
-6.98212002190000E+0000  -6.98569967860000E+0000  -6.98927750200000E+0000  -6.99285349480000E+0000  -6.99642765990000E+0000  
-7.00000000000000E+0000  -7.00357051800000E+0000  -7.00713921650000E+0000  -7.01070609850000E+0000  -7.01427116670000E+0000  
-7.01783442380000E+0000  -7.02139587260000E+0000  -7.02495551590000E+0000  -7.02851335630000E+0000  -7.03206939670000E+0000  
-7.03562363970000E+0000  -7.03917608820000E+0000  -7.04272674470000E+0000  -7.04627561200000E+0000  -7.04982269280000E+0000  
-7.05336798980000E+0000  -7.05691150580000E+0000  -7.06045324320000E+0000  -7.06399320500000E+0000  -7.06753139360000E+0000  
-7.07106781190000E+0000  -7.07460246230000E+0000  -7.07813534770000E+0000  -7.08166647050000E+0000  -7.08519583360000E+0000  
-7.08872343940000E+0000  -7.09224929060000E+0000  -7.09577338980000E+0000  -7.09929573970000E+0000  -7.10281634280000E+0000  
-7.10633520180000E+0000  -7.10985231910000E+0000  -7.11336769750000E+0000  -7.11688133950000E+0000  -7.12039324760000E+0000  
-7.12390342440000E+0000  -7.12741187250000E+0000  -7.13091859440000E+0000  -7.13442359270000E+0000  -7.13792686990000E+0000  
-7.14142842850000E+0000  -7.14492827120000E+0000  -7.14842640030000E+0000  -7.15192281840000E+0000  -7.15541752800000E+0000  
-7.15891053160000E+0000  -7.16240183180000E+0000  -7.16589143090000E+0000  -7.16937933160000E+0000  -7.17286553620000E+0000  
-7.17635004720000E+0000  -7.17983286710000E+0000  -7.18331399840000E+0000  -7.18679344350000E+0000  -7.19027120490000E+0000  
-7.19374728500000E+0000  -7.19722168620000E+0000  -7.20069441100000E+0000  -7.20416546170000E+0000  -7.20763484090000E+0000  
-7.21110255090000E+0000  -7.21456859420000E+0000  -7.21803297300000E+0000  -7.22149569000000E+0000  -7.22495674730000E+0000  
-7.22841614740000E+0000  -7.23187389270000E+0000  -7.23532998560000E+0000  -7.23878442830000E+0000  -7.24223722340000E+0000  
-7.24568837310000E+0000  -7.24913787980000E+0000  -7.25258574580000E+0000  -7.25603197350000E+0000  -7.25947656520000E+0000  
-7.26291952320000E+0000  -7.26636084980000E+0000  -7.26980054750000E+0000  -7.27323861840000E+0000  -7.27667506490000E+0000  
-7.28010988930000E+0000  -7.28354309390000E+0000  -7.28697468090000E+0000  -7.29040465270000E+0000  -7.29383301150000E+0000  
-7.29725975970000E+0000  -7.30068489940000E+0000  -7.30410843290000E+0000  -7.30753036260000E+0000  -7.31095069060000E+0000  
-7.31436941920000E+0000  -7.31778655060000E+0000  -7.32120208710000E+0000  -7.32461603090000E+0000  -7.32802838420000E+0000  
-7.33143914930000E+0000  -7.33484832840000E+0000  -7.33825592360000E+0000  -7.34166193720000E+0000  -7.34506637140000E+0000  
-7.34846922830000E+0000  -7.35187051030000E+0000  -7.35527021940000E+0000  -7.35866835780000E+0000  -7.36206492770000E+0000  
-7.36545993130000E+0000  -7.36885337080000E+0000  -7.37224524820000E+0000  -7.37563556580000E+0000  -7.37902432570000E+0000  
-7.38241153010000E+0000  -7.38579718110000E+0000  -7.38918128080000E+0000  -7.39256383130000E+0000  -7.39594483480000E+0000  
-7.39932429350000E+0000  -7.40270220930000E+0000  -7.40607858450000E+0000  -7.40945342110000E+0000  -7.41282672130000E+0000  
-7.41619848710000E+0000  -7.41956872060000E+0000  -7.42293742400000E+0000  -7.42630459920000E+0000  -7.42967024840000E+0000  
-7.43303437370000E+0000  -7.43639697700000E+0000  -7.43975806060000E+0000  -7.44311762640000E+0000  -7.44647567650000E+0000  
-7.44983221290000E+0000  -7.45318723770000E+0000  -7.45654075290000E+0000  -7.45989276060000E+0000  -7.46324326280000E+0000  
-7.46659226150000E+0000  -7.46993975880000E+0000  -7.47328575660000E+0000  -7.47663025700000E+0000  -7.47997326200000E+0000  
-7.48331477350000E+0000  -7.48665479370000E+0000  -7.48999332440000E+0000  -7.49333036770000E+0000  -7.49666592560000E+0000  
-7.50000000000000E+0000  -7.50333259290000E+0000  -7.50666370630000E+0000  -7.50999334220000E+0000  -7.51332150250000E+0000  
-7.51664818920000E+0000  -7.51997340420000E+0000  -7.52329714950000E+0000  -7.52661942710000E+0000  -7.52994023880000E+0000  
-7.53325958670000E+0000  -7.53657747260000E+0000  -7.53989389850000E+0000  -7.54320886630000E+0000  -7.54652237790000E+0000  
-7.54983443530000E+0000  -7.55314504030000E+0000  -7.55645419490000E+0000  -7.55976190100000E+0000  -7.56306816050000E+0000  
-7.56637297520000E+0000  -7.56967634710000E+0000  -7.57297827810000E+0000  -7.57627877000000E+0000  -7.57957782470000E+0000  
-7.58287544410000E+0000  -7.58617163000000E+0000  -7.58946638440000E+0000  -7.59275970910000E+0000  -7.59605160590000E+0000  
-7.59934207680000E+0000  -7.60263112350000E+0000  -7.60591874790000E+0000  -7.60920495190000E+0000  -7.61248973730000E+0000  
-7.61577310590000E+0000  -7.61905505950000E+0000  -7.62233560010000E+0000  -7.62561472930000E+0000  -7.62889244910000E+0000  
-7.63216876120000E+0000  -7.63544366750000E+0000  -7.63871716980000E+0000  -7.64198926980000E+0000  -7.64525996940000E+0000  
-7.64852927040000E+0000  -7.65179717450000E+0000  -7.65506368360000E+0000  -7.65832879940000E+0000  -7.66159252380000E+0000  
-7.66485485840000E+0000  -7.66811580510000E+0000  -7.67137536560000E+0000  -7.67463354170000E+0000  -7.67789033520000E+0000  
-7.68114574790000E+0000  -7.68439978140000E+0000  -7.68765243750000E+0000  -7.69090371800000E+0000  -7.69415362470000E+0000  
-7.69740215920000E+0000  -7.70064932330000E+0000  -7.70389511870000E+0000  -7.70713954720000E+0000  -7.71038261050000E+0000  
-7.71362431030000E+0000  -7.71686464830000E+0000  -7.72010362620000E+0000  -7.72334124590000E+0000  -7.72657750880000E+0000  
-7.72981241690000E+0000  -7.73304597170000E+0000  -7.73627817490000E+0000  -7.73950902840000E+0000  -7.74273853360000E+0000  
-7.74596669240000E+0000  -7.74919350640000E+0000  -7.75241897730000E+0000  -7.75564310660000E+0000  -7.75886589600000E+0000  
-7.76208734680000E+0000  -7.76530746070000E+0000  -7.76852623900000E+0000  -7.77174368280000E+0000  -7.77495979380000E+0000  
-7.77817457290000E+0000  -7.78138802150000E+0000  -7.78460014060000E+0000  -7.78781093140000E+0000  -7.79102039480000E+0000  
-7.79422853200000E+0000  -7.79743534360000E+0000  -7.80064083080000E+0000  -7.80384499430000E+0000  -7.80704783480000E+0000  
-7.81024935310000E+0000  -7.81344954980000E+0000  -7.81664842560000E+0000  -7.81984598120000E+0000  -7.82304221680000E+0000  
-7.82623713300000E+0000  -7.82943073040000E+0000  -7.83262300910000E+0000  -7.83581396950000E+0000  -7.83900361180000E+0000  
-7.84219193640000E+0000  -7.84537894320000E+0000  -7.84856463240000E+0000  -7.85174900420000E+0000  -7.85493205840000E+0000  
-7.85811379500000E+0000  -7.86129421390000E+0000  -7.86447331490000E+0000  -7.86765109790000E+0000  -7.87082756270000E+0000  
-7.87400270870000E+0000  -7.87717653580000E+0000  -7.88034904350000E+0000  -7.88352023130000E+0000  -7.88669009880000E+0000  
-7.88985864520000E+0000  -7.89302587020000E+0000  -7.89619177280000E+0000  -7.89935635260000E+0000  -7.90251960850000E+0000  
-7.90568153980000E+0000  -7.90884214580000E+0000  -7.91200142530000E+0000  -7.91515937760000E+0000  -7.91831600140000E+0000  
-7.92147129580000E+0000  -7.92462525960000E+0000  -7.92777789150000E+0000  -7.93092919040000E+0000  -7.93407915500000E+0000  
-7.93722778400000E+0000  -7.94037507580000E+0000  -7.94352102930000E+0000  -7.94666564260000E+0000  -7.94980891450000E+0000  
-7.95295084330000E+0000  -7.95609142730000E+0000  -7.95923066470000E+0000  -7.96236855400000E+0000  -7.96550509320000E+0000  
-7.96864028060000E+0000  -7.97177411400000E+0000  -7.97490659190000E+0000  -7.97803771190000E+0000  -7.98116747210000E+0000  
-7.98429587040000E+0000  -7.98742290460000E+0000  -7.99054857250000E+0000  -7.99367287190000E+0000  -7.99679580030000E+0000  
-7.99991735550000E+0000  -8.00303753500000E+0000  -8.00615633640000E+0000  -8.00927375720000E+0000  -8.01238979470000E+0000  
-8.01550444630000E+0000  -8.01861770950000E+0000  -8.02172958140000E+0000  -8.02484005930000E+0000  -8.02794914030000E+0000  
-8.03105682160000E+0000  -8.03416310020000E+0000  -8.03726797320000E+0000  -8.04037143750000E+0000  -8.04347349010000E+0000  
-8.04657412770000E+0000  -8.04967334730000E+0000  -8.05277114560000E+0000  -8.05586751930000E+0000  -8.05896246510000E+0000  
-8.06205597950000E+0000  -8.06514805910000E+0000  -8.06823870050000E+0000  -8.07132790010000E+0000  -8.07441565430000E+0000  
-8.07750195940000E+0000  -8.08058681180000E+0000  -8.08367020770000E+0000  -8.08675214340000E+0000  -8.08983261490000E+0000  
-8.09291161840000E+0000  -8.09598914990000E+0000  -8.09906520530000E+0000  -8.10213978080000E+0000  -8.10521287220000E+0000  
-8.10828447520000E+0000  -8.11135458570000E+0000  -8.11442319950000E+0000  -8.11749031210000E+0000  -8.12055591940000E+0000  
-8.12362001680000E+0000  -8.12668259990000E+0000  -8.12974366420000E+0000  -8.13280320510000E+0000  -8.13586121810000E+0000  
-8.13891769830000E+0000  -8.14197264130000E+0000  -8.14502604210000E+0000  -8.14807789590000E+0000  -8.15112819790000E+0000  
-8.15417694320000E+0000  -8.15722412680000E+0000  -8.16026974360000E+0000  -8.16331378870000E+0000  -8.16635625670000E+0000  
-8.16939714280000E+0000  -8.17243644150000E+0000  -8.17547414750000E+0000  -8.17851025570000E+0000  -8.18154476060000E+0000  
-8.18457765680000E+0000  -8.18760893870000E+0000  -8.19063860090000E+0000  -8.19366663780000E+0000  -8.19669304380000E+0000  
-8.19971781300000E+0000  -8.20274094000000E+0000  -8.20576241880000E+0000  -8.20878224370000E+0000  -8.21180040870000E+0000  
-8.21481690790000E+0000  -8.21783173530000E+0000  -8.22084488490000E+0000  -8.22385635060000E+0000  -8.22686612620000E+0000  
-8.22987420570000E+0000  -8.23288058260000E+0000  -8.23588525080000E+0000  -8.23888820380000E+0000  -8.24188943540000E+0000  
-8.24488893900000E+0000  -8.24788670830000E+0000  -8.25088273650000E+0000  -8.25387701710000E+0000  -8.25686954360000E+0000  
-8.25986030910000E+0000  -8.26284930700000E+0000  -8.26583653040000E+0000  -8.26882197260000E+0000  -8.27180562640000E+0000  
-8.27478748520000E+0000  -8.27776754180000E+0000  -8.28074578920000E+0000  -8.28372222030000E+0000  -8.28669682790000E+0000  
-8.28966960500000E+0000  -8.29264054400000E+0000  -8.29560963800000E+0000  -8.29857687920000E+0000  -8.30154226060000E+0000  
-8.30450577440000E+0000  -8.30746741340000E+0000  -8.31042716990000E+0000  -8.31338503630000E+0000  -8.31634100490000E+0000  
-8.31929506810000E+0000  -8.32224721810000E+0000  -8.32519744700000E+0000  -8.32814574700000E+0000  -8.33109211020000E+0000  
-8.33403652870000E+0000  -8.33697899440000E+0000  -8.33991949920000E+0000  -8.34285803520000E+0000  -8.34579459400000E+0000  
-8.34872916740000E+0000  -8.35166174740000E+0000  -8.35459232540000E+0000  -8.35752089310000E+0000  -8.36044744210000E+0000  
-8.36337196400000E+0000  -8.36629445040000E+0000  -8.36921489250000E+0000  -8.37213328210000E+0000  -8.37504961100000E+0000  
-8.37796387110000E+0000  -8.38087605440000E+0000  -8.38378615290000E+0000  -8.38669415910000E+0000  -8.38960006520000E+0000  
-8.39250386370000E+0000  -8.39540554730000E+0000  -8.39830510870000E+0000  -8.40120254100000E+0000  -8.40409783680000E+0000  
-8.40699098940000E+0000  -8.40988199220000E+0000  -8.41277083830000E+0000  -8.41565752130000E+0000  -8.41854203480000E+0000  
-8.42142437260000E+0000  -8.42430452850000E+0000  -8.42718249630000E+0000  -8.43005827050000E+0000  -8.43293184500000E+0000  
-8.43580321420000E+0000  -8.43867237260000E+0000  -8.44153931490000E+0000  -8.44440403560000E+0000  -8.44726652970000E+0000  
-8.45012679210000E+0000  -8.45298481800000E+0000  -8.45584060250000E+0000  -8.45869414080000E+0000  -8.46154542860000E+0000  
-8.46439446130000E+0000  -8.46724123470000E+0000  -8.47008574460000E+0000  -8.47292798690000E+0000  -8.47576795770000E+0000  
-8.47860565320000E+0000  -8.48144106980000E+0000  -8.48427420360000E+0000  -8.48710505170000E+0000  -8.48993361030000E+0000  
-8.49275987640000E+0000  -8.49558384700000E+0000  -8.49840551900000E+0000  -8.50122488970000E+0000  -8.50404195630000E+0000  
-8.50685671630000E+0000  -8.50966916720000E+0000  -8.51247930670000E+0000  -8.51528713240000E+0000  -8.51809264260000E+0000  
-8.52089583500000E+0000  -8.52369670800000E+0000  -8.52649525960000E+0000  -8.52929148850000E+0000  -8.53208539300000E+0000  
-8.53487697190000E+0000  -8.53766622380000E+0000  -8.54045314790000E+0000  -8.54323774300000E+0000  -8.54602000820000E+0000  
-8.54879994300000E+0000  -8.55157754650000E+0000  -8.55435281840000E+0000  -8.55712575830000E+0000  -8.55989636600000E+0000  
-8.56266464130000E+0000  -8.56543058430000E+0000  -8.56819419500000E+0000  -8.57095547380000E+0000  -8.57371442090000E+0000  
-8.57647103700000E+0000  -8.57922532270000E+0000  -8.58197727850000E+0000  -8.58472690540000E+0000  -8.58747420460000E+0000  
-8.59021917690000E+0000  -8.59296182380000E+0000  -8.59570214650000E+0000  -8.59844014650000E+0000  -8.60117582540000E+0000  
-8.60390918520000E+0000  -8.60664022730000E+0000  -8.60936895390000E+0000  -8.61209536720000E+0000  -8.61481946920000E+0000  
-8.61754126250000E+0000  -8.62026074930000E+0000  -8.62297793250000E+0000  -8.62569281450000E+0000  -8.62840539840000E+0000  
-8.63111568690000E+0000  -8.63382368340000E+0000  -8.63652939080000E+0000  -8.63923281280000E+0000  -8.64193395250000E+0000  
-8.64463281360000E+0000  -8.64732939980000E+0000  -8.65002371500000E+0000  -8.65271576310000E+0000  -8.65540554810000E+0000  
-8.65809307420000E+0000  -8.66077834600000E+0000  -8.66346136760000E+0000  -8.66614214360000E+0000  -8.66882067890000E+0000  
-8.67149697820000E+0000  -8.67417104630000E+0000  -8.67684288840000E+0000  -8.67951250970000E+0000  -8.68217991560000E+0000  
-8.68484511120000E+0000  -8.68750810230000E+0000  -8.69016889450000E+0000  -8.69282749370000E+0000  -8.69548390570000E+0000  
-8.69813813670000E+0000  -8.70079019260000E+0000  -8.70344007980000E+0000  -8.70608780490000E+0000  -8.70873337430000E+0000  
-8.71137679470000E+0000  -8.71401807280000E+0000  -8.71665721550000E+0000  -8.71929422990000E+0000  -8.72192912320000E+0000  
-8.72456190270000E+0000  -8.72719257550000E+0000  -8.72982114950000E+0000  -8.73244763220000E+0000  -8.73507203140000E+0000  
-8.73769435500000E+0000  -8.74031461090000E+0000  -8.74293280730000E+0000  -8.74554895260000E+0000  -8.74816305490000E+0000  
-8.75077512300000E+0000  -8.75338516560000E+0000  -8.75599319100000E+0000  -8.75859920860000E+0000  -8.76120322710000E+0000  
-8.76380525570000E+0000  -8.76640530360000E+0000  -8.76900338040000E+0000  -8.77159949530000E+0000  -8.77419365810000E+0000  
-8.77678587840000E+0000  -8.77937616640000E+0000  -8.78196453170000E+0000  -8.78455098470000E+0000  -8.78713553550000E+0000  
-8.78971819450000E+0000  -8.79229897210000E+0000  -8.79487787910000E+0000  -8.79745492600000E+0000  -8.80003012390000E+0000  
-8.80260348360000E+0000  -8.80517501630000E+0000  -8.80774473320000E+0000  -8.81031264560000E+0000  -8.81287876510000E+0000  
-8.81544310310000E+0000  -8.81800567160000E+0000  -8.82056648220000E+0000  -8.82312554700000E+0000  -8.82568287790000E+0000  
-8.82823848740000E+0000  -8.83079238760000E+0000  -8.83334459130000E+0000  -8.83589511060000E+0000  -8.83844395870000E+0000  
-8.84099114800000E+0000  -8.84353669180000E+0000  -8.84608060290000E+0000  -8.84862289470000E+0000  -8.85116358050000E+0000  
-8.85370267370000E+0000  -8.85624018790000E+0000  -8.85877613670000E+0000  -8.86131053410000E+0000  -8.86384339390000E+0000  
-8.86637473040000E+0000  -8.86890455750000E+0000  -8.87143288960000E+0000  -8.87395974110000E+0000  -8.87648512670000E+0000  
-8.87900906110000E+0000  -8.88153155900000E+0000  -8.88405263530000E+0000  -8.88657230530000E+0000  -8.88909058380000E+0000  
-8.89160748630000E+0000  -8.89412302850000E+0000  -8.89663722540000E+0000  -8.89915009300000E+0000  -8.90166164730000E+0000  
-8.90417190370000E+0000  -8.90668087870000E+0000  -8.90918858810000E+0000  -8.91169504750000E+0000  -8.91420027260000E+0000  
-8.91670427870000E+0000  -8.91920708090000E+0000  -8.92170869390000E+0000  -8.92420913230000E+0000  -8.92670841060000E+0000  
-8.92920654290000E+0000  -8.93170354280000E+0000  -8.93419942450000E+0000  -8.93669420100000E+0000  -8.93918788560000E+0000  
-8.94168049130000E+0000  -8.94417203100000E+0000  -8.94666251700000E+0000  -8.94915196140000E+0000  -8.95164037670000E+0000  
-8.95412777440000E+0000  -8.95661416600000E+0000  -8.95909956310000E+0000  -8.96158397670000E+0000  -8.96406741760000E+0000  
-8.96654989650000E+0000  -8.96903142380000E+0000  -8.97151200960000E+0000  -8.97399166390000E+0000  -8.97647039660000E+0000  
-8.97894821690000E+0000  -8.98142513430000E+0000  -8.98390115750000E+0000  -8.98637629550000E+0000  -8.98885055680000E+0000  
-8.99132394970000E+0000  -8.99379648240000E+0000  -8.99626816240000E+0000  -8.99873899790000E+0000  -9.00120899570000E+0000  
-9.00367816340000E+0000  -9.00614650770000E+0000  -9.00861403530000E+0000  -9.01108075250000E+0000  -9.01354666590000E+0000  
-9.01601178120000E+0000  -9.01847610440000E+0000  -9.02093964070000E+0000  -9.02340239560000E+0000  -9.02586437410000E+0000  
-9.02832558120000E+0000  -9.03078602130000E+0000  -9.03324569880000E+0000  -9.03570461790000E+0000  -9.03816278220000E+0000  
-9.04062019590000E+0000  -9.04307686210000E+0000  -9.04553278400000E+0000  -9.04798796460000E+0000  -9.05044240670000E+0000  
-9.05289611260000E+0000  -9.05534908490000E+0000  -9.05780132550000E+0000  -9.06025283610000E+0000  -9.06270361830000E+0000  
-9.06515367340000E+0000  -9.06760300290000E+0000  -9.07005160720000E+0000  -9.07249948700000E+0000  -9.07494664310000E+0000  
-9.07739307520000E+0000  -9.07983878360000E+0000  -9.08228376760000E+0000  -9.08472802720000E+0000  -9.08717156140000E+0000  
-9.08961436920000E+0000  -9.09205644930000E+0000  -9.09449780050000E+0000  -9.09693842070000E+0000  -9.09937830860000E+0000  
-9.10181746150000E+0000  -9.10425587730000E+0000  -9.10669355330000E+0000  -9.10913048680000E+0000  -9.11156667450000E+0000  
-9.11400211320000E+0000  -9.11643679940000E+0000  -9.11887072930000E+0000  -9.12130389890000E+0000  -9.12373630390000E+0000  
-9.12616793990000E+0000  -9.12859880230000E+0000  -9.13102888600000E+0000  -9.13345818570000E+0000  -9.13588669640000E+0000  
-9.13831441210000E+0000  -9.14074132710000E+0000  -9.14316743530000E+0000  -9.14559273030000E+0000  -9.14801720580000E+0000  
-9.15044085460000E+0000  -9.15286367000000E+0000  -9.15528564480000E+0000  -9.15770677200000E+0000  -9.16012704470000E+0000  
-9.16254645560000E+0000  -9.16496499850000E+0000  -9.16738266630000E+0000  -9.16979945230000E+0000  -9.17221535010000E+0000  
-9.17463035310000E+0000  -9.17704445480000E+0000  -9.17945764900000E+0000  -9.18186992910000E+0000  -9.18428128930000E+0000  
-9.18669172290000E+0000  -9.18910122440000E+0000  -9.19150978750000E+0000  -9.19391740620000E+0000  -9.19632407480000E+0000  
-9.19872978750000E+0000  -9.20113453830000E+0000  -9.20353832190000E+0000  -9.20594113280000E+0000  -9.20834296510000E+0000  
-9.21074381390000E+0000  -9.21314367340000E+0000  -9.21554253850000E+0000  -9.21794040400000E+0000  -9.22033726490000E+0000  
-9.22273311590000E+0000  -9.22512795220000E+0000  -9.22752176880000E+0000  -9.22991456100000E+0000  -9.23230632390000E+0000  
-9.23469705300000E+0000  -9.23708674340000E+0000  -9.23947539080000E+0000  -9.24186299060000E+0000  -9.24424953860000E+0000  
-9.24663503030000E+0000  -9.24901946140000E+0000  -9.25140282820000E+0000  -9.25378512570000E+0000  -9.25616635070000E+0000  
-9.25854649900000E+0000  -9.26092556670000E+0000  -9.26330355000000E+0000  -9.26568044510000E+0000  -9.26805624830000E+0000  
-9.27043095620000E+0000  -9.27280456530000E+0000  -9.27517707200000E+0000  -9.27754847280000E+0000  -9.27991876500000E+0000  
-9.28228794470000E+0000  -9.28465600910000E+0000  -9.28702295530000E+0000  -9.28938877990000E+0000  -9.29175348010000E+0000  
-9.29411705320000E+0000  -9.29647949640000E+0000  -9.29884080680000E+0000  -9.30120098200000E+0000  -9.30356001950000E+0000  
-9.30591791640000E+0000  -9.30827467090000E+0000  -9.31063028000000E+0000  -9.31298474190000E+0000  -9.31533805420000E+0000  
-9.31769021500000E+0000  -9.32004122210000E+0000  -9.32239107350000E+0000  -9.32473976730000E+0000  -9.32708730190000E+0000  
-9.32943367520000E+0000  -9.33177888590000E+0000  -9.33412293200000E+0000  -9.33646581250000E+0000  -9.33880752530000E+0000  
-9.34114806970000E+0000  -9.34348744380000E+0000  -9.34582564660000E+0000  -9.34816267700000E+0000  -9.35049853400000E+0000  
-9.35283321630000E+0000  -9.35516672320000E+0000  -9.35749905360000E+0000  -9.35983020710000E+0000  -9.36216018270000E+0000  
-9.36448897970000E+0000  -9.36681659750000E+0000  -9.36914303590000E+0000  -9.37146829430000E+0000  -9.37379237230000E+0000  
-9.37611526960000E+0000  -9.37843698620000E+0000  -9.38075752180000E+0000  -9.38307687620000E+0000  -9.38539504980000E+0000  
-9.38771204240000E+0000  -9.39002785420000E+0000  -9.39234248560000E+0000  -9.39465593640000E+0000  -9.39696820720000E+0000  
-9.39927929810000E+0000  -9.40158920900000E+0000  -9.40389794050000E+0000  -9.40620549250000E+0000  -9.40851186530000E+0000  
-9.41081705910000E+0000  -9.41312107410000E+0000  -9.41542391030000E+0000  -9.41772556830000E+0000  -9.42002604790000E+0000  
-9.42232534940000E+0000  -9.42462347320000E+0000  -9.42692041910000E+0000  -9.42921618740000E+0000  -9.43151077860000E+0000  
-9.43380419250000E+0000  -9.43609642950000E+0000  -9.43838748950000E+0000  -9.44067737280000E+0000  -9.44296607990000E+0000  
-9.44525361060000E+0000  -9.44753996520000E+0000  -9.44982514360000E+0000  -9.45210914660000E+0000  -9.45439197380000E+0000  
-9.45667362560000E+0000  -9.45895410210000E+0000  -9.46123340350000E+0000  -9.46351152980000E+0000  -9.46578848130000E+0000  
-9.46806425840000E+0000  -9.47033886120000E+0000  -9.47261228940000E+0000  -9.47488454350000E+0000  -9.47715562370000E+0000  
-9.47942553010000E+0000  -9.48169426290000E+0000  -9.48396182180000E+0000  -9.48622820770000E+0000  -9.48849342020000E+0000  
-9.49075745990000E+0000  -9.49302032670000E+0000  -9.49528202050000E+0000  -9.49754254180000E+0000  -9.49980189050000E+0000  
-9.50206006710000E+0000  -9.50431707160000E+0000  -9.50657290380000E+0000  -9.50882756430000E+0000  -9.51108105310000E+0000  
-9.51333337020000E+0000  -9.51558451600000E+0000  -9.51783449040000E+0000  -9.52008329360000E+0000  -9.52233092580000E+0000  
-9.52457738700000E+0000  -9.52682267760000E+0000  -9.52906679750000E+0000  -9.53130974690000E+0000  -9.53355152590000E+0000  
-9.53579213460000E+0000  -9.53803157320000E+0000  -9.54026984200000E+0000  -9.54250694080000E+0000  -9.54474287010000E+0000  
-9.54697762960000E+0000  -9.54921121950000E+0000  -9.55144364040000E+0000  -9.55367489180000E+0000  -9.55590497420000E+0000  
-9.55813388740000E+0000  -9.56036163210000E+0000  -9.56258820800000E+0000  -9.56481361500000E+0000  -9.56703785370000E+0000  
-9.56926092390000E+0000  -9.57148282590000E+0000  -9.57370355960000E+0000  -9.57592312540000E+0000  -9.57814152320000E+0000  
-9.58035875320000E+0000  -9.58257481530000E+0000  -9.58478971020000E+0000  -9.58700343720000E+0000  -9.58921599680000E+0000  
-9.59142738930000E+0000  -9.59363761460000E+0000  -9.59584667260000E+0000  -9.59805456390000E+0000  -9.60026128810000E+0000  
-9.60246684560000E+0000  -9.60467123630000E+0000  -9.60687446050000E+0000  -9.60907651830000E+0000  -9.61127740950000E+0000  
-9.61347713460000E+0000  -9.61567569340000E+0000  -9.61787308610000E+0000  -9.62006931270000E+0000  -9.62226437350000E+0000  
-9.62445826850000E+0000  -9.62665099770000E+0000  -9.62884256110000E+0000  -9.63103295920000E+0000  -9.63322219160000E+0000  
-9.63541025870000E+0000  -9.63759716050000E+0000  -9.63978289710000E+0000  -9.64196746840000E+0000  -9.64415087470000E+0000  
-9.64633311600000E+0000  -9.64851419250000E+0000  -9.65069410410000E+0000  -9.65287285110000E+0000  -9.65505043320000E+0000  
-9.65722685070000E+0000  -9.65940210380000E+0000  -9.66157619250000E+0000  -9.66374911670000E+0000  -9.66592087670000E+0000  
-9.66809147230000E+0000  -9.67026090410000E+0000  -9.67242917150000E+0000  -9.67459627490000E+0000  -9.67676221440000E+0000  
-9.67892699000000E+0000  -9.68109060180000E+0000  -9.68325304980000E+0000  -9.68541433420000E+0000  -9.68757445480000E+0000  
-9.68973341200000E+0000  -9.69189120560000E+0000  -9.69404783570000E+0000  -9.69620330260000E+0000  -9.69835760610000E+0000  
-9.70051074630000E+0000  -9.70266272320000E+0000  -9.70481353690000E+0000  -9.70696318760000E+0000  -9.70911167520000E+0000  
-9.71125899990000E+0000  -9.71340516140000E+0000  -9.71555016020000E+0000  -9.71769399610000E+0000  -9.71983666920000E+0000  
-9.72197817960000E+0000  -9.72411852720000E+0000  -9.72625771210000E+0000  -9.72839573450000E+0000  -9.73053259410000E+0000  
-9.73266829130000E+0000  -9.73480282600000E+0000  -9.73693619830000E+0000  -9.73906840810000E+0000  -9.74119945560000E+0000  
-9.74332934080000E+0000  -9.74545806360000E+0000  -9.74758562430000E+0000  -9.74971202260000E+0000  -9.75183725880000E+0000  
-9.75396133280000E+0000  -9.75608424470000E+0000  -9.75820599440000E+0000  -9.76032658210000E+0000  -9.76244600780000E+0000  
-9.76456427160000E+0000  -9.76668137330000E+0000  -9.76879731300000E+0000  -9.77091209110000E+0000  -9.77302570690000E+0000  
-9.77513816120000E+0000  -9.77724945320000E+0000  -9.77935958390000E+0000  -9.78146855250000E+0000  -9.78357635920000E+0000  
-9.78568300440000E+0000  -9.78778848770000E+0000  -9.78989280940000E+0000  -9.79199596920000E+0000  -9.79409796750000E+0000  
-9.79619880410000E+0000  -9.79829847910000E+0000  -9.80039699230000E+0000  -9.80249434400000E+0000  -9.80459053410000E+0000  
-9.80668556240000E+0000  -9.80877942950000E+0000  -9.81087213450000E+0000  -9.81296367820000E+0000  -9.81505406030000E+0000  
-9.81714328100000E+0000  -9.81923133990000E+0000  -9.82131823730000E+0000  -9.82340397320000E+0000  -9.82548854750000E+0000  
-9.82757196050000E+0000  -9.82965421160000E+0000  -9.83173530130000E+0000  -9.83381522960000E+0000  -9.83589399620000E+0000  
-9.83797160140000E+0000  -9.84004804480000E+0000  -9.84212332700000E+0000  -9.84419744740000E+0000  -9.84627040640000E+0000  
-9.84834220380000E+0000  -9.85041283950000E+0000  -9.85248231370000E+0000  -9.85455062640000E+0000  -9.85661777730000E+0000  
-9.85868376680000E+0000  -9.86074859460000E+0000  -9.86281226080000E+0000  -9.86487476550000E+0000  -9.86693610830000E+0000  
-9.86899628950000E+0000  -9.87105530900000E+0000  -9.87311316670000E+0000  -9.87516986300000E+0000  -9.87722539740000E+0000  
-9.87927976970000E+0000  -9.88133298070000E+0000  -9.88338502980000E+0000  -9.88543591690000E+0000  -9.88748564230000E+0000  
-9.88953420580000E+0000  -9.89158160750000E+0000  -9.89362784710000E+0000  -9.89567292510000E+0000  -9.89771684070000E+0000  
-9.89975959450000E+0000  -9.90180118640000E+0000  -9.90384161610000E+0000  -9.90588088360000E+0000  -9.90791898930000E+0000  
-9.90995593260000E+0000  -9.91199171380000E+0000  -9.91402633290000E+0000  -9.91605978960000E+0000  -9.91809208420000E+0000  
-9.92012321630000E+0000  -9.92215318610000E+0000  -9.92418199370000E+0000  -9.92620963860000E+0000  -9.92823612130000E+0000  
-9.93026144130000E+0000  -9.93228559870000E+0000  -9.93430859370000E+0000  -9.93633042600000E+0000  -9.93835109560000E+0000  
-9.94037060260000E+0000  -9.94238894660000E+0000  -9.94440612810000E+0000  -9.94642214650000E+0000  -9.94843700230000E+0000  
-9.95045069490000E+0000  -9.95246322450000E+0000  -9.95447459110000E+0000  -9.95648479450000E+0000  -9.95849383510000E+0000  
-9.96050171210000E+0000  -9.96250842600000E+0000  -9.96451397670000E+0000  -9.96651836380000E+0000  -9.96852158760000E+0000  
-9.97052364800000E+0000  -9.97252454480000E+0000  -9.97452427800000E+0000  -9.97652284760000E+0000  -9.97852025350000E+0000  
-9.98051649550000E+0000  -9.98251157390000E+0000  -9.98450548820000E+0000  -9.98649823880000E+0000  -9.98848982510000E+0000  
-9.99048024740000E+0000  -9.99246950580000E+0000  -9.99445759980000E+0000  -9.99644452960000E+0000  -9.99843029480000E+0000  
-1.00004148957000E+0001  -1.00023983322000E+0001  -1.00043806042000E+0001  -1.00063617115000E+0001  -1.00083416543000E+0001  
-1.00103204319000E+0001  -1.00122980450000E+0001  -1.00142744931000E+0001  -1.00162497762000E+0001  -1.00182238943000E+0001  
-1.00201968472000E+0001  -1.00221686350000E+0001  -1.00241392575000E+0001  -1.00261087145000E+0001  -1.00280770061000E+0001  
-1.00300441321000E+0001  -1.00320100927000E+0001  -1.00339748874000E+0001  -1.00359385164000E+0001  -1.00379009795000E+0001  
-1.00398622767000E+0001  -1.00418224079000E+0001  -1.00437813729000E+0001  -1.00457391719000E+0001  -1.00476958043000E+0001  
-1.00496512706000E+0001  -1.00516055703000E+0001  -1.00535587036000E+0001  -1.00555106701000E+0001  -1.00574614701000E+0001  
-1.00594111030000E+0001  -1.00613595690000E+0001  -1.00633068681000E+0001  -1.00652530002000E+0001  -1.00671979649000E+0001  
-1.00691417624000E+0001  -1.00710843926000E+0001  -1.00730258553000E+0001  -1.00749661503000E+0001  -1.00769052777000E+0001  
-1.00788432371000E+0001  -1.00807800289000E+0001  -1.00827156526000E+0001  -1.00846501082000E+0001  -1.00865833958000E+0001  
-1.00885155150000E+0001  -1.00904464656000E+0001  -1.00923762479000E+0001  -1.00943048617000E+0001  -1.00962323065000E+0001  
-1.00981585827000E+0001  -1.01000836900000E+0001  -1.01020076283000E+0001  -1.01039303973000E+0001  -1.01058519971000E+0001  
-1.01077724275000E+0001  -1.01096916886000E+0001  -1.01116097800000E+0001  -1.01135267017000E+0001  -1.01154424536000E+0001  
-1.01173570356000E+0001  -1.01192704475000E+0001  -1.01211826893000E+0001  -1.01230937608000E+0001  -1.01250036619000E+0001  
-1.01269123926000E+0001  -1.01288199526000E+0001  -1.01307263417000E+0001  -1.01326315602000E+0001  -1.01345356076000E+0001  
-1.01364384839000E+0001  -1.01383401889000E+0001  -1.01402407227000E+0001  -1.01421400848000E+0001  -1.01440382755000E+0001  
-1.01459352944000E+0001  -1.01478311415000E+0001  -1.01497258166000E+0001  -1.01516193196000E+0001  -1.01535116502000E+0001  
-1.01554028085000E+0001  -1.01572927944000E+0001  -1.01591816077000E+0001  -1.01610692482000E+0001  -1.01629557158000E+0001  
-1.01648410104000E+0001  -1.01667251318000E+0001  -1.01686080799000E+0001  -1.01704898546000E+0001  -1.01723704557000E+0001  
-1.01742498833000E+0001  -1.01761281369000E+0001  -1.01780052164000E+0001  -1.01798811221000E+0001  -1.01817558532000E+0001  
-1.01836294101000E+0001  -1.01855017924000E+0001  -1.01873730001000E+0001  -1.01892430332000E+0001  -1.01911118910000E+0001  
-1.01929795739000E+0001  -1.01948460813000E+0001  -1.01967114137000E+0001  -1.01985755702000E+0001  -1.02004385512000E+0001  
-1.02023003564000E+0001  -1.02041609855000E+0001  -1.02060204385000E+0001  -1.02078787153000E+0001  -1.02097358156000E+0001  
-1.02115917395000E+0001  -1.02134464865000E+0001  -1.02153000567000E+0001  -1.02171524499000E+0001  -1.02190036659000E+0001  
-1.02208537045000E+0001  -1.02227025657000E+0001  -1.02245502491000E+0001  -1.02263967548000E+0001  -1.02282420825000E+0001  
-1.02300862320000E+0001  -1.02319292034000E+0001  -1.02337709963000E+0001  -1.02356116106000E+0001  -1.02374510460000E+0001  
-1.02392893026000E+0001  -1.02411263803000E+0001  -1.02429622785000E+0001  -1.02447969974000E+0001  -1.02466305369000E+0001  
-1.02484628962000E+0001  -1.02502940760000E+0001  -1.02521240756000E+0001  -1.02539528949000E+0001  -1.02557805337000E+0001  
-1.02576069923000E+0001  -1.02594322699000E+0001  -1.02612563665000E+0001  -1.02630792823000E+0001  -1.02649010166000E+0001  
-1.02667215697000E+0001  -1.02685409412000E+0001  -1.02703591307000E+0001  -1.02721761385000E+0001  -1.02739919640000E+0001  
-1.02758066074000E+0001  -1.02776200681000E+0001  -1.02794323463000E+0001  -1.02812434418000E+0001  -1.02830533540000E+0001  
-1.02848620833000E+0001  -1.02866696291000E+0001  -1.02884759914000E+0001  -1.02902811700000E+0001  -1.02920851646000E+0001  
-1.02938879752000E+0001  -1.02956896016000E+0001  -1.02974900434000E+0001  -1.02992893008000E+0001  -1.03010873733000E+0001  
-1.03028842608000E+0001  -1.03046799629000E+0001  -1.03064744799000E+0001  -1.03082678112000E+0001  -1.03100599566000E+0001  
-1.03118509165000E+0001  -1.03136406900000E+0001  -1.03154292772000E+0001  -1.03172166780000E+0001  -1.03190028919000E+0001  
-1.03207879189000E+0001  -1.03225717591000E+0001  -1.03243544117000E+0001  -1.03261358771000E+0001  -1.03279161548000E+0001  
-1.03296952444000E+0001  -1.03314731463000E+0001  -1.03332498596000E+0001  -1.03350253847000E+0001  -1.03367997211000E+0001  
-1.03385728686000E+0001  -1.03403448270000E+0001  -1.03421155962000E+0001  -1.03438851761000E+0001  -1.03456535662000E+0001  
-1.03474207664000E+0001  -1.03491867766000E+0001  -1.03509515965000E+0001  -1.03527152259000E+0001  -1.03544776650000E+0001  
-1.03562389129000E+0001  -1.03579989698000E+0001  -1.03597578354000E+0001  -1.03615155094000E+0001  -1.03632719919000E+0001  
-1.03650272823000E+0001  -1.03667813807000E+0001  -1.03685342866000E+0001  -1.03702860003000E+0001  -1.03720365210000E+0001  
-1.03737858488000E+0001  -1.03755339834000E+0001  -1.03772809246000E+0001  -1.03790266722000E+0001  -1.03807712260000E+0001  
-1.03825145858000E+0001  -1.03842567514000E+0001  -1.03859977225000E+0001  -1.03877374988000E+0001  -1.03894760804000E+0001  
-1.03912134667000E+0001  -1.03929496577000E+0001  -1.03946846531000E+0001  -1.03964184529000E+0001  -1.03981510566000E+0001  
-1.03998824640000E+0001  -1.04016126750000E+0001  -1.04033416896000E+0001  -1.04050695067000E+0001  -1.04067961272000E+0001  
-1.04085215502000E+0001  -1.04102457758000E+0001  -1.04119688034000E+0001  -1.04136906331000E+0001  -1.04154112645000E+0001  
-1.04171306974000E+0001  -1.04188489315000E+0001  -1.04205659669000E+0001  -1.04222818031000E+0001  -1.04239964398000E+0001  
-1.04257098769000E+0001  -1.04274221142000E+0001  -1.04291331514000E+0001  -1.04308429882000E+0001  -1.04325516247000E+0001  
-1.04342590601000E+0001  -1.04359652944000E+0001  -1.04376703277000E+0001  -1.04393741595000E+0001  -1.04410767896000E+0001  
-1.04427782174000E+0001  -1.04444784433000E+0001  -1.04461774667000E+0001  -1.04478752874000E+0001  -1.04495719051000E+0001  
-1.04512673195000E+0001  -1.04529615308000E+0001  -1.04546545384000E+0001  -1.04563463419000E+0001  -1.04580369412000E+0001  
-1.04597263364000E+0001  -1.04614145270000E+0001  -1.04631015126000E+0001  -1.04647872930000E+0001  -1.04664718680000E+0001  
-1.04681552374000E+0001  -1.04698374012000E+0001  -1.04715183585000E+0001  -1.04731981098000E+0001  -1.04748766543000E+0001  
-1.04765539920000E+0001  -1.04782301225000E+0001  -1.04799050458000E+0001  -1.04815787614000E+0001  -1.04832512692000E+0001  
-1.04849225686000E+0001  -1.04865926600000E+0001  -1.04882615426000E+0001  -1.04899292163000E+0001  -1.04915956809000E+0001  
-1.04932609362000E+0001  -1.04949249817000E+0001  -1.04965878174000E+0001  -1.04982494427000E+0001  -1.04999098578000E+0001  
-1.05015690621000E+0001  -1.05032270556000E+0001  -1.05048838377000E+0001  -1.05065394085000E+0001  -1.05081937674000E+0001  
-1.05098469145000E+0001  -1.05114988492000E+0001  -1.05131495716000E+0001  -1.05147990809000E+0001  -1.05164473773000E+0001  
-1.05180944602000E+0001  -1.05197403298000E+0001  -1.05213849855000E+0001  -1.05230284270000E+0001  -1.05246706542000E+0001  
-1.05263116667000E+0001  -1.05279514643000E+0001  -1.05295900467000E+0001  -1.05312274134000E+0001  -1.05328635646000E+0001  
-1.05344984998000E+0001  -1.05361322188000E+0001  -1.05377647210000E+0001  -1.05393960066000E+0001  -1.05410260750000E+0001  
-1.05426549259000E+0001  -1.05442825594000E+0001  -1.05459089747000E+0001  -1.05475341721000E+0001  -1.05491581508000E+0001  
-1.05507809109000E+0001  -1.05524024519000E+0001  -1.05540227735000E+0001  -1.05556418756000E+0001  -1.05572597577000E+0001  
-1.05588764198000E+0001  -1.05604918615000E+0001  -1.05621060824000E+0001  -1.05637190822000E+0001  -1.05653308609000E+0001  
-1.05669414180000E+0001  -1.05685507531000E+0001  -1.05701588662000E+0001  -1.05717657569000E+0001  -1.05733714248000E+0001  
-1.05749758698000E+0001  -1.05765790914000E+0001  -1.05781810895000E+0001  -1.05797818638000E+0001  -1.05813814138000E+0001  
-1.05829797395000E+0001  -1.05845768404000E+0001  -1.05861727162000E+0001  -1.05877673668000E+0001  -1.05893607918000E+0001  
-1.05909529909000E+0001  -1.05925439637000E+0001  -1.05941337102000E+0001  -1.05957222297000E+0001  -1.05973095223000E+0001  
-1.05988955876000E+0001  -1.06004804250000E+0001  -1.06020640347000E+0001  -1.06036464160000E+0001  -1.06052275687000E+0001  
-1.06068074926000E+0001  -1.06083861875000E+0001  -1.06099636528000E+0001  -1.06115398883000E+0001  -1.06131148938000E+0001  
-1.06146886689000E+0001  -1.06162612133000E+0001  -1.06178325269000E+0001  -1.06194026091000E+0001  -1.06209714598000E+0001  
-1.06225390788000E+0001  -1.06241054654000E+0001  -1.06256706196000E+0001  -1.06272345409000E+0001  -1.06287972293000E+0001  
-1.06303586841000E+0001  -1.06319189053000E+0001  -1.06334778924000E+0001  -1.06350356453000E+0001  -1.06365921634000E+0001  
-1.06381474466000E+0001  -1.06397014948000E+0001  -1.06412543072000E+0001  -1.06428058837000E+0001  -1.06443562240000E+0001  
-1.06459053279000E+0001  -1.06474531948000E+0001  -1.06489998248000E+0001  -1.06505452171000E+0001  -1.06520893721000E+0001  
-1.06536322885000E+0001  -1.06551739668000E+0001  -1.06567144063000E+0001  -1.06582536067000E+0001  -1.06597915679000E+0001  
-1.06613282892000E+0001  -1.06628637708000E+0001  -1.06643980119000E+0001  -1.06659310126000E+0001  -1.06674627720000E+0001  
-1.06689932904000E+0001  -1.06705225671000E+0001  -1.06720506019000E+0001  -1.06735773945000E+0001  -1.06751029446000E+0001  
-1.06766272515000E+0001  -1.06781503157000E+0001  -1.06796721359000E+0001  -1.06811927124000E+0001  -1.06827120448000E+0001  
-1.06842301326000E+0001  -1.06857469756000E+0001  -1.06872625734000E+0001  -1.06887769257000E+0001  -1.06902900322000E+0001  
-1.06918018925000E+0001  -1.06933125064000E+0001  -1.06948218733000E+0001  -1.06963299932000E+0001  -1.06978368655000E+0001  
-1.06993424900000E+0001  -1.07008468663000E+0001  -1.07023499944000E+0001  -1.07038518736000E+0001  -1.07053525032000E+0001  
-1.07068518838000E+0001  -1.07083500144000E+0001  -1.07098468947000E+0001  -1.07113425248000E+0001  -1.07128369039000E+0001  
-1.07143300318000E+0001  -1.07158219082000E+0001  -1.07173125326000E+0001  -1.07188019051000E+0001  -1.07202900249000E+0001  
-1.07217768918000E+0001  -1.07232625054000E+0001  -1.07247468656000E+0001  -1.07262299719000E+0001  -1.07277118239000E+0001  
-1.07291924213000E+0001  -1.07306717637000E+0001  -1.07321498508000E+0001  -1.07336266823000E+0001  -1.07351022578000E+0001  
-1.07365765772000E+0001  -1.07380496399000E+0001  -1.07395214453000E+0001  -1.07409919935000E+0001  -1.07424612840000E+0001  
-1.07439293165000E+0001  -1.07453960905000E+0001  -1.07468616056000E+0001  -1.07483258618000E+0001  -1.07497888585000E+0001  
-1.07512505953000E+0001  -1.07527110720000E+0001  -1.07541702881000E+0001  -1.07556282433000E+0001  -1.07570849374000E+0001  
-1.07585403698000E+0001  -1.07599945403000E+0001  -1.07614474486000E+0001  -1.07628990941000E+0001  -1.07643494767000E+0001  
-1.07657985957000E+0001  -1.07672464512000E+0001  -1.07686930425000E+0001  -1.07701383695000E+0001  -1.07715824315000E+0001  
-1.07730252284000E+0001  -1.07744667598000E+0001  -1.07759070252000E+0001  -1.07773460245000E+0001  -1.07787837569000E+0001  
-1.07802202228000E+0001  -1.07816554210000E+0001  -1.07830893517000E+0001  -1.07845220141000E+0001  -1.07859534082000E+0001  
-1.07873835335000E+0001  -1.07888123896000E+0001  -1.07902399763000E+0001  -1.07916662929000E+0001  -1.07930913392000E+0001  
-1.07945151151000E+0001  -1.07959376198000E+0001  -1.07973588532000E+0001  -1.07987788148000E+0001  -1.08001975044000E+0001  
-1.08016149213000E+0001  -1.08030310655000E+0001  -1.08044459363000E+0001  -1.08058595338000E+0001  -1.08072718572000E+0001  
-1.08086829061000E+0001  -1.08100926803000E+0001  -1.08115011794000E+0001  -1.08129084032000E+0001  -1.08143143511000E+0001  
-1.08157190226000E+0001  -1.08171224174000E+0001  -1.08185245357000E+0001  -1.08199253762000E+0001  -1.08213249391000E+0001  
-1.08227232239000E+0001  -1.08241202300000E+0001  -1.08255159576000E+0001  -1.08269104055000E+0001  -1.08283035742000E+0001  
-1.08296954626000E+0001  -1.08310860707000E+0001  -1.08324753978000E+0001  -1.08338634441000E+0001  -1.08352502085000E+0001  
-1.08366356911000E+0001  -1.08380198913000E+0001  -1.08394028089000E+0001  -1.08407844432000E+0001  -1.08421647943000E+0001  
-1.08435438614000E+0001  -1.08449216442000E+0001  -1.08462981424000E+0001  -1.08476733555000E+0001  -1.08490472833000E+0001  
-1.08504199251000E+0001  -1.08517912808000E+0001  -1.08531613500000E+0001  -1.08545301321000E+0001  -1.08558976269000E+0001  
-1.08572638337000E+0001  -1.08586287526000E+0001  -1.08599923828000E+0001  -1.08613547240000E+0001  -1.08627157762000E+0001  
-1.08640755383000E+0001  -1.08654340102000E+0001  -1.08667911918000E+0001  -1.08681470824000E+0001  -1.08695016818000E+0001  
-1.08708549893000E+0001  -1.08722070046000E+0001  -1.08735577277000E+0001  -1.08749071575000E+0001  -1.08762552943000E+0001  
-1.08776021372000E+0001  -1.08789476861000E+0001  -1.08802919404000E+0001  -1.08816348996000E+0001  -1.08829765640000E+0001  
-1.08843169322000E+0001  -1.08856560044000E+0001  -1.08869937801000E+0001  -1.08883302590000E+0001  -1.08896654402000E+0001  
-1.08909993240000E+0001  -1.08923319092000E+0001  -1.08936631963000E+0001  -1.08949931843000E+0001  -1.08963218729000E+0001  
-1.08976492617000E+0001  -1.08989753503000E+0001  -1.09003001384000E+0001  -1.09016236254000E+0001  -1.09029458108000E+0001  
-1.09042666948000E+0001  -1.09055862763000E+0001  -1.09069045553000E+0001  -1.09082215309000E+0001  -1.09095372033000E+0001  
-1.09108515717000E+0001  -1.09121646359000E+0001  -1.09134763953000E+0001  -1.09147868495000E+0001  -1.09160959984000E+0001  
-1.09174038412000E+0001  -1.09187103776000E+0001  -1.09200156073000E+0001  -1.09213195296000E+0001  -1.09226221444000E+0001  
-1.09239234512000E+0001  -1.09252234495000E+0001  -1.09265221389000E+0001  -1.09278195189000E+0001  -1.09291155893000E+0001  
-1.09304103494000E+0001  -1.09317037993000E+0001  -1.09329959379000E+0001  -1.09342867652000E+0001  -1.09355762807000E+0001  
-1.09368644837000E+0001  -1.09381513742000E+0001  -1.09394369517000E+0001  -1.09407212157000E+0001  -1.09420041656000E+0001  
-1.09432858011000E+0001  -1.09445661219000E+0001  -1.09458451273000E+0001  -1.09471228172000E+0001  -1.09483991909000E+0001  
-1.09496742484000E+0001  -1.09509479886000E+0001  -1.09522204115000E+0001  -1.09534915168000E+0001  -1.09547613036000E+0001  
-1.09560297720000E+0001  -1.09572969212000E+0001  -1.09585627509000E+0001  -1.09598272605000E+0001  -1.09610904498000E+0001  
-1.09623523183000E+0001  -1.09636128656000E+0001  -1.09648720911000E+0001  -1.09661299945000E+0001  -1.09673865756000E+0001  
-1.09686418334000E+0001  -1.09698957677000E+0001  -1.09711483785000E+0001  -1.09723996647000E+0001  -1.09736496264000E+0001  
-1.09748982628000E+0001  -1.09761455735000E+0001  -1.09773915583000E+0001  -1.09786362164000E+0001  -1.09798795478000E+0001  
-1.09811215515000E+0001  -1.09823622277000E+0001  -1.09836015755000E+0001  -1.09848395946000E+0001  -1.09860762846000E+0001  
-1.09873116449000E+0001  -1.09885456754000E+0001  -1.09897783752000E+0001  -1.09910097443000E+0001  -1.09922397818000E+0001  
-1.09934684876000E+0001  -1.09946958610000E+0001  -1.09959219021000E+0001  -1.09971466098000E+0001  -1.09983699839000E+0001  
-1.09995920241000E+0001  -1.10008127295000E+0001  -1.10020321002000E+0001  -1.10032501354000E+0001  -1.10044668348000E+0001  
-1.10056821978000E+0001  -1.10068962243000E+0001  -1.10081089137000E+0001  -1.10093202652000E+0001  -1.10105302786000E+0001  
-1.10117389536000E+0001  -1.10129462895000E+0001  -1.10141522860000E+0001  -1.10153569424000E+0001  -1.10165602585000E+0001  
-1.10177622340000E+0001  -1.10189628680000E+0001  -1.10201621605000E+0001  -1.10213601105000E+0001  -1.10225567181000E+0001  
-1.10237519826000E+0001  -1.10249459035000E+0001  -1.10261384802000E+0001  -1.10273297126000E+0001  -1.10285196002000E+0001  
-1.10297081420000E+0001  -1.10308953383000E+0001  -1.10320811880000E+0001  -1.10332656911000E+0001  -1.10344488470000E+0001  
-1.10356306552000E+0001  -1.10368111151000E+0001  -1.10379902264000E+0001  -1.10391679886000E+0001  -1.10403444013000E+0001  
-1.10415194639000E+0001  -1.10426931760000E+0001  -1.10438655373000E+0001  -1.10450365471000E+0001  -1.10462062051000E+0001  
-1.10473745104000E+0001  -1.10485414631000E+0001  -1.10497070625000E+0001  -1.10508713084000E+0001  -1.10520341997000E+0001  
-1.10531957364000E+0001  -1.10543559179000E+0001  -1.10555147440000E+0001  -1.10566722137000E+0001  -1.10578283270000E+0001  
-1.10589830831000E+0001  -1.10601364816000E+0001  -1.10612885223000E+0001  -1.10624392045000E+0001  -1.10635885277000E+0001  
-1.10647364914000E+0001  -1.10658830954000E+0001  -1.10670283389000E+0001  -1.10681722216000E+0001  -1.10693147428000E+0001  
-1.10704559025000E+0001  -1.10715956997000E+0001  -1.10727341344000E+0001  -1.10738712055000E+0001  -1.10750069130000E+0001  
-1.10761412563000E+0001  -1.10772742352000E+0001  -1.10784058486000E+0001  -1.10795360965000E+0001  -1.10806649782000E+0001  
-1.10817924935000E+0001  -1.10829186416000E+0001  -1.10840434221000E+0001  -1.10851668346000E+0001  -1.10862888786000E+0001  
-1.10874095537000E+0001  -1.10885288591000E+0001  -1.10896467946000E+0001  -1.10907633597000E+0001  -1.10918785537000E+0001  
-1.10929923763000E+0001  -1.10941048271000E+0001  -1.10952159054000E+0001  -1.10963256107000E+0001  -1.10974339426000E+0001  
-1.10985409009000E+0001  -1.10996464846000E+0001  -1.11007506936000E+0001  -1.11018535271000E+0001  -1.11029549849000E+0001  
-1.11040550663000E+0001  -1.11051537709000E+0001  -1.11062510982000E+0001  -1.11073470477000E+0001  -1.11084416189000E+0001  
-1.11095348113000E+0001  -1.11106266244000E+0001  -1.11117170577000E+0001  -1.11128061109000E+0001  -1.11138937831000E+0001  
-1.11149800743000E+0001  -1.11160649835000E+0001  -1.11171485106000E+0001  -1.11182306549000E+0001  -1.11193114158000E+0001  
-1.11203907931000E+0001  -1.11214687862000E+0001  -1.11225453945000E+0001  -1.11236206174000E+0001  -1.11246944550000E+0001  
-1.11257669059000E+0001  -1.11268379703000E+0001  -1.11279076472000E+0001  -1.11289759368000E+0001  -1.11300428378000E+0001  
-1.11311083501000E+0001  -1.11321724733000E+0001  -1.11332352066000E+0001  -1.11342965496000E+0001  -1.11353565019000E+0001  
-1.11364150630000E+0001  -1.11374722322000E+0001  -1.11385280093000E+0001  -1.11395823933000E+0001  -1.11406353841000E+0001  
-1.11416869814000E+0001  -1.11427371840000E+0001  -1.11437859920000E+0001  -1.11448334046000E+0001  -1.11458794216000E+0001  
-1.11469240419000E+0001  -1.11479672655000E+0001  -1.11490090919000E+0001  -1.11500495201000E+0001  -1.11510885501000E+0001  
-1.11521261812000E+0001  -1.11531624129000E+0001  -1.11541972445000E+0001  -1.11552306759000E+0001  -1.11562627063000E+0001  
-1.11572933352000E+0001  -1.11583225620000E+0001  -1.11593503863000E+0001  -1.11603768077000E+0001  -1.11614018256000E+0001  
-1.11624254394000E+0001  -1.11634476487000E+0001  -1.11644684529000E+0001  -1.11654878514000E+0001  -1.11665058440000E+0001  
-1.11675224298000E+0001  -1.11685376084000E+0001  -1.11695513796000E+0001  -1.11705637424000E+0001  -1.11715746965000E+0001  
-1.11725842415000E+0001  -1.11735923766000E+0001  -1.11745991014000E+0001  -1.11756044155000E+0001  -1.11766083183000E+0001  
-1.11776108093000E+0001  -1.11786118878000E+0001  -1.11796115535000E+0001  -1.11806098055000E+0001  -1.11816066441000E+0001  
-1.11826020678000E+0001  -1.11835960768000E+0001  -1.11845886701000E+0001  -1.11855798473000E+0001  -1.11865696081000E+0001  
-1.11875579518000E+0001  -1.11885448776000E+0001  -1.11895303856000E+0001  -1.11905144748000E+0001  -1.11914971447000E+0001  
-1.11924783949000E+0001  -1.11934582249000E+0001  -1.11944366339000E+0001  -1.11954136217000E+0001  -1.11963891878000E+0001  
-1.11973633313000E+0001  -1.11983360518000E+0001  -1.11993073490000E+0001  -1.12002772221000E+0001  -1.12012456706000E+0001  
-1.12022126942000E+0001  -1.12031782921000E+0001  -1.12041424640000E+0001  -1.12051052091000E+0001  -1.12060665271000E+0001  
-1.12070264172000E+0001  -1.12079848791000E+0001  -1.12089419121000E+0001  -1.12098975157000E+0001  -1.12108516896000E+0001  
-1.12118044331000E+0001  -1.12127557453000E+0001  -1.12137056263000E+0001  -1.12146540750000E+0001  -1.12156010913000E+0001  
-1.12165466745000E+0001  -1.12174908238000E+0001  -1.12184335391000E+0001  -1.12193748195000E+0001  -1.12203146645000E+0001  
-1.12212530739000E+0001  -1.12221900467000E+0001  -1.12231255828000E+0001  -1.12240596812000E+0001  -1.12249923415000E+0001  
-1.12259235634000E+0001  -1.12268533462000E+0001  -1.12277816893000E+0001  -1.12287085922000E+0001  -1.12296340542000E+0001  
-1.12305580751000E+0001  -1.12314806540000E+0001  -1.12324017906000E+0001  -1.12333214842000E+0001  -1.12342397344000E+0001  
-1.12351565402000E+0001  -1.12360719018000E+0001  -1.12369858181000E+0001  -1.12378982887000E+0001  -1.12388093130000E+0001  
-1.12397188906000E+0001  -1.12406270207000E+0001  -1.12415337029000E+0001  -1.12424389368000E+0001  -1.12433427216000E+0001  
-1.12442450567000E+0001  -1.12451459417000E+0001  -1.12460453761000E+0001  -1.12469433593000E+0001  -1.12478398906000E+0001  
-1.12487349695000E+0001  -1.12496285956000E+0001  -1.12505207682000E+0001  -1.12514114868000E+0001  -1.12523007507000E+0001  
-1.12531885595000E+0001  -1.12540749128000E+0001  -1.12549598096000E+0001  -1.12558432496000E+0001  -1.12567252323000E+0001  
-1.12576057570000E+0001  -1.12584848233000E+0001  -1.12593624304000E+0001  -1.12602385779000E+0001  -1.12611132653000E+0001  
-1.12619864918000E+0001  -1.12628582571000E+0001  -1.12637285605000E+0001  -1.12645974014000E+0001  -1.12654647794000E+0001  
-1.12663306938000E+0001  -1.12671951439000E+0001  -1.12680581294000E+0001  -1.12689196497000E+0001  -1.12697797041000E+0001  
-1.12706382920000E+0001  -1.12714954130000E+0001  -1.12723510665000E+0001  -1.12732052517000E+0001  -1.12740579685000E+0001  
-1.12749092160000E+0001  -1.12757589935000E+0001  -1.12766073006000E+0001  -1.12774541369000E+0001  -1.12782995016000E+0001  
-1.12791433941000E+0001  -1.12799858141000E+0001  -1.12808267607000E+0001  -1.12816662335000E+0001  -1.12825042320000E+0001  
-1.12833407554000E+0001  -1.12841758032000E+0001  -1.12850093749000E+0001  -1.12858414700000E+0001  -1.12866720880000E+0001  
-1.12875012279000E+0001  -1.12883288894000E+0001  -1.12891550718000E+0001  -1.12899797749000E+0001  -1.12908029978000E+0001  
-1.12916247398000E+0001  -1.12924450004000E+0001  -1.12932637793000E+0001  -1.12940810757000E+0001  -1.12948968890000E+0001  
-1.12957112186000E+0001  -1.12965240642000E+0001  -1.12973354250000E+0001  -1.12981453002000E+0001  -1.12989536894000E+0001  
-1.12997605923000E+0001  -1.13005660080000E+0001  -1.13013699359000E+0001  -1.13021723757000E+0001  -1.13029733265000E+0001  
-1.13037727878000E+0001  -1.13045707590000E+0001  -1.13053672397000E+0001  -1.13061622291000E+0001  -1.13069557268000E+0001  
-1.13077477321000E+0001  -1.13085382443000E+0001  -1.13093272630000E+0001  -1.13101147875000E+0001  -1.13109008174000E+0001  
-1.13116853519000E+0001  -1.13124683904000E+0001  -1.13132499324000E+0001  -1.13140299774000E+0001  -1.13148085247000E+0001  
-1.13155855737000E+0001  -1.13163611239000E+0001  -1.13171351744000E+0001  -1.13179077251000E+0001  -1.13186787749000E+0001  
-1.13194483236000E+0001  -1.13202163704000E+0001  -1.13209829148000E+0001  -1.13217479562000E+0001  -1.13225114940000E+0001  
-1.13232735276000E+0001  -1.13240340563000E+0001  -1.13247930797000E+0001  -1.13255505970000E+0001  -1.13263066077000E+0001  
-1.13270611112000E+0001  -1.13278141070000E+0001  -1.13285655945000E+0001  -1.13293155728000E+0001  -1.13300640416000E+0001  
-1.13308110002000E+0001  -1.13315564479000E+0001  -1.13323003844000E+0001  -1.13330428087000E+0001  -1.13337837205000E+0001  
-1.13345231193000E+0001  -1.13352610039000E+0001  -1.13359973743000E+0001  -1.13367322297000E+0001  -1.13374655694000E+0001  
-1.13381973932000E+0001  -1.13389276998000E+0001  -1.13396564892000E+0001  -1.13403837605000E+0001  -1.13411095133000E+0001  
-1.13418337468000E+0001  -1.13425564604000E+0001  -1.13432776535000E+0001  -1.13439973256000E+0001  -1.13447154762000E+0001  
-1.13454321045000E+0001  -1.13461472097000E+0001  -1.13468607915000E+0001  -1.13475728494000E+0001  -1.13482833822000E+0001  
-1.13489923900000E+0001  -1.13496998716000E+0001  -1.13504058269000E+0001  -1.13511102550000E+0001  -1.13518131554000E+0001  
-1.13525145275000E+0001  -1.13532143706000E+0001  -1.13539126840000E+0001  -1.13546094671000E+0001  -1.13553047195000E+0001  
-1.13559984402000E+0001  -1.13566906291000E+0001  -1.13573812853000E+0001  -1.13580704083000E+0001  -1.13587579973000E+0001  
-1.13594440518000E+0001  -1.13601285712000E+0001  -1.13608115548000E+0001  -1.13614930021000E+0001  -1.13621729123000E+0001  
-1.13628512851000E+0001  -1.13635281195000E+0001  -1.13642034151000E+0001  -1.13648771712000E+0001  -1.13655493872000E+0001  
-1.13662200628000E+0001  -1.13668891967000E+0001  -1.13675567889000E+0001  -1.13682228385000E+0001  -1.13688873447000E+0001  
-1.13695503073000E+0001  -1.13702117254000E+0001  -1.13708715985000E+0001  -1.13715299258000E+0001  -1.13721867069000E+0001  
-1.13728419411000E+0001  -1.13734956277000E+0001  -1.13741477661000E+0001  -1.13747983557000E+0001  -1.13754473958000E+0001  
-1.13760948860000E+0001  -1.13767408254000E+0001  -1.13773852136000E+0001  -1.13780280499000E+0001  -1.13786693334000E+0001  
-1.13793090638000E+0001  -1.13799472405000E+0001  -1.13805838628000E+0001  -1.13812189299000E+0001  -1.13818524412000E+0001  
-1.13824843962000E+0001  -1.13831147943000E+0001  -1.13837436348000E+0001  -1.13843709169000E+0001  -1.13849966402000E+0001  
-1.13856208041000E+0001  -1.13862434077000E+0001  -1.13868644507000E+0001  -1.13874839322000E+0001  -1.13881018518000E+0001  
-1.13887182086000E+0001  -1.13893330020000E+0001  -1.13899462316000E+0001  -1.13905578966000E+0001  -1.13911679963000E+0001  
-1.13917765303000E+0001  -1.13923834977000E+0001  -1.13929888980000E+0001  -1.13935927305000E+0001  -1.13941949945000E+0001  
-1.13947956897000E+0001  -1.13953948151000E+0001  -1.13959923702000E+0001  -1.13965883542000E+0001  -1.13971827668000E+0001  
-1.13977756070000E+0001  -1.13983668745000E+0001  -1.13989565682000E+0001  -1.13995446881000E+0001  -1.14001312329000E+0001  
-1.14007162022000E+0001  -1.14012995957000E+0001  -1.14018814122000E+0001  -1.14024616514000E+0001  -1.14030403125000E+0001  
-1.14036173950000E+0001  -1.14041928982000E+0001  -1.14047668214000E+0001  -1.14053391639000E+0001  -1.14059099254000E+0001  
-1.14064791048000E+0001  -1.14070467017000E+0001  -1.14076127153000E+0001  -1.14081771452000E+0001  -1.14087399905000E+0001  
-1.14093012506000E+0001  -1.14098609251000E+0001  -1.14104190130000E+0001  -1.14109755139000E+0001  -1.14115304269000E+0001  
-1.14120837516000E+0001  -1.14126354873000E+0001  -1.14131856333000E+0001  -1.14137341888000E+0001  -1.14142811534000E+0001  
-1.14148265263000E+0001  -1.14153703070000E+0001  -1.14159124947000E+0001  -1.14164530887000E+0001  -1.14169920884000E+0001  
-1.14175294933000E+0001  -1.14180653025000E+0001  -1.14185995155000E+0001  -1.14191321317000E+0001  -1.14196631502000E+0001  
-1.14201925705000E+0001  -1.14207203920000E+0001  -1.14212466139000E+0001  -1.14217712357000E+0001  -1.14222942566000E+0001  
-1.14228156760000E+0001  -1.14233354933000E+0001  -1.14238537077000E+0001  -1.14243703186000E+0001  -1.14248853255000E+0001  
-1.14253987273000E+0001  -1.14259105240000E+0001  -1.14264207143000E+0001  -1.14269292980000E+0001  -1.14274362742000E+0001  
-1.14279416423000E+0001  -1.14284454015000E+0001  -1.14289475513000E+0001  -1.14294480910000E+0001  -1.14299470200000E+0001  
-1.14304443374000E+0001  -1.14309400429000E+0001  -1.14314341355000E+0001  -1.14319266148000E+0001  -1.14324174799000E+0001  
-1.14329067302000E+0001  -1.14333943651000E+0001  -1.14338803839000E+0001  -1.14343647859000E+0001  -1.14348475705000E+0001  
-1.14353287370000E+0001  -1.14358082847000E+0001  -1.14362862130000E+0001  -1.14367625212000E+0001  -1.14372372085000E+0001  
-1.14377102744000E+0001  -1.14381817181000E+0001  -1.14386515391000E+0001  -1.14391197366000E+0001  -1.14395863100000E+0001  
-1.14400512583000E+0001  -1.14405145814000E+0001  -1.14409762783000E+0001  -1.14414363482000E+0001  -1.14418947908000E+0001  
-1.14423516050000E+0001  -1.14428067904000E+0001  -1.14432603463000E+0001  -1.14437122720000E+0001  -1.14441625669000E+0001  
-1.14446112300000E+0001  -1.14450582608000E+0001  -1.14455036589000E+0001  -1.14459474234000E+0001  -1.14463895535000E+0001  
-1.14468300488000E+0001  -1.14472689080000E+0001  -1.14477061313000E+0001  -1.14481417175000E+0001  -1.14485756661000E+0001  
-1.14490079762000E+0001  -1.14494386473000E+0001  -1.14498676786000E+0001  -1.14502950696000E+0001  -1.14507208193000E+0001  
-1.14511449276000E+0001  -1.14515673931000E+0001  -1.14519882156000E+0001  -1.14524073943000E+0001  -1.14528249284000E+0001  
-1.14532408174000E+0001  -1.14536550605000E+0001  -1.14540676569000E+0001  -1.14544786061000E+0001  -1.14548879076000E+0001  
-1.14552955602000E+0001  -1.14557015636000E+0001  -1.14561059169000E+0001  -1.14565086196000E+0001  -1.14569096709000E+0001  
-1.14573090702000E+0001  -1.14577068166000E+0001  -1.14581029098000E+0001  -1.14584973486000E+0001  -1.14588901328000E+0001  
-1.14592812614000E+0001  -1.14596707337000E+0001  -1.14600585492000E+0001  -1.14604447070000E+0001  -1.14608292067000E+0001  
-1.14612120472000E+0001  -1.14615932282000E+0001  -1.14619727487000E+0001  -1.14623506082000E+0001  -1.14627268060000E+0001  
-1.14631013415000E+0001  -1.14634742135000E+0001  -1.14638454218000E+0001  -1.14642149658000E+0001  -1.14645828442000E+0001  
-1.14649490570000E+0001  -1.14653136030000E+0001  -1.14656764818000E+0001  -1.14660376925000E+0001  -1.14663972345000E+0001  
-1.14667551072000E+0001  -1.14671113095000E+0001  -1.14674658413000E+0001  -1.14678187015000E+0001  -1.14681698893000E+0001  
-1.14685194045000E+0001  -1.14688672458000E+0001  -1.14692134130000E+0001  -1.14695579050000E+0001  -1.14699007214000E+0001  
-1.14702418614000E+0001  -1.14705813242000E+0001  -1.14709191093000E+0001  -1.14712552157000E+0001  -1.14715896430000E+0001  
-1.14719223904000E+0001  -1.14722534570000E+0001  -1.14725828423000E+0001  -1.14729105455000E+0001  -1.14732365660000E+0001  
-1.14735609032000E+0001  -1.14738835561000E+0001  -1.14742045240000E+0001  -1.14745238064000E+0001  -1.14748414027000E+0001  
-1.14751573117000E+0001  -1.14754715330000E+0001  -1.14757840660000E+0001  -1.14760949099000E+0001  -1.14764040639000E+0001  
-1.14767115274000E+0001  -1.14770172997000E+0001  -1.14773213798000E+0001  -1.14776237673000E+0001  -1.14779244617000E+0001  
-1.14782234616000E+0001  -1.14785207667000E+0001  -1.14788163765000E+0001  -1.14791102899000E+0001  -1.14794025067000E+0001  
-1.14796930254000E+0001  -1.14799818457000E+0001  -1.14802689670000E+0001  -1.14805543886000E+0001  -1.14808381096000E+0001  
-1.14811201293000E+0001  -1.14814004472000E+0001  -1.14816790621000E+0001  -1.14819559739000E+0001  -1.14822311815000E+0001  
-1.14825046842000E+0001  -1.14827764815000E+0001  -1.14830465723000E+0001  -1.14833149563000E+0001  -1.14835816325000E+0001  
-1.14838466003000E+0001  -1.14841098589000E+0001  -1.14843714077000E+0001  -1.14846312458000E+0001  -1.14848893727000E+0001  
-1.14851457876000E+0001  -1.14854004897000E+0001  -1.14856534784000E+0001  -1.14859047527000E+0001  -1.14861543121000E+0001  
-1.14864021560000E+0001  -1.14866482835000E+0001  -1.14868926938000E+0001  -1.14871353864000E+0001  -1.14873763604000E+0001  
-1.14876156151000E+0001  -1.14878531498000E+0001  -1.14880889638000E+0001  -1.14883230565000E+0001  -1.14885554269000E+0001  
-1.14887860744000E+0001  -1.14890149981000E+0001  -1.14892421976000E+0001  -1.14894676720000E+0001  -1.14896914207000E+0001  
-1.14899134426000E+0001  -1.14901337375000E+0001  -1.14903523041000E+0001  -1.14905691421000E+0001  -1.14907842505000E+0001  
-1.14909976290000E+0001  -1.14912092762000E+0001  -1.14914191920000E+0001  -1.14916273754000E+0001  -1.14918338256000E+0001  
-1.14920385420000E+0001  -1.14922415236000E+0001  -1.14924427701000E+0001  -1.14926422805000E+0001  -1.14928400541000E+0001  
-1.14930360901000E+0001  -1.14932303878000E+0001  -1.14934229466000E+0001  -1.14936137657000E+0001  -1.14938028441000E+0001  
-1.14939901815000E+0001  -1.14941757769000E+0001  -1.14943596294000E+0001  -1.14945417388000E+0001  -1.14947221038000E+0001  
-1.14949007240000E+0001  -1.14950775985000E+0001  -1.14952527266000E+0001  -1.14954261077000E+0001  -1.14955977408000E+0001  
-1.14957676254000E+0001  -1.14959357607000E+0001  -1.14961021459000E+0001  -1.14962667802000E+0001  -1.14964296627000E+0001  
-1.14965907932000E+0001  -1.14967501706000E+0001  -1.14969077941000E+0001  -1.14970636632000E+0001  -1.14972177769000E+0001  
-1.14973701346000E+0001  -1.14975207355000E+0001  -1.14976695790000E+0001  -1.14978166641000E+0001  -1.14979619901000E+0001  
-1.14981055564000E+0001  -1.14982473622000E+0001  -1.14983874070000E+0001  -1.14985256893000E+0001  -1.14986622092000E+0001  
-1.14987969657000E+0001  -1.14989299577000E+0001  -1.14990611848000E+0001  -1.14991906461000E+0001  -1.14993183409000E+0001  
-1.14994442684000E+0001  -1.14995684282000E+0001  -1.14996908190000E+0001  -1.14998114405000E+0001  -1.14999302915000E+0001  
-1.15000473717000E+0001  -1.15001626801000E+0001  -1.15002762159000E+0001  -1.15003879785000E+0001  -1.15004979671000E+0001  
-1.15006061810000E+0001  -1.15007126193000E+0001  -1.15008172813000E+0001  -1.15009201662000E+0001  -1.15010212734000E+0001  
-1.15011206020000E+0001  -1.15012181514000E+0001  -1.15013139208000E+0001  -1.15014079093000E+0001  -1.15015001160000E+0001  
-1.15015905407000E+0001  -1.15016791822000E+0001  -1.15017660399000E+0001  -1.15018511129000E+0001  -1.15019344007000E+0001  
-1.15020159023000E+0001  -1.15020956171000E+0001  -1.15021735440000E+0001  -1.15022496828000E+0001  -1.15023240322000E+0001  
-1.15023965919000E+0001  -1.15024673608000E+0001  -1.15025363381000E+0001  -1.15026035235000E+0001  -1.15026689157000E+0001  
-1.15027325142000E+0001  -1.15027943183000E+0001  -1.15028543271000E+0001  -1.15029125398000E+0001  -1.15029689558000E+0001  
-1.15030235742000E+0001  -1.15030763944000E+0001  -1.15031274152000E+0001  -1.15031766364000E+0001  -1.15032240569000E+0001  
-1.15032696761000E+0001  -1.15033134930000E+0001  -1.15033555070000E+0001  -1.15033957175000E+0001  -1.15034341232000E+0001  
-1.15034707238000E+0001  -1.15035055186000E+0001  -1.15035385064000E+0001  -1.15035696868000E+0001  -1.15035990589000E+0001  
-1.15036266218000E+0001  -1.15036523749000E+0001  -1.15036763176000E+0001  -1.15036984487000E+0001  -1.15037187677000E+0001  
-1.15037372735000E+0001  -1.15037539659000E+0001  -1.15037688436000E+0001  -1.15037819064000E+0001  -1.15037931528000E+0001  
-1.15038025824000E+0001  -1.15038101948000E+0001  -1.15038159885000E+0001  -1.15038199631000E+0001  -1.15038221178000E+0001  
-1.15038224519000E+0001  -1.15038209646000E+0001  -1.15038176548000E+0001  -1.15038125223000E+0001  -1.15038055658000E+0001  
-1.15037967848000E+0001  -1.15037861785000E+0001  -1.15037737461000E+0001  -1.15037594867000E+0001  -1.15037433996000E+0001  
-1.15037254840000E+0001  -1.15037057392000E+0001  -1.15036841647000E+0001  -1.15036607590000E+0001  -1.15036355217000E+0001  
-1.15036084522000E+0001  -1.15035795495000E+0001  -1.15035488129000E+0001  -1.15035162415000E+0001  -1.15034818347000E+0001  
-1.15034455916000E+0001  -1.15034075112000E+0001  -1.15033675933000E+0001  -1.15033258366000E+0001  -1.15032822404000E+0001  
-1.15032368041000E+0001  -1.15031895267000E+0001  -1.15031404076000E+0001  -1.15030894459000E+0001  -1.15030366410000E+0001  
-1.15029819917000E+0001  -1.15029254978000E+0001  -1.15028671579000E+0001  -1.15028069716000E+0001  -1.15027449380000E+0001  
-1.15026810563000E+0001  -1.15026153258000E+0001  -1.15025477456000E+0001  -1.15024783149000E+0001  -1.15024070332000E+0001  
-1.15023338992000E+0001  -1.15022589124000E+0001  -1.15021820720000E+0001  -1.15021033771000E+0001  -1.15020228273000E+0001  
-1.15019404213000E+0001  -1.15018561585000E+0001  -1.15017700382000E+0001  -1.15016820594000E+0001  -1.15015922216000E+0001  
-1.15015005237000E+0001  -1.15014069651000E+0001  -1.15013115451000E+0001  -1.15012142625000E+0001  -1.15011151169000E+0001  
-1.15010141074000E+0001  -1.15009112330000E+0001  -1.15008064931000E+0001  -1.15006998869000E+0001  -1.15005914136000E+0001  
-1.15004810725000E+0001  -1.15003688624000E+0001  -1.15002547829000E+0001  -1.15001388331000E+0001  -1.15000210123000E+0001  
-1.14999013194000E+0001  -1.14997797538000E+0001  -1.14996563147000E+0001  -1.14995310013000E+0001  -1.14994038127000E+0001  
-1.14992747482000E+0001  -1.14991438069000E+0001  -1.14990109883000E+0001  -1.14988762912000E+0001  -1.14987397149000E+0001  
-1.14986012587000E+0001  -1.14984609217000E+0001  -1.14983187032000E+0001  -1.14981746026000E+0001  -1.14980286185000E+0001  
-1.14978807506000E+0001  -1.14977309978000E+0001  -1.14975793594000E+0001  -1.14974258348000E+0001  -1.14972704230000E+0001  
-1.14971131229000E+0001  -1.14969539342000E+0001  -1.14967928559000E+0001  -1.14966298873000E+0001  -1.14964650273000E+0001  
-1.14962982752000E+0001  -1.14961296304000E+0001  -1.14959590918000E+0001  -1.14957866589000E+0001  -1.14956123304000E+0001  
-1.14954361060000E+0001  -1.14952579847000E+0001  -1.14950779658000E+0001  -1.14948960482000E+0001  -1.14947122313000E+0001  
-1.14945265144000E+0001  -1.14943388964000E+0001  -1.14941493765000E+0001  -1.14939579543000E+0001  -1.14937646284000E+0001  
-1.14935693983000E+0001  -1.14933722635000E+0001  -1.14931732224000E+0001  -1.14929722748000E+0001  -1.14927694198000E+0001  
-1.14925646565000E+0001  -1.14923579838000E+0001  -1.14921494017000E+0001  -1.14919389084000E+0001  -1.14917265036000E+0001  
-1.14915121866000E+0001  -1.14912959563000E+0001  -1.14910778120000E+0001  -1.14908577526000E+0001  -1.14906357778000E+0001  
-1.14904118865000E+0001  -1.14901860778000E+0001  -1.14899583511000E+0001  -1.14897287053000E+0001  -1.14894971399000E+0001  
-1.14892636537000E+0001  -1.14890282463000E+0001  -1.14887909165000E+0001  -1.14885516638000E+0001  -1.14883104871000E+0001  
-1.14880673857000E+0001  -1.14878223589000E+0001  -1.14875754056000E+0001  -1.14873265252000E+0001  -1.14870757168000E+0001  
-1.14868229795000E+0001  -1.14865683125000E+0001  -1.14863117152000E+0001  -1.14860531866000E+0001  -1.14857927257000E+0001  
-1.14855303319000E+0001  -1.14852660043000E+0001  -1.14849997421000E+0001  -1.14847315445000E+0001  -1.14844614107000E+0001  
-1.14841893396000E+0001  -1.14839153308000E+0001  -1.14836393830000E+0001  -1.14833614958000E+0001  -1.14830816680000E+0001  
-1.14827998992000E+0001  -1.14825161882000E+0001  -1.14822305343000E+0001  -1.14819429364000E+0001  -1.14816533942000E+0001  
-1.14813619066000E+0001  -1.14810684728000E+0001  -1.14807730917000E+0001  -1.14804757628000E+0001  -1.14801764852000E+0001  
-1.14798752581000E+0001  -1.14795720803000E+0001  -1.14792669516000E+0001  -1.14789598706000E+0001  -1.14786508367000E+0001  
-1.14783398491000E+0001  -1.14780269068000E+0001  -1.14777120094000E+0001  -1.14773951554000E+0001  -1.14770763442000E+0001  
-1.14767555755000E+0001  -1.14764328477000E+0001  -1.14761081602000E+0001  -1.14757815126000E+0001  -1.14754529035000E+0001  
-1.14751223323000E+0001  -1.14747897981000E+0001  -1.14744553001000E+0001  -1.14741188374000E+0001  -1.14737804091000E+0001  
-1.14734400147000E+0001  -1.14730976531000E+0001  -1.14727533233000E+0001  -1.14724070248000E+0001  -1.14720587566000E+0001  
-1.14717085177000E+0001  -1.14713563075000E+0001  -1.14710021250000E+0001  -1.14706459694000E+0001  -1.14702878401000E+0001  
-1.14699277359000E+0001  -1.14695656558000E+0001  -1.14692015996000E+0001  -1.14688355660000E+0001  -1.14684675542000E+0001  
-1.14680975635000E+0001  -1.14677255928000E+0001  -1.14673516414000E+0001  -1.14669757085000E+0001  -1.14665977935000E+0001  
-1.14662178949000E+0001  -1.14658360122000E+0001  -1.14654521447000E+0001  -1.14650662915000E+0001  -1.14646784515000E+0001  
-1.14642886241000E+0001  -1.14638968082000E+0001  -1.14635030032000E+0001  -1.14631072082000E+0001  -1.14627094225000E+0001  
-1.14623096445000E+0001  -1.14619078744000E+0001  -1.14615041107000E+0001  -1.14610983527000E+0001  -1.14606905995000E+0001  
-1.14602808503000E+0001  -1.14598691044000E+0001  -1.14594553606000E+0001  -1.14590396181000E+0001  -1.14586218764000E+0001  
-1.14582021344000E+0001  -1.14577803911000E+0001  -1.14573566459000E+0001  -1.14569308980000E+0001  -1.14565031461000E+0001  
-1.14560733898000E+0001  -1.14556416280000E+0001  -1.14552078600000E+0001  -1.14547720847000E+0001  -1.14543343016000E+0001  
-1.14538945096000E+0001  -1.14534527077000E+0001  -1.14530088955000E+0001  -1.14525630716000E+0001  -1.14521152355000E+0001  
-1.14516653863000E+0001  -1.14512135230000E+0001  -1.14507596448000E+0001  -1.14503037510000E+0001  -1.14498458405000E+0001  
-1.14493859124000E+0001  -1.14489239660000E+0001  -1.14484600005000E+0001  -1.14479940150000E+0001  -1.14475260083000E+0001  
-1.14470559800000E+0001  -1.14465839291000E+0001  -1.14461098546000E+0001  -1.14456337557000E+0001  -1.14451556316000E+0001  
-1.14446754814000E+0001  -1.14441933041000E+0001  -1.14437090990000E+0001  -1.14432228653000E+0001  -1.14427346019000E+0001  
-1.14422443081000E+0001  -1.14417519829000E+0001  -1.14412576256000E+0001  -1.14407612350000E+0001  -1.14402628107000E+0001  
-1.14397623516000E+0001  -1.14392598568000E+0001  -1.14387553255000E+0001  -1.14382487566000E+0001  -1.14377401497000E+0001  
-1.14372295034000E+0001  -1.14367168173000E+0001  -1.14362020902000E+0001  -1.14356853213000E+0001  -1.14351665098000E+0001  
-1.14346456546000E+0001  -1.14341227552000E+0001  -1.14335978106000E+0001  -1.14330708197000E+0001  -1.14325417819000E+0001  
-1.14320106961000E+0001  -1.14314775616000E+0001  -1.14309423775000E+0001  -1.14304051428000E+0001  -1.14298658568000E+0001  
-1.14293245185000E+0001  -1.14287811271000E+0001  -1.14282356816000E+0001  -1.14276881812000E+0001  -1.14271386251000E+0001  
-1.14265870123000E+0001  -1.14260333419000E+0001  -1.14254776132000E+0001  -1.14249198251000E+0001  -1.14243599770000E+0001  
-1.14237980676000E+0001  -1.14232340965000E+0001  -1.14226680626000E+0001  -1.14220999648000E+0001  -1.14215298024000E+0001  
-1.14209575748000E+0001  -1.14203832806000E+0001  -1.14198069193000E+0001  -1.14192284900000E+0001  -1.14186479915000E+0001  
-1.14180654232000E+0001  -1.14174807842000E+0001  -1.14168940735000E+0001  -1.14163052903000E+0001  -1.14157144337000E+0001  
-1.14151215028000E+0001  -1.14145264965000E+0001  -1.14139294146000E+0001  -1.14133302553000E+0001  -1.14127290183000E+0001  
-1.14121257027000E+0001  -1.14115203075000E+0001  -1.14109128317000E+0001  -1.14103032744000E+0001  -1.14096916348000E+0001  
-1.14090779122000E+0001  -1.14084621054000E+0001  -1.14078442138000E+0001  -1.14072242363000E+0001  -1.14066021720000E+0001  
-1.14059780201000E+0001  -1.14053517799000E+0001  -1.14047234501000E+0001  -1.14040930301000E+0001  -1.14034605188000E+0001  
-1.14028259153000E+0001  -1.14021892192000E+0001  -1.14015504290000E+0001  -1.14009095440000E+0001  -1.14002665634000E+0001  
-1.13996214863000E+0001  -1.13989743117000E+0001  -1.13983250388000E+0001  -1.13976736667000E+0001  -1.13970201945000E+0001  
-1.13963646211000E+0001  -1.13957069459000E+0001  -1.13950471679000E+0001  -1.13943852862000E+0001  -1.13937212998000E+0001  
-1.13930552079000E+0001  -1.13923870098000E+0001  -1.13917167042000E+0001  -1.13910442905000E+0001  -1.13903697678000E+0001  
-1.13896931348000E+0001  -1.13890143911000E+0001  -1.13883335354000E+0001  -1.13876505673000E+0001  -1.13869654855000E+0001  
-1.13862782892000E+0001  -1.13855889774000E+0001  -1.13848975492000E+0001  -1.13842040041000E+0001  -1.13835083407000E+0001  
-1.13828105584000E+0001  -1.13821106562000E+0001  -1.13814086330000E+0001  -1.13807044882000E+0001  -1.13799982207000E+0001  
-1.13792898298000E+0001  -1.13785793142000E+0001  -1.13778666737000E+0001  -1.13771519066000E+0001  -1.13764350125000E+0001  
-1.13757159903000E+0001  -1.13749948391000E+0001  -1.13742715581000E+0001  -1.13735461462000E+0001  -1.13728186027000E+0001  
-1.13720889266000E+0001  -1.13713571170000E+0001  -1.13706231731000E+0001  -1.13698870936000E+0001  -1.13691488783000E+0001  
-1.13684085256000E+0001  -1.13676660349000E+0001  -1.13669214051000E+0001  -1.13661746355000E+0001  -1.13654257252000E+0001  
-1.13646746730000E+0001  -1.13639214784000E+0001  -1.13631661404000E+0001  -1.13624086576000E+0001  -1.13616490299000E+0001  
-1.13608872558000E+0001  -1.13601233342000E+0001  -1.13593572648000E+0001  -1.13585890466000E+0001  -1.13578186782000E+0001  
-1.13570461590000E+0001  -1.13562714881000E+0001  -1.13554946645000E+0001  -1.13547156874000E+0001  -1.13539345559000E+0001  
-1.13531512689000E+0001  -1.13523658255000E+0001  -1.13515782249000E+0001  -1.13507884662000E+0001  -1.13499965485000E+0001  
-1.13492024707000E+0001  -1.13484062319000E+0001  -1.13476078314000E+0001  -1.13468072682000E+0001  -1.13460045411000E+0001  
-1.13451996497000E+0001  -1.13443925926000E+0001  -1.13435833692000E+0001  -1.13427719783000E+0001  -1.13419584193000E+0001  
-1.13411426912000E+0001  -1.13403247927000E+0001  -1.13395047232000E+0001  -1.13386824818000E+0001  -1.13378580677000E+0001  
-1.13370314796000E+0001  -1.13362027168000E+0001  -1.13353717783000E+0001  -1.13345386632000E+0001  -1.13337033707000E+0001  
-1.13328658998000E+0001  -1.13320262494000E+0001  -1.13311844188000E+0001  -1.13303404072000E+0001  -1.13294942132000E+0001  
-1.13286458362000E+0001  -1.13277952752000E+0001  -1.13269425292000E+0001  -1.13260875975000E+0001  -1.13252304791000E+0001  
-1.13243711730000E+0001  -1.13235096781000E+0001  -1.13226459936000E+0001  -1.13217801190000E+0001  -1.13209120525000E+0001  
-1.13200417939000E+0001  -1.13191693420000E+0001  -1.13182946960000E+0001  -1.13174178548000E+0001  -1.13165388174000E+0001  
-1.13156575832000E+0001  -1.13147741509000E+0001  -1.13138885198000E+0001  -1.13130006889000E+0001  -1.13121106572000E+0001  
-1.13112184239000E+0001  -1.13103239880000E+0001  -1.13094273487000E+0001  -1.13085285046000E+0001  -1.13076274553000E+0001  
-1.13067241997000E+0001  -1.13058187369000E+0001  -1.13049110657000E+0001  -1.13040011855000E+0001  -1.13030890951000E+0001  
-1.13021747937000E+0001  -1.13012582802000E+0001  -1.13003395542000E+0001  -1.12994186140000E+0001  -1.12984954592000E+0001  
